{"learner":{"attributes":{"best_iteration":"99","best_ntree_limit":"100","scikit_learn":"{\"cum_hazard_baseline\": null, \"model_type\": \"ah_objective\", \"n_estimators\": 100, \"max_depth\": null, \"max_leaves\": null, \"max_bin\": null, \"grow_policy\": null, \"learning_rate\": 0.3, \"verbosity\": null, \"booster\": null, \"tree_method\": null, \"gamma\": null, \"min_child_weight\": null, \"max_delta_step\": null, \"subsample\": null, \"sampling_method\": null, \"colsample_bytree\": null, \"colsample_bylevel\": null, \"colsample_bynode\": null, \"reg_alpha\": null, \"reg_lambda\": null, \"scale_pos_weight\": null, \"base_score\": 0.0, \"missing\": NaN, \"num_parallel_tree\": null, \"random_state\": 7, \"n_jobs\": null, \"monotone_constraints\": null, \"interaction_constraints\": null, \"importance_type\": null, \"gpu_id\": null, \"validate_parameters\": null, \"predictor\": null, \"enable_categorical\": false, \"feature_types\": null, \"max_cat_to_onehot\": null, \"max_cat_threshold\": null, \"early_stopping_rounds\": null, \"callbacks\": null, \"kwargs\": {\"disable_default_eval_metric\": true}, \"evals_result_\": {\"validation_0\": {\"ah_likelihood\": [3.565512, 3.565163, 3.564814, 3.564466, 3.564117, 3.563769, 3.56342, 3.563073, 3.562724, 3.562377, 3.562029, 3.561681, 3.561333, 3.560985, 3.560638, 3.560291, 3.559943, 3.559596, 3.559249, 3.558902, 3.558555, 3.558208, 3.557861, 3.557515, 3.557168, 3.556822, 3.556475, 3.556128, 3.555782, 3.555436, 3.55509, 3.554856, 3.554623, 3.55439, 3.554157, 3.553924, 3.553691, 3.553459, 3.553227, 3.552994, 3.552761, 3.552529, 3.552296, 3.552064, 3.551832, 3.5516, 3.551368, 3.551137, 3.550905, 3.550673, 3.550441, 3.550209, 3.549978, 3.549746, 3.549515, 3.549283, 3.549052, 3.548821, 3.54859, 3.548358, 3.548128, 3.547897, 3.547666, 3.547436, 3.547206, 3.546975, 3.546745, 3.546514, 3.546284, 3.546053, 3.545824, 3.545593, 3.545364, 3.545133, 3.544904, 3.544674, 3.544444, 3.544214, 3.543984, 3.543755, 3.543524, 3.543295, 3.543065, 3.542836, 3.542606, 3.542377, 3.542148, 3.541918, 3.541689, 3.541459, 3.54123, 3.541001, 3.540772, 3.540542, 3.540313, 3.540084, 3.539855, 3.539627, 3.539397, 3.539169]}}, \"_estimator_type\": \"regressor\"}"},"feature_names":[],"feature_types":[],"gradient_booster":{"model":{"gbtree_model_param":{"num_parallel_tree":"1","num_trees":"100","size_leaf_vector":"0"},"tree_info":[0,0,0,0,0,0,0,0,0,0,0,0,0,0,0,0,0,0,0,0,0,0,0,0,0,0,0,0,0,0,0,0,0,0,0,0,0,0,0,0,0,0,0,0,0,0,0,0,0,0,0,0,0,0,0,0,0,0,0,0,0,0,0,0,0,0,0,0,0,0,0,0,0,0,0,0,0,0,0,0,0,0,0,0,0,0,0,0,0,0,0,0,0,0,0,0,0,0,0,0],"trees":[{"base_weights":[-8.1167714E-4,-6.7220326E-4,-9.1456773E-4,-7.2209944E-4,-4.4389616E-4,-9.795859E-4,-7.342036E-4,-8.455604E-4,-5.317284E-4,-4.8880157E-4,-2.895077E-5,-9.959255E-4,-4.283809E-4,-7.407385E-4,3.517374E-4,-7.842877E-4,-1.0166403E-3,-5.460853E-4,5.882874E-4,1.7071076E-4,-5.107327E-4,-5.1866105E-4,2.80737E-4,-1.0249561E-3,-7.729603E-4,-1.04029226E-4,-7.098945E-4,-3.784555E-4,-8.134061E-4,-1.2444269E-3,-8.8057976E-4,-6.4978056E-4,-3.3981373E-4,-3.07046E-4,-5.7264394E-4,6.7998987E-4,-2.8851334E-4,-1.0394496E-3,-6.875477E-4,-8.2190364E-4,-3.922155E-4,-7.3457364E-4,-1.6885845E-4,-9.34725E-4,-6.946186E-4,-9.647048E-4,-4.8697024E-4,-5.606109E-4,-9.053436E-4,6.509747E-5,-4.556395E-4,2.205673E-5,-5.279183E-4,-8.704275E-4,-5.0683366E-4,-6.0647185E-4,-1.0490909E-3],"categories":[],"categories_nodes":[],"categories_segments":[],"categories_sizes":[],"default_left":[1,1,1,1,1,1,1,1,1,1,1,1,1,0,0,1,1,1,0,0,1,0,1,1,1,0,0,1,1,0,1,1,1,1,1,0,0,1,0,0,0,0,0,0,0,0,0,0,0,0,0,0,0,0,0,0,0],"id":0,"left_children":[1,3,5,7,9,11,13,15,17,19,21,23,25,-1,-1,27,29,31,-1,-1,33,-1,35,37,39,-1,-1,41,43,-1,45,47,49,51,53,-1,-1,55,-1,-1,-1,-1,-1,-1,-1,-1,-1,-1,-1,-1,-1,-1,-1,-1,-1,-1,-1],"loss_changes":[1.98778E-5,6.6283974E-6,8.885167E-6,1.1278578E-5,2.0727784E-6,4.9682567E-6,1.8288774E-6,2.3578905E-6,3.5211815E-6,1.5480327E-6,1.9654947E-6,2.9684743E-6,1.6610286E-6,9.712385E-7,0E0,2.3628527E-6,1.2596429E-6,3.9929E-6,0E0,4.116204E-7,1.0600015E-6,4.902365E-7,2.0143848E-6,1.7842394E-6,1.000717E-6,7.697466E-7,4.898493E-8,1.1448633E-6,2.37707E-6,5.549373E-7,1.2189485E-6,2.4549554E-6,3.2188027E-6,1.8288861E-6,1.0090316E-6,0E0,2.1876619E-7,1.4008838E-6,7.02692E-7,2.461602E-7,4.193323E-7,0E0,0E0,0E0,0E0,0E0,0E0,0E0,0E0,0E0,0E0,0E0,0E0,0E0,0E0,0E0,0E0],"parents":[2147483647,0,0,1,1,2,2,3,3,4,4,5,5,6,6,7,7,8,8,9,9,10,10,11,11,12,12,15,15,16,16,17,17,20,20,22,22,23,23,24,24,27,27,28,28,30,30,31,31,32,32,33,33,34,34,37,37],"right_children":[2,4,6,8,10,12,14,16,18,20,22,24,26,-1,-1,28,30,32,-1,-1,34,-1,36,38,40,-1,-1,42,44,-1,46,48,50,52,54,-1,-1,56,-1,-1,-1,-1,-1,-1,-1,-1,-1,-1,-1,-1,-1,-1,-1,-1,-1,-1,-1],"split_conditions":[5.658497E0,7.2095E1,7.103E1,5E-1,1.3377019E1,7.074422E0,1.4339229E1,5.4996786E0,1.0841222E1,8.341061E0,5.851033E0,5E-1,6.288191E0,-2.2222157E-4,1.0552123E-4,4.336E1,5E-1,5.4033546E0,1.7648624E-4,5.121323E-5,5E-1,-1.5559832E-4,1.4263176E1,1.2461935E1,5.799E1,-3.120877E-5,-2.1296837E-4,3.452E1,5E-1,-3.733281E-4,6.0596495E0,6.4130354E0,5.4438696E0,5.9857836E0,5.5155725E0,2.0399697E-4,-8.6554006E-5,9.1422615E0,-2.0626433E-4,-2.4657111E-4,-1.17664655E-4,-2.203721E-4,-5.0657534E-5,-2.804175E-4,-2.083856E-4,-2.8941146E-4,-1.4609107E-4,-1.6818328E-4,-2.716031E-4,1.9529241E-5,-1.3669186E-4,6.6170196E-6,-1.583755E-4,-2.6112827E-4,-1.5205011E-4,-1.8194156E-4,-3.1472728E-4],"split_indices":[1,8,8,6,2,0,2,1,0,2,0,6,1,0,0,8,4,1,0,0,7,0,2,2,8,0,0,8,5,0,3,3,1,3,3,0,0,2,0,0,0,0,0,0,0,0,0,0,0,0,0,0,0,0,0,0,0],"split_type":[0,0,0,0,0,0,0,0,0,0,0,0,0,0,0,0,0,0,0,0,0,0,0,0,0,0,0,0,0,0,0,0,0,0,0,0,0,0,0,0,0,0,0,0,0,0,0,0,0,0,0,0,0,0,0,0,0],"sum_hessian":[1.427E3,6.09E2,8.18E2,4.98E2,1.11E2,5.98E2,2.2E2,3E2,1.98E2,1E2,1.1E1,5.8E2,1.8E1,2.19E2,1E0,2.25E2,7.5E1,1.96E2,2E0,3E0,9.7E1,4E0,7E0,5.1E2,7E1,9E0,9E0,1.6E1,2.09E2,2.5E1,5E1,1.29E2,6.7E1,2.4E1,7.3E1,4E0,3E0,4.87E2,2.3E1,6.1E1,9E0,5E0,1.1E1,1E2,1.09E2,4E1,1E1,9.8E1,3.1E1,1.5E1,5.2E1,1E1,1.4E1,1.1E1,6.2E1,1.2E1,4.75E2],"tree_param":{"num_deleted":"0","num_feature":"9","num_nodes":"57","size_leaf_vector":"0"}},{"base_weights":[-8.1167714E-4,-6.722402E-4,-9.145402E-4,-7.221253E-4,-4.4398243E-4,-9.795284E-4,-7.342576E-4,-8.4555504E-4,-5.318012E-4,-4.8890564E-4,-2.8880348E-5,-9.958625E-4,-4.2849322E-4,-7.4079214E-4,3.5166866E-4,-7.843052E-4,-1.016567E-3,-5.461552E-4,5.8804854E-4,1.7064904E-4,-5.108374E-4,-5.188222E-4,2.8094338E-4,-1.0248794E-3,-7.729965E-4,-1.04175095E-4,-7.0996204E-4,-3.7852608E-4,-8.1341923E-4,-1.244237E-3,-8.805673E-4,-6.498292E-4,-3.399232E-4,-3.0714783E-4,-5.7274825E-4,6.804199E-4,-2.8863814E-4,-1.0393669E-3,-6.875963E-4,-8.219295E-4,-3.923128E-4,-7.346059E-4,-1.6894235E-4,-9.346999E-4,-6.946668E-4,-9.6466165E-4,-4.870731E-4,-5.606823E-4,-9.053204E-4,6.498341E-5,-4.5574552E-4,2.191337E-5,-5.279829E-4,-8.704241E-4,-5.069568E-4,-6.065568E-4,-1.0490038E-3],"categories":[],"categories_nodes":[],"categories_segments":[],"categories_sizes":[],"default_left":[1,1,1,1,1,1,1,1,1,1,1,1,1,0,0,1,1,1,0,0,1,0,1,1,1,0,0,1,1,0,1,1,1,1,1,0,0,1,0,0,0,0,0,0,0,0,0,0,0,0,0,0,0,0,0,0,0],"id":1,"left_children":[1,3,5,7,9,11,13,15,17,19,21,23,25,-1,-1,27,29,31,-1,-1,33,-1,35,37,39,-1,-1,41,43,-1,45,47,49,51,53,-1,-1,55,-1,-1,-1,-1,-1,-1,-1,-1,-1,-1,-1,-1,-1,-1,-1,-1,-1,-1,-1],"loss_changes":[1.9866857E-5,6.625254E-6,8.876319E-6,1.1272699E-5,2.0744228E-6,4.964648E-6,1.8287246E-6,2.355504E-6,3.5199664E-6,1.5481583E-6,1.967307E-6,2.9650982E-6,1.6604624E-6,9.717478E-7,0E0,2.3620087E-6,1.2575547E-6,3.99115E-6,0E0,4.1169812E-7,1.0599197E-6,4.904625E-7,2.0166708E-6,1.7822604E-6,1.0001313E-6,7.7024646E-7,4.90013E-8,1.1445791E-6,2.3751927E-6,5.5467535E-7,1.2177661E-6,2.4533183E-6,3.2186272E-6,1.8282758E-6,1.0079857E-6,0E0,2.1883602E-7,1.3991958E-6,7.027711E-7,2.4618566E-7,4.1944554E-7,0E0,0E0,0E0,0E0,0E0,0E0,0E0,0E0,0E0,0E0,0E0,0E0,0E0,0E0,0E0,0E0],"parents":[2147483647,0,0,1,1,2,2,3,3,4,4,5,5,6,6,7,7,8,8,9,9,10,10,11,11,12,12,15,15,16,16,17,17,20,20,22,22,23,23,24,24,27,27,28,28,30,30,31,31,32,32,33,33,34,34,37,37],"right_children":[2,4,6,8,10,12,14,16,18,20,22,24,26,-1,-1,28,30,32,-1,-1,34,-1,36,38,40,-1,-1,42,44,-1,46,48,50,52,54,-1,-1,56,-1,-1,-1,-1,-1,-1,-1,-1,-1,-1,-1,-1,-1,-1,-1,-1,-1,-1,-1],"split_conditions":[5.658497E0,7.2095E1,7.103E1,5E-1,1.3377019E1,7.074422E0,1.4339229E1,5.4996786E0,1.0841222E1,8.341061E0,5.851033E0,5E-1,6.288191E0,-2.2223765E-4,1.055006E-4,4.336E1,5E-1,5.4033546E0,1.7641457E-4,5.1194715E-5,5E-1,-1.5564667E-4,1.4263176E1,1.2461935E1,5.799E1,-3.125253E-5,-2.1298863E-4,3.452E1,5E-1,-3.732711E-4,6.0596495E0,6.4130354E0,5.4438696E0,5.9857836E0,5.5155725E0,2.0412599E-4,-8.659145E-5,9.1422615E0,-2.0627888E-4,-2.4657886E-4,-1.17693846E-4,-2.2038177E-4,-5.068271E-5,-2.8041E-4,-2.0840006E-4,-2.893985E-4,-1.4612194E-4,-1.682047E-4,-2.7159613E-4,1.9495024E-5,-1.3672367E-4,6.5740114E-6,-1.5839488E-4,-2.6112725E-4,-1.5208706E-4,-1.8196704E-4,-3.1470114E-4],"split_indices":[1,8,8,6,2,0,2,1,0,2,0,6,1,0,0,8,4,1,0,0,7,0,2,2,8,0,0,8,5,0,3,3,1,3,3,0,0,2,0,0,0,0,0,0,0,0,0,0,0,0,0,0,0,0,0,0,0],"split_type":[0,0,0,0,0,0,0,0,0,0,0,0,0,0,0,0,0,0,0,0,0,0,0,0,0,0,0,0,0,0,0,0,0,0,0,0,0,0,0,0,0,0,0,0,0,0,0,0,0,0,0,0,0,0,0,0,0],"sum_hessian":[1.427E3,6.09E2,8.18E2,4.98E2,1.11E2,5.98E2,2.2E2,3E2,1.98E2,1E2,1.1E1,5.8E2,1.8E1,2.19E2,1E0,2.25E2,7.5E1,1.96E2,2E0,3E0,9.7E1,4E0,7E0,5.1E2,7E1,9E0,9E0,1.6E1,2.09E2,2.5E1,5E1,1.29E2,6.7E1,2.4E1,7.3E1,4E0,3E0,4.87E2,2.3E1,6.1E1,9E0,5E0,1.1E1,1E2,1.09E2,4E1,1E1,9.8E1,3.1E1,1.5E1,5.2E1,1E1,1.4E1,1.1E1,6.2E1,1.2E1,4.75E2],"tree_param":{"num_deleted":"0","num_feature":"9","num_nodes":"57","size_leaf_vector":"0"}},{"base_weights":[-8.1167714E-4,-6.722772E-4,-9.145127E-4,-7.221511E-4,-4.440688E-4,-9.794709E-4,-7.343116E-4,-8.455497E-4,-5.3187396E-4,-4.8900966E-4,-2.881057E-5,-9.957995E-4,-4.286055E-4,-7.408457E-4,3.5159968E-4,-7.843228E-4,-1.0164937E-3,-5.462251E-4,5.878101E-4,1.7058713E-4,-5.1094213E-4,-5.189834E-4,2.811488E-4,-1.0248028E-3,-7.730328E-4,-1.0432095E-4,-7.100295E-4,-3.7859668E-4,-8.134324E-4,-1.244047E-3,-8.805548E-4,-6.498779E-4,-3.4003268E-4,-3.0724975E-4,-5.728525E-4,6.808485E-4,-2.8876305E-4,-1.0392843E-3,-6.876448E-4,-7.346381E-4,-1.6902627E-4,-9.346748E-4,-6.9471495E-4,-9.646185E-4,-4.8717597E-4,-5.607537E-4,-9.052972E-4,6.486924E-5,-4.5585152E-4,2.17699E-5,-5.280475E-4,-8.704206E-4,-5.0707994E-4,-6.066417E-4,-1.0489168E-3],"categories":[],"categories_nodes":[],"categories_segments":[],"categories_sizes":[],"default_left":[1,1,1,1,1,1,1,1,1,1,1,1,1,0,0,1,1,1,0,0,1,0,1,1,0,0,0,1,1,0,1,1,1,1,1,0,0,1,0,0,0,0,0,0,0,0,0,0,0,0,0,0,0,0,0],"id":2,"left_children":[1,3,5,7,9,11,13,15,17,19,21,23,25,-1,-1,27,29,31,-1,-1,33,-1,35,37,-1,-1,-1,39,41,-1,43,45,47,49,51,-1,-1,53,-1,-1,-1,-1,-1,-1,-1,-1,-1,-1,-1,-1,-1,-1,-1,-1,-1],"loss_changes":[1.9855972E-5,6.622111E-6,8.86753E-6,1.1266791E-5,2.0760617E-6,4.9611554E-6,1.8285864E-6,2.353103E-6,3.5187586E-6,1.5482838E-6,1.9691156E-6,2.9616058E-6,1.6598967E-6,9.722498E-7,0E0,2.3612083E-6,1.2554883E-6,3.9893894E-6,0E0,4.1177609E-7,1.059836E-6,4.906884E-7,2.0189527E-6,1.7803395E-6,9.995529E-7,7.7074685E-7,4.9016307E-8,1.1442946E-6,2.3733155E-6,5.544134E-7,1.2165692E-6,2.451674E-6,3.2184498E-6,1.8276655E-6,1.0069416E-6,0E0,2.1890583E-7,1.3973913E-6,7.0285114E-7,0E0,0E0,0E0,0E0,0E0,0E0,0E0,0E0,0E0,0E0,0E0,0E0,0E0,0E0,0E0,0E0],"parents":[2147483647,0,0,1,1,2,2,3,3,4,4,5,5,6,6,7,7,8,8,9,9,10,10,11,11,12,12,15,15,16,16,17,17,20,20,22,22,23,23,27,27,28,28,30,30,31,31,32,32,33,33,34,34,37,37],"right_children":[2,4,6,8,10,12,14,16,18,20,22,24,26,-1,-1,28,30,32,-1,-1,34,-1,36,38,-1,-1,-1,40,42,-1,44,46,48,50,52,-1,-1,54,-1,-1,-1,-1,-1,-1,-1,-1,-1,-1,-1,-1,-1,-1,-1,-1,-1],"split_conditions":[5.658497E0,7.2095E1,7.103E1,5E-1,1.3377019E1,7.074422E0,1.4339229E1,5.4996786E0,1.0841222E1,8.341061E0,5.851033E0,5E-1,6.288191E0,-2.2225372E-4,1.0547991E-4,4.336E1,5E-1,5.4033546E0,1.7634305E-4,5.117614E-5,5E-1,-1.5569503E-4,1.4263176E1,1.2461935E1,-2.3190984E-4,-3.1296287E-5,-2.1300885E-4,3.452E1,5E-1,-3.732141E-4,6.0596495E0,6.4130354E0,5.4438696E0,5.9857836E0,5.5155725E0,2.0425455E-4,-8.662892E-5,9.1422615E0,-2.0629345E-4,-2.2039143E-4,-5.0707884E-5,-2.8040246E-4,-2.084145E-4,-2.8938556E-4,-1.461528E-4,-1.682261E-4,-2.7158918E-4,1.9460771E-5,-1.3675547E-4,6.53097E-6,-1.5841426E-4,-2.611262E-4,-1.5212399E-4,-1.8199251E-4,-3.1467507E-4],"split_indices":[1,8,8,6,2,0,2,1,0,2,0,6,1,0,0,8,4,1,0,0,7,0,2,2,0,0,0,8,5,0,3,3,1,3,3,0,0,2,0,0,0,0,0,0,0,0,0,0,0,0,0,0,0,0,0],"split_type":[0,0,0,0,0,0,0,0,0,0,0,0,0,0,0,0,0,0,0,0,0,0,0,0,0,0,0,0,0,0,0,0,0,0,0,0,0,0,0,0,0,0,0,0,0,0,0,0,0,0,0,0,0,0,0],"sum_hessian":[1.427E3,6.09E2,8.18E2,4.98E2,1.11E2,5.98E2,2.2E2,3E2,1.98E2,1E2,1.1E1,5.8E2,1.8E1,2.19E2,1E0,2.25E2,7.5E1,1.96E2,2E0,3E0,9.7E1,4E0,7E0,5.1E2,7E1,9E0,9E0,1.6E1,2.09E2,2.5E1,5E1,1.29E2,6.7E1,2.4E1,7.3E1,4E0,3E0,4.87E2,2.3E1,5E0,1.1E1,1E2,1.09E2,4E1,1E1,9.8E1,3.1E1,1.5E1,5.2E1,1E1,1.4E1,1.1E1,6.2E1,1.2E1,4.75E2],"tree_param":{"num_deleted":"0","num_feature":"9","num_nodes":"55","size_leaf_vector":"0"}},{"base_weights":[-8.1167714E-4,-6.7231397E-4,-9.144853E-4,-7.2217674E-4,-4.4415472E-4,-9.794139E-4,-7.3436456E-4,-8.455441E-4,-5.319469E-4,-4.891134E-4,-2.8739665E-5,-9.95737E-4,-4.2871785E-4,-7.4089837E-4,3.5153638E-4,-7.8434014E-4,-1.0164196E-3,-5.462952E-4,5.8757514E-4,1.7052342E-4,-5.110464E-4,-5.1914615E-4,2.8135683E-4,-1.0247256E-3,-7.73077E-4,-1.0446762E-4,-7.1009627E-4,-3.7866714E-4,-8.134454E-4,-1.2438577E-3,-8.80541E-4,-6.4992654E-4,-3.4014278E-4,-3.0734978E-4,-5.729568E-4,6.812802E-4,-2.8888657E-4,-1.0392009E-3,-6.8769616E-4,-7.346722E-4,-1.6910904E-4,-9.3465025E-4,-6.947624E-4,-9.6457364E-4,-4.8727926E-4,-1.9907036E-4,-6.940893E-4,6.475259E-5,-4.5595755E-4,2.1626205E-5,-5.2810885E-4,-8.704172E-4,-5.072031E-4,-6.06728E-4,-1.048829E-3],"categories":[],"categories_nodes":[],"categories_segments":[],"categories_sizes":[],"default_left":[1,1,1,1,1,1,1,1,1,1,1,1,1,0,0,1,1,1,0,0,1,0,1,1,0,0,0,1,1,0,1,1,1,1,1,0,0,1,0,0,0,0,0,0,0,0,0,0,0,0,0,0,0,0,0],"id":3,"left_children":[1,3,5,7,9,11,13,15,17,19,21,23,25,-1,-1,27,29,31,-1,-1,33,-1,35,37,-1,-1,-1,39,41,-1,43,45,47,49,51,-1,-1,53,-1,-1,-1,-1,-1,-1,-1,-1,-1,-1,-1,-1,-1,-1,-1,-1,-1],"loss_changes":[1.9845087E-5,6.618997E-6,8.858973E-6,1.1260854E-5,2.0777115E-6,4.9576047E-6,1.82847E-6,2.3507018E-6,3.5175763E-6,1.5483965E-6,1.9709453E-6,2.9579387E-6,1.6593212E-6,9.727664E-7,0E0,2.360408E-6,1.2534292E-6,3.9876104E-6,0E0,4.1186468E-7,1.0597723E-6,4.909033E-7,2.021242E-6,1.7783022E-6,9.996875E-7,7.712317E-7,4.9031314E-8,1.144024E-6,2.3714674E-6,5.5412966E-7,1.2153723E-6,2.450266E-6,3.2182388E-6,1.8270318E-6,1.0058993E-6,0E0,2.1896335E-7,1.3955869E-6,7.02913E-7,0E0,0E0,0E0,0E0,0E0,0E0,0E0,0E0,0E0,0E0,0E0,0E0,0E0,0E0,0E0,0E0],"parents":[2147483647,0,0,1,1,2,2,3,3,4,4,5,5,6,6,7,7,8,8,9,9,10,10,11,11,12,12,15,15,16,16,17,17,20,20,22,22,23,23,27,27,28,28,30,30,31,31,32,32,33,33,34,34,37,37],"right_children":[2,4,6,8,10,12,14,16,18,20,22,24,26,-1,-1,28,30,32,-1,-1,34,-1,36,38,-1,-1,-1,40,42,-1,44,46,48,50,52,-1,-1,54,-1,-1,-1,-1,-1,-1,-1,-1,-1,-1,-1,-1,-1,-1,-1,-1,-1],"split_conditions":[5.658497E0,7.2095E1,7.103E1,5E-1,1.3377019E1,7.074422E0,1.4339229E1,5.4996786E0,1.0841222E1,8.341061E0,5.851033E0,5E-1,6.288191E0,-2.2226952E-4,1.0546092E-4,4.336E1,5E-1,5.4033546E0,1.7627254E-4,5.115703E-5,5E-1,-1.5574385E-4,1.4263176E1,1.2461935E1,-2.3192311E-4,-3.1340285E-5,-2.1302889E-4,3.452E1,5E-1,-3.7315732E-4,6.0596495E0,3.771E1,5.4438696E0,5.9857836E0,5.5155725E0,2.0438408E-4,-8.6665976E-5,9.1422615E0,-2.0630886E-4,-2.2040166E-4,-5.0732717E-5,-2.803951E-4,-2.0842873E-4,-2.893721E-4,-1.4618378E-4,-5.972111E-5,-2.0822679E-4,1.9425777E-5,-1.3678728E-4,6.487862E-6,-1.5843267E-4,-2.6112518E-4,-1.5216094E-4,-1.8201841E-4,-3.1464873E-4],"split_indices":[1,8,8,6,2,0,2,1,0,2,0,6,1,0,0,8,4,1,0,0,7,0,2,2,0,0,0,8,5,0,3,8,1,3,3,0,0,2,0,0,0,0,0,0,0,0,0,0,0,0,0,0,0,0,0],"split_type":[0,0,0,0,0,0,0,0,0,0,0,0,0,0,0,0,0,0,0,0,0,0,0,0,0,0,0,0,0,0,0,0,0,0,0,0,0,0,0,0,0,0,0,0,0,0,0,0,0,0,0,0,0,0,0],"sum_hessian":[1.427E3,6.09E2,8.18E2,4.98E2,1.11E2,5.98E2,2.2E2,3E2,1.98E2,1E2,1.1E1,5.8E2,1.8E1,2.19E2,1E0,2.25E2,7.5E1,1.96E2,2E0,3E0,9.7E1,4E0,7E0,5.1E2,7E1,9E0,9E0,1.6E1,2.09E2,2.5E1,5E1,1.29E2,6.7E1,2.4E1,7.3E1,4E0,3E0,4.87E2,2.3E1,5E0,1.1E1,1E2,1.09E2,4E1,1E1,1.2E1,1.17E2,1.5E1,5.2E1,1E1,1.4E1,1.1E1,6.2E1,1.2E1,4.75E2],"tree_param":{"num_deleted":"0","num_feature":"9","num_nodes":"55","size_leaf_vector":"0"}},{"base_weights":[-8.1167714E-4,-6.723508E-4,-9.1445784E-4,-7.222028E-4,-4.4423924E-4,-9.793564E-4,-7.344185E-4,-8.455388E-4,-5.3202023E-4,-4.892162E-4,-2.8663271E-5,-9.956742E-4,-4.288309E-4,-7.4095203E-4,3.5147762E-4,-7.8435784E-4,-1.0163462E-3,-5.463657E-4,5.8733684E-4,1.7046172E-4,-5.111498E-4,-5.1930355E-4,2.815698E-4,-1.0246477E-3,-7.7312224E-4,-1.0461679E-4,-7.10162E-4,-3.787398E-4,-8.134586E-4,-1.243668E-3,-8.805283E-4,-6.4997695E-4,-3.4025052E-4,-3.0744894E-4,-5.730603E-4,6.8171695E-4,-2.8900657E-4,-1.039117E-3,-6.8774685E-4,-7.347096E-4,-1.6919326E-4,-9.346262E-4,-6.9480954E-4,-9.64531E-4,-4.8737932E-4,-5.608598E-4,-9.0537133E-4,6.4640335E-5,-4.560619E-4,2.1490103E-5,-5.281743E-4,-3.771079E-4,-6.595753E-4,-6.0681324E-4,-1.0487406E-3],"categories":[],"categories_nodes":[],"categories_segments":[],"categories_sizes":[],"default_left":[1,1,1,1,1,1,1,1,1,1,1,1,1,0,0,1,1,1,0,0,1,0,1,1,0,0,0,1,1,0,1,1,1,1,1,0,0,1,0,0,0,0,0,0,0,0,0,0,0,0,0,0,0,0,0],"id":4,"left_children":[1,3,5,7,9,11,13,15,17,19,21,23,25,-1,-1,27,29,31,-1,-1,33,-1,35,37,-1,-1,-1,39,41,-1,43,45,47,49,51,-1,-1,53,-1,-1,-1,-1,-1,-1,-1,-1,-1,-1,-1,-1,-1,-1,-1,-1,-1],"loss_changes":[1.983426E-5,6.615941E-6,8.850126E-6,1.1254888E-5,2.0794068E-6,4.954054E-6,1.8283608E-6,2.3483153E-6,3.5163757E-6,1.548513E-6,1.9727743E-6,2.9542134E-6,1.6587235E-6,9.732394E-7,0E0,2.359564E-6,1.2513628E-6,3.985948E-6,0E0,4.11959E-7,1.0597141E-6,4.9113976E-7,2.0235366E-6,1.7763232E-6,9.998257E-7,7.716935E-7,4.9044047E-8,1.1437603E-6,2.369663E-6,5.5384226E-7,1.2142154E-6,2.4510155E-6,3.218065E-6,1.82648E-6,1.0057774E-6,0E0,2.1903665E-7,1.3938406E-6,7.0300393E-7,0E0,0E0,0E0,0E0,0E0,0E0,0E0,0E0,0E0,0E0,0E0,0E0,0E0,0E0,0E0,0E0],"parents":[2147483647,0,0,1,1,2,2,3,3,4,4,5,5,6,6,7,7,8,8,9,9,10,10,11,11,12,12,15,15,16,16,17,17,20,20,22,22,23,23,27,27,28,28,30,30,31,31,32,32,33,33,34,34,37,37],"right_children":[2,4,6,8,10,12,14,16,18,20,22,24,26,-1,-1,28,30,32,-1,-1,34,-1,36,38,-1,-1,-1,40,42,-1,44,46,48,50,52,-1,-1,54,-1,-1,-1,-1,-1,-1,-1,-1,-1,-1,-1,-1,-1,-1,-1,-1,-1],"split_conditions":[5.658497E0,7.2095E1,7.103E1,5E-1,1.3377019E1,7.074422E0,1.4339229E1,5.4996786E0,1.0841222E1,8.341061E0,5.851033E0,5E-1,6.288191E0,-2.2228561E-4,1.0544329E-4,4.336E1,5E-1,5.4033546E0,1.7620105E-4,5.113852E-5,5E-1,-1.5579107E-4,1.4263176E1,1.2461935E1,-2.3193668E-4,-3.138504E-5,-2.1304861E-4,3.452E1,5E-1,-3.7310043E-4,6.0596495E0,6.4130354E0,5.4438696E0,5.9857836E0,1.0217314E1,2.0451509E-4,-8.670197E-5,9.1422615E0,-2.0632407E-4,-2.204129E-4,-5.075798E-5,-2.8038787E-4,-2.0844287E-4,-2.893593E-4,-1.462138E-4,-1.6825795E-4,-2.716114E-4,1.93921E-5,-1.3681858E-4,6.447031E-6,-1.5845228E-4,-1.1313237E-4,-1.9787259E-4,-1.8204398E-4,-3.146222E-4],"split_indices":[1,8,8,6,2,0,2,1,0,2,0,6,1,0,0,8,4,1,0,0,7,0,2,2,0,0,0,8,5,0,3,3,1,3,2,0,0,2,0,0,0,0,0,0,0,0,0,0,0,0,0,0,0,0,0],"split_type":[0,0,0,0,0,0,0,0,0,0,0,0,0,0,0,0,0,0,0,0,0,0,0,0,0,0,0,0,0,0,0,0,0,0,0,0,0,0,0,0,0,0,0,0,0,0,0,0,0,0,0,0,0,0,0],"sum_hessian":[1.427E3,6.09E2,8.18E2,4.98E2,1.11E2,5.98E2,2.2E2,3E2,1.98E2,1E2,1.1E1,5.8E2,1.8E1,2.19E2,1E0,2.25E2,7.5E1,1.96E2,2E0,3E0,9.7E1,4E0,7E0,5.1E2,7E1,9E0,9E0,1.6E1,2.09E2,2.5E1,5E1,1.29E2,6.7E1,2.4E1,7.3E1,4E0,3E0,4.87E2,2.3E1,5E0,1.1E1,1E2,1.09E2,4E1,1E1,9.8E1,3.1E1,1.5E1,5.2E1,1E1,1.4E1,2.4E1,4.9E1,1.2E1,4.75E2],"tree_param":{"num_deleted":"0","num_feature":"9","num_nodes":"55","size_leaf_vector":"0"}},{"base_weights":[-8.1167714E-4,-6.723881E-4,-9.144301E-4,-7.2222867E-4,-4.443273E-4,-9.792995E-4,-7.3446985E-4,-8.455329E-4,-5.3209387E-4,-4.893214E-4,-2.8599574E-5,-9.956118E-4,-4.2894424E-4,-7.41003E-4,3.5141286E-4,-7.843748E-4,-1.0162727E-3,-5.4643647E-4,5.8710243E-4,1.7039874E-4,-5.112557E-4,-5.194638E-4,2.817655E-4,-1.0245705E-3,-7.7316735E-4,-1.0476556E-4,-7.102285E-4,-3.7881502E-4,-8.1347063E-4,-1.2434791E-3,-8.80515E-4,-6.500267E-4,-3.4036045E-4,-3.0754774E-4,-5.731671E-4,6.8212923E-4,-2.891305E-4,-1.0390339E-3,-6.877938E-4,-7.347474E-4,-1.6928092E-4,-9.34601E-4,-6.948558E-4,-9.644881E-4,-4.8747793E-4,-1.9915334E-4,-6.941905E-4,6.452561E-5,-4.5616832E-4,2.1346747E-5,-5.282339E-4,-8.705528E-4,-5.074243E-4,-6.0690066E-4,-1.0486529E-3],"categories":[],"categories_nodes":[],"categories_segments":[],"categories_sizes":[],"default_left":[1,1,1,1,1,1,1,1,1,1,1,1,1,0,0,1,1,1,0,0,1,0,1,1,0,0,0,1,1,0,1,1,1,1,1,0,0,1,0,0,0,0,0,0,0,0,0,0,0,0,0,0,0,0,0],"id":5,"left_children":[1,3,5,7,9,11,13,15,17,19,21,23,25,-1,-1,27,29,31,-1,-1,33,-1,35,37,-1,-1,-1,39,41,-1,43,45,47,49,51,-1,-1,53,-1,-1,-1,-1,-1,-1,-1,-1,-1,-1,-1,-1,-1,-1,-1,-1,-1],"loss_changes":[1.9823143E-5,6.6127686E-6,8.8416855E-6,1.1248892E-5,2.0809985E-6,4.9505034E-6,1.8282299E-6,2.345958E-6,3.515197E-6,1.5486366E-6,1.9745323E-6,2.9504881E-6,1.6581334E-6,9.736468E-7,0E0,2.3586617E-6,1.2493183E-6,3.984216E-6,0E0,4.120424E-7,1.059685E-6,4.913642E-7,2.0257526E-6,1.7744023E-6,9.999712E-7,7.7218107E-7,4.9060873E-8,1.1434809E-6,2.3678294E-6,5.535694E-7,1.2130622E-6,2.450346E-6,3.217885E-6,1.8258374E-6,1.0050298E-6,0E0,2.1910424E-7,1.3920944E-6,7.030758E-7,0E0,0E0,0E0,0E0,0E0,0E0,0E0,0E0,0E0,0E0,0E0,0E0,0E0,0E0,0E0,0E0],"parents":[2147483647,0,0,1,1,2,2,3,3,4,4,5,5,6,6,7,7,8,8,9,9,10,10,11,11,12,12,15,15,16,16,17,17,20,20,22,22,23,23,27,27,28,28,30,30,31,31,32,32,33,33,34,34,37,37],"right_children":[2,4,6,8,10,12,14,16,18,20,22,24,26,-1,-1,28,30,32,-1,-1,34,-1,36,38,-1,-1,-1,40,42,-1,44,46,48,50,52,-1,-1,54,-1,-1,-1,-1,-1,-1,-1,-1,-1,-1,-1,-1,-1,-1,-1,-1,-1],"split_conditions":[5.658497E0,7.2095E1,7.103E1,5E-1,1.3377019E1,7.074422E0,1.4339229E1,5.4996786E0,1.0841222E1,8.341061E0,5.851033E0,5E-1,6.288191E0,-2.2230092E-4,1.0542386E-4,4.336E1,5E-1,5.4033546E0,1.7613074E-4,5.1119623E-5,5E-1,-1.5583914E-4,1.4263176E1,1.2461935E1,-2.3195021E-4,-3.142967E-5,-2.1306856E-4,3.452E1,5E-1,-3.7304373E-4,6.0596495E0,3.771E1,5.4438696E0,5.9857836E0,5.5155725E0,2.0463878E-4,-8.673915E-5,9.1422615E0,-2.0633815E-4,-2.2042422E-4,-5.0784278E-5,-2.803803E-4,-2.0845675E-4,-2.8934644E-4,-1.4624339E-4,-5.9746002E-5,-2.0825716E-4,1.9357683E-5,-1.368505E-4,6.404024E-6,-1.5847017E-4,-2.6116584E-4,-1.522273E-4,-1.820702E-4,-3.1459588E-4],"split_indices":[1,8,8,6,2,0,2,1,0,2,0,6,1,0,0,8,4,1,0,0,7,0,2,2,0,0,0,8,5,0,3,8,1,3,3,0,0,2,0,0,0,0,0,0,0,0,0,0,0,0,0,0,0,0,0],"split_type":[0,0,0,0,0,0,0,0,0,0,0,0,0,0,0,0,0,0,0,0,0,0,0,0,0,0,0,0,0,0,0,0,0,0,0,0,0,0,0,0,0,0,0,0,0,0,0,0,0,0,0,0,0,0,0],"sum_hessian":[1.427E3,6.09E2,8.18E2,4.98E2,1.11E2,5.98E2,2.2E2,3E2,1.98E2,1E2,1.1E1,5.8E2,1.8E1,2.19E2,1E0,2.25E2,7.5E1,1.96E2,2E0,3E0,9.7E1,4E0,7E0,5.1E2,7E1,9E0,9E0,1.6E1,2.09E2,2.5E1,5E1,1.29E2,6.7E1,2.4E1,7.3E1,4E0,3E0,4.87E2,2.3E1,5E0,1.1E1,1E2,1.09E2,4E1,1E1,1.2E1,1.17E2,1.5E1,5.2E1,1E1,1.4E1,1.1E1,6.2E1,1.2E1,4.75E2],"tree_param":{"num_deleted":"0","num_feature":"9","num_nodes":"55","size_leaf_vector":"0"}},{"base_weights":[-8.1167714E-4,-6.7242497E-4,-9.1440266E-4,-7.222547E-4,-4.4441197E-4,-9.79242E-4,-7.3452375E-4,-8.455277E-4,-5.3216715E-4,-4.894242E-4,-2.852449E-5,-9.955489E-4,-4.290573E-4,-7.4105663E-4,3.5135352E-4,-7.8439235E-4,-1.0161994E-3,-5.465069E-4,5.868649E-4,1.7033664E-4,-5.1135913E-4,-5.1962124E-4,2.8197654E-4,-1.0244928E-3,-7.7321246E-4,-1.04914725E-4,-7.102942E-4,-3.7888766E-4,-8.134837E-4,-1.2432897E-3,-8.805023E-4,-6.5007707E-4,-3.404682E-4,-3.0764696E-4,-5.7327055E-4,6.8256294E-4,-2.8925063E-4,-1.0389499E-3,-6.878445E-4,-8.221483E-4,-3.924893E-4,-7.347846E-4,-1.693652E-4,-9.3457685E-4,-6.949029E-4,-9.6444535E-4,-4.8757793E-4,-5.6096725E-4,-9.0544554E-4,6.441314E-5,-4.562726E-4,2.121045E-5,-5.2829925E-4,-3.773764E-4,-6.5975223E-4,-6.069859E-4,-1.0485646E-3],"categories":[],"categories_nodes":[],"categories_segments":[],"categories_sizes":[],"default_left":[1,1,1,1,1,1,1,1,1,1,1,1,1,0,0,1,1,1,0,0,1,0,1,1,1,0,0,1,1,0,1,1,1,1,1,0,0,1,0,0,0,0,0,0,0,0,0,0,0,0,0,0,0,0,0,0,0],"id":6,"left_children":[1,3,5,7,9,11,13,15,17,19,21,23,25,-1,-1,27,29,31,-1,-1,33,-1,35,37,39,-1,-1,41,43,-1,45,47,49,51,53,-1,-1,55,-1,-1,-1,-1,-1,-1,-1,-1,-1,-1,-1,-1,-1,-1,-1,-1,-1,-1,-1],"loss_changes":[1.9812258E-5,6.6097127E-6,8.832954E-6,1.1242955E-5,2.0826847E-6,4.9469527E-6,1.8281207E-6,2.3435568E-6,3.5140038E-6,1.5487531E-6,1.9763534E-6,2.9467628E-6,1.6575354E-6,9.741052E-7,0E0,2.3578323E-6,1.2472592E-6,3.9825427E-6,0E0,4.1213707E-7,1.0596232E-6,4.9160064E-7,2.0280388E-6,1.7723651E-6,1.0001168E-6,7.726436E-7,4.907406E-8,1.1432162E-6,2.3660104E-6,5.5327837E-7,1.2119053E-6,2.4503315E-6,3.2177086E-6,1.8252838E-6,1.0046751E-6,0E0,2.1917748E-7,1.39029E-6,7.031658E-7,2.463603E-7,4.2050056E-7,0E0,0E0,0E0,0E0,0E0,0E0,0E0,0E0,0E0,0E0,0E0,0E0,0E0,0E0,0E0,0E0],"parents":[2147483647,0,0,1,1,2,2,3,3,4,4,5,5,6,6,7,7,8,8,9,9,10,10,11,11,12,12,15,15,16,16,17,17,20,20,22,22,23,23,24,24,27,27,28,28,30,30,31,31,32,32,33,33,34,34,37,37],"right_children":[2,4,6,8,10,12,14,16,18,20,22,24,26,-1,-1,28,30,32,-1,-1,34,-1,36,38,40,-1,-1,42,44,-1,46,48,50,52,54,-1,-1,56,-1,-1,-1,-1,-1,-1,-1,-1,-1,-1,-1,-1,-1,-1,-1,-1,-1,-1,-1],"split_conditions":[5.658497E0,7.2095E1,7.103E1,5E-1,1.3377019E1,7.074422E0,1.4339229E1,5.4996786E0,1.0841222E1,8.341061E0,5.851033E0,5E-1,6.288191E0,-2.22317E-4,1.0540606E-4,4.336E1,5E-1,5.4033546E0,1.7605948E-4,5.1100997E-5,5E-1,-1.5588637E-4,1.4263176E1,1.2461935E1,5.799E1,-3.1474417E-5,-2.1308826E-4,3.452E1,5E-1,-3.7298692E-4,6.0596495E0,6.4130354E0,5.4438696E0,5.9857836E0,1.0217314E1,2.0476889E-4,-8.6775195E-5,9.1422615E0,-2.0635336E-4,-2.466445E-4,-1.177468E-4,-2.2043538E-4,-5.080956E-5,-2.8037306E-4,-2.0847088E-4,-2.893336E-4,-1.4627338E-4,-1.6829018E-4,-2.7163367E-4,1.9323943E-5,-1.3688179E-4,6.363135E-6,-1.5848978E-4,-1.1321292E-4,-1.9792568E-4,-1.8209577E-4,-3.145694E-4],"split_indices":[1,8,8,6,2,0,2,1,0,2,0,6,1,0,0,8,4,1,0,0,7,0,2,2,8,0,0,8,5,0,3,3,1,3,2,0,0,2,0,0,0,0,0,0,0,0,0,0,0,0,0,0,0,0,0,0,0],"split_type":[0,0,0,0,0,0,0,0,0,0,0,0,0,0,0,0,0,0,0,0,0,0,0,0,0,0,0,0,0,0,0,0,0,0,0,0,0,0,0,0,0,0,0,0,0,0,0,0,0,0,0,0,0,0,0,0,0],"sum_hessian":[1.427E3,6.09E2,8.18E2,4.98E2,1.11E2,5.98E2,2.2E2,3E2,1.98E2,1E2,1.1E1,5.8E2,1.8E1,2.19E2,1E0,2.25E2,7.5E1,1.96E2,2E0,3E0,9.7E1,4E0,7E0,5.1E2,7E1,9E0,9E0,1.6E1,2.09E2,2.5E1,5E1,1.29E2,6.7E1,2.4E1,7.3E1,4E0,3E0,4.87E2,2.3E1,6.1E1,9E0,5E0,1.1E1,1E2,1.09E2,4E1,1E1,9.8E1,3.1E1,1.5E1,5.2E1,1E1,1.4E1,2.4E1,4.9E1,1.2E1,4.75E2],"tree_param":{"num_deleted":"0","num_feature":"9","num_nodes":"57","size_leaf_vector":"0"}},{"base_weights":[-8.1167714E-4,-6.724624E-4,-9.143748E-4,-7.222805E-4,-4.4450068E-4,-9.791848E-4,-7.3457597E-4,-8.4552204E-4,-5.322405E-4,-4.895298E-4,-2.846384E-5,-9.95486E-4,-4.291705E-4,-7.4110844E-4,3.5128233E-4,-7.844093E-4,-1.0161266E-3,-5.465774E-4,5.866282E-4,1.702749E-4,-5.114654E-4,-5.1978E-4,2.8216673E-4,-1.0244162E-3,-7.732495E-4,-1.0506263E-4,-7.1036135E-4,-3.7896298E-4,-8.1349583E-4,-1.2431007E-3,-8.804903E-4,-6.501267E-4,-3.4057748E-4,-3.0774772E-4,-5.7337724E-4,6.829677E-4,-2.893762E-4,-1.0388675E-3,-6.878887E-4,-7.348202E-4,-1.6945414E-4,-9.34551E-4,-6.9494976E-4,-9.6440414E-4,-4.8767606E-4,-1.9923525E-4,-6.942916E-4,6.430059E-5,-4.5637885E-4,2.1067013E-5,-5.28362E-4,-8.7068795E-4,-5.076454E-4,-6.0707185E-4,-1.0484777E-3],"categories":[],"categories_nodes":[],"categories_segments":[],"categories_sizes":[],"default_left":[1,1,1,1,1,1,1,1,1,1,1,1,1,0,0,1,1,1,0,0,1,0,1,1,0,0,0,1,1,0,1,1,1,1,1,0,0,1,0,0,0,0,0,0,0,0,0,0,0,0,0,0,0,0,0],"id":7,"left_children":[1,3,5,7,9,11,13,15,17,19,21,23,25,-1,-1,27,29,31,-1,-1,33,-1,35,37,-1,-1,-1,39,41,-1,43,45,47,49,51,-1,-1,53,-1,-1,-1,-1,-1,-1,-1,-1,-1,-1,-1,-1,-1,-1,-1,-1,-1],"loss_changes":[1.9801315E-5,6.6065113E-6,8.824223E-6,1.123696E-5,2.084249E-6,4.943402E-6,1.8279607E-6,2.341214E-6,3.5128069E-6,1.548884E-6,1.9780784E-6,2.9433286E-6,1.6569547E-6,9.745054E-7,0E0,2.35693E-6,1.2451928E-6,3.980822E-6,0E0,4.1221045E-7,1.0595741E-6,4.918362E-7,2.0302346E-6,1.7705024E-6,9.995383E-7,7.731481E-7,4.909225E-8,1.1429204E-6,2.3641624E-6,5.530237E-7,1.2107703E-6,2.450437E-6,3.2175549E-6,1.8246617E-6,1.0041658E-6,0E0,2.1925732E-7,1.3885438E-6,7.0325314E-7,0E0,0E0,0E0,0E0,0E0,0E0,0E0,0E0,0E0,0E0,0E0,0E0,0E0,0E0,0E0,0E0],"parents":[2147483647,0,0,1,1,2,2,3,3,4,4,5,5,6,6,7,7,8,8,9,9,10,10,11,11,12,12,15,15,16,16,17,17,20,20,22,22,23,23,27,27,28,28,30,30,31,31,32,32,33,33,34,34,37,37],"right_children":[2,4,6,8,10,12,14,16,18,20,22,24,26,-1,-1,28,30,32,-1,-1,34,-1,36,38,-1,-1,-1,40,42,-1,44,46,48,50,52,-1,-1,54,-1,-1,-1,-1,-1,-1,-1,-1,-1,-1,-1,-1,-1,-1,-1,-1,-1],"split_conditions":[5.658497E0,7.2095E1,7.103E1,5E-1,1.3377019E1,7.074422E0,1.4339229E1,5.4996786E0,1.0841222E1,8.341061E0,5.851033E0,5E-1,6.288191E0,-2.2233254E-4,1.053847E-4,4.336E1,5E-1,5.4033546E0,1.7598848E-4,5.1082472E-5,5E-1,-1.55934E-4,1.4263176E1,1.2461935E1,-2.3197486E-4,-3.151879E-5,-2.1310842E-4,3.452E1,5E-1,-3.7293023E-4,6.0596495E0,3.771E1,5.4438696E0,5.9857836E0,5.5155725E0,2.0489033E-4,-8.681287E-5,9.1422615E0,-2.0636662E-4,-2.2044608E-4,-5.0836246E-5,-2.8036532E-4,-2.0848494E-4,-2.8932127E-4,-1.4630283E-4,-5.9770577E-5,-2.0828749E-4,1.9290179E-5,-1.3691366E-4,6.320104E-6,-1.585086E-4,-2.6120638E-4,-1.5229364E-4,-1.8212156E-4,-3.1454331E-4],"split_indices":[1,8,8,6,2,0,2,1,0,2,0,6,1,0,0,8,4,1,0,0,7,0,2,2,0,0,0,8,5,0,3,8,1,3,3,0,0,2,0,0,0,0,0,0,0,0,0,0,0,0,0,0,0,0,0],"split_type":[0,0,0,0,0,0,0,0,0,0,0,0,0,0,0,0,0,0,0,0,0,0,0,0,0,0,0,0,0,0,0,0,0,0,0,0,0,0,0,0,0,0,0,0,0,0,0,0,0,0,0,0,0,0,0],"sum_hessian":[1.427E3,6.09E2,8.18E2,4.98E2,1.11E2,5.98E2,2.2E2,3E2,1.98E2,1E2,1.1E1,5.8E2,1.8E1,2.19E2,1E0,2.25E2,7.5E1,1.96E2,2E0,3E0,9.7E1,4E0,7E0,5.1E2,7E1,9E0,9E0,1.6E1,2.09E2,2.5E1,5E1,1.29E2,6.7E1,2.4E1,7.3E1,4E0,3E0,4.87E2,2.3E1,5E0,1.1E1,1E2,1.09E2,4E1,1E1,1.2E1,1.17E2,1.5E1,5.2E1,1E1,1.4E1,1.1E1,6.2E1,1.2E1,4.75E2],"tree_param":{"num_deleted":"0","num_feature":"9","num_nodes":"55","size_leaf_vector":"0"}},{"base_weights":[-8.1167714E-4,-6.7249924E-4,-9.143473E-4,-7.223065E-4,-4.445855E-4,-9.791274E-4,-7.3462987E-4,-8.455167E-4,-5.323137E-4,-4.896326E-4,-2.8390086E-5,-9.954232E-4,-4.292835E-4,-7.41162E-4,3.5122246E-4,-7.8442687E-4,-1.0160534E-3,-5.466477E-4,5.863915E-4,1.7021241E-4,-5.115688E-4,-5.199374E-4,2.8237575E-4,-1.0243385E-3,-7.7329454E-4,-1.05211744E-4,-7.104269E-4,-3.7903563E-4,-8.135089E-4,-1.2429116E-3,-8.8047754E-4,-6.5017695E-4,-3.4068522E-4,-3.07847E-4,-5.734807E-4,6.8339845E-4,-2.8949656E-4,-1.0387837E-3,-6.8793935E-4,-7.348572E-4,-1.6953851E-4,-9.3452685E-4,-6.9499685E-4,-9.643614E-4,-4.8777604E-4,-5.610744E-4,-9.0552005E-4,6.418792E-5,-4.5648305E-4,2.0930545E-5,-5.2842736E-4,-3.7764432E-4,-6.5992924E-4,-6.0715707E-4,-1.0483895E-3],"categories":[],"categories_nodes":[],"categories_segments":[],"categories_sizes":[],"default_left":[1,1,1,1,1,1,1,1,1,1,1,1,1,0,0,1,1,1,0,0,1,0,1,1,0,0,0,1,1,0,1,1,1,1,1,0,0,1,0,0,0,0,0,0,0,0,0,0,0,0,0,0,0,0,0],"id":8,"left_children":[1,3,5,7,9,11,13,15,17,19,21,23,25,-1,-1,27,29,31,-1,-1,33,-1,35,37,-1,-1,-1,39,41,-1,43,45,47,49,51,-1,-1,53,-1,-1,-1,-1,-1,-1,-1,-1,-1,-1,-1,-1,-1,-1,-1,-1,-1],"loss_changes":[1.9790372E-5,6.6034554E-6,8.81555E-6,1.1231052E-5,2.0859225E-6,4.9398514E-6,1.8278588E-6,2.3387984E-6,3.511621E-6,1.5490004E-6,1.979891E-6,2.9396033E-6,1.6563563E-6,9.749638E-7,0E0,2.3561006E-6,1.2431337E-6,3.9791485E-6,0E0,4.1230555E-7,1.0595086E-6,4.9207256E-7,2.0325115E-6,1.7685234E-6,9.996766E-7,7.7361136E-7,4.9104983E-8,1.1426546E-6,2.3623434E-6,5.527363E-7,1.2096134E-6,2.4496658E-6,3.217374E-6,1.8241076E-6,1.0035856E-6,0E0,2.1933064E-7,1.3867393E-6,7.0334227E-7,0E0,0E0,0E0,0E0,0E0,0E0,0E0,0E0,0E0,0E0,0E0,0E0,0E0,0E0,0E0,0E0],"parents":[2147483647,0,0,1,1,2,2,3,3,4,4,5,5,6,6,7,7,8,8,9,9,10,10,11,11,12,12,15,15,16,16,17,17,20,20,22,22,23,23,27,27,28,28,30,30,31,31,32,32,33,33,34,34,37,37],"right_children":[2,4,6,8,10,12,14,16,18,20,22,24,26,-1,-1,28,30,32,-1,-1,34,-1,36,38,-1,-1,-1,40,42,-1,44,46,48,50,52,-1,-1,54,-1,-1,-1,-1,-1,-1,-1,-1,-1,-1,-1,-1,-1,-1,-1,-1,-1],"split_conditions":[5.658497E0,7.2095E1,7.103E1,5E-1,1.3377019E1,7.074422E0,1.4339229E1,5.4996786E0,1.0841222E1,8.341061E0,5.851033E0,5E-1,6.288191E0,-2.2234861E-4,1.05366744E-4,4.336E1,5E-1,5.4033546E0,1.7591745E-4,5.1063726E-5,5E-1,-1.5598124E-4,1.4263176E1,1.2461935E1,-2.3198836E-4,-3.1563526E-5,-2.1312808E-4,3.452E1,5E-1,-3.7287347E-4,6.0596495E0,6.4130354E0,5.4438696E0,5.9857836E0,1.0217314E1,2.0501955E-4,-8.684897E-5,9.1422615E0,-2.0638181E-4,-2.2045718E-4,-5.0861556E-5,-2.8035807E-4,-2.0849907E-4,-2.8930843E-4,-1.4633282E-4,-1.6832232E-4,-2.7165603E-4,1.9256378E-5,-1.3694492E-4,6.2791637E-6,-1.5852822E-4,-1.132933E-4,-1.9797878E-4,-1.8214712E-4,-3.1451686E-4],"split_indices":[1,8,8,6,2,0,2,1,0,2,0,6,1,0,0,8,4,1,0,0,7,0,2,2,0,0,0,8,5,0,3,3,1,3,2,0,0,2,0,0,0,0,0,0,0,0,0,0,0,0,0,0,0,0,0],"split_type":[0,0,0,0,0,0,0,0,0,0,0,0,0,0,0,0,0,0,0,0,0,0,0,0,0,0,0,0,0,0,0,0,0,0,0,0,0,0,0,0,0,0,0,0,0,0,0,0,0,0,0,0,0,0,0],"sum_hessian":[1.427E3,6.09E2,8.18E2,4.98E2,1.11E2,5.98E2,2.2E2,3E2,1.98E2,1E2,1.1E1,5.8E2,1.8E1,2.19E2,1E0,2.25E2,7.5E1,1.96E2,2E0,3E0,9.7E1,4E0,7E0,5.1E2,7E1,9E0,9E0,1.6E1,2.09E2,2.5E1,5E1,1.29E2,6.7E1,2.4E1,7.3E1,4E0,3E0,4.87E2,2.3E1,5E0,1.1E1,1E2,1.09E2,4E1,1E1,9.8E1,3.1E1,1.5E1,5.2E1,1E1,1.4E1,2.4E1,4.9E1,1.2E1,4.75E2],"tree_param":{"num_deleted":"0","num_feature":"9","num_nodes":"55","size_leaf_vector":"0"}},{"base_weights":[-8.1167714E-4,-6.725365E-4,-9.1431953E-4,-7.223323E-4,-4.4467385E-4,-9.790704E-4,-7.3468103E-4,-8.4551075E-4,-5.323872E-4,-4.8973784E-4,-2.8328972E-5,-9.953609E-4,-4.2939672E-4,-7.4121286E-4,3.5115663E-4,-7.8444363E-4,-1.01598E-3,-5.467184E-4,5.8615865E-4,1.7014868E-4,-5.116747E-4,-5.200977E-4,2.8256758E-4,-1.0242613E-3,-7.7333953E-4,-1.0536046E-4,-7.104933E-4,-3.7911083E-4,-8.1352086E-4,-1.2427232E-3,-8.804642E-4,-6.502266E-4,-3.4079512E-4,-3.0794594E-4,-5.7358743E-4,6.838048E-4,-2.8962083E-4,-1.0387006E-3,-6.8798626E-4,-7.3489465E-4,-1.6962635E-4,-9.345015E-4,-6.9504295E-4,-9.643184E-4,-4.878746E-4,-1.9931816E-4,-6.943926E-4,6.407279E-5,-4.5658927E-4,2.0786805E-5,-5.284869E-4,-8.70823E-4,-5.0786656E-4,-6.072445E-4,-1.0483019E-3],"categories":[],"categories_nodes":[],"categories_segments":[],"categories_sizes":[],"default_left":[1,1,1,1,1,1,1,1,1,1,1,1,1,0,0,1,1,1,0,0,1,0,1,1,0,0,0,1,1,0,1,1,1,1,1,0,0,1,0,0,0,0,0,0,0,0,0,0,0,0,0,0,0,0,0],"id":9,"left_children":[1,3,5,7,9,11,13,15,17,19,21,23,25,-1,-1,27,29,31,-1,-1,33,-1,35,37,-1,-1,-1,39,41,-1,43,45,47,49,51,-1,-1,53,-1,-1,-1,-1,-1,-1,-1,-1,-1,-1,-1,-1,-1,-1,-1,-1,-1],"loss_changes":[1.9779429E-5,6.600196E-6,8.80711E-6,1.1225056E-5,2.0874886E-6,4.9362425E-6,1.827706E-6,2.336441E-6,3.5104604E-6,1.5491169E-6,1.981633E-6,2.935878E-6,1.6557665E-6,9.753785E-7,0E0,2.355213E-6,1.2411037E-6,3.9774095E-6,0E0,4.1238965E-7,1.0594813E-6,4.9229675E-7,2.0347106E-6,1.7666025E-6,9.998221E-7,7.741004E-7,4.912181E-8,1.1423726E-6,2.3605098E-6,5.524598E-7,1.2084674E-6,2.4505243E-6,3.2171874E-6,1.8234614E-6,1.0032963E-6,0E0,2.1939823E-7,1.3849931E-6,7.034132E-7,0E0,0E0,0E0,0E0,0E0,0E0,0E0,0E0,0E0,0E0,0E0,0E0,0E0,0E0,0E0,0E0],"parents":[2147483647,0,0,1,1,2,2,3,3,4,4,5,5,6,6,7,7,8,8,9,9,10,10,11,11,12,12,15,15,16,16,17,17,20,20,22,22,23,23,27,27,28,28,30,30,31,31,32,32,33,33,34,34,37,37],"right_children":[2,4,6,8,10,12,14,16,18,20,22,24,26,-1,-1,28,30,32,-1,-1,34,-1,36,38,-1,-1,-1,40,42,-1,44,46,48,50,52,-1,-1,54,-1,-1,-1,-1,-1,-1,-1,-1,-1,-1,-1,-1,-1,-1,-1,-1,-1],"split_conditions":[5.658497E0,7.2095E1,7.103E1,5E-1,1.3377019E1,7.074422E0,1.4339229E1,5.4996786E0,1.0841222E1,8.341061E0,5.851033E0,5E-1,6.288191E0,-2.2236387E-4,1.05347E-4,4.336E1,5E-1,5.4033546E0,1.758476E-4,5.1044604E-5,5E-1,-1.560293E-4,1.4263176E1,1.2461935E1,-2.3200187E-4,-3.160814E-5,-2.13148E-4,3.452E1,5E-1,-3.7281698E-4,6.0596495E0,3.771E1,5.4438696E0,5.9857836E0,5.5155725E0,2.0514145E-4,-8.6886255E-5,9.1422615E0,-2.0639588E-4,-2.204684E-4,-5.0887906E-5,-2.8035048E-4,-2.085129E-4,-2.8929554E-4,-1.4636239E-4,-5.9795453E-5,-2.0831778E-4,1.9221838E-5,-1.3697679E-4,6.236042E-6,-1.5854609E-4,-2.612469E-4,-1.5235998E-4,-1.8217336E-4,-3.1449058E-4],"split_indices":[1,8,8,6,2,0,2,1,0,2,0,6,1,0,0,8,4,1,0,0,7,0,2,2,0,0,0,8,5,0,3,8,1,3,3,0,0,2,0,0,0,0,0,0,0,0,0,0,0,0,0,0,0,0,0],"split_type":[0,0,0,0,0,0,0,0,0,0,0,0,0,0,0,0,0,0,0,0,0,0,0,0,0,0,0,0,0,0,0,0,0,0,0,0,0,0,0,0,0,0,0,0,0,0,0,0,0,0,0,0,0,0,0],"sum_hessian":[1.427E3,6.09E2,8.18E2,4.98E2,1.11E2,5.98E2,2.2E2,3E2,1.98E2,1E2,1.1E1,5.8E2,1.8E1,2.19E2,1E0,2.25E2,7.5E1,1.96E2,2E0,3E0,9.7E1,4E0,7E0,5.1E2,7E1,9E0,9E0,1.6E1,2.09E2,2.5E1,5E1,1.29E2,6.7E1,2.4E1,7.3E1,4E0,3E0,4.87E2,2.3E1,5E0,1.1E1,1E2,1.09E2,4E1,1E1,1.2E1,1.17E2,1.5E1,5.2E1,1E1,1.4E1,1.1E1,6.2E1,1.2E1,4.75E2],"tree_param":{"num_deleted":"0","num_feature":"9","num_nodes":"55","size_leaf_vector":"0"}},{"base_weights":[-8.1167714E-4,-6.7257334E-4,-9.142921E-4,-7.223582E-4,-4.447588E-4,-9.790132E-4,-7.347349E-4,-8.4550545E-4,-5.3246034E-4,-4.898407E-4,-2.8256549E-5,-9.95298E-4,-4.2950967E-4,-7.4126635E-4,3.510962E-4,-7.8446115E-4,-1.0159068E-3,-5.4678874E-4,5.8592274E-4,1.700858E-4,-5.1177805E-4,-5.202551E-4,2.8277462E-4,-1.0241837E-3,-7.733845E-4,-1.0550955E-4,-7.1055884E-4,-3.7918345E-4,-8.135338E-4,-1.2425344E-3,-8.804514E-4,-6.5027684E-4,-3.4090283E-4,-3.0804527E-4,-5.736908E-4,6.8423245E-4,-2.8974132E-4,-1.0386168E-3,-6.880369E-4,-7.349315E-4,-1.6971081E-4,-9.344773E-4,-6.950899E-4,-9.642756E-4,-4.8797458E-4,-1.994515E-4,-6.944332E-4,6.395992E-5,-4.566934E-4,2.0650146E-5,-5.285523E-4,-3.779128E-4,-6.6010596E-4,-6.0732965E-4,-1.0482137E-3],"categories":[],"categories_nodes":[],"categories_segments":[],"categories_sizes":[],"default_left":[1,1,1,1,1,1,1,1,1,1,1,1,1,0,0,1,1,1,0,0,1,0,1,1,0,0,0,1,1,0,1,1,1,1,1,0,0,1,0,0,0,0,0,0,0,0,0,0,0,0,0,0,0,0,0],"id":10,"left_children":[1,3,5,7,9,11,13,15,17,19,21,23,25,-1,-1,27,29,31,-1,-1,33,-1,35,37,-1,-1,-1,39,41,-1,43,45,47,49,51,-1,-1,53,-1,-1,-1,-1,-1,-1,-1,-1,-1,-1,-1,-1,-1,-1,-1,-1,-1],"loss_changes":[1.9768486E-5,6.597198E-6,8.798379E-6,1.121909E-5,2.0891493E-6,4.932692E-6,1.8276187E-6,2.334069E-6,3.5092744E-6,1.5492296E-6,1.9834376E-6,2.9322691E-6,1.655169E-6,9.758296E-7,0E0,2.3543544E-6,1.2390592E-6,3.9757433E-6,0E0,4.1248506E-7,1.0594158E-6,4.9253276E-7,2.0369787E-6,1.7646234E-6,9.99964E-7,7.745645E-7,4.913454E-8,1.1421055E-6,2.3587054E-6,5.5216515E-7,1.2073106E-6,2.4493856E-6,3.217001E-6,1.8229055E-6,1.0024833E-6,0E0,2.1947156E-7,1.3831304E-6,7.0350416E-7,0E0,0E0,0E0,0E0,0E0,0E0,0E0,0E0,0E0,0E0,0E0,0E0,0E0,0E0,0E0,0E0],"parents":[2147483647,0,0,1,1,2,2,3,3,4,4,5,5,6,6,7,7,8,8,9,9,10,10,11,11,12,12,15,15,16,16,17,17,20,20,22,22,23,23,27,27,28,28,30,30,31,31,32,32,33,33,34,34,37,37],"right_children":[2,4,6,8,10,12,14,16,18,20,22,24,26,-1,-1,28,30,32,-1,-1,34,-1,36,38,-1,-1,-1,40,42,-1,44,46,48,50,52,-1,-1,54,-1,-1,-1,-1,-1,-1,-1,-1,-1,-1,-1,-1,-1,-1,-1,-1,-1],"split_conditions":[5.658497E0,7.2095E1,7.103E1,5E-1,1.3377019E1,7.074422E0,1.4339229E1,5.4996786E0,1.0841222E1,8.341061E0,5.851033E0,5E-1,6.288191E0,-2.2237991E-4,1.05328865E-4,4.336E1,5E-1,5.4033546E0,1.7577683E-4,5.102574E-5,5E-1,-1.5607654E-4,1.4263176E1,1.2461935E1,-2.3201537E-4,-3.1652868E-5,-2.1316766E-4,3.452E1,5E-1,-3.7276032E-4,6.0596495E0,3.771E1,5.4438696E0,5.9857836E0,1.0217314E1,2.0526974E-4,-8.69224E-5,9.1422615E0,-2.0641107E-4,-2.2047946E-4,-5.0913244E-5,-2.803432E-4,-2.0852698E-4,-2.892827E-4,-1.4639238E-4,-5.9835453E-5,-2.0832998E-4,1.9187975E-5,-1.3700803E-4,6.195044E-6,-1.5856569E-4,-1.1337385E-4,-1.9803179E-4,-1.821989E-4,-3.1446412E-4],"split_indices":[1,8,8,6,2,0,2,1,0,2,0,6,1,0,0,8,4,1,0,0,7,0,2,2,0,0,0,8,5,0,3,8,1,3,2,0,0,2,0,0,0,0,0,0,0,0,0,0,0,0,0,0,0,0,0],"split_type":[0,0,0,0,0,0,0,0,0,0,0,0,0,0,0,0,0,0,0,0,0,0,0,0,0,0,0,0,0,0,0,0,0,0,0,0,0,0,0,0,0,0,0,0,0,0,0,0,0,0,0,0,0,0,0],"sum_hessian":[1.427E3,6.09E2,8.18E2,4.98E2,1.11E2,5.98E2,2.2E2,3E2,1.98E2,1E2,1.1E1,5.8E2,1.8E1,2.19E2,1E0,2.25E2,7.5E1,1.96E2,2E0,3E0,9.7E1,4E0,7E0,5.1E2,7E1,9E0,9E0,1.6E1,2.09E2,2.5E1,5E1,1.29E2,6.7E1,2.4E1,7.3E1,4E0,3E0,4.87E2,2.3E1,5E0,1.1E1,1E2,1.09E2,4E1,1E1,1.2E1,1.17E2,1.5E1,5.2E1,1E1,1.4E1,2.4E1,4.9E1,1.2E1,4.75E2],"tree_param":{"num_deleted":"0","num_feature":"9","num_nodes":"55","size_leaf_vector":"0"}},{"base_weights":[-8.1167714E-4,-6.7261065E-4,-9.1426435E-4,-7.223843E-4,-4.448458E-4,-9.789559E-4,-7.34787E-4,-8.4549986E-4,-5.325342E-4,-4.8994494E-4,-2.8190636E-5,-9.952353E-4,-4.2962367E-4,-7.413182E-4,3.5103448E-4,-7.8447815E-4,-1.015834E-3,-5.468597E-4,5.85687E-4,1.7002388E-4,-5.1188306E-4,-5.2041013E-4,2.8297037E-4,-1.0241059E-3,-7.734304E-4,-1.056608E-4,-7.1062415E-4,-3.7926083E-4,-8.1354583E-4,-1.2423459E-3,-8.804392E-4,-6.503281E-4,-3.410104E-4,-3.0814338E-4,-5.737967E-4,6.8464235E-4,-2.898622E-4,-1.038533E-3,-6.8808324E-4,-8.223694E-4,-3.9266577E-4,-7.349721E-4,-1.6980014E-4,-9.3445246E-4,-6.9513574E-4,-9.642349E-4,-4.880699E-4,-5.6121737E-4,-9.0569176E-4,6.384905E-5,-4.5679795E-4,2.0513888E-5,-5.286158E-4,-8.709574E-4,-5.0808676E-4,-6.07416E-4,-1.0481256E-3],"categories":[],"categories_nodes":[],"categories_segments":[],"categories_sizes":[],"default_left":[1,1,1,1,1,1,1,1,1,1,1,1,1,0,0,1,1,1,0,0,1,0,1,1,1,0,0,1,1,0,1,1,1,1,1,0,0,1,0,0,0,0,0,0,0,0,0,0,0,0,0,0,0,0,0,0,0],"id":11,"left_children":[1,3,5,7,9,11,13,15,17,19,21,23,25,-1,-1,27,29,31,-1,-1,33,-1,35,37,39,-1,-1,41,43,-1,45,47,49,51,53,-1,-1,55,-1,-1,-1,-1,-1,-1,-1,-1,-1,-1,-1,-1,-1,-1,-1,-1,-1,-1,-1],"loss_changes":[1.9757543E-5,6.594055E-6,8.789764E-6,1.1213095E-5,2.0907592E-6,4.929141E-6,1.8274877E-6,2.3317261E-6,3.5080884E-6,1.549357E-6,1.9851745E-6,2.9284856E-6,1.654555E-6,9.761789E-7,0E0,2.3534521E-6,1.2370001E-6,3.9741135E-6,0E0,4.1257488E-7,1.0593831E-6,4.927789E-7,2.039178E-6,1.7626444E-6,1.0001131E-6,7.750308E-7,4.9150458E-8,1.1418299E-6,2.3569155E-6,5.51885E-7,1.2062046E-6,2.4499423E-6,3.216849E-6,1.8223404E-6,1.0024341E-6,0E0,2.1955498E-7,1.3815006E-6,7.036024E-7,2.4653127E-7,4.2157296E-7,0E0,0E0,0E0,0E0,0E0,0E0,0E0,0E0,0E0,0E0,0E0,0E0,0E0,0E0,0E0,0E0],"parents":[2147483647,0,0,1,1,2,2,3,3,4,4,5,5,6,6,7,7,8,8,9,9,10,10,11,11,12,12,15,15,16,16,17,17,20,20,22,22,23,23,24,24,27,27,28,28,30,30,31,31,32,32,33,33,34,34,37,37],"right_children":[2,4,6,8,10,12,14,16,18,20,22,24,26,-1,-1,28,30,32,-1,-1,34,-1,36,38,40,-1,-1,42,44,-1,46,48,50,52,54,-1,-1,56,-1,-1,-1,-1,-1,-1,-1,-1,-1,-1,-1,-1,-1,-1,-1,-1,-1,-1,-1],"split_conditions":[5.658497E0,7.2095E1,7.103E1,5E-1,1.3377019E1,7.074422E0,1.4339229E1,5.4996786E0,1.0841222E1,8.341061E0,5.851033E0,5E-1,6.288191E0,-2.2239548E-4,1.0531035E-4,4.336E1,5E-1,5.4033546E0,1.7570611E-4,5.1007166E-5,5E-1,-1.5612305E-4,1.4263176E1,1.2461935E1,5.799E1,-3.169824E-5,-2.1318726E-4,3.452E1,5E-1,-3.727038E-4,6.0596495E0,6.4130354E0,5.4438696E0,5.9857836E0,5.5155725E0,2.0539272E-4,-8.695866E-5,9.1422615E0,-2.0642499E-4,-2.4671084E-4,-1.1779973E-4,-2.2049165E-4,-5.0940045E-5,-2.8033575E-4,-2.0854073E-4,-2.8927048E-4,-1.4642098E-4,-1.6836522E-4,-2.7170754E-4,1.9154717E-5,-1.3703939E-4,6.1541664E-6,-1.5858473E-4,-2.6128723E-4,-1.5242603E-4,-1.822248E-4,-3.1443767E-4],"split_indices":[1,8,8,6,2,0,2,1,0,2,0,6,1,0,0,8,4,1,0,0,7,0,2,2,8,0,0,8,5,0,3,3,1,3,3,0,0,2,0,0,0,0,0,0,0,0,0,0,0,0,0,0,0,0,0,0,0],"split_type":[0,0,0,0,0,0,0,0,0,0,0,0,0,0,0,0,0,0,0,0,0,0,0,0,0,0,0,0,0,0,0,0,0,0,0,0,0,0,0,0,0,0,0,0,0,0,0,0,0,0,0,0,0,0,0,0,0],"sum_hessian":[1.427E3,6.09E2,8.18E2,4.98E2,1.11E2,5.98E2,2.2E2,3E2,1.98E2,1E2,1.1E1,5.8E2,1.8E1,2.19E2,1E0,2.25E2,7.5E1,1.96E2,2E0,3E0,9.7E1,4E0,7E0,5.1E2,7E1,9E0,9E0,1.6E1,2.09E2,2.5E1,5E1,1.29E2,6.7E1,2.4E1,7.3E1,4E0,3E0,4.87E2,2.3E1,6.1E1,9E0,5E0,1.1E1,1E2,1.09E2,4E1,1E1,9.8E1,3.1E1,1.5E1,5.2E1,1E1,1.4E1,1.1E1,6.2E1,1.2E1,4.75E2],"tree_param":{"num_deleted":"0","num_feature":"9","num_nodes":"57","size_leaf_vector":"0"}},{"base_weights":[-8.1167714E-4,-6.7264755E-4,-9.142368E-4,-7.2240987E-4,-4.449329E-4,-9.788985E-4,-7.348407E-4,-8.4549433E-4,-5.326067E-4,-4.900491E-4,-2.8127397E-5,-9.951724E-4,-4.2973566E-4,-7.413715E-4,3.50963E-4,-7.844954E-4,-1.015761E-3,-5.4692937E-4,5.854526E-4,1.6996008E-4,-5.119877E-4,-5.2057137E-4,2.83166E-4,-1.0240296E-3,-7.7346625E-4,-1.05806444E-4,-7.106913E-4,-3.793314E-4,-8.135587E-4,-1.2421572E-3,-8.804265E-4,-6.503765E-4,-3.4111977E-4,-3.082456E-4,-5.7390076E-4,6.85056E-4,-2.8998792E-4,-1.0384506E-3,-6.881317E-4,-7.350034E-4,-1.6988446E-4,-9.344271E-4,-6.951835E-4,-9.6419157E-4,-4.881726E-4,-1.995333E-4,-6.94534E-4,6.373388E-5,-4.5690354E-4,2.0369458E-5,-5.286803E-4,-3.781807E-4,-6.602828E-4,-6.075008E-4,-1.0480387E-3],"categories":[],"categories_nodes":[],"categories_segments":[],"categories_sizes":[],"default_left":[1,1,1,1,1,1,1,1,1,1,1,1,1,0,0,1,1,1,0,0,1,0,1,1,0,0,0,1,1,0,1,1,1,1,1,0,0,1,0,0,0,0,0,0,0,0,0,0,0,0,0,0,0,0,0],"id":12,"left_children":[1,3,5,7,9,11,13,15,17,19,21,23,25,-1,-1,27,29,31,-1,-1,33,-1,35,37,-1,-1,-1,39,41,-1,43,45,47,49,51,-1,-1,53,-1,-1,-1,-1,-1,-1,-1,-1,-1,-1,-1,-1,-1,-1,-1,-1,-1],"loss_changes":[1.97466E-5,6.5908243E-6,8.7811495E-6,1.1207245E-5,2.092338E-6,4.9256487E-6,1.8273277E-6,2.3293542E-6,3.5069097E-6,1.5494679E-6,1.9869428E-6,2.9249932E-6,1.6539893E-6,9.766882E-7,0E0,2.3526227E-6,1.2349556E-6,3.9723564E-6,0E0,4.1265508E-7,1.0592994E-6,4.930041E-7,2.0414166E-6,1.7607235E-6,9.995274E-7,7.7553545E-7,4.916592E-8,1.1415393E-6,2.3550529E-6,5.5161945E-7,1.2050223E-6,2.4494693E-6,3.2166527E-6,1.8217229E-6,1.0013882E-6,0E0,2.196247E-7,1.3797544E-6,7.036806E-7,0E0,0E0,0E0,0E0,0E0,0E0,0E0,0E0,0E0,0E0,0E0,0E0,0E0,0E0,0E0,0E0],"parents":[2147483647,0,0,1,1,2,2,3,3,4,4,5,5,6,6,7,7,8,8,9,9,10,10,11,11,12,12,15,15,16,16,17,17,20,20,22,22,23,23,27,27,28,28,30,30,31,31,32,32,33,33,34,34,37,37],"right_children":[2,4,6,8,10,12,14,16,18,20,22,24,26,-1,-1,28,30,32,-1,-1,34,-1,36,38,-1,-1,-1,40,42,-1,44,46,48,50,52,-1,-1,54,-1,-1,-1,-1,-1,-1,-1,-1,-1,-1,-1,-1,-1,-1,-1,-1,-1],"split_conditions":[5.658497E0,7.2095E1,7.103E1,5E-1,1.3377019E1,7.074422E0,1.4339229E1,5.4996786E0,1.0841222E1,8.341061E0,5.851033E0,5E-1,6.288191E0,-2.2241146E-4,1.05288906E-4,4.336E1,5E-1,5.4033546E0,1.7563578E-4,5.0988026E-5,5E-1,-1.5617142E-4,1.4263176E1,1.2461935E1,-2.3203988E-4,-3.1741936E-5,-2.132074E-4,3.452E1,5E-1,-3.7264716E-4,6.0596495E0,3.771E1,5.4438696E0,5.9857836E0,1.0217314E1,2.055168E-4,-8.699638E-5,9.1422615E0,-2.0643952E-4,-2.2050102E-4,-5.096534E-5,-2.8032812E-4,-2.0855507E-4,-2.8925747E-4,-1.4645178E-4,-5.985999E-5,-2.083602E-4,1.9120165E-5,-1.3707107E-4,6.1108376E-6,-1.5860409E-4,-1.1345422E-4,-1.9808485E-4,-1.8225024E-4,-3.1441162E-4],"split_indices":[1,8,8,6,2,0,2,1,0,2,0,6,1,0,0,8,4,1,0,0,7,0,2,2,0,0,0,8,5,0,3,8,1,3,2,0,0,2,0,0,0,0,0,0,0,0,0,0,0,0,0,0,0,0,0],"split_type":[0,0,0,0,0,0,0,0,0,0,0,0,0,0,0,0,0,0,0,0,0,0,0,0,0,0,0,0,0,0,0,0,0,0,0,0,0,0,0,0,0,0,0,0,0,0,0,0,0,0,0,0,0,0,0],"sum_hessian":[1.427E3,6.09E2,8.18E2,4.98E2,1.11E2,5.98E2,2.2E2,3E2,1.98E2,1E2,1.1E1,5.8E2,1.8E1,2.19E2,1E0,2.25E2,7.5E1,1.96E2,2E0,3E0,9.7E1,4E0,7E0,5.1E2,7E1,9E0,9E0,1.6E1,2.09E2,2.5E1,5E1,1.29E2,6.7E1,2.4E1,7.3E1,4E0,3E0,4.87E2,2.3E1,5E0,1.1E1,1E2,1.09E2,4E1,1E1,1.2E1,1.17E2,1.5E1,5.2E1,1E1,1.4E1,2.4E1,4.9E1,1.2E1,4.75E2],"tree_param":{"num_deleted":"0","num_feature":"9","num_nodes":"55","size_leaf_vector":"0"}},{"base_weights":[-8.1167714E-4,-6.7268487E-4,-9.1420906E-4,-7.2243594E-4,-4.4502006E-4,-9.788412E-4,-7.348928E-4,-8.4548874E-4,-5.326805E-4,-4.901534E-4,-2.8062812E-5,-9.951098E-4,-4.298496E-4,-7.414232E-4,3.5090075E-4,-7.845124E-4,-1.0156884E-3,-5.470003E-4,5.8521767E-4,1.6989777E-4,-5.120927E-4,-5.207264E-4,2.8335975E-4,-1.0239518E-3,-7.7351206E-4,-1.0595766E-4,-7.107566E-4,-3.794088E-4,-8.135707E-4,-1.2419691E-3,-8.804142E-4,-6.504277E-4,-3.4122734E-4,-3.0834376E-4,-5.7400664E-4,6.854628E-4,-2.9010896E-4,-1.038367E-3,-6.88178E-4,-7.3504384E-4,-1.6997388E-4,-9.3440217E-4,-6.9522933E-4,-9.641507E-4,-4.882679E-4,-5.613242E-4,-9.0576604E-4,6.36228E-5,-4.57008E-4,2.023301E-5,-5.2874384E-4,-8.7109185E-4,-5.083077E-4,-6.0758705E-4,-1.0479506E-3],"categories":[],"categories_nodes":[],"categories_segments":[],"categories_sizes":[],"default_left":[1,1,1,1,1,1,1,1,1,1,1,1,1,0,0,1,1,1,0,0,1,0,1,1,0,0,0,1,1,0,1,1,1,1,1,0,0,1,0,0,0,0,0,0,0,0,0,0,0,0,0,0,0,0,0],"id":13,"left_children":[1,3,5,7,9,11,13,15,17,19,21,23,25,-1,-1,27,29,31,-1,-1,33,-1,35,37,-1,-1,-1,39,41,-1,43,45,47,49,51,-1,-1,53,-1,-1,-1,-1,-1,-1,-1,-1,-1,-1,-1,-1,-1,-1,-1,-1,-1],"loss_changes":[1.9735657E-5,6.5877102E-6,8.772477E-6,1.12012785E-5,2.0939333E-6,4.922156E-6,1.8272112E-6,2.3270113E-6,3.5057346E-6,1.5495898E-6,1.9886716E-6,2.9212679E-6,1.6533766E-6,9.770374E-7,0E0,2.351706E-6,1.232911E-6,3.970723E-6,0E0,4.1274524E-7,1.0592703E-6,4.9325E-7,2.043607E-6,1.7588027E-6,9.996766E-7,7.7600265E-7,4.918138E-8,1.1412624E-6,2.3532339E-6,5.5133205E-7,1.2039272E-6,2.4492729E-6,3.2164953E-6,1.8211563E-6,1.0015629E-6,0E0,2.1970817E-7,1.37795E-6,7.03777E-7,0E0,0E0,0E0,0E0,0E0,0E0,0E0,0E0,0E0,0E0,0E0,0E0,0E0,0E0,0E0,0E0],"parents":[2147483647,0,0,1,1,2,2,3,3,4,4,5,5,6,6,7,7,8,8,9,9,10,10,11,11,12,12,15,15,16,16,17,17,20,20,22,22,23,23,27,27,28,28,30,30,31,31,32,32,33,33,34,34,37,37],"right_children":[2,4,6,8,10,12,14,16,18,20,22,24,26,-1,-1,28,30,32,-1,-1,34,-1,36,38,-1,-1,-1,40,42,-1,44,46,48,50,52,-1,-1,54,-1,-1,-1,-1,-1,-1,-1,-1,-1,-1,-1,-1,-1,-1,-1,-1,-1],"split_conditions":[5.658497E0,7.2095E1,7.103E1,5E-1,1.3377019E1,7.074422E0,1.4339229E1,5.4996786E0,1.0841222E1,8.341061E0,5.851033E0,5E-1,6.288191E0,-2.2242697E-4,1.0527023E-4,4.336E1,5E-1,5.4033546E0,1.755653E-4,5.0969335E-5,5E-1,-1.5621792E-4,1.4263176E1,1.2461935E1,-2.3205363E-4,-3.17873E-5,-2.1322699E-4,3.452E1,5E-1,-3.7259073E-4,6.0596495E0,6.4130354E0,5.4438696E0,5.9857836E0,5.5155725E0,2.0563885E-4,-8.703269E-5,9.1422615E0,-2.064534E-4,-2.2051316E-4,-5.0992167E-5,-2.8032067E-4,-2.085688E-4,-2.8924522E-4,-1.4648038E-4,-1.6839727E-4,-2.7172983E-4,1.9086841E-5,-1.371024E-4,6.0699035E-6,-1.5862315E-4,-2.6132757E-4,-1.5249231E-4,-1.8227613E-4,-3.143852E-4],"split_indices":[1,8,8,6,2,0,2,1,0,2,0,6,1,0,0,8,4,1,0,0,7,0,2,2,0,0,0,8,5,0,3,3,1,3,3,0,0,2,0,0,0,0,0,0,0,0,0,0,0,0,0,0,0,0,0],"split_type":[0,0,0,0,0,0,0,0,0,0,0,0,0,0,0,0,0,0,0,0,0,0,0,0,0,0,0,0,0,0,0,0,0,0,0,0,0,0,0,0,0,0,0,0,0,0,0,0,0,0,0,0,0,0,0],"sum_hessian":[1.427E3,6.09E2,8.18E2,4.98E2,1.11E2,5.98E2,2.2E2,3E2,1.98E2,1E2,1.1E1,5.8E2,1.8E1,2.19E2,1E0,2.25E2,7.5E1,1.96E2,2E0,3E0,9.7E1,4E0,7E0,5.1E2,7E1,9E0,9E0,1.6E1,2.09E2,2.5E1,5E1,1.29E2,6.7E1,2.4E1,7.3E1,4E0,3E0,4.87E2,2.3E1,5E0,1.1E1,1E2,1.09E2,4E1,1E1,9.8E1,3.1E1,1.5E1,5.2E1,1E1,1.4E1,1.1E1,6.2E1,1.2E1,4.75E2],"tree_param":{"num_deleted":"0","num_feature":"9","num_nodes":"55","size_leaf_vector":"0"}},{"base_weights":[-8.1167714E-4,-6.7272165E-4,-9.1418164E-4,-7.224614E-4,-4.451068E-4,-9.787844E-4,-7.3494547E-4,-8.45483E-4,-5.327531E-4,-4.9025717E-4,-2.7999144E-5,-9.950474E-4,-4.2996166E-4,-7.4147555E-4,3.5083463E-4,-7.8452943E-4,-1.0156147E-3,-5.470702E-4,5.849871E-4,1.6983194E-4,-5.121969E-4,-5.208891E-4,2.83557E-4,-1.023875E-3,-7.735559E-4,-1.0610414E-4,-7.10823E-4,-3.7947923E-4,-8.135834E-4,-1.241781E-3,-8.8040024E-4,-6.504761E-4,-3.4133732E-4,-3.084442E-4,-5.741108E-4,6.8587787E-4,-2.9023335E-4,-1.038284E-3,-6.882292E-4,-7.350769E-4,-1.7005709E-4,-9.343773E-4,-6.9527637E-4,-9.6410565E-4,-4.88371E-4,-1.9961613E-4,-6.9463457E-4,6.350506E-5,-4.5711358E-4,2.0088299E-5,-5.288051E-4,-8.7108795E-4,-5.084308E-4,-6.076733E-4,-1.0478632E-3],"categories":[],"categories_nodes":[],"categories_segments":[],"categories_sizes":[],"default_left":[1,1,1,1,1,1,1,1,1,1,1,1,1,0,0,1,1,1,0,0,1,0,1,1,0,0,0,1,1,0,1,1,1,1,1,0,0,1,0,0,0,0,0,0,0,0,0,0,0,0,0,0,0,0,0],"id":14,"left_children":[1,3,5,7,9,11,13,15,17,19,21,23,25,-1,-1,27,29,31,-1,-1,33,-1,35,37,-1,-1,-1,39,41,-1,43,45,47,49,51,-1,-1,53,-1,-1,-1,-1,-1,-1,-1,-1,-1,-1,-1,-1,-1,-1,-1,-1,-1],"loss_changes":[1.972483E-5,6.584538E-6,8.763978E-6,1.1195341E-5,2.0955194E-6,4.9185473E-6,1.827073E-6,2.3246394E-6,3.504585E-6,1.5496917E-6,1.9904567E-6,2.9177172E-6,1.6528006E-6,9.77554E-7,0E0,2.3508765E-6,1.2308883E-6,3.968944E-6,0E0,4.1283602E-7,1.0591993E-6,4.93464E-7,2.0458474E-6,1.7568236E-6,9.998148E-7,7.764916E-7,4.9195933E-8,1.1409854E-6,2.3514149E-6,5.5104465E-7,1.2027231E-6,2.4495457E-6,3.2162661E-6,1.8205158E-6,1.0005133E-6,0E0,2.1976561E-7,1.3761455E-6,7.0383794E-7,0E0,0E0,0E0,0E0,0E0,0E0,0E0,0E0,0E0,0E0,0E0,0E0,0E0,0E0,0E0,0E0],"parents":[2147483647,0,0,1,1,2,2,3,3,4,4,5,5,6,6,7,7,8,8,9,9,10,10,11,11,12,12,15,15,16,16,17,17,20,20,22,22,23,23,27,27,28,28,30,30,31,31,32,32,33,33,34,34,37,37],"right_children":[2,4,6,8,10,12,14,16,18,20,22,24,26,-1,-1,28,30,32,-1,-1,34,-1,36,38,-1,-1,-1,40,42,-1,44,46,48,50,52,-1,-1,54,-1,-1,-1,-1,-1,-1,-1,-1,-1,-1,-1,-1,-1,-1,-1,-1,-1],"split_conditions":[5.658497E0,7.2095E1,7.103E1,5E-1,1.3377019E1,7.074422E0,1.4339229E1,5.4996786E0,1.0841222E1,8.341061E0,5.851033E0,5E-1,6.288191E0,-2.2244267E-4,1.05250394E-4,4.336E1,5E-1,5.4033546E0,1.7549614E-4,5.0949584E-5,5E-1,-1.5626675E-4,1.4263176E1,1.2461935E1,-2.3206677E-4,-3.1831245E-5,-2.1324691E-4,3.452E1,5E-1,-3.7253433E-4,6.0596495E0,3.771E1,5.4438696E0,5.9857836E0,5.5155725E0,2.0576337E-4,-8.707001E-5,9.1422615E0,-2.0646877E-4,-2.2052308E-4,-5.1017127E-5,-2.803132E-4,-2.0858292E-4,-2.892317E-4,-1.465113E-4,-5.9884842E-5,-2.0839038E-4,1.9051518E-5,-1.3713408E-4,6.0264897E-6,-1.5864153E-4,-2.613264E-4,-1.5252925E-4,-1.82302E-4,-3.1435897E-4],"split_indices":[1,8,8,6,2,0,2,1,0,2,0,6,1,0,0,8,4,1,0,0,7,0,2,2,0,0,0,8,5,0,3,8,1,3,3,0,0,2,0,0,0,0,0,0,0,0,0,0,0,0,0,0,0,0,0],"split_type":[0,0,0,0,0,0,0,0,0,0,0,0,0,0,0,0,0,0,0,0,0,0,0,0,0,0,0,0,0,0,0,0,0,0,0,0,0,0,0,0,0,0,0,0,0,0,0,0,0,0,0,0,0,0,0],"sum_hessian":[1.427E3,6.09E2,8.18E2,4.98E2,1.11E2,5.98E2,2.2E2,3E2,1.98E2,1E2,1.1E1,5.8E2,1.8E1,2.19E2,1E0,2.25E2,7.5E1,1.96E2,2E0,3E0,9.7E1,4E0,7E0,5.1E2,7E1,9E0,9E0,1.6E1,2.09E2,2.5E1,5E1,1.29E2,6.7E1,2.4E1,7.3E1,4E0,3E0,4.87E2,2.3E1,5E0,1.1E1,1E2,1.09E2,4E1,1E1,1.2E1,1.17E2,1.5E1,5.2E1,1E1,1.4E1,1.1E1,6.2E1,1.2E1,4.75E2],"tree_param":{"num_deleted":"0","num_feature":"9","num_nodes":"55","size_leaf_vector":"0"}},{"base_weights":[-8.1167714E-4,-6.7275844E-4,-9.141542E-4,-7.224872E-4,-4.4519216E-4,-9.787271E-4,-7.3499914E-4,-8.4547757E-4,-5.328261E-4,-4.9035996E-4,-2.793007E-5,-9.949846E-4,-4.3007446E-4,-7.415289E-4,3.5077275E-4,-7.845468E-4,-1.0155417E-3,-5.471404E-4,5.847533E-4,1.6976807E-4,-5.123003E-4,-5.210466E-4,2.8375903E-4,-1.0237973E-3,-7.7360065E-4,-1.0625315E-4,-7.1088836E-4,-3.7955184E-4,-8.135961E-4,-1.2415928E-3,-8.803873E-4,-6.505261E-4,-3.41445E-4,-3.085437E-4,-5.7421403E-4,6.8629783E-4,-2.9035428E-4,-1.0382003E-3,-6.882798E-4,-7.3511334E-4,-1.7014178E-4,-9.343529E-4,-6.9532316E-4,-9.640628E-4,-4.884709E-4,-5.6142954E-4,-9.058396E-4,6.339167E-5,-4.5721748E-4,1.9951154E-5,-5.288703E-4,-3.7854633E-4,-6.605636E-4,-6.0775847E-4,-1.0477749E-3],"categories":[],"categories_nodes":[],"categories_segments":[],"categories_sizes":[],"default_left":[1,1,1,1,1,1,1,1,1,1,1,1,1,0,0,1,1,1,0,0,1,0,1,1,0,0,0,1,1,0,1,1,1,1,1,0,0,1,0,0,0,0,0,0,0,0,0,0,0,0,0,0,0,0,0],"id":15,"left_children":[1,3,5,7,9,11,13,15,17,19,21,23,25,-1,-1,27,29,31,-1,-1,33,-1,35,37,-1,-1,-1,39,41,-1,43,45,47,49,51,-1,-1,53,-1,-1,-1,-1,-1,-1,-1,-1,-1,-1,-1,-1,-1,-1,-1,-1,-1],"loss_changes":[1.9714003E-5,6.581482E-6,8.755247E-6,1.1189433E-5,2.0971493E-6,4.915055E-6,1.8269566E-6,2.3222528E-6,3.5034172E-6,1.5497972E-6,1.9922404E-6,2.9140501E-6,1.6522031E-6,9.780124E-7,0E0,2.3500615E-6,1.228851E-6,3.9672705E-6,0E0,4.1293234E-7,1.059132E-6,4.9369976E-7,2.0480927E-6,1.7547864E-6,9.99953E-7,7.769574E-7,4.920821E-8,1.1407153E-6,2.349596E-6,5.507536E-7,1.2015662E-6,2.4486144E-6,3.2160715E-6,1.8199553E-6,1.0002368E-6,0E0,2.1983911E-7,1.3743993E-6,7.0392616E-7,0E0,0E0,0E0,0E0,0E0,0E0,0E0,0E0,0E0,0E0,0E0,0E0,0E0,0E0,0E0,0E0],"parents":[2147483647,0,0,1,1,2,2,3,3,4,4,5,5,6,6,7,7,8,8,9,9,10,10,11,11,12,12,15,15,16,16,17,17,20,20,22,22,23,23,27,27,28,28,30,30,31,31,32,32,33,33,34,34,37,37],"right_children":[2,4,6,8,10,12,14,16,18,20,22,24,26,-1,-1,28,30,32,-1,-1,34,-1,36,38,-1,-1,-1,40,42,-1,44,46,48,50,52,-1,-1,54,-1,-1,-1,-1,-1,-1,-1,-1,-1,-1,-1,-1,-1,-1,-1,-1,-1],"split_conditions":[5.658497E0,7.2095E1,7.103E1,5E-1,1.3377019E1,7.074422E0,1.4339229E1,5.4996786E0,1.0841222E1,8.341061E0,5.851033E0,5E-1,6.288191E0,-2.2245866E-4,1.0523183E-4,4.336E1,5E-1,5.4033546E0,1.7542599E-4,5.0930423E-5,5E-1,-1.5631398E-4,1.4263176E1,1.2461935E1,-2.320802E-4,-3.187595E-5,-2.1326651E-4,3.452E1,5E-1,-3.7247787E-4,6.0596495E0,6.4130354E0,5.4438696E0,5.9857836E0,1.0217314E1,2.0588936E-4,-8.710629E-5,9.1422615E0,-2.0648395E-4,-2.2053401E-4,-5.1042534E-5,-2.803059E-4,-2.0859696E-4,-2.8921885E-4,-1.4654128E-4,-1.6842887E-4,-2.717519E-4,1.9017501E-5,-1.3716525E-4,5.9853464E-6,-1.586611E-4,-1.135639E-4,-1.9816909E-4,-1.8232755E-4,-3.143325E-4],"split_indices":[1,8,8,6,2,0,2,1,0,2,0,6,1,0,0,8,4,1,0,0,7,0,2,2,0,0,0,8,5,0,3,3,1,3,2,0,0,2,0,0,0,0,0,0,0,0,0,0,0,0,0,0,0,0,0],"split_type":[0,0,0,0,0,0,0,0,0,0,0,0,0,0,0,0,0,0,0,0,0,0,0,0,0,0,0,0,0,0,0,0,0,0,0,0,0,0,0,0,0,0,0,0,0,0,0,0,0,0,0,0,0,0,0],"sum_hessian":[1.427E3,6.09E2,8.18E2,4.98E2,1.11E2,5.98E2,2.2E2,3E2,1.98E2,1E2,1.1E1,5.8E2,1.8E1,2.19E2,1E0,2.25E2,7.5E1,1.96E2,2E0,3E0,9.7E1,4E0,7E0,5.1E2,7E1,9E0,9E0,1.6E1,2.09E2,2.5E1,5E1,1.29E2,6.7E1,2.4E1,7.3E1,4E0,3E0,4.87E2,2.3E1,5E0,1.1E1,1E2,1.09E2,4E1,1E1,9.8E1,3.1E1,1.5E1,5.2E1,1E1,1.4E1,2.4E1,4.9E1,1.2E1,4.75E2],"tree_param":{"num_deleted":"0","num_feature":"9","num_nodes":"55","size_leaf_vector":"0"}},{"base_weights":[-8.1167714E-4,-6.727957E-4,-9.141265E-4,-7.2251284E-4,-4.4528098E-4,-9.786703E-4,-7.350501E-4,-8.454715E-4,-5.328994E-4,-4.9046526E-4,-2.7873533E-5,-9.949225E-4,-4.3018753E-4,-7.415795E-4,3.5070514E-4,-7.8456337E-4,-1.0154686E-3,-5.472109E-4,5.845233E-4,1.6970304E-4,-5.124061E-4,-5.212069E-4,2.83944E-4,-1.0237204E-3,-7.7364536E-4,-1.06401756E-4,-7.1095454E-4,-3.7962702E-4,-8.136079E-4,-1.2414055E-3,-8.8037393E-4,-6.5057556E-4,-3.4155484E-4,-3.086429E-4,-5.743207E-4,6.8669376E-4,-2.9047916E-4,-1.0381175E-3,-6.8832666E-4,-8.225873E-4,-3.9284115E-4,-7.351501E-4,-1.7022988E-4,-9.3432737E-4,-6.9536903E-4,-9.640197E-4,-4.885694E-4,-1.9969892E-4,-6.9473503E-4,6.3275824E-5,-4.5732342E-4,1.9806772E-5,-5.289298E-4,-6.078458E-4,-1.0476876E-3],"categories":[],"categories_nodes":[],"categories_segments":[],"categories_sizes":[],"default_left":[1,1,1,1,1,1,1,1,1,1,1,1,1,0,0,1,1,1,0,0,1,0,1,1,1,0,0,1,1,0,1,1,1,1,0,0,0,1,0,0,0,0,0,0,0,0,0,0,0,0,0,0,0,0,0],"id":16,"left_children":[1,3,5,7,9,11,13,15,17,19,21,23,25,-1,-1,27,29,31,-1,-1,33,-1,35,37,39,-1,-1,41,43,-1,45,47,49,51,-1,-1,-1,53,-1,-1,-1,-1,-1,-1,-1,-1,-1,-1,-1,-1,-1,-1,-1,-1,-1],"loss_changes":[1.9703002E-5,6.5781933E-6,8.746865E-6,1.1183467E-5,2.0986754E-6,4.911504E-6,1.8267965E-6,2.3199245E-6,3.5022676E-6,1.5499099E-6,1.9939534E-6,2.9102666E-6,1.6516119E-6,9.784417E-7,0E0,2.3491593E-6,1.2268283E-6,3.965528E-6,0E0,4.130177E-7,1.0590975E-6,4.939235E-7,2.0502605E-6,1.7529237E-6,1.0000986E-6,7.7744926E-7,4.9225946E-8,1.1404293E-6,2.347777E-6,5.504771E-7,1.2004239E-6,2.4496258E-6,3.2158714E-6,1.8193055E-6,9.996438E-7,0E0,2.1990664E-7,1.3726531E-6,7.039953E-7,2.4670953E-7,4.226415E-7,0E0,0E0,0E0,0E0,0E0,0E0,0E0,0E0,0E0,0E0,0E0,0E0,0E0,0E0],"parents":[2147483647,0,0,1,1,2,2,3,3,4,4,5,5,6,6,7,7,8,8,9,9,10,10,11,11,12,12,15,15,16,16,17,17,20,20,22,22,23,23,24,24,27,27,28,28,30,30,31,31,32,32,33,33,37,37],"right_children":[2,4,6,8,10,12,14,16,18,20,22,24,26,-1,-1,28,30,32,-1,-1,34,-1,36,38,40,-1,-1,42,44,-1,46,48,50,52,-1,-1,-1,54,-1,-1,-1,-1,-1,-1,-1,-1,-1,-1,-1,-1,-1,-1,-1,-1,-1],"split_conditions":[5.658497E0,7.2095E1,7.103E1,5E-1,1.3377019E1,7.074422E0,1.4339229E1,5.4996786E0,1.0841222E1,8.341061E0,5.851033E0,5E-1,6.288191E0,-2.2247386E-4,1.0521155E-4,4.336E1,5E-1,5.4033546E0,1.75357E-4,5.0910912E-5,5E-1,-1.5636208E-4,1.4263176E1,1.2461935E1,5.799E1,-3.192053E-5,-2.1328637E-4,3.452E1,5E-1,-3.7242167E-4,6.0596495E0,3.771E1,5.4438696E0,5.9857836E0,-1.722962E-4,2.0600813E-4,-8.714375E-5,9.1422615E0,-2.06498E-4,-2.467762E-4,-1.17852345E-4,-2.2054504E-4,-5.1068964E-5,-2.8029823E-4,-2.0861071E-4,-2.8920593E-4,-1.4657082E-4,-5.990968E-5,-2.0842052E-4,1.8982748E-5,-1.3719703E-4,5.9420317E-6,-1.5867894E-4,-1.8235375E-4,-3.143063E-4],"split_indices":[1,8,8,6,2,0,2,1,0,2,0,6,1,0,0,8,4,1,0,0,7,0,2,2,8,0,0,8,5,0,3,8,1,3,0,0,0,2,0,0,0,0,0,0,0,0,0,0,0,0,0,0,0,0,0],"split_type":[0,0,0,0,0,0,0,0,0,0,0,0,0,0,0,0,0,0,0,0,0,0,0,0,0,0,0,0,0,0,0,0,0,0,0,0,0,0,0,0,0,0,0,0,0,0,0,0,0,0,0,0,0,0,0],"sum_hessian":[1.427E3,6.09E2,8.18E2,4.98E2,1.11E2,5.98E2,2.2E2,3E2,1.98E2,1E2,1.1E1,5.8E2,1.8E1,2.19E2,1E0,2.25E2,7.5E1,1.96E2,2E0,3E0,9.7E1,4E0,7E0,5.1E2,7E1,9E0,9E0,1.6E1,2.09E2,2.5E1,5E1,1.29E2,6.7E1,2.4E1,7.3E1,4E0,3E0,4.87E2,2.3E1,6.1E1,9E0,5E0,1.1E1,1E2,1.09E2,4E1,1E1,1.2E1,1.17E2,1.5E1,5.2E1,1E1,1.4E1,1.2E1,4.75E2],"tree_param":{"num_deleted":"0","num_feature":"9","num_nodes":"55","size_leaf_vector":"0"}},{"base_weights":[-8.1167714E-4,-6.7283295E-4,-9.1409875E-4,-7.225387E-4,-4.453689E-4,-9.786122E-4,-7.351047E-4,-8.4546546E-4,-5.3297327E-4,-4.905708E-4,-2.7805789E-5,-9.948589E-4,-4.3030118E-4,-7.4163376E-4,3.5064045E-4,-7.8457996E-4,-1.0153953E-3,-5.47282E-4,5.842896E-4,1.6964615E-4,-5.125126E-4,-5.2136416E-4,2.841439E-4,-1.023643E-3,-7.736822E-4,-1.0655104E-4,-7.1102125E-4,-3.797027E-4,-8.1361964E-4,-1.2412145E-3,-8.8036206E-4,-6.5062655E-4,-3.4166314E-4,-3.087442E-4,-5.7442737E-4,6.871172E-4,-2.9060873E-4,-1.0380341E-3,-6.883726E-4,-7.3518505E-4,-1.7031962E-4,-9.3430077E-4,-6.954159E-4,-9.6397806E-4,-4.886695E-4,-1.9983214E-4,-6.947766E-4,6.31642E-5,-4.574287E-4,1.9667368E-5,-5.289964E-4,-6.0793065E-4,-1.0475998E-3],"categories":[],"categories_nodes":[],"categories_segments":[],"categories_sizes":[],"default_left":[1,1,1,1,1,1,1,1,1,1,1,1,1,0,0,1,1,1,0,0,1,0,1,1,0,0,0,1,1,0,1,1,1,1,0,0,0,1,0,0,0,0,0,0,0,0,0,0,0,0,0,0,0],"id":17,"left_children":[1,3,5,7,9,11,13,15,17,19,21,23,25,-1,-1,27,29,31,-1,-1,33,-1,35,37,-1,-1,-1,39,41,-1,43,45,47,49,-1,-1,-1,51,-1,-1,-1,-1,-1,-1,-1,-1,-1,-1,-1,-1,-1,-1,-1],"loss_changes":[1.9692001E-5,6.575021E-6,8.738076E-6,1.11774425E-5,2.100318E-6,4.9078953E-6,1.8266801E-6,2.3175526E-6,3.5010962E-6,1.5500664E-6,1.995727E-6,2.9068906E-6,1.65102E-6,9.788273E-7,0E0,2.348257E-6,1.224762E-6,3.9638726E-6,0E0,4.131015E-7,1.0590447E-6,4.9415826E-7,2.0525617E-6,1.7509446E-6,9.995165E-7,7.7796113E-7,4.9241862E-8,1.1401276E-6,2.3459143E-6,5.502152E-7,1.1992706E-6,2.448498E-6,3.2157168E-6,1.8187384E-6,9.99953E-7,0E0,2.199912E-7,1.3709068E-6,7.040844E-7,0E0,0E0,0E0,0E0,0E0,0E0,0E0,0E0,0E0,0E0,0E0,0E0,0E0,0E0],"parents":[2147483647,0,0,1,1,2,2,3,3,4,4,5,5,6,6,7,7,8,8,9,9,10,10,11,11,12,12,15,15,16,16,17,17,20,20,22,22,23,23,27,27,28,28,30,30,31,31,32,32,33,33,37,37],"right_children":[2,4,6,8,10,12,14,16,18,20,22,24,26,-1,-1,28,30,32,-1,-1,34,-1,36,38,-1,-1,-1,40,42,-1,44,46,48,50,-1,-1,-1,52,-1,-1,-1,-1,-1,-1,-1,-1,-1,-1,-1,-1,-1,-1,-1],"split_conditions":[5.658497E0,7.2095E1,7.103E1,5E-1,1.3377019E1,7.074422E0,1.4339229E1,5.4996786E0,1.0841222E1,8.341061E0,5.851033E0,5E-1,6.288191E0,-2.2249014E-4,1.05192135E-4,4.336E1,5E-1,5.4033546E0,1.7528688E-4,5.089385E-5,5E-1,-1.5640925E-4,1.4263176E1,1.2461935E1,-2.3210466E-4,-3.196531E-5,-2.1330638E-4,3.452E1,5E-1,-3.7236436E-4,6.0596495E0,3.771E1,5.4438696E0,5.9857836E0,-1.7232822E-4,2.0613517E-4,-8.718262E-5,9.1422615E0,-2.0651179E-4,-2.2055552E-4,-5.109589E-5,-2.8029023E-4,-2.0862477E-4,-2.8919344E-4,-1.4660085E-4,-5.9949645E-5,-2.0843299E-4,1.8949262E-5,-1.372286E-4,5.900211E-6,-1.5869892E-4,-1.823792E-4,-3.1427995E-4],"split_indices":[1,8,8,6,2,0,2,1,0,2,0,6,1,0,0,8,4,1,0,0,7,0,2,2,0,0,0,8,5,0,3,8,1,3,0,0,0,2,0,0,0,0,0,0,0,0,0,0,0,0,0,0,0],"split_type":[0,0,0,0,0,0,0,0,0,0,0,0,0,0,0,0,0,0,0,0,0,0,0,0,0,0,0,0,0,0,0,0,0,0,0,0,0,0,0,0,0,0,0,0,0,0,0,0,0,0,0,0,0],"sum_hessian":[1.427E3,6.09E2,8.18E2,4.98E2,1.11E2,5.98E2,2.2E2,3E2,1.98E2,1E2,1.1E1,5.8E2,1.8E1,2.19E2,1E0,2.25E2,7.5E1,1.96E2,2E0,3E0,9.7E1,4E0,7E0,5.1E2,7E1,9E0,9E0,1.6E1,2.09E2,2.5E1,5E1,1.29E2,6.7E1,2.4E1,7.3E1,4E0,3E0,4.87E2,2.3E1,5E0,1.1E1,1E2,1.09E2,4E1,1E1,1.2E1,1.17E2,1.5E1,5.2E1,1E1,1.4E1,1.2E1,4.75E2],"tree_param":{"num_deleted":"0","num_feature":"9","num_nodes":"53","size_leaf_vector":"0"}},{"base_weights":[-8.1167714E-4,-6.728701E-4,-9.140711E-4,-7.225644E-4,-4.454564E-4,-9.785547E-4,-7.3515833E-4,-8.454592E-4,-5.330473E-4,-4.90676E-4,-2.7736975E-5,-9.947958E-4,-4.304149E-4,-7.416871E-4,3.5058128E-4,-7.845964E-4,-1.0153212E-3,-5.473533E-4,5.840594E-4,1.6958741E-4,-5.126186E-4,-5.2152283E-4,2.8434632E-4,-1.0235651E-3,-7.73727E-4,-1.0670116E-4,-7.1108714E-4,-3.7977824E-4,-8.136313E-4,-1.241024E-3,-8.8034885E-4,-6.5067766E-4,-3.4177204E-4,-3.0884368E-4,-5.745342E-4,6.8754365E-4,-2.9073688E-4,-1.03795E-3,-6.884213E-4,-7.3522195E-4,-1.704082E-4,-9.3427463E-4,-6.9546205E-4,-9.6393464E-4,-4.887701E-4,-5.6157215E-4,-9.0601406E-4,6.305011E-5,-4.5753398E-4,1.9527797E-5,-5.2905985E-4,-8.71532E-4,-5.088436E-4,-6.080169E-4,-1.0475114E-3],"categories":[],"categories_nodes":[],"categories_segments":[],"categories_sizes":[],"default_left":[1,1,1,1,1,1,1,1,1,1,1,1,1,0,0,1,1,1,0,0,1,0,1,1,0,0,0,1,1,0,1,1,1,1,1,0,0,1,0,0,0,0,0,0,0,0,0,0,0,0,0,0,0,0,0],"id":18,"left_children":[1,3,5,7,9,11,13,15,17,19,21,23,25,-1,-1,27,29,31,-1,-1,33,-1,35,37,-1,-1,-1,39,41,-1,43,45,47,49,51,-1,-1,53,-1,-1,-1,-1,-1,-1,-1,-1,-1,-1,-1,-1,-1,-1,-1,-1,-1],"loss_changes":[1.9681174E-5,6.5718486E-6,8.7292865E-6,1.1171389E-5,2.1019678E-6,4.904403E-6,1.8265782E-6,2.3151952E-6,3.4999575E-6,1.5502137E-6,1.9975212E-6,2.9031653E-6,1.6504182E-6,9.792348E-7,0E0,2.347355E-6,1.2227028E-6,3.9622064E-6,0E0,4.131956E-7,1.0590102E-6,4.9438177E-7,2.0548703E-6,1.7490238E-6,9.996584E-7,7.7845675E-7,4.9257324E-8,1.1398397E-6,2.3440953E-6,5.499387E-7,1.1981101E-6,2.448949E-6,3.2155322E-6,1.8181488E-6,1.0002659E-6,0E0,2.2006347E-7,1.3691606E-6,7.041581E-7,0E0,0E0,0E0,0E0,0E0,0E0,0E0,0E0,0E0,0E0,0E0,0E0,0E0,0E0,0E0,0E0],"parents":[2147483647,0,0,1,1,2,2,3,3,4,4,5,5,6,6,7,7,8,8,9,9,10,10,11,11,12,12,15,15,16,16,17,17,20,20,22,22,23,23,27,27,28,28,30,30,31,31,32,32,33,33,34,34,37,37],"right_children":[2,4,6,8,10,12,14,16,18,20,22,24,26,-1,-1,28,30,32,-1,-1,34,-1,36,38,-1,-1,-1,40,42,-1,44,46,48,50,52,-1,-1,54,-1,-1,-1,-1,-1,-1,-1,-1,-1,-1,-1,-1,-1,-1,-1,-1,-1],"split_conditions":[5.658497E0,7.2095E1,7.103E1,5E-1,1.3377019E1,7.074422E0,1.4339229E1,5.4996786E0,1.0841222E1,8.341061E0,5.851033E0,5E-1,6.288191E0,-2.2250613E-4,1.0517439E-4,4.336E1,5E-1,5.4033546E0,1.7521782E-4,5.0876224E-5,5E-1,-1.5645685E-4,1.4263176E1,1.2461935E1,-2.3211811E-4,-3.201035E-5,-2.1332614E-4,3.452E1,5E-1,-3.7230723E-4,6.0596495E0,6.4130354E0,5.4438696E0,5.9857836E0,5.5155725E0,2.0626311E-4,-8.7221066E-5,9.1422615E0,-2.065264E-4,-2.205666E-4,-5.112246E-5,-2.802824E-4,-2.0863862E-4,-2.891804E-4,-1.4663104E-4,-1.6847166E-4,-2.7180422E-4,1.8915034E-5,-1.372602E-4,5.8583396E-6,-1.5871796E-4,-2.6145962E-4,-1.5265308E-4,-1.8240509E-4,-3.142534E-4],"split_indices":[1,8,8,6,2,0,2,1,0,2,0,6,1,0,0,8,4,1,0,0,7,0,2,2,0,0,0,8,5,0,3,3,1,3,3,0,0,2,0,0,0,0,0,0,0,0,0,0,0,0,0,0,0,0,0],"split_type":[0,0,0,0,0,0,0,0,0,0,0,0,0,0,0,0,0,0,0,0,0,0,0,0,0,0,0,0,0,0,0,0,0,0,0,0,0,0,0,0,0,0,0,0,0,0,0,0,0,0,0,0,0,0,0],"sum_hessian":[1.427E3,6.09E2,8.18E2,4.98E2,1.11E2,5.98E2,2.2E2,3E2,1.98E2,1E2,1.1E1,5.8E2,1.8E1,2.19E2,1E0,2.25E2,7.5E1,1.96E2,2E0,3E0,9.7E1,4E0,7E0,5.1E2,7E1,9E0,9E0,1.6E1,2.09E2,2.5E1,5E1,1.29E2,6.7E1,2.4E1,7.3E1,4E0,3E0,4.87E2,2.3E1,5E0,1.1E1,1E2,1.09E2,4E1,1E1,9.8E1,3.1E1,1.5E1,5.2E1,1E1,1.4E1,1.1E1,6.2E1,1.2E1,4.75E2],"tree_param":{"num_deleted":"0","num_feature":"9","num_nodes":"55","size_leaf_vector":"0"}},{"base_weights":[-8.1167714E-4,-6.729068E-4,-9.1404375E-4,-7.225898E-4,-4.455435E-4,-9.784979E-4,-7.352109E-4,-8.454533E-4,-5.3311983E-4,-4.907797E-4,-2.7676642E-5,-9.947335E-4,-4.3052682E-4,-7.4173923E-4,3.5051387E-4,-7.8461337E-4,-1.0152478E-3,-5.47423E-4,5.838309E-4,1.695206E-4,-5.1272276E-4,-5.2168564E-4,2.8453855E-4,-1.0234882E-3,-7.737706E-4,-1.06847554E-4,-7.111534E-4,-3.7984864E-4,-8.136438E-4,-1.2408367E-3,-8.8033476E-4,-6.5072585E-4,-3.41882E-4,-3.0894426E-4,-5.746382E-4,6.8795105E-4,-2.9086167E-4,-1.0378672E-3,-6.884725E-4,-7.352546E-4,-1.7049162E-4,-9.342496E-4,-6.955089E-4,-9.638895E-4,-4.8887316E-4,-1.9991628E-4,-6.9487665E-4,6.293186E-5,-4.5763937E-4,1.9382629E-5,-5.29121E-4,-6.081031E-4,-1.0474239E-3],"categories":[],"categories_nodes":[],"categories_segments":[],"categories_sizes":[],"default_left":[1,1,1,1,1,1,1,1,1,1,1,1,1,0,0,1,1,1,0,0,1,0,1,1,0,0,0,1,1,0,1,1,1,1,0,0,0,1,0,0,0,0,0,0,0,0,0,0,0,0,0,0,0],"id":19,"left_children":[1,3,5,7,9,11,13,15,17,19,21,23,25,-1,-1,27,29,31,-1,-1,33,-1,35,37,-1,-1,-1,39,41,-1,43,45,47,49,-1,-1,-1,51,-1,-1,-1,-1,-1,-1,-1,-1,-1,-1,-1,-1,-1,-1,-1],"loss_changes":[1.9670348E-5,6.568647E-6,8.720788E-6,1.1165481E-5,2.1035194E-6,4.900852E-6,1.8264327E-6,2.3128378E-6,3.4988152E-6,1.5503083E-6,1.999285E-6,2.8995564E-6,1.6498423E-6,9.797659E-7,0E0,2.34654E-6,1.2206947E-6,3.9604274E-6,0E0,4.1328747E-7,1.0589392E-6,4.9459527E-7,2.0570876E-6,1.7470447E-6,9.997966E-7,7.789476E-7,4.9271875E-8,1.1395596E-6,2.3422617E-6,5.496513E-7,1.1969132E-6,2.4485562E-6,3.215292E-6,1.8175051E-6,9.992636E-7,0E0,2.2012094E-7,1.3673562E-6,7.042172E-7,0E0,0E0,0E0,0E0,0E0,0E0,0E0,0E0,0E0,0E0,0E0,0E0,0E0,0E0],"parents":[2147483647,0,0,1,1,2,2,3,3,4,4,5,5,6,6,7,7,8,8,9,9,10,10,11,11,12,12,15,15,16,16,17,17,20,20,22,22,23,23,27,27,28,28,30,30,31,31,32,32,33,33,37,37],"right_children":[2,4,6,8,10,12,14,16,18,20,22,24,26,-1,-1,28,30,32,-1,-1,34,-1,36,38,-1,-1,-1,40,42,-1,44,46,48,50,-1,-1,-1,52,-1,-1,-1,-1,-1,-1,-1,-1,-1,-1,-1,-1,-1,-1,-1],"split_conditions":[5.658497E0,7.2095E1,7.103E1,5E-1,1.3377019E1,7.074422E0,1.4339229E1,5.4996786E0,1.0841222E1,8.341061E0,5.851033E0,5E-1,6.288191E0,-2.2252178E-4,1.0515417E-4,4.336E1,5E-1,5.4033546E0,1.7514927E-4,5.0856182E-5,5E-1,-1.565057E-4,1.4263176E1,1.2461935E1,-2.3213119E-4,-3.2054268E-5,-2.1334602E-4,3.452E1,5E-1,-3.7225103E-4,6.0596495E0,3.771E1,5.4438696E0,5.9857836E0,-1.7239146E-4,2.0638532E-4,-8.725851E-5,9.1422615E0,-2.0654175E-4,-2.2057639E-4,-5.114749E-5,-2.802749E-4,-2.0865268E-4,-2.8916687E-4,-1.4666196E-4,-5.9974886E-5,-2.0846301E-4,1.8879558E-5,-1.3729182E-4,5.814789E-6,-1.5873631E-4,-1.8243094E-4,-3.142272E-4],"split_indices":[1,8,8,6,2,0,2,1,0,2,0,6,1,0,0,8,4,1,0,0,7,0,2,2,0,0,0,8,5,0,3,8,1,3,0,0,0,2,0,0,0,0,0,0,0,0,0,0,0,0,0,0,0],"split_type":[0,0,0,0,0,0,0,0,0,0,0,0,0,0,0,0,0,0,0,0,0,0,0,0,0,0,0,0,0,0,0,0,0,0,0,0,0,0,0,0,0,0,0,0,0,0,0,0,0,0,0,0,0],"sum_hessian":[1.427E3,6.09E2,8.18E2,4.98E2,1.11E2,5.98E2,2.2E2,3E2,1.98E2,1E2,1.1E1,5.8E2,1.8E1,2.19E2,1E0,2.25E2,7.5E1,1.96E2,2E0,3E0,9.7E1,4E0,7E0,5.1E2,7E1,9E0,9E0,1.6E1,2.09E2,2.5E1,5E1,1.29E2,6.7E1,2.4E1,7.3E1,4E0,3E0,4.87E2,2.3E1,5E0,1.1E1,1E2,1.09E2,4E1,1E1,1.2E1,1.17E2,1.5E1,5.2E1,1E1,1.4E1,1.2E1,4.75E2],"tree_param":{"num_deleted":"0","num_feature":"9","num_nodes":"53","size_leaf_vector":"0"}},{"base_weights":[-8.1167714E-4,-6.729439E-4,-9.140161E-4,-7.2261546E-4,-4.456311E-4,-9.784403E-4,-7.3526445E-4,-8.4544695E-4,-5.331938E-4,-4.908849E-4,-2.760919E-5,-9.946706E-4,-4.3064047E-4,-7.417925E-4,3.5045418E-4,-7.846298E-4,-1.0151739E-3,-5.474943E-4,5.836015E-4,1.6946145E-4,-5.1282876E-4,-5.2184437E-4,2.8473893E-4,-1.0234104E-3,-7.738154E-4,-1.0699766E-4,-7.1121927E-4,-3.799242E-4,-8.136553E-4,-1.2406466E-3,-8.8032155E-4,-6.5077684E-4,-3.419909E-4,-3.090438E-4,-5.747449E-4,6.883743E-4,-2.9099E-4,-1.0377831E-3,-6.885212E-4,-7.352913E-4,-1.7058029E-4,-9.342234E-4,-6.95555E-4,-9.638461E-4,-4.889737E-4,-5.6167826E-4,-9.060889E-4,6.2817555E-5,-4.5774458E-4,1.924287E-5,-5.291845E-4,-6.081894E-4,-1.0473356E-3],"categories":[],"categories_nodes":[],"categories_segments":[],"categories_sizes":[],"default_left":[1,1,1,1,1,1,1,1,1,1,1,1,1,0,0,1,1,1,0,0,1,0,1,1,0,0,0,1,1,0,1,1,1,1,0,0,0,1,0,0,0,0,0,0,0,0,0,0,0,0,0,0,0],"id":20,"left_children":[1,3,5,7,9,11,13,15,17,19,21,23,25,-1,-1,27,29,31,-1,-1,33,-1,35,37,-1,-1,-1,39,41,-1,43,45,47,49,-1,-1,-1,51,-1,-1,-1,-1,-1,-1,-1,-1,-1,-1,-1,-1,-1,-1,-1],"loss_changes":[1.9659405E-5,6.565446E-6,8.712173E-6,1.1159427E-5,2.1051583E-6,4.8973016E-6,1.8263381E-6,2.3104658E-6,3.4976838E-6,1.5504538E-6,2.0010705E-6,2.8959475E-6,1.6492397E-6,9.801734E-7,0E0,2.3456378E-6,1.2186501E-6,3.9587503E-6,0E0,4.1338183E-7,1.0588992E-6,4.9481855E-7,2.0593868E-6,1.7449493E-6,9.999349E-7,7.79444E-7,4.9287337E-8,1.1392706E-6,2.3404282E-6,5.4936754E-7,1.1957491E-6,2.4483015E-6,3.2151029E-6,1.8169139E-6,9.995256E-7,0E0,2.2019333E-7,1.3656681E-6,7.0428996E-7,0E0,0E0,0E0,0E0,0E0,0E0,0E0,0E0,0E0,0E0,0E0,0E0,0E0,0E0],"parents":[2147483647,0,0,1,1,2,2,3,3,4,4,5,5,6,6,7,7,8,8,9,9,10,10,11,11,12,12,15,15,16,16,17,17,20,20,22,22,23,23,27,27,28,28,30,30,31,31,32,32,33,33,37,37],"right_children":[2,4,6,8,10,12,14,16,18,20,22,24,26,-1,-1,28,30,32,-1,-1,34,-1,36,38,-1,-1,-1,40,42,-1,44,46,48,50,-1,-1,-1,52,-1,-1,-1,-1,-1,-1,-1,-1,-1,-1,-1,-1,-1,-1,-1],"split_conditions":[5.658497E0,7.2095E1,7.103E1,5E-1,1.3377019E1,7.074422E0,1.4339229E1,5.4996786E0,1.0841222E1,8.341061E0,5.851033E0,5E-1,6.288191E0,-2.2253775E-4,1.05136256E-4,4.336E1,5E-1,5.4033546E0,1.7508045E-4,5.0838436E-5,5E-1,-1.5655332E-4,1.4263176E1,1.2461935E1,-2.3214462E-4,-3.20993E-5,-2.1336578E-4,3.452E1,5E-1,-3.72194E-4,6.0596495E0,6.4130354E0,5.4438696E0,5.9857836E0,-1.7242348E-4,2.065123E-4,-8.7297E-5,9.1422615E0,-2.0655636E-4,-2.2058739E-4,-5.1174087E-5,-2.8026704E-4,-2.086665E-4,-2.8915383E-4,-1.4669211E-4,-1.6850348E-4,-2.718267E-4,1.8845267E-5,-1.3732338E-4,5.7728616E-6,-1.5875534E-4,-1.8245682E-4,-3.1420068E-4],"split_indices":[1,8,8,6,2,0,2,1,0,2,0,6,1,0,0,8,4,1,0,0,7,0,2,2,0,0,0,8,5,0,3,3,1,3,0,0,0,2,0,0,0,0,0,0,0,0,0,0,0,0,0,0,0],"split_type":[0,0,0,0,0,0,0,0,0,0,0,0,0,0,0,0,0,0,0,0,0,0,0,0,0,0,0,0,0,0,0,0,0,0,0,0,0,0,0,0,0,0,0,0,0,0,0,0,0,0,0,0,0],"sum_hessian":[1.427E3,6.09E2,8.18E2,4.98E2,1.11E2,5.98E2,2.2E2,3E2,1.98E2,1E2,1.1E1,5.8E2,1.8E1,2.19E2,1E0,2.25E2,7.5E1,1.96E2,2E0,3E0,9.7E1,4E0,7E0,5.1E2,7E1,9E0,9E0,1.6E1,2.09E2,2.5E1,5E1,1.29E2,6.7E1,2.4E1,7.3E1,4E0,3E0,4.87E2,2.3E1,5E0,1.1E1,1E2,1.09E2,4E1,1E1,9.8E1,3.1E1,1.5E1,5.2E1,1E1,1.4E1,1.2E1,4.75E2],"tree_param":{"num_deleted":"0","num_feature":"9","num_nodes":"53","size_leaf_vector":"0"}},{"base_weights":[-8.1167714E-4,-6.7298097E-4,-9.139885E-4,-7.226407E-4,-4.4572024E-4,-9.783832E-4,-7.3531695E-4,-8.4544026E-4,-5.332674E-4,-4.90991E-4,-2.7548478E-5,-9.946079E-4,-4.3075328E-4,-7.4184465E-4,3.503898E-4,-7.8464585E-4,-1.0150993E-3,-5.4756517E-4,5.833762E-4,1.6939998E-4,-5.1293557E-4,-5.220084E-4,2.8493252E-4,-1.0233332E-3,-7.738591E-4,-1.0714517E-4,-7.112861E-4,-3.799975E-4,-8.136667E-4,-1.240457E-3,-8.803072E-4,-6.508261E-4,-3.421021E-4,-3.0914432E-4,-5.748524E-4,6.887896E-4,-2.9112198E-4,-1.0376999E-3,-6.8857044E-4,-8.2280365E-4,-3.930169E-4,-7.353245E-4,-1.7066755E-4,-9.341967E-4,-6.956013E-4,-9.638004E-4,-4.890774E-4,-2.000013E-4,-6.9497776E-4,6.26987E-5,-4.5785136E-4,1.9095367E-5,-5.292438E-4,-6.0827675E-4,-1.0472478E-3],"categories":[],"categories_nodes":[],"categories_segments":[],"categories_sizes":[],"default_left":[1,1,1,1,1,1,1,1,1,1,1,1,1,0,0,1,1,1,0,0,1,0,1,1,1,0,0,1,1,0,1,1,1,1,0,0,0,1,0,0,0,0,0,0,0,0,0,0,0,0,0,0,0,0,0],"id":21,"left_children":[1,3,5,7,9,11,13,15,17,19,21,23,25,-1,-1,27,29,31,-1,-1,33,-1,35,37,39,-1,-1,41,43,-1,45,47,49,51,-1,-1,-1,53,-1,-1,-1,-1,-1,-1,-1,-1,-1,-1,-1,-1,-1,-1,-1,-1,-1],"loss_changes":[1.9648462E-5,6.562186E-6,8.703617E-6,1.1153374E-5,2.106739E-6,4.893809E-6,1.8261999E-6,2.3080938E-6,3.4965778E-6,1.5505866E-6,2.002849E-6,2.892164E-6,1.6486601E-6,9.806608E-7,0E0,2.3447647E-6,1.2166274E-6,3.9569677E-6,0E0,4.1347124E-7,1.0588628E-6,4.9501966E-7,2.0616712E-6,1.7430866E-6,1.0000767E-6,7.799642E-7,4.9303708E-8,1.1389741E-6,2.3385655E-6,5.490947E-7,1.1945413E-6,2.4486071E-6,3.2148728E-6,1.8162405E-6,9.998294E-7,0E0,2.2024966E-7,1.3638637E-6,7.043318E-7,2.4688052E-7,4.2368129E-7,0E0,0E0,0E0,0E0,0E0,0E0,0E0,0E0,0E0,0E0,0E0,0E0,0E0,0E0],"parents":[2147483647,0,0,1,1,2,2,3,3,4,4,5,5,6,6,7,7,8,8,9,9,10,10,11,11,12,12,15,15,16,16,17,17,20,20,22,22,23,23,24,24,27,27,28,28,30,30,31,31,32,32,33,33,37,37],"right_children":[2,4,6,8,10,12,14,16,18,20,22,24,26,-1,-1,28,30,32,-1,-1,34,-1,36,38,40,-1,-1,42,44,-1,46,48,50,52,-1,-1,-1,54,-1,-1,-1,-1,-1,-1,-1,-1,-1,-1,-1,-1,-1,-1,-1,-1,-1],"split_conditions":[5.658497E0,7.2095E1,7.103E1,5E-1,1.3377019E1,7.074422E0,1.4339229E1,5.4996786E0,1.0841222E1,8.341061E0,5.851033E0,5E-1,6.288191E0,-2.225534E-4,1.05116946E-4,4.336E1,5E-1,5.4033546E0,1.7501287E-4,5.0819996E-5,5E-1,-1.5660253E-4,1.4263176E1,1.2461935E1,5.799E1,-3.214355E-5,-2.1338584E-4,3.452E1,5E-1,-3.721371E-4,6.0596495E0,3.771E1,5.4438696E0,5.9857836E0,-1.7245572E-4,2.0663689E-4,-8.733659E-5,9.1422615E0,-2.0657115E-4,-2.468411E-4,-1.17905074E-4,-2.2059736E-4,-5.120027E-5,-2.8025903E-4,-2.0868039E-4,-2.8914012E-4,-1.4672324E-4,-6.0000395E-5,-2.0849334E-4,1.8809611E-5,-1.3735541E-4,5.72861E-6,-1.5877314E-4,-1.8248303E-4,-3.1417434E-4],"split_indices":[1,8,8,6,2,0,2,1,0,2,0,6,1,0,0,8,4,1,0,0,7,0,2,2,8,0,0,8,5,0,3,8,1,3,0,0,0,2,0,0,0,0,0,0,0,0,0,0,0,0,0,0,0,0,0],"split_type":[0,0,0,0,0,0,0,0,0,0,0,0,0,0,0,0,0,0,0,0,0,0,0,0,0,0,0,0,0,0,0,0,0,0,0,0,0,0,0,0,0,0,0,0,0,0,0,0,0,0,0,0,0,0,0],"sum_hessian":[1.427E3,6.09E2,8.18E2,4.98E2,1.11E2,5.98E2,2.2E2,3E2,1.98E2,1E2,1.1E1,5.8E2,1.8E1,2.19E2,1E0,2.25E2,7.5E1,1.96E2,2E0,3E0,9.7E1,4E0,7E0,5.1E2,7E1,9E0,9E0,1.6E1,2.09E2,2.5E1,5E1,1.29E2,6.7E1,2.4E1,7.3E1,4E0,3E0,4.87E2,2.3E1,6.1E1,9E0,5E0,1.1E1,1E2,1.09E2,4E1,1E1,1.2E1,1.17E2,1.5E1,5.2E1,1E1,1.4E1,1.2E1,4.75E2],"tree_param":{"num_deleted":"0","num_feature":"9","num_nodes":"55","size_leaf_vector":"0"}},{"base_weights":[-8.1167714E-4,-6.730182E-4,-9.139608E-4,-7.2266645E-4,-4.4580852E-4,-9.783253E-4,-7.353714E-4,-8.4543414E-4,-5.333411E-4,-4.9109646E-4,-2.7484159E-5,-9.945445E-4,-4.308668E-4,-7.418987E-4,3.5032377E-4,-7.846623E-4,-1.0150261E-3,-5.476361E-4,5.831446E-4,1.6934212E-4,-5.13042E-4,-5.221656E-4,2.8512726E-4,-1.0232559E-3,-7.738957E-4,-1.07294356E-4,-7.113526E-4,-3.8007315E-4,-8.136783E-4,-1.2402665E-3,-8.802953E-4,-6.5087696E-4,-3.4221038E-4,-3.092458E-4,-5.7495903E-4,6.892052E-4,-2.9125196E-4,-1.0376166E-3,-6.8861636E-4,-7.35359E-4,-1.7075748E-4,-9.341699E-4,-6.95648E-4,-9.6375874E-4,-4.891775E-4,-5.6178495E-4,-9.061656E-4,6.258656E-5,-4.579564E-4,1.8955476E-5,-5.293104E-4,-8.719921E-4,-5.09255E-4,-6.0836156E-4,-1.0471601E-3],"categories":[],"categories_nodes":[],"categories_segments":[],"categories_sizes":[],"default_left":[1,1,1,1,1,1,1,1,1,1,1,1,1,0,0,1,1,1,0,0,1,0,1,1,0,0,0,1,1,0,1,1,1,1,1,0,0,1,0,0,0,0,0,0,0,0,0,0,0,0,0,0,0,0,0],"id":22,"left_children":[1,3,5,7,9,11,13,15,17,19,21,23,25,-1,-1,27,29,31,-1,-1,33,-1,35,37,-1,-1,-1,39,41,-1,43,45,47,49,51,-1,-1,53,-1,-1,-1,-1,-1,-1,-1,-1,-1,-1,-1,-1,-1,-1,-1,-1,-1],"loss_changes":[1.9637519E-5,6.5589556E-6,8.694769E-6,1.1147378E-5,2.1083488E-6,4.8902584E-6,1.8260762E-6,2.3057655E-6,3.4954282E-6,1.5507376E-6,2.0046007E-6,2.888788E-6,1.6480678E-6,9.810465E-7,0E0,2.3438915E-6,1.2145538E-6,3.9553015E-6,0E0,4.13556E-7,1.0588064E-6,4.952543E-7,2.0639493E-6,1.7412822E-6,9.99491E-7,7.804782E-7,4.932008E-8,1.138669E-6,2.3366883E-6,5.4883276E-7,1.1933989E-6,2.4476758E-6,3.21471E-6,1.81567E-6,1.0001386E-6,0E0,2.2033419E-7,1.3620011E-6,7.0442E-7,0E0,0E0,0E0,0E0,0E0,0E0,0E0,0E0,0E0,0E0,0E0,0E0,0E0,0E0,0E0,0E0],"parents":[2147483647,0,0,1,1,2,2,3,3,4,4,5,5,6,6,7,7,8,8,9,9,10,10,11,11,12,12,15,15,16,16,17,17,20,20,22,22,23,23,27,27,28,28,30,30,31,31,32,32,33,33,34,34,37,37],"right_children":[2,4,6,8,10,12,14,16,18,20,22,24,26,-1,-1,28,30,32,-1,-1,34,-1,36,38,-1,-1,-1,40,42,-1,44,46,48,50,52,-1,-1,54,-1,-1,-1,-1,-1,-1,-1,-1,-1,-1,-1,-1,-1,-1,-1,-1,-1],"split_conditions":[5.658497E0,7.2095E1,7.103E1,5E-1,1.3377019E1,7.074422E0,1.4339229E1,5.4996786E0,1.0841222E1,8.341061E0,5.851033E0,5E-1,6.288191E0,-2.2256962E-4,1.0509713E-4,4.336E1,5E-1,5.4033546E0,1.7494339E-4,5.080264E-5,5E-1,-1.566497E-4,1.4263176E1,1.2461935E1,-2.3216872E-4,-3.218831E-5,-2.134058E-4,3.452E1,5E-1,-3.7207996E-4,6.0596495E0,6.4130354E0,5.4438696E0,5.9857836E0,5.5155725E0,2.0676157E-4,-8.737559E-5,9.1422615E0,-2.0658491E-4,-2.206077E-4,-5.122725E-5,-2.80251E-4,-2.0869442E-4,-2.8912764E-4,-1.4675324E-4,-1.685355E-4,-2.7184968E-4,1.8775969E-5,-1.3738693E-4,5.686643E-6,-1.5879312E-4,-2.6159763E-4,-1.527765E-4,-1.8250848E-4,-3.1414806E-4],"split_indices":[1,8,8,6,2,0,2,1,0,2,0,6,1,0,0,8,4,1,0,0,7,0,2,2,0,0,0,8,5,0,3,3,1,3,3,0,0,2,0,0,0,0,0,0,0,0,0,0,0,0,0,0,0,0,0],"split_type":[0,0,0,0,0,0,0,0,0,0,0,0,0,0,0,0,0,0,0,0,0,0,0,0,0,0,0,0,0,0,0,0,0,0,0,0,0,0,0,0,0,0,0,0,0,0,0,0,0,0,0,0,0,0,0],"sum_hessian":[1.427E3,6.09E2,8.18E2,4.98E2,1.11E2,5.98E2,2.2E2,3E2,1.98E2,1E2,1.1E1,5.8E2,1.8E1,2.19E2,1E0,2.25E2,7.5E1,1.96E2,2E0,3E0,9.7E1,4E0,7E0,5.1E2,7E1,9E0,9E0,1.6E1,2.09E2,2.5E1,5E1,1.29E2,6.7E1,2.4E1,7.3E1,4E0,3E0,4.87E2,2.3E1,5E0,1.1E1,1E2,1.09E2,4E1,1E1,9.8E1,3.1E1,1.5E1,5.2E1,1E1,1.4E1,1.1E1,6.2E1,1.2E1,4.75E2],"tree_param":{"num_deleted":"0","num_feature":"9","num_nodes":"55","size_leaf_vector":"0"}},{"base_weights":[-8.1167714E-4,-6.7305495E-4,-9.1393344E-4,-7.226917E-4,-4.4589592E-4,-9.782685E-4,-7.3542376E-4,-8.454282E-4,-5.334135E-4,-4.9120025E-4,-2.7426542E-5,-9.944823E-4,-4.3097863E-4,-7.4195076E-4,3.5025534E-4,-7.8467914E-4,-1.0149528E-3,-5.4770574E-4,5.8291777E-4,1.6927451E-4,-5.1314617E-4,-5.2232837E-4,2.8531541E-4,-1.0231792E-3,-7.739392E-4,-1.07440675E-4,-7.1141875E-4,-3.8014355E-4,-8.1369065E-4,-1.2400798E-3,-8.8028115E-4,-6.5092504E-4,-3.4232027E-4,-3.0934653E-4,-5.7506294E-4,6.8960636E-4,-2.9137707E-4,-1.0375339E-3,-6.8866747E-4,-7.353913E-4,-1.7084106E-4,-9.341448E-4,-6.956947E-4,-9.637135E-4,-4.892805E-4,-2.0008435E-4,-6.9507764E-4,6.24679E-5,-4.580616E-4,1.8809946E-5,-5.2937155E-4,-6.084477E-4,-1.0470729E-3],"categories":[],"categories_nodes":[],"categories_segments":[],"categories_sizes":[],"default_left":[1,1,1,1,1,1,1,1,1,1,1,1,1,0,0,1,1,1,0,0,1,0,1,1,0,0,0,1,1,0,1,1,1,1,0,0,0,1,0,0,0,0,0,0,0,0,0,0,0,0,0,0,0],"id":23,"left_children":[1,3,5,7,9,11,13,15,17,19,21,23,25,-1,-1,27,29,31,-1,-1,33,-1,35,37,-1,-1,-1,39,41,-1,43,45,47,49,-1,-1,-1,51,-1,-1,-1,-1,-1,-1,-1,-1,-1,-1,-1,-1,-1,-1,-1],"loss_changes":[1.962675E-5,6.5557833E-6,8.686329E-6,1.114147E-5,2.1098767E-6,4.8867078E-6,1.8259234E-6,2.3034372E-6,3.4942968E-6,1.5508285E-6,2.0063474E-6,2.8852373E-6,1.6474919E-6,9.815776E-7,0E0,2.3430766E-6,1.2125602E-6,3.9535225E-6,0E0,4.1364862E-7,1.0587319E-6,4.9546736E-7,2.0661478E-6,1.7392449E-6,9.996256E-7,7.809705E-7,4.9335085E-8,1.1383872E-6,2.3348694E-6,5.485417E-7,1.192202E-6,2.4486799E-6,3.2144635E-6,1.8150229E-6,9.993837E-7,0E0,2.2039166E-7,1.3603712E-6,7.0448004E-7,0E0,0E0,0E0,0E0,0E0,0E0,0E0,0E0,0E0,0E0,0E0,0E0,0E0,0E0],"parents":[2147483647,0,0,1,1,2,2,3,3,4,4,5,5,6,6,7,7,8,8,9,9,10,10,11,11,12,12,15,15,16,16,17,17,20,20,22,22,23,23,27,27,28,28,30,30,31,31,32,32,33,33,37,37],"right_children":[2,4,6,8,10,12,14,16,18,20,22,24,26,-1,-1,28,30,32,-1,-1,34,-1,36,38,-1,-1,-1,40,42,-1,44,46,48,50,-1,-1,-1,52,-1,-1,-1,-1,-1,-1,-1,-1,-1,-1,-1,-1,-1,-1,-1],"split_conditions":[5.658497E0,7.2095E1,7.103E1,5E-1,1.3377019E1,7.074422E0,1.4339229E1,5.4996786E0,1.0841222E1,8.341061E0,5.851033E0,5E-1,6.288191E0,-2.2258524E-4,1.0507661E-4,4.336E1,5E-1,5.4033546E0,1.7487534E-4,5.0782357E-5,5E-1,-1.5669852E-4,1.4263176E1,1.2461935E1,-2.3218176E-4,-3.2232205E-5,-2.1342564E-4,3.452E1,5E-1,-3.7202393E-4,6.0596495E0,3.771E1,5.4438696E0,5.9857836E0,-1.7251889E-4,2.0688192E-4,-8.741312E-5,9.1422615E0,-2.0660025E-4,-2.206174E-4,-5.125232E-5,-2.8024343E-4,-2.0870841E-4,-2.8911408E-4,-1.4678415E-4,-6.0025308E-5,-2.085233E-4,1.8740371E-5,-1.374185E-4,5.642984E-6,-1.5881147E-4,-1.8253432E-4,-3.141219E-4],"split_indices":[1,8,8,6,2,0,2,1,0,2,0,6,1,0,0,8,4,1,0,0,7,0,2,2,0,0,0,8,5,0,3,8,1,3,0,0,0,2,0,0,0,0,0,0,0,0,0,0,0,0,0,0,0],"split_type":[0,0,0,0,0,0,0,0,0,0,0,0,0,0,0,0,0,0,0,0,0,0,0,0,0,0,0,0,0,0,0,0,0,0,0,0,0,0,0,0,0,0,0,0,0,0,0,0,0,0,0,0,0],"sum_hessian":[1.427E3,6.09E2,8.18E2,4.98E2,1.11E2,5.98E2,2.2E2,3E2,1.98E2,1E2,1.1E1,5.8E2,1.8E1,2.19E2,1E0,2.25E2,7.5E1,1.96E2,2E0,3E0,9.7E1,4E0,7E0,5.1E2,7E1,9E0,9E0,1.6E1,2.09E2,2.5E1,5E1,1.29E2,6.7E1,2.4E1,7.3E1,4E0,3E0,4.87E2,2.3E1,5E0,1.1E1,1E2,1.09E2,4E1,1E1,1.2E1,1.17E2,1.5E1,5.2E1,1E1,1.4E1,1.2E1,4.75E2],"tree_param":{"num_deleted":"0","num_feature":"9","num_nodes":"53","size_leaf_vector":"0"}},{"base_weights":[-8.1167714E-4,-6.73092E-4,-9.139058E-4,-7.227173E-4,-4.459838E-4,-9.782109E-4,-7.3547725E-4,-8.454218E-4,-5.3348736E-4,-4.9130537E-4,-2.736187E-5,-9.944193E-4,-4.310922E-4,-7.420039E-4,3.5019455E-4,-7.8469544E-4,-1.014879E-3,-5.4777693E-4,5.8269E-4,1.6921459E-4,-5.1325205E-4,-5.2248716E-4,2.8551166E-4,-1.0231013E-3,-7.739838E-4,-1.0759073E-4,-7.1148446E-4,-3.8021908E-4,-8.137021E-4,-1.2398901E-3,-8.802679E-4,-6.509759E-4,-3.4242915E-4,-3.0944622E-4,-5.751696E-4,6.9002324E-4,-2.9150574E-4,-1.0374499E-3,-6.887161E-4,-7.354276E-4,-1.7092988E-4,-9.3411846E-4,-6.957407E-4,-9.6367E-4,-4.8938097E-4,-2.0021864E-4,-6.9511886E-4,6.2353174E-5,-4.5816664E-4,1.8669813E-5,-5.294349E-4,-6.0853397E-4,-1.0469846E-3],"categories":[],"categories_nodes":[],"categories_segments":[],"categories_sizes":[],"default_left":[1,1,1,1,1,1,1,1,1,1,1,1,1,0,0,1,1,1,0,0,1,0,1,1,0,0,0,1,1,0,1,1,1,1,0,0,0,1,0,0,0,0,0,0,0,0,0,0,0,0,0,0,0],"id":24,"left_children":[1,3,5,7,9,11,13,15,17,19,21,23,25,-1,-1,27,29,31,-1,-1,33,-1,35,37,-1,-1,-1,39,41,-1,43,45,47,49,-1,-1,-1,51,-1,-1,-1,-1,-1,-1,-1,-1,-1,-1,-1,-1,-1,-1,-1],"loss_changes":[1.9615865E-5,6.552553E-6,8.677656E-6,1.1135446E-5,2.1114884E-6,4.883157E-6,1.825807E-6,2.3010798E-6,3.493169E-6,1.5509686E-6,2.0081154E-6,2.8816285E-6,1.6468894E-6,9.820142E-7,0E0,2.3421599E-6,1.2105302E-6,3.951849E-6,0E0,4.137438E-7,1.0586919E-6,4.956904E-7,2.0684274E-6,1.7372076E-6,9.997675E-7,7.814684E-7,4.9350092E-8,1.1380957E-6,2.3330358E-6,5.482616E-7,1.1910379E-6,2.447534E-6,3.2142652E-6,1.8144294E-6,9.994728E-7,0E0,2.2046399E-7,1.3585668E-6,7.04551E-7,0E0,0E0,0E0,0E0,0E0,0E0,0E0,0E0,0E0,0E0,0E0,0E0,0E0,0E0],"parents":[2147483647,0,0,1,1,2,2,3,3,4,4,5,5,6,6,7,7,8,8,9,9,10,10,11,11,12,12,15,15,16,16,17,17,20,20,22,22,23,23,27,27,28,28,30,30,31,31,32,32,33,33,37,37],"right_children":[2,4,6,8,10,12,14,16,18,20,22,24,26,-1,-1,28,30,32,-1,-1,34,-1,36,38,-1,-1,-1,40,42,-1,44,46,48,50,-1,-1,-1,52,-1,-1,-1,-1,-1,-1,-1,-1,-1,-1,-1,-1,-1,-1,-1],"split_conditions":[5.658497E0,7.2095E1,7.103E1,5E-1,1.3377019E1,7.074422E0,1.4339229E1,5.4996786E0,1.0841222E1,8.341061E0,5.851033E0,5E-1,6.288191E0,-2.2260119E-4,1.0505837E-4,4.336E1,5E-1,5.4033546E0,1.74807E-4,5.0764378E-5,5E-1,-1.5674616E-4,1.4263176E1,1.2461935E1,-2.3219515E-4,-3.227722E-5,-2.1344535E-4,3.452E1,5E-1,-3.7196706E-4,6.0596495E0,3.771E1,5.4438696E0,5.9857836E0,-1.7255088E-4,2.0700697E-4,-8.745173E-5,9.1422615E0,-2.0661484E-4,-2.206283E-4,-5.1278967E-5,-2.8023554E-4,-2.0872221E-4,-2.89101E-4,-1.468143E-4,-6.0065595E-5,-2.0853567E-4,1.8705952E-5,-1.3745E-4,5.600944E-6,-1.5883047E-4,-1.825602E-4,-3.1409538E-4],"split_indices":[1,8,8,6,2,0,2,1,0,2,0,6,1,0,0,8,4,1,0,0,7,0,2,2,0,0,0,8,5,0,3,8,1,3,0,0,0,2,0,0,0,0,0,0,0,0,0,0,0,0,0,0,0],"split_type":[0,0,0,0,0,0,0,0,0,0,0,0,0,0,0,0,0,0,0,0,0,0,0,0,0,0,0,0,0,0,0,0,0,0,0,0,0,0,0,0,0,0,0,0,0,0,0,0,0,0,0,0,0],"sum_hessian":[1.427E3,6.09E2,8.18E2,4.98E2,1.11E2,5.98E2,2.2E2,3E2,1.98E2,1E2,1.1E1,5.8E2,1.8E1,2.19E2,1E0,2.25E2,7.5E1,1.96E2,2E0,3E0,9.7E1,4E0,7E0,5.1E2,7E1,9E0,9E0,1.6E1,2.09E2,2.5E1,5E1,1.29E2,6.7E1,2.4E1,7.3E1,4E0,3E0,4.87E2,2.3E1,5E0,1.1E1,1E2,1.09E2,4E1,1E1,1.2E1,1.17E2,1.5E1,5.2E1,1E1,1.4E1,1.2E1,4.75E2],"tree_param":{"num_deleted":"0","num_feature":"9","num_nodes":"53","size_leaf_vector":"0"}},{"base_weights":[-8.1167714E-4,-6.731291E-4,-9.138782E-4,-7.2274293E-4,-4.4607176E-4,-9.781535E-4,-7.3553063E-4,-8.454154E-4,-5.3356116E-4,-4.9141055E-4,-2.7297874E-5,-9.943563E-4,-4.3120573E-4,-7.42057E-4,3.501335E-4,-7.847117E-4,-1.0148053E-3,-5.4784806E-4,5.8246264E-4,1.6915446E-4,-5.13358E-4,-5.226459E-4,2.8570686E-4,-1.0230235E-3,-7.740283E-4,-1.0774075E-4,-7.115501E-4,-3.802946E-4,-8.137135E-4,-1.2397006E-3,-8.802546E-4,-6.510268E-4,-3.42538E-4,-3.0954593E-4,-5.7527615E-4,6.904385E-4,-2.9163444E-4,-1.0373661E-3,-6.8876473E-4,-7.354638E-4,-1.7101875E-4,-9.3409215E-4,-6.957866E-4,-9.6362655E-4,-4.8948143E-4,-5.619256E-4,-9.063389E-4,6.223835E-5,-4.5827165E-4,1.8529587E-5,-5.2949827E-4,-6.086202E-4,-1.0468962E-3],"categories":[],"categories_nodes":[],"categories_segments":[],"categories_sizes":[],"default_left":[1,1,1,1,1,1,1,1,1,1,1,1,1,0,0,1,1,1,0,0,1,0,1,1,0,0,0,1,1,0,1,1,1,1,0,0,0,1,0,0,0,0,0,0,0,0,0,0,0,0,0,0,0],"id":25,"left_children":[1,3,5,7,9,11,13,15,17,19,21,23,25,-1,-1,27,29,31,-1,-1,33,-1,35,37,-1,-1,-1,39,41,-1,43,45,47,49,-1,-1,-1,51,-1,-1,-1,-1,-1,-1,-1,-1,-1,-1,-1,-1,-1,-1,-1],"loss_changes":[1.9604922E-5,6.5493805E-6,8.669042E-6,1.1129392E-5,2.1130945E-6,4.8796646E-6,1.8256978E-6,2.2987224E-6,3.492045E-6,1.551105E-6,2.0098785E-6,2.877845E-6,1.6462873E-6,9.824071E-7,0E0,2.3412576E-6,1.2084929E-6,3.9501756E-6,0E0,4.1383908E-7,1.0586537E-6,4.9591347E-7,2.0707023E-6,1.7352868E-6,9.999094E-7,7.819666E-7,4.93651E-8,1.137804E-6,2.3312168E-6,5.4797783E-7,1.1898774E-6,2.448025E-6,3.214067E-6,1.8138355E-6,9.997038E-7,0E0,2.2053632E-7,1.3568788E-6,7.046219E-7,0E0,0E0,0E0,0E0,0E0,0E0,0E0,0E0,0E0,0E0,0E0,0E0,0E0,0E0],"parents":[2147483647,0,0,1,1,2,2,3,3,4,4,5,5,6,6,7,7,8,8,9,9,10,10,11,11,12,12,15,15,16,16,17,17,20,20,22,22,23,23,27,27,28,28,30,30,31,31,32,32,33,33,37,37],"right_children":[2,4,6,8,10,12,14,16,18,20,22,24,26,-1,-1,28,30,32,-1,-1,34,-1,36,38,-1,-1,-1,40,42,-1,44,46,48,50,-1,-1,-1,52,-1,-1,-1,-1,-1,-1,-1,-1,-1,-1,-1,-1,-1,-1,-1],"split_conditions":[5.658497E0,7.2095E1,7.103E1,5E-1,1.3377019E1,7.074422E0,1.4339229E1,5.4996786E0,1.0841222E1,8.341061E0,5.851033E0,5E-1,6.288191E0,-2.226171E-4,1.0504005E-4,4.336E1,5E-1,5.4033546E0,1.747388E-4,5.074634E-5,5E-1,-1.5679377E-4,1.4263176E1,1.2461935E1,-2.322085E-4,-3.2322227E-5,-2.1346504E-4,3.452E1,5E-1,-3.719102E-4,6.0596495E0,6.4130354E0,5.4438696E0,5.9857836E0,-1.7258285E-4,2.0713155E-4,-8.7490334E-5,9.1422615E0,-2.0662943E-4,-2.2063915E-4,-5.1305626E-5,-2.8022766E-4,-2.0873599E-4,-2.8908797E-4,-1.4684444E-4,-1.6857768E-4,-2.719017E-4,1.8671506E-5,-1.374815E-4,5.558876E-6,-1.5884949E-4,-1.8258605E-4,-3.1406886E-4],"split_indices":[1,8,8,6,2,0,2,1,0,2,0,6,1,0,0,8,4,1,0,0,7,0,2,2,0,0,0,8,5,0,3,3,1,3,0,0,0,2,0,0,0,0,0,0,0,0,0,0,0,0,0,0,0],"split_type":[0,0,0,0,0,0,0,0,0,0,0,0,0,0,0,0,0,0,0,0,0,0,0,0,0,0,0,0,0,0,0,0,0,0,0,0,0,0,0,0,0,0,0,0,0,0,0,0,0,0,0,0,0],"sum_hessian":[1.427E3,6.09E2,8.18E2,4.98E2,1.11E2,5.98E2,2.2E2,3E2,1.98E2,1E2,1.1E1,5.8E2,1.8E1,2.19E2,1E0,2.25E2,7.5E1,1.96E2,2E0,3E0,9.7E1,4E0,7E0,5.1E2,7E1,9E0,9E0,1.6E1,2.09E2,2.5E1,5E1,1.29E2,6.7E1,2.4E1,7.3E1,4E0,3E0,4.87E2,2.3E1,5E0,1.1E1,1E2,1.09E2,4E1,1E1,9.8E1,3.1E1,1.5E1,5.2E1,1E1,1.4E1,1.2E1,4.75E2],"tree_param":{"num_deleted":"0","num_feature":"9","num_nodes":"53","size_leaf_vector":"0"}},{"base_weights":[-8.1167714E-4,-6.731661E-4,-9.138506E-4,-7.227681E-4,-4.4616128E-4,-9.780965E-4,-7.35583E-4,-8.454086E-4,-5.336346E-4,-4.915166E-4,-2.7240576E-5,-9.942938E-4,-4.3131845E-4,-7.42109E-4,3.5006783E-4,-7.847276E-4,-1.0147309E-3,-5.479188E-4,5.822394E-4,1.6909202E-4,-5.1346474E-4,-5.2280986E-4,2.858953E-4,-1.0229464E-3,-7.7407184E-4,-1.07888176E-4,-7.116169E-4,-3.8036788E-4,-8.137247E-4,-1.2395115E-3,-8.802402E-4,-6.5107585E-4,-3.4264915E-4,-3.0964662E-4,-5.753835E-4,6.9084595E-4,-2.917668E-4,-1.037283E-3,-6.88814E-4,-8.23019E-4,-3.9319208E-4,-7.354966E-4,-1.711062E-4,-9.3406526E-4,-6.958327E-4,-9.635808E-4,-4.895851E-4,-2.0030356E-4,-6.952196E-4,6.211899E-5,-4.5837823E-4,1.8381632E-5,-5.295575E-4,-8.7245106E-4,-5.096661E-4,-6.087075E-4,-1.0468087E-3],"categories":[],"categories_nodes":[],"categories_segments":[],"categories_sizes":[],"default_left":[1,1,1,1,1,1,1,1,1,1,1,1,1,0,0,1,1,1,0,0,1,0,1,1,1,0,0,1,1,0,1,1,1,1,1,0,0,1,0,0,0,0,0,0,0,0,0,0,0,0,0,0,0,0,0,0,0],"id":26,"left_children":[1,3,5,7,9,11,13,15,17,19,21,23,25,-1,-1,27,29,31,-1,-1,33,-1,35,37,39,-1,-1,41,43,-1,45,47,49,51,53,-1,-1,55,-1,-1,-1,-1,-1,-1,-1,-1,-1,-1,-1,-1,-1,-1,-1,-1,-1,-1,-1],"loss_changes":[1.9594096E-5,6.5460335E-6,8.660485E-6,1.1123397E-5,2.1146407E-6,4.876114E-6,1.8255596E-6,2.2963795E-6,3.4909535E-6,1.551236E-6,2.0116352E-6,2.8741779E-6,1.6457077E-6,9.828946E-7,0E0,2.3403845E-6,1.2064775E-6,3.9483857E-6,0E0,4.139294E-7,1.0586118E-6,4.9611424E-7,2.0729628E-6,1.7333659E-6,1.0000476E-6,7.8248866E-7,4.9381924E-8,1.1375039E-6,2.3293542E-6,5.476977E-7,1.1886732E-6,2.4475885E-6,3.2138278E-6,1.8131591E-6,1.0000058E-6,0E0,2.2059271E-7,1.3550161E-6,7.0466376E-7,2.4705514E-7,4.247263E-7,0E0,0E0,0E0,0E0,0E0,0E0,0E0,0E0,0E0,0E0,0E0,0E0,0E0,0E0,0E0,0E0],"parents":[2147483647,0,0,1,1,2,2,3,3,4,4,5,5,6,6,7,7,8,8,9,9,10,10,11,11,12,12,15,15,16,16,17,17,20,20,22,22,23,23,24,24,27,27,28,28,30,30,31,31,32,32,33,33,34,34,37,37],"right_children":[2,4,6,8,10,12,14,16,18,20,22,24,26,-1,-1,28,30,32,-1,-1,34,-1,36,38,40,-1,-1,42,44,-1,46,48,50,52,54,-1,-1,56,-1,-1,-1,-1,-1,-1,-1,-1,-1,-1,-1,-1,-1,-1,-1,-1,-1,-1,-1],"split_conditions":[5.658497E0,7.2095E1,7.103E1,5E-1,1.3377019E1,7.074422E0,1.4339229E1,5.4996786E0,1.0841222E1,8.341061E0,5.851033E0,5E-1,6.288191E0,-2.2263272E-4,1.0502035E-4,4.336E1,5E-1,5.4033546E0,1.7467183E-4,5.072761E-5,5E-1,-1.5684296E-4,1.4263176E1,1.2461935E1,5.799E1,-3.2366454E-5,-2.1348508E-4,3.452E1,5E-1,-3.7185347E-4,6.0596495E0,3.771E1,5.4438696E0,5.9857836E0,5.5155725E0,2.0725379E-4,-8.753005E-5,9.1422615E0,-2.066442E-4,-2.4690572E-4,-1.1795763E-4,-2.2064899E-4,-5.1331863E-5,-2.802196E-4,-2.0874983E-4,-2.8907426E-4,-1.4687554E-4,-6.009107E-5,-2.0856589E-4,1.8635697E-5,-1.3751347E-4,5.5144897E-6,-1.5886726E-4,-2.6173532E-4,-1.5289984E-4,-1.8261225E-4,-3.140426E-4],"split_indices":[1,8,8,6,2,0,2,1,0,2,0,6,1,0,0,8,4,1,0,0,7,0,2,2,8,0,0,8,5,0,3,8,1,3,3,0,0,2,0,0,0,0,0,0,0,0,0,0,0,0,0,0,0,0,0,0,0],"split_type":[0,0,0,0,0,0,0,0,0,0,0,0,0,0,0,0,0,0,0,0,0,0,0,0,0,0,0,0,0,0,0,0,0,0,0,0,0,0,0,0,0,0,0,0,0,0,0,0,0,0,0,0,0,0,0,0,0],"sum_hessian":[1.427E3,6.09E2,8.18E2,4.98E2,1.11E2,5.98E2,2.2E2,3E2,1.98E2,1E2,1.1E1,5.8E2,1.8E1,2.19E2,1E0,2.25E2,7.5E1,1.96E2,2E0,3E0,9.7E1,4E0,7E0,5.1E2,7E1,9E0,9E0,1.6E1,2.09E2,2.5E1,5E1,1.29E2,6.7E1,2.4E1,7.3E1,4E0,3E0,4.87E2,2.3E1,6.1E1,9E0,5E0,1.1E1,1E2,1.09E2,4E1,1E1,1.2E1,1.17E2,1.5E1,5.2E1,1E1,1.4E1,1.1E1,6.2E1,1.2E1,4.75E2],"tree_param":{"num_deleted":"0","num_feature":"9","num_nodes":"57","size_leaf_vector":"0"}},{"base_weights":[-8.1167714E-4,-6.7320303E-4,-9.138231E-4,-7.2279375E-4,-4.46248E-4,-9.780389E-4,-7.3563727E-4,-8.454033E-4,-5.3370703E-4,-4.916198E-4,-2.7181452E-5,-9.942309E-4,-4.3143088E-4,-7.4216287E-4,3.4999693E-4,-7.847447E-4,-1.014659E-3,-5.4798846E-4,5.820075E-4,1.6902745E-4,-5.1356846E-4,-5.229659E-4,2.8608151E-4,-1.0228697E-3,-7.741081E-4,-1.0803613E-4,-7.1168254E-4,-3.804406E-4,-8.137372E-4,-1.2393245E-3,-8.8022836E-4,-6.5112545E-4,-3.4275613E-4,-3.0974846E-4,-5.7548645E-4,6.912426E-4,-2.9189017E-4,-1.0372003E-3,-6.888617E-4,-7.355299E-4,-1.7119257E-4,-9.3404E-4,-6.9587975E-4,-9.635395E-4,-4.8968435E-4,-5.6203094E-4,-9.0641377E-4,6.200672E-5,-4.5848158E-4,1.8243381E-5,-5.296259E-4,-6.087911E-4,-1.0467216E-3],"categories":[],"categories_nodes":[],"categories_segments":[],"categories_sizes":[],"default_left":[1,1,1,1,1,1,1,1,1,1,1,1,1,0,0,1,1,1,0,0,1,0,1,1,0,0,0,1,1,0,1,1,1,1,0,0,0,1,0,0,0,0,0,0,0,0,0,0,0,0,0,0,0],"id":27,"left_children":[1,3,5,7,9,11,13,15,17,19,21,23,25,-1,-1,27,29,31,-1,-1,33,-1,35,37,-1,-1,-1,39,41,-1,43,45,47,49,-1,-1,-1,51,-1,-1,-1,-1,-1,-1,-1,-1,-1,-1,-1,-1,-1,-1,-1],"loss_changes":[1.9583269E-5,6.5429485E-6,8.651754E-6,1.1117518E-5,2.1161813E-6,4.8726215E-6,1.8254141E-6,2.2940512E-6,3.4897894E-6,1.5513397E-6,2.0133418E-6,2.8709183E-6,1.6451193E-6,9.833311E-7,0E0,2.339555E-6,1.2044547E-6,3.946727E-6,0E0,4.140181E-7,1.058519E-6,4.9636037E-7,2.0751397E-6,1.7313869E-6,9.994546E-7,7.8297603E-7,4.9395567E-8,1.1372119E-6,2.3275206E-6,5.4742486E-7,1.1875381E-6,2.4473884E-6,3.2136413E-6,1.8126127E-6,9.995529E-7,0E0,2.2067829E-7,1.3533281E-6,7.0476744E-7,0E0,0E0,0E0,0E0,0E0,0E0,0E0,0E0,0E0,0E0,0E0,0E0,0E0,0E0],"parents":[2147483647,0,0,1,1,2,2,3,3,4,4,5,5,6,6,7,7,8,8,9,9,10,10,11,11,12,12,15,15,16,16,17,17,20,20,22,22,23,23,27,27,28,28,30,30,31,31,32,32,33,33,37,37],"right_children":[2,4,6,8,10,12,14,16,18,20,22,24,26,-1,-1,28,30,32,-1,-1,34,-1,36,38,-1,-1,-1,40,42,-1,44,46,48,50,-1,-1,-1,52,-1,-1,-1,-1,-1,-1,-1,-1,-1,-1,-1,-1,-1,-1,-1],"split_conditions":[5.658497E0,7.2095E1,7.103E1,5E-1,1.3377019E1,7.074422E0,1.4339229E1,5.4996786E0,1.0841222E1,8.341061E0,5.851033E0,5E-1,6.288191E0,-2.2264887E-4,1.0499908E-4,4.336E1,5E-1,5.4033546E0,1.7460226E-4,5.0708237E-5,5E-1,-1.5688979E-4,1.4263176E1,1.2461935E1,-2.3223244E-4,-3.241084E-5,-2.1350477E-4,3.452E1,5E-1,-3.7179736E-4,6.0596495E0,6.4130354E0,5.4438696E0,5.9857836E0,-1.7264594E-4,2.0737278E-4,-8.756705E-5,9.1422615E0,-2.0665851E-4,-2.2065897E-4,-5.1357772E-5,-2.80212E-4,-2.0876393E-4,-2.8906186E-4,-1.4690531E-4,-1.6860929E-4,-2.7192413E-4,1.8602017E-5,-1.3754448E-4,5.4730144E-6,-1.5888778E-4,-1.8263733E-4,-3.1401648E-4],"split_indices":[1,8,8,6,2,0,2,1,0,2,0,6,1,0,0,8,4,1,0,0,7,0,2,2,0,0,0,8,5,0,3,3,1,3,0,0,0,2,0,0,0,0,0,0,0,0,0,0,0,0,0,0,0],"split_type":[0,0,0,0,0,0,0,0,0,0,0,0,0,0,0,0,0,0,0,0,0,0,0,0,0,0,0,0,0,0,0,0,0,0,0,0,0,0,0,0,0,0,0,0,0,0,0,0,0,0,0,0,0],"sum_hessian":[1.427E3,6.09E2,8.18E2,4.98E2,1.11E2,5.98E2,2.2E2,3E2,1.98E2,1E2,1.1E1,5.8E2,1.8E1,2.19E2,1E0,2.25E2,7.5E1,1.96E2,2E0,3E0,9.7E1,4E0,7E0,5.1E2,7E1,9E0,9E0,1.6E1,2.09E2,2.5E1,5E1,1.29E2,6.7E1,2.4E1,7.3E1,4E0,3E0,4.87E2,2.3E1,5E0,1.1E1,1E2,1.09E2,4E1,1E1,9.8E1,3.1E1,1.5E1,5.2E1,1E1,1.4E1,1.2E1,4.75E2],"tree_param":{"num_deleted":"0","num_feature":"9","num_nodes":"53","size_leaf_vector":"0"}},{"base_weights":[-8.1167714E-4,-6.7324005E-4,-9.1379555E-4,-7.228189E-4,-4.4633765E-4,-9.779818E-4,-7.3568954E-4,-8.453964E-4,-5.3378043E-4,-4.9172586E-4,-2.7125549E-5,-9.941683E-4,-4.3154354E-4,-7.422148E-4,3.499308E-4,-7.847606E-4,-1.0145847E-3,-5.480592E-4,5.8178516E-4,1.6896465E-4,-5.136752E-4,-5.2312994E-4,2.8626787E-4,-1.0227927E-3,-7.7415153E-4,-1.0818352E-4,-7.117492E-4,-3.8051387E-4,-8.1374834E-4,-1.2391357E-3,-8.802139E-4,-6.511745E-4,-3.4286725E-4,-3.098492E-4,-5.755938E-4,6.9164677E-4,-2.920227E-4,-1.0371172E-3,-6.889109E-4,-7.355624E-4,-1.712801E-4,-9.3401305E-4,-6.959258E-4,-9.634937E-4,-4.89788E-4,-2.0038654E-4,-6.9531915E-4,6.1887156E-5,-4.5858807E-4,1.8095247E-5,-5.296852E-4,-6.088784E-4,-1.0466339E-3],"categories":[],"categories_nodes":[],"categories_segments":[],"categories_sizes":[],"default_left":[1,1,1,1,1,1,1,1,1,1,1,1,1,0,0,1,1,1,0,0,1,0,1,1,0,0,0,1,1,0,1,1,1,1,0,0,0,1,0,0,0,0,0,0,0,0,0,0,0,0,0,0,0],"id":28,"left_children":[1,3,5,7,9,11,13,15,17,19,21,23,25,-1,-1,27,29,31,-1,-1,33,-1,35,37,-1,-1,-1,39,41,-1,43,45,47,49,-1,-1,-1,51,-1,-1,-1,-1,-1,-1,-1,-1,-1,-1,-1,-1,-1,-1,-1],"loss_changes":[1.9572384E-5,6.5396016E-6,8.643256E-6,1.1111522E-5,2.1177184E-6,4.869129E-6,1.8252686E-6,2.291723E-6,3.4887053E-6,1.551467E-6,2.0150894E-6,2.8672512E-6,1.6445397E-6,9.838113E-7,0E0,2.338682E-6,1.2024539E-6,3.944944E-6,0E0,4.141088E-7,1.0584718E-6,4.9656114E-7,2.077391E-6,1.729466E-6,9.995965E-7,7.83499E-7,4.9412392E-8,1.1369111E-6,2.325658E-6,5.471411E-7,1.1863376E-6,2.447654E-6,3.2133985E-6,1.811934E-6,9.995911E-7,0E0,2.2073468E-7,1.3515819E-6,7.048102E-7,0E0,0E0,0E0,0E0,0E0,0E0,0E0,0E0,0E0,0E0,0E0,0E0,0E0,0E0],"parents":[2147483647,0,0,1,1,2,2,3,3,4,4,5,5,6,6,7,7,8,8,9,9,10,10,11,11,12,12,15,15,16,16,17,17,20,20,22,22,23,23,27,27,28,28,30,30,31,31,32,32,33,33,37,37],"right_children":[2,4,6,8,10,12,14,16,18,20,22,24,26,-1,-1,28,30,32,-1,-1,34,-1,36,38,-1,-1,-1,40,42,-1,44,46,48,50,-1,-1,-1,52,-1,-1,-1,-1,-1,-1,-1,-1,-1,-1,-1,-1,-1,-1,-1],"split_conditions":[5.658497E0,7.2095E1,7.103E1,5E-1,1.3377019E1,7.074422E0,1.4339229E1,5.4996786E0,1.0841222E1,8.341061E0,5.851033E0,5E-1,6.288191E0,-2.2266444E-4,1.0497925E-4,4.336E1,5E-1,5.4033546E0,1.7453555E-4,5.0689396E-5,5E-1,-1.5693899E-4,1.4263176E1,1.2461935E1,-2.3224547E-4,-3.2455056E-5,-2.1352476E-4,3.452E1,5E-1,-3.7174075E-4,6.0596495E0,3.771E1,5.4438696E0,5.9857836E0,-1.7267815E-4,2.0749404E-4,-8.7606815E-5,9.1422615E0,-2.0667327E-4,-2.2066873E-4,-5.138403E-5,-2.8020394E-4,-2.0877774E-4,-2.8904813E-4,-1.469364E-4,-6.0115963E-5,-2.0859575E-4,1.8566148E-5,-1.3757643E-4,5.4285742E-6,-1.5890556E-4,-1.8266353E-4,-3.139902E-4],"split_indices":[1,8,8,6,2,0,2,1,0,2,0,6,1,0,0,8,4,1,0,0,7,0,2,2,0,0,0,8,5,0,3,8,1,3,0,0,0,2,0,0,0,0,0,0,0,0,0,0,0,0,0,0,0],"split_type":[0,0,0,0,0,0,0,0,0,0,0,0,0,0,0,0,0,0,0,0,0,0,0,0,0,0,0,0,0,0,0,