{"learner":{"attributes":{"best_iteration":"0","best_ntree_limit":"1","scikit_learn":"{\"cum_hazard_baseline\": null, \"model_type\": \"eh_objective\", \"n_estimators\": 1, \"max_depth\": null, \"max_leaves\": null, \"max_bin\": null, \"grow_policy\": null, \"learning_rate\": 0.1, \"verbosity\": 3, \"booster\": null, \"tree_method\": null, \"gamma\": null, \"min_child_weight\": null, \"max_delta_step\": null, \"subsample\": null, \"sampling_method\": null, \"colsample_bytree\": null, \"colsample_bylevel\": null, \"colsample_bynode\": null, \"reg_alpha\": null, \"reg_lambda\": null, \"scale_pos_weight\": null, \"base_score\": 0.0, \"missing\": NaN, \"num_parallel_tree\": null, \"random_state\": 7, \"n_jobs\": null, \"monotone_constraints\": null, \"interaction_constraints\": null, \"importance_type\": null, \"gpu_id\": null, \"validate_parameters\": null, \"predictor\": null, \"enable_categorical\": false, \"feature_types\": null, \"max_cat_to_onehot\": null, \"max_cat_threshold\": null, \"early_stopping_rounds\": null, \"callbacks\": null, \"kwargs\": {\"disable_default_metric\": true}, \"evals_result_\": {\"validation_0\": {\"rmse\": [147.87694956064638], \"eh_likelihood\": [2573.52013]}}, \"_estimator_type\": \"regressor\"}"},"feature_names":[],"feature_types":[],"gradient_booster":{"model":{"gbtree_model_param":{"num_parallel_tree":"1","num_trees":"2","size_leaf_vector":"0"},"tree_info":[0,1],"trees":[{"base_weights":[-9.349198E-11,-1.2142937E-2,7.730168E-2,1.6485926E-2,-2.8460873E-2,3.4419823E-1,6.3971736E-2,2.2738962E-2,-6.0506683E-2,-3.2195605E-2,1.2419537E-1,4.391519E-2,3.7624422E-1,3.242343E-2,1.5151653E-1,4.996584E-2,-8.2142674E-4,-1.8246007E-1,-3.318851E-2,6.8929985E-2,-3.769263E-2,-9.821502E-2,2.6211935E-1,4.6941113E-1,1.6572452E-1,2.3299284E-2,2.704658E-1,1.6135149E-1,-1.6028072E-1,6.485152E-2,-1.9085286E-2,8.201718E-2,-2.1526517E-2,-6.377286E-2,-2.2586045E-1,-6.354748E-2,3.0848276E-2,9.591148E-2,-3.4663122E-2,-8.5959E-2,-3.0160563E-2,6.992444E-2,-2.1308358E-1,-2.619446E-3,3.948162E-1,5.668287E-1,2.1552317E-1,6.3633665E-2,-2.6012907E-2,4.283956E-3,4.4649234E-1,2.1154812E-1,7.360144E-2,5.2676458E-2,2.2387272E-1,7.048509E-2,-8.978733E-2,-6.1596796E-2,1.2480966E-1,-1.1672306E-1,-1.2164872E-2,-3.962381E-3,-1.22736335E-1,8.496555E-2,-7.156902E-2,2.5553226E-1,7.058753E-2,-4.2910468E-2,-1.362633E-2,1.830342E-2,-1.0072008E-1,-3.5511147E-2,3.030483E-2,9.296425E-2,4.0249334E-4,-2.0147128E-2,1.5781384E-2,5.3076543E-2,4.3605375E-1,1.0439033E-1,-1.5624416E-2,-9.568136E-2,4.4494677E-2,-2.943025E-2,3.5856184E-2,1.3051051E-1,5.139468E-1,1.0844442E-1,-8.4170856E-2],"categories":[],"categories_nodes":[],"categories_segments":[],"categories_sizes":[],"default_left":[1,1,1,1,1,1,1,1,1,1,1,0,1,1,1,1,1,1,1,1,1,1,1,1,0,1,1,1,0,1,1,1,1,0,0,1,1,1,1,1,1,1,0,1,1,0,0,1,1,1,0,1,1,0,0,0,0,0,0,0,0,0,0,0,0,0,0,0,0,0,0,0,0,0,0,0,0,0,0,0,0,0,0,0,0,0,0,0,0],"id":0,"left_children":[1,3,5,7,9,11,13,15,17,19,21,-1,23,25,27,29,31,33,35,37,39,41,43,45,-1,47,49,51,-1,53,55,57,59,-1,-1,61,63,65,67,69,71,73,-1,75,77,-1,-1,79,81,83,-1,85,87,-1,-1,-1,-1,-1,-1,-1,-1,-1,-1,-1,-1,-1,-1,-1,-1,-1,-1,-1,-1,-1,-1,-1,-1,-1,-1,-1,-1,-1,-1,-1,-1,-1,-1,-1,-1],"loss_changes":[1.3413587E0,5.7741666E-1,6.681782E-1,2.1754129E-1,4.5269078E-1,7.008302E-2,5.087989E-1,2.6689497E-1,1.07216895E-1,4.3007743E-1,6.0858285E-1,0E0,7.9114914E-2,2.9342502E-1,1.7612064E-1,1.9961718E-1,3.859661E-1,1.6502663E-2,5.8338962E-2,1.1512852E-1,2.6279557E-1,1.6941123E-1,4.225942E-1,1.5010834E-3,0E0,2.681782E-1,2.3236266E-1,1.9585812E-1,0E0,2.9604608E-1,2.2797695E-1,2.8423983E-1,1.5899539E-1,0E0,0E0,7.004915E-2,6.150635E-2,1.1131391E-1,9.767665E-4,1.5266806E-1,2.0586759E-1,6.3696727E-3,0E0,1.930569E-3,8.9595914E-2,0E0,0E0,2.4067292E-1,3.0389872E-1,4.248554E-3,0E0,6.680943E-1,1.1357575E-1,0E0,0E0,0E0,0E0,0E0,0E0,0E0,0E0,0E0,0E0,0E0,0E0,0E0,0E0,0E0,0E0,0E0,0E0,0E0,0E0,0E0,0E0,0E0,0E0,0E0,0E0,0E0,0E0,0E0,0E0,0E0,0E0,0E0,0E0,0E0,0E0],"parents":[2147483647,0,0,1,1,2,2,3,3,4,4,5,5,6,6,7,7,8,8,9,9,10,10,12,12,13,13,14,14,15,15,16,16,17,17,18,18,19,19,20,20,21,21,22,22,23,23,25,25,26,26,27,27,29,29,30,30,31,31,32,32,35,35,36,36,37,37,38,38,39,39,40,40,41,41,43,43,44,44,47,47,48,48,49,49,51,51,52,52],"right_children":[2,4,6,8,10,12,14,16,18,20,22,-1,24,26,28,30,32,34,36,38,40,42,44,46,-1,48,50,52,-1,54,56,58,60,-1,-1,62,64,66,68,70,72,74,-1,76,78,-1,-1,80,82,84,-1,86,88,-1,-1,-1,-1,-1,-1,-1,-1,-1,-1,-1,-1,-1,-1,-1,-1,-1,-1,-1,-1,-1,-1,-1,-1,-1,-1,-1,-1,-1,-1,-1,-1,-1,-1,-1,-1],"split_conditions":[6.95017E0,5.7955E1,3.464E1,6.467682E0,1.4044809E1,7.0095534E0,6.277234E0,5E-1,5.8265786E0,9.150404E0,5.3967094E0,4.391519E-3,7.2251225E0,1.43029585E1,1.4303121E1,6.5850697E0,5.5343657E0,5.642953E0,5.448035E0,6.6362753E0,5.5203447E0,6.027407E0,5.929348E0,6.112144E0,1.6572451E-2,1.0416414E1,5.4083204E0,5.9129997E1,-1.6028073E-2,6.4368477E0,1.0285236E1,5.243304E0,5.666318E0,-6.377286E-3,-2.2586046E-2,5.311846E0,6.4489846E0,5.6272316E0,5.999509E0,5.331846E0,1.2244422E1,5.9512663E0,-2.1308359E-2,5.817E0,5.4124146E0,5.6682874E-2,2.1552317E-2,5E-1,1.2912693E1,7.6377773E0,4.4649236E-2,5.272E1,8.717644E0,5.2676457E-3,2.2387272E-2,7.0485095E-3,-8.978733E-3,-6.1596795E-3,1.2480966E-2,-1.1672306E-2,-1.2164873E-3,-3.962381E-4,-1.2273634E-2,8.4965555E-3,-7.156902E-3,2.5553226E-2,7.058753E-3,-4.291047E-3,-1.362633E-3,1.8303421E-3,-1.0072008E-2,-3.5511148E-3,3.0304831E-3,9.296425E-3,4.0249335E-5,-2.014713E-3,1.5781384E-3,5.3076544E-3,4.3605376E-2,1.0439034E-2,-1.5624416E-3,-9.568136E-3,4.4494676E-3,-2.943025E-3,3.5856185E-3,1.3051051E-2,5.139468E-2,1.0844442E-2,-8.417086E-3],"split_indices":[0,8,8,3,2,0,3,4,0,2,1,0,0,2,2,0,1,0,1,1,0,3,3,3,0,2,1,8,0,0,2,1,1,0,0,1,0,0,3,0,2,0,0,3,1,0,0,7,2,0,0,8,0,0,0,0,0,0,0,0,0,0,0,0,0,0,0,0,0,0,0,0,0,0,0,0,0,0,0,0,0,0,0,0,0,0,0,0,0],"split_type":[0,0,0,0,0,0,0,0,0,0,0,0,0,0,0,0,0,0,0,0,0,0,0,0,0,0,0,0,0,0,0,0,0,0,0,0,0,0,0,0,0,0,0,0,0,0,0,0,0,0,0,0,0,0,0,0,0,0,0,0,0,0,0,0,0,0,0,0,0,0,0,0,0,0,0,0,0,0,0,0,0,0,0,0,0,0,0,0,0],"sum_hessian":[1.427E3,1.234E3,1.93E2,4.48E2,7.86E2,8E0,1.85E2,4.15E2,3.3E1,7.68E2,1.8E1,1E0,7E0,1.37E2,4.8E1,1.92E2,2.23E2,5E0,2.8E1,3.9E1,7.29E2,7E0,1.1E1,4E0,3E0,1.33E2,4E0,4.7E1,1E0,1.58E2,3.4E1,4.4E1,1.79E2,2E0,3E0,1.9E1,9E0,3.1E1,8E0,9.7E1,6.32E2,3E0,4E0,4E0,7E0,2E0,2E0,7.3E1,6E1,2E0,2E0,2.9E1,1.8E1,1.48E2,1E1,1.5E1,1.9E1,1E1,3.4E1,1.5E1,1.64E2,1E1,9E0,6E0,3E0,3E0,2.8E1,5E0,3E0,1.2E1,8.5E1,5.81E2,5.1E1,2E0,1E0,2E0,2E0,1E0,6E0,4.8E1,2.5E1,3E1,3E1,1E0,1E0,2.4E1,5E0,1.5E1,3E0],"tree_param":{"num_deleted":"0","num_feature":"9","num_nodes":"89","size_leaf_vector":"0"}},{"base_weights":[1.4522362E-10,-6.417432E-2,2.3356952E-1,1.4109874E-2,-1.2930629E-1,2.147138E-1,4.1445833E-1,-7.7952854E-2,5.758013E-2,-2.1901315E-1,-1.0226718E-2,2.42248E-1,1.5157346E-1,-1.4926986E-1,-1.2041201E-3,-1.0132601E-1,8.159371E-2,-3.067274E-1,-1.0060072E-1,-2.519843E-2,3.062791E-1,1.3224822E-1,2.6819506E-1,1.2080953E-1,2.8246057E-1,-9.698553E-3,-2.9881716E-1,1.8058495E-1,-1.19898945E-1,-3.243915E-2,-3.809232E-1,2.9742873E-1,5.7576697E-2,-3.1310853E-1,2.1666785E-1,-5.16924E-2,-2.8667805E-1,-3.023517E-1,-7.6984405E-3,1.2969981E-1,3.7835628E-1,2.9186E-1,-1.8459968E-2,4.277575E-2,2.883886E-1,-1.8978333E-2,1.5728879E-1,4.868841E-2,2.9479948E-1,4.7586817E-2,-3.2747442E-1,-4.0097767E-1,-1.460022E-1,-1.4809532E-1,3.1563792E-1,-2.6178077E-1,3.880217E-2,1.6326147E-1,-1.290418E-1,-5.379826E-1,-5.0103344E-2,-4.4416104E-4,3.7191546E-1,3.425134E-2,2.1018389E-1,-1.6822746E-1,-3.4211907E-1,1.2067969E-1,-8.947516E-2,-3.4116632E-1,3.3560127E-1,-3.9503115E-1,2.0004319E-1,-3.4579482E-2,1.3999209E-1,3.22769E-1,-1.0660264E-1,3.4712216E-1,1.14271626E-1,-2.0483062E-1,8.935612E-2,1.5603897E-1,-2.7939203E-1,2.9360494E-1,-2.2616552E-1,1.2945019E-1,-9.8214045E-2,3.390892E-1,1.2568697E-1],"categories":[],"categories_nodes":[],"categories_segments":[],"categories_sizes":[],"default_left":[1,1,1,1,1,1,0,1,1,1,1,1,1,1,1,1,1,1,1,1,1,1,1,1,1,1,1,1,1,1,1,1,1,1,0,1,1,1,1,1,0,1,1,1,1,1,1,0,0,0,0,0,0,0,0,0,0,0,0,0,0,0,0,0,0,0,0,0,0,0,0,0,0,0,0,0,0,0,0,0,0,0,0,0,0,0,0,0,0],"id":1,"left_children":[1,3,5,7,9,11,-1,13,15,17,19,21,23,25,27,29,31,33,35,37,39,41,43,45,47,49,51,53,55,57,59,61,63,65,-1,67,69,71,73,75,-1,77,79,81,83,85,87,-1,-1,-1,-1,-1,-1,-1,-1,-1,-1,-1,-1,-1,-1,-1,-1,-1,-1,-1,-1,-1,-1,-1,-1,-1,-1,-1,-1,-1,-1,-1,-1,-1,-1,-1,-1,-1,-1,-1,-1,-1,-1],"loss_changes":[2.1419516E1,5.717582E0,9.615326E-1,2.0455036E0,6.535301E0,4.5180607E-1,0E0,8.974726E-1,1.3323869E0,3.594017E0,1.2587172E0,5.1824E-1,3.2021737E-1,1.7712655E0,1.7478458E0,8.736296E-1,1.5483563E0,7.358093E-1,1.3502901E0,1.2247678E0,1.0365534E-1,9.4352496E-1,6.9777775E-1,3.7523794E-1,3.1798482E-2,8.347593E-1,5.8153415E-1,1.4672002E0,1.113481E0,7.394651E-1,4.406706E-1,6.657927E-1,9.645766E-1,7.746544E-1,0E0,7.923212E-1,1.1656108E0,7.7744853E-1,9.536888E-1,2.6252165E-1,0E0,1.4679825E-1,4.4027168E-1,5.5445266E-1,4.5022774E-1,2.0088728E-1,2.9060388E-1,0E0,0E0,0E0,0E0,0E0,0E0,0E0,0E0,0E0,0E0,0E0,0E0,0E0,0E0,0E0,0E0,0E0,0E0,0E0,0E0,0E0,0E0,0E0,0E0,0E0,0E0,0E0,0E0,0E0,0E0,0E0,0E0,0E0,0E0,0E0,0E0,0E0,0E0,0E0,0E0,0E0,0E0],"parents":[2147483647,0,0,1,1,2,2,3,3,4,4,5,5,7,7,8,8,9,9,10,10,11,11,12,12,13,13,14,14,15,15,16,16,17,17,18,18,19,19,20,20,21,21,22,22,23,23,24,24,25,25,26,26,27,27,28,28,29,29,30,30,31,31,32,32,33,33,35,35,36,36,37,37,38,38,39,39,41,41,42,42,43,43,44,44,45,45,46,46],"right_children":[2,4,6,8,10,12,-1,14,16,18,20,22,24,26,28,30,32,34,36,38,40,42,44,46,48,50,52,54,56,58,60,62,64,66,-1,68,70,72,74,76,-1,78,80,82,84,86,88,-1,-1,-1,-1,-1,-1,-1,-1,-1,-1,-1,-1,-1,-1,-1,-1,-1,-1,-1,-1,-1,-1,-1,-1,-1,-1,-1,-1,-1,-1,-1,-1,-1,-1,-1,-1,-1,-1,-1,-1,-1,-1],"split_conditions":[7.1865005E1,5.65178E0,8.505499E1,9.979988E0,6.0379997E1,6.720808E0,4.1445833E-2,5.6415E1,5.2126007E0,5.7638817E0,5E-1,5.590494E0,8.466657E0,4.5095E1,5.3351192E0,5.1969805E0,4.137E1,1.3694807E1,7.5773187E0,5.8162365E0,1.021894E1,5.480377E0,7.2384995E1,1.0042032E1,5.390879E0,7.4208736E0,6.648664E0,5.1720896E0,5E-1,1.0399726E1,6.0701065E0,3.433E1,1.412326E1,5.423973E0,2.1666786E-2,9.783332E0,6.4900723E0,1.0876707E1,6.1186256E0,5.709594E0,3.7835628E-2,5.8437357E0,5.650666E0,5.7229214E0,8.489E1,5E-1,1.0248727E1,4.8688413E-3,2.9479949E-2,4.7586816E-3,-3.2747444E-2,-4.009777E-2,-1.460022E-2,-1.4809533E-2,3.1563792E-2,-2.6178077E-2,3.880217E-3,1.6326148E-2,-1.2904181E-2,-5.379826E-2,-5.0103343E-3,-4.4416105E-5,3.7191547E-2,3.425134E-3,2.101839E-2,-1.6822746E-2,-3.4211908E-2,1.2067969E-2,-8.947517E-3,-3.4116633E-2,3.3560127E-2,-3.9503116E-2,2.0004319E-2,-3.4579483E-3,1.3999209E-2,3.22769E-2,-1.0660264E-2,3.4712218E-2,1.1427163E-2,-2.0483062E-2,8.935612E-3,1.5603897E-2,-2.7939204E-2,2.9360494E-2,-2.2616552E-2,1.2945019E-2,-9.821405E-3,3.3908922E-2,1.2568697E-2],"split_indices":[8,1,8,2,8,1,0,8,1,3,6,3,1,8,1,1,8,2,1,1,2,3,8,2,0,0,0,1,7,2,3,8,2,3,0,2,0,2,3,3,0,1,1,0,8,5,2,0,0,0,0,0,0,0,0,0,0,0,0,0,0,0,0,0,0,0,0,0,0,0,0,0,0,0,0,0,0,0,0,0,0,0,0,0,0,0,0,0,0],"split_type":[0,0,0,0,0,0,0,0,0,0,0,0,0,0,0,0,0,0,0,0,0,0,0,0,0,0,0,0,0,0,0,0,0,0,0,0,0,0,0,0,0,0,0,0,0,0,0,0,0,0,0,0,0,0,0,0,0,0,0,0,0,0,0,0,0,0,0,0,0,0,0,0,0,0,0,0,0,0,0,0,0,0,0,0,0,0,0,0,0],"sum_hessian":[1.427E3,1.12E3,3.07E2,5.09E2,6.11E2,2.8E2,2.7E1,1.63E2,3.46E2,3.48E2,2.63E2,1.93E2,8.7E1,8.4E1,7.9E1,4.5E1,3.01E2,1.99E2,1.49E2,2.52E2,1.1E1,3.8E1,1.55E2,7.2E1,1.5E1,4.4E1,4E1,3.1E1,4.8E1,3.7E1,8E0,2.9E1,2.72E2,1.97E2,2E0,1.19E2,3E1,1.4E1,2.38E2,4E0,7E0,1.8E1,2E1,1.3E1,1.42E2,1.5E1,5.7E1,1E0,1.4E1,3.8E1,6E0,2.3E1,1.7E1,9E0,2.2E1,2.5E1,2.3E1,1.2E1,2.5E1,5E0,3E0,6E0,2.3E1,2.37E2,3.5E1,3.4E1,1.63E2,2.1E1,9.8E1,2.8E1,2E0,1.2E1,2E0,2.02E2,3.6E1,2E0,2E0,1.3E1,5E0,7E0,1.3E1,1E1,3E0,1.41E2,1E0,5E0,1E1,7E0,5E1],"tree_param":{"num_deleted":"0","num_feature":"9","num_nodes":"89","size_leaf_vector":"0"}}]},"name":"gbtree"},"learner_model_param":{"base_score":"0E0","boost_from_average":"0","num_class":"0","num_feature":"9","num_target":"2"},"objective":{"name":"reg:squarederror","reg_loss_param":{"scale_pos_weight":"1"}}},"version":[1,7,5]}