{"learner":{"attributes":{"best_iteration":"99","best_ntree_limit":"100","scikit_learn":"{\"cum_hazard_baseline\": null, \"model_type\": \"aft_objective\", \"n_estimators\": 100, \"max_depth\": null, \"max_leaves\": null, \"max_bin\": null, \"grow_policy\": null, \"learning_rate\": 0.01, \"verbosity\": null, \"booster\": null, \"tree_method\": null, \"gamma\": null, \"min_child_weight\": null, \"max_delta_step\": null, \"subsample\": null, \"sampling_method\": null, \"colsample_bytree\": null, \"colsample_bylevel\": null, \"colsample_bynode\": null, \"reg_alpha\": null, \"reg_lambda\": null, \"scale_pos_weight\": null, \"base_score\": null, \"missing\": NaN, \"num_parallel_tree\": null, \"random_state\": 7, \"n_jobs\": null, \"monotone_constraints\": null, \"interaction_constraints\": null, \"importance_type\": null, \"gpu_id\": null, \"validate_parameters\": null, \"predictor\": null, \"enable_categorical\": false, \"feature_types\": null, \"max_cat_to_onehot\": null, \"max_cat_threshold\": null, \"early_stopping_rounds\": null, \"callbacks\": null, \"evals_result_\": {\"validation_0\": {\"rmse\": [146.54650922893583, 146.54650889007144, 146.54650794548994, 146.54650765622077, 146.54650755350897, 146.54650680273735, 146.54650652403652, 146.54650618798135, 146.54650488252818, 146.5465044156469, 146.54650409812643, 146.546503937339, 146.54650370681784, 146.5465027369268, 146.5465026619149, 146.54650207585527, 146.54650089210003, 146.54650075398104, 146.54650055884977, 146.54649957450522, 146.54649894429278, 146.54649895175052, 146.5464986684756, 146.5464979030391, 146.54649677179648, 146.54649675638598, 146.5464964796187, 146.54649562603643, 146.54649532192428, 146.54649525918816, 146.54649440300773, 146.5464939432421, 146.54649369540815, 146.54649359708037, 146.546493276981, 146.5464923935752, 146.54649209802426, 146.54649160250287, 146.5464909653702, 146.54649059520625, 146.54648995447252, 146.54648891171541, 146.54648878212106, 146.54648859447562, 146.54648846495735, 146.54648814337855, 146.54648747931716, 146.54648706748716, 146.54648648211355, 146.54648554819985, 146.54648531408068, 146.54648513590266, 146.54648420403095, 146.54648379725072, 146.54648343818704, 146.54648298242475, 146.54648265246644, 146.54648161283959, 146.54648137476536, 146.54648129869759, 146.5464803849899, 146.54647981843564, 146.54647950124277, 146.5464785648959, 146.5464782688557, 146.54647816280286, 146.54647809655535, 146.54647777336243, 146.54647670491534, 146.54647646270607, 146.54647608753885, 146.54647502576057, 146.54647466509303, 146.5464743995848, 146.5464733564459, 146.54647287473568, 146.54647292761604, 146.5464727433796, 146.5464725426122, 146.546471097949, 146.54647074959016, 146.54647081784648, 146.54646974825118, 146.54646948441027, 146.54646930383097, 146.5464683329078, 146.54646807756697, 146.54646747947507, 146.54646699275946, 146.5464670965756, 146.54646595941327, 146.5464659517772, 146.546465742336, 146.54646499402892, 146.5464647619966, 146.54646427488325, 146.54646303678274, 146.54646282111577, 146.54646301307724, 146.54646285728467], \"aft_likelihood\": [2.221539, 2.221538, 2.221537, 2.221536, 2.221536, 2.221534, 2.221533, 2.221533, 2.221532, 2.221531, 2.22153, 2.221528, 2.221528, 2.221527, 2.221526, 2.221525, 2.221524, 2.221523, 2.221522, 2.221521, 2.221521, 2.22152, 2.221518, 2.221518, 2.221517, 2.221516, 2.221515, 2.221514, 2.221513, 2.221512, 2.221511, 2.22151, 2.221509, 2.221508, 2.221508, 2.221507, 2.221505, 2.221505, 2.221504, 2.221503, 2.221502, 2.221501, 2.2215, 2.221499, 2.221498, 2.221497, 2.221496, 2.221495, 2.221494, 2.221493, 2.221492, 2.221491, 2.221491, 2.22149, 2.221489, 2.221488, 2.221487, 2.221486, 2.221485, 2.221484, 2.221483, 2.221482, 2.221481, 2.22148, 2.221479, 2.221479, 2.221477, 2.221477, 2.221476, 2.221475, 2.221474, 2.221473, 2.221472, 2.221471, 2.22147, 2.221469, 2.221468, 2.221467, 2.221466, 2.221465, 2.221464, 2.221463, 2.221462, 2.221462, 2.221461, 2.22146, 2.221459, 2.221458, 2.221457, 2.221456, 2.221455, 2.221454, 2.221453, 2.221452, 2.221451, 2.22145, 2.22145, 2.221449, 2.221448, 2.221447]}}, \"_estimator_type\": \"regressor\"}"},"feature_names":[],"feature_types":[],"gradient_booster":{"model":{"gbtree_model_param":{"num_parallel_tree":"1","num_trees":"100","size_leaf_vector":"0"},"tree_info":[0,0,0,0,0,0,0,0,0,0,0,0,0,0,0,0,0,0,0,0,0,0,0,0,0,0,0,0,0,0,0,0,0,0,0,0,0,0,0,0,0,0,0,0,0,0,0,0,0,0,0,0,0,0,0,0,0,0,0,0,0,0,0,0,0,0,0,0,0,0,0,0,0,0,0,0,0,0,0,0,0,0,0,0,0,0,0,0,0,0,0,0,0,0,0,0,0,0,0,0],"trees":[{"base_weights":[3.5419438E-14,-5.689704E-5,2.049118E-4,-1.4098447E-4,1.4356304E-5,1.4904962E-4,2.9356466E-4,-2.1030151E-4,-5.815085E-5,-3.2596276E-5,1.1344326E-4,2.331308E-5,1.8997236E-4,4.4068604E-4,2.3522928E-4,-2.4338013E-4,4.181587E-5,-7.5090786E-5,1.6933151E-4,-3.7026253E-5,5.80245E-4,1.4757682E-4,-8.3764244E-5,2.350763E-4,7.25284E-5,-1.0410983E-4,-2.6914888E-4,-5.102167E-5,1.5688424E-4,1.7634282E-4,-9.709025E-5,-1.8197788E-4,3.1956084E-4,5.8904927E-5,2.7702024E-4,-1.9187026E-4,1.540707E-4,2.5442283E-4,-2.7580996E-4,-9.5420626E-5,3.3777607E-5,2.5399777E-4,-2.9560196E-4],"categories":[],"categories_nodes":[],"categories_segments":[],"categories_sizes":[],"default_left":[1,1,1,1,1,1,1,1,1,1,1,0,1,0,0,1,0,0,0,1,0,1,1,1,0,1,1,1,1,0,0,0,0,0,0,0,0,0,0,0,0,0,0],"id":0,"left_children":[1,3,5,7,9,11,13,15,17,19,21,-1,23,-1,-1,25,-1,-1,-1,27,-1,29,31,33,-1,35,37,39,41,-1,-1,-1,-1,-1,-1,-1,-1,-1,-1,-1,-1,-1,-1],"loss_changes":[2.2210155E-5,8.935365E-6,2.0065145E-6,3.9151473E-6,3.7628274E-6,1.3128147E-6,1.2609362E-6,3.1125437E-6,1.2188722E-6,1.5119501E-6,1.7625241E-6,9.200444E-7,1.0053068E-6,6.257487E-7,7.2179364E-7,1.1527027E-6,9.260198E-7,8.855119E-7,6.864589E-7,1.489771E-6,1.13560986E-7,1.5795772E-6,1.6030219E-6,1.0107988E-6,7.621916E-7,1.2304374E-6,1.0362255E-6,1.9233726E-6,1.7009559E-6,9.4988127E-7,6.7086376E-7,6.2059075E-7,5.4884435E-7,4.792037E-7,9.756632E-7,0E0,0E0,0E0,0E0,0E0,0E0,0E0,0E0],"parents":[2147483647,0,0,1,1,2,2,3,3,4,4,5,5,6,6,7,7,8,8,9,9,10,10,12,12,15,15,19,19,21,21,22,22,23,23,25,25,26,26,27,27,28,28],"right_children":[2,4,6,8,10,12,14,16,18,20,22,-1,24,-1,-1,26,-1,-1,-1,28,-1,30,32,34,-1,36,38,40,42,-1,-1,-1,-1,-1,-1,-1,-1,-1,-1,-1,-1,-1,-1],"split_conditions":[7.1875E1,5.7901783E0,7.875E1,6.008E1,5E-1,5.6233416E0,5.482605E0,1.2381046E1,5E-1,1.0158516E1,6.5574074E0,2.3313079E-7,6.629213E0,4.40686E-6,2.3522928E-6,5.5486317E0,4.181587E-7,-7.509078E-7,1.6933151E-6,1.3741762E1,5.80245E-6,6.372738E0,7.817439E0,7.2755E1,7.2528394E-7,5.6355E1,8.536394E0,6.483501E1,1.4464161E1,1.7634281E-6,-9.709024E-7,-1.8197788E-6,3.1956083E-6,5.8904925E-7,2.7702024E-6,-1.9187025E-6,1.540707E-6,2.5442282E-6,-2.7580995E-6,-9.542063E-7,3.3777607E-7,2.5399777E-6,-2.9560194E-6],"split_indices":[8,3,8,8,6,3,1,2,6,0,3,0,1,0,0,1,0,0,0,2,0,1,0,8,0,8,2,8,2,0,0,0,0,0,0,0,0,0,0,0,0,0,0],"split_type":[0,0,0,0,0,0,0,0,0,0,0,0,0,0,0,0,0,0,0,0,0,0,0,0,0,0,0,0,0,0,0,0,0,0,0,0,0,0,0,0,0,0,0],"sum_hessian":[1.903E3,1.49E3,4.13E2,6.83E2,8.07E2,2.55E2,1.58E2,3.71E2,3.12E2,5.48E2,2.59E2,6.3E1,1.92E2,4.3E1,1.15E2,3.28E2,4.3E1,2.91E2,2.1E1,5.45E2,3E0,2.21E2,3.8E1,1.38E2,5.4E1,5.2E1,2.76E2,5.09E2,3.6E1,1.98E2,2.3E1,3.1E1,7E0,2.7E1,1.11E2,3.9E1,1.3E1,3E0,2.73E2,3.34E2,1.75E2,3E1,6E0],"tree_param":{"num_deleted":"0","num_feature":"9","num_nodes":"43","size_leaf_vector":"0"}},{"base_weights":[-1.980366E-14,-5.6896908E-5,2.0491132E-4,-1.4098427E-4,1.43563675E-5,1.4904933E-4,2.935639E-4,-2.1030137E-4,-5.8150563E-5,-3.2596163E-5,1.13443224E-4,2.3313085E-5,1.8997198E-4,4.4068485E-4,2.3522868E-4,-2.4337998E-4,4.181603E-5,-7.509048E-5,1.6933153E-4,-3.7026133E-5,5.802438E-4,1.4757669E-4,-8.376373E-5,2.3507583E-4,7.2528186E-5,-1.04109415E-4,-2.691488E-4,-5.1021532E-5,1.5688408E-4,1.7634264E-4,-9.7090044E-5,-1.8197717E-4,3.195605E-4,5.8904483E-5,2.7701978E-4,-1.9186975E-4,1.5407077E-4,2.5442324E-4,-2.7580987E-4,-9.542042E-5,3.3777615E-5,2.5399748E-4,-2.9560155E-4],"categories":[],"categories_nodes":[],"categories_segments":[],"categories_sizes":[],"default_left":[1,1,1,1,1,1,1,1,1,1,1,0,1,0,0,1,0,0,0,1,0,1,1,1,0,1,1,1,1,0,0,0,0,0,0,0,0,0,0,0,0,0,0],"id":1,"left_children":[1,3,5,7,9,11,13,15,17,19,21,-1,23,-1,-1,25,-1,-1,-1,27,-1,29,31,33,-1,35,37,39,41,-1,-1,-1,-1,-1,-1,-1,-1,-1,-1,-1,-1,-1,-1],"loss_changes":[2.2210053E-5,8.935349E-6,2.0065017E-6,3.9151573E-6,3.7628201E-6,1.3128088E-6,1.2609298E-6,3.1125437E-6,1.2188694E-6,1.5119441E-6,1.7625139E-6,9.2005035E-7,1.0053031E-6,6.25756E-7,7.217968E-7,1.1527063E-6,9.260225E-7,8.855119E-7,6.864619E-7,1.4897666E-6,1.1356656E-7,1.5795736E-6,1.6030151E-6,1.0107979E-6,7.6219465E-7,1.2304343E-6,1.0362255E-6,1.923367E-6,1.7009513E-6,9.4988263E-7,6.708653E-7,6.205961E-7,5.4884174E-7,4.792054E-7,9.756732E-7,0E0,0E0,0E0,0E0,0E0,0E0,0E0,0E0],"parents":[2147483647,0,0,1,1,2,2,3,3,4,4,5,5,6,6,7,7,8,8,9,9,10,10,12,12,15,15,19,19,21,21,22,22,23,23,25,25,26,26,27,27,28,28],"right_children":[2,4,6,8,10,12,14,16,18,20,22,-1,24,-1,-1,26,-1,-1,-1,28,-1,30,32,34,-1,36,38,40,42,-1,-1,-1,-1,-1,-1,-1,-1,-1,-1,-1,-1,-1,-1],"split_conditions":[7.1875E1,5.7901783E0,7.875E1,6.008E1,5E-1,5.6233416E0,5.482605E0,1.2381046E1,5E-1,1.0158516E1,6.5574074E0,2.3313085E-7,6.629213E0,4.4068483E-6,2.3522869E-6,5.5486317E0,4.181603E-7,-7.509048E-7,1.6933152E-6,1.3741762E1,5.802438E-6,6.372738E0,7.817439E0,7.2755E1,7.2528184E-7,5.6355E1,8.536394E0,6.483501E1,1.4464161E1,1.7634263E-6,-9.709004E-7,-1.8197717E-6,3.195605E-6,5.890448E-7,2.7701976E-6,-1.9186975E-6,1.5407077E-6,2.5442323E-6,-2.7580986E-6,-9.542042E-7,3.3777613E-7,2.5399747E-6,-2.9560154E-6],"split_indices":[8,3,8,8,6,3,1,2,6,0,3,0,1,0,0,1,0,0,0,2,0,1,0,8,0,8,2,8,2,0,0,0,0,0,0,0,0,0,0,0,0,0,0],"split_type":[0,0,0,0,0,0,0,0,0,0,0,0,0,0,0,0,0,0,0,0,0,0,0,0,0,0,0,0,0,0,0,0,0,0,0,0,0,0,0,0,0,0,0],"sum_hessian":[1.903E3,1.49E3,4.13E2,6.83E2,8.07E2,2.55E2,1.58E2,3.71E2,3.12E2,5.48E2,2.59E2,6.3E1,1.92E2,4.3E1,1.15E2,3.28E2,4.3E1,2.91E2,2.1E1,5.45E2,3E0,2.21E2,3.8E1,1.38E2,5.4E1,5.2E1,2.76E2,5.09E2,3.6E1,1.98E2,2.3E1,3.1E1,7E0,2.7E1,1.11E2,3.9E1,1.3E1,3E0,2.73E2,3.34E2,1.75E2,3E1,6E0],"tree_param":{"num_deleted":"0","num_feature":"9","num_nodes":"43","size_leaf_vector":"0"}},{"base_weights":[-7.781468E-14,-5.689678E-5,2.0491087E-4,-1.4098405E-4,1.435642E-5,1.4904905E-4,2.9356315E-4,-2.1030121E-4,-5.8150286E-5,-3.2596057E-5,1.13443166E-4,2.3313141E-5,1.899716E-4,4.406837E-4,2.3522809E-4,-2.4337982E-4,4.1816198E-5,-7.5090175E-5,1.6933144E-4,-3.702602E-5,5.8024266E-4,1.4757653E-4,-8.376326E-5,2.3507541E-4,7.252794E-5,-1.0410902E-4,-2.6914867E-4,-5.1021405E-5,1.5688402E-4,1.7634245E-4,-9.708985E-5,-1.8197649E-4,3.195601E-4,5.8904156E-5,2.7701934E-4,-1.9186926E-4,1.5407089E-4,2.5442374E-4,-2.7580978E-4,-9.542022E-5,3.3777593E-5,2.5399728E-4,-2.95601E-4],"categories":[],"categories_nodes":[],"categories_segments":[],"categories_sizes":[],"default_left":[1,1,1,1,1,1,1,1,1,1,1,0,1,0,0,1,0,0,0,1,0,1,1,1,0,1,1,1,1,0,0,0,0,0,0,0,0,0,0,0,0,0,0],"id":2,"left_children":[1,3,5,7,9,11,13,15,17,19,21,-1,23,-1,-1,25,-1,-1,-1,27,-1,29,31,33,-1,35,37,39,41,-1,-1,-1,-1,-1,-1,-1,-1,-1,-1,-1,-1,-1,-1],"loss_changes":[2.2209955E-5,8.935331E-6,2.0064872E-6,3.915162E-6,3.762811E-6,1.3128019E-6,1.2609225E-6,3.1125437E-6,1.2188653E-6,1.5119376E-6,1.7625043E-6,9.200573E-7,1.0053022E-6,6.257633E-7,7.218E-7,1.15271E-6,9.2602465E-7,8.855119E-7,6.864651E-7,1.4897639E-6,1.1357247E-7,1.5795686E-6,1.6030083E-6,1.010796E-6,7.6219777E-7,1.2304317E-6,1.0362292E-6,1.9233603E-6,1.7009465E-6,9.4988354E-7,6.7086637E-7,6.20601E-7,5.488387E-7,4.792075E-7,9.756841E-7,0E0,0E0,0E0,0E0,0E0,0E0,0E0,0E0],"parents":[2147483647,0,0,1,1,2,2,3,3,4,4,5,5,6,6,7,7,8,8,9,9,10,10,12,12,15,15,19,19,21,21,22,22,23,23,25,25,26,26,27,27,28,28],"right_children":[2,4,6,8,10,12,14,16,18,20,22,-1,24,-1,-1,26,-1,-1,-1,28,-1,30,32,34,-1,36,38,40,42,-1,-1,-1,-1,-1,-1,-1,-1,-1,-1,-1,-1,-1,-1],"split_conditions":[7.1875E1,5.7901783E0,7.875E1,6.008E1,5E-1,5.6233416E0,5.482605E0,1.2381046E1,5E-1,1.0158516E1,6.5574074E0,2.331314E-7,6.629213E0,4.406837E-6,2.3522807E-6,5.5486317E0,4.1816196E-7,-7.5090173E-7,1.6933144E-6,1.3741762E1,5.8024266E-6,6.372738E0,7.817439E0,7.2755E1,7.252794E-7,5.6355E1,8.536394E0,6.483501E1,1.4464161E1,1.7634245E-6,-9.708984E-7,-1.8197649E-6,3.1956008E-6,5.890415E-7,2.7701933E-6,-1.9186925E-6,1.5407089E-6,2.5442373E-6,-2.7580977E-6,-9.542022E-7,3.3777593E-7,2.5399727E-6,-2.95601E-6],"split_indices":[8,3,8,8,6,3,1,2,6,0,3,0,1,0,0,1,0,0,0,2,0,1,0,8,0,8,2,8,2,0,0,0,0,0,0,0,0,0,0,0,0,0,0],"split_type":[0,0,0,0,0,0,0,0,0,0,0,0,0,0,0,0,0,0,0,0,0,0,0,0,0,0,0,0,0,0,0,0,0,0,0,0,0,0,0,0,0,0,0],"sum_hessian":[1.903E3,1.49E3,4.13E2,6.83E2,8.07E2,2.55E2,1.58E2,3.71E2,3.12E2,5.48E2,2.59E2,6.3E1,1.92E2,4.3E1,1.15E2,3.28E2,4.3E1,2.91E2,2.1E1,5.45E2,3E0,2.21E2,3.8E1,1.38E2,5.4E1,5.2E1,2.76E2,5.09E2,3.6E1,1.98E2,2.3E1,3.1E1,7E0,2.7E1,1.11E2,3.9E1,1.3E1,3E0,2.73E2,3.34E2,1.75E2,3E1,6E0],"tree_param":{"num_deleted":"0","num_feature":"9","num_nodes":"43","size_leaf_vector":"0"}},{"base_weights":[1.6492375E-13,-5.689665E-5,2.0491041E-4,-1.4098383E-4,1.4356479E-5,1.4904878E-4,2.935624E-4,-2.1030103E-4,-5.815002E-5,-3.259595E-5,1.1344313E-4,2.331318E-5,1.8997121E-4,4.4068252E-4,2.3522749E-4,-2.4337965E-4,4.1816354E-5,-7.508989E-5,1.6933146E-4,-3.7025904E-5,5.8024144E-4,1.475764E-4,-8.3762745E-5,2.3507497E-4,7.2527706E-5,-1.0410858E-4,-2.6914856E-4,-5.102127E-5,1.5688388E-4,1.7634228E-4,-9.708969E-5,-1.8197579E-4,3.1955977E-4,5.8903755E-5,2.7701887E-4,-1.9186872E-4,1.5407104E-4,2.5442409E-4,-2.7580967E-4,-9.5420015E-5,3.3777596E-5,2.5399702E-4,-2.9560056E-4],"categories":[],"categories_nodes":[],"categories_segments":[],"categories_sizes":[],"default_left":[1,1,1,1,1,1,1,1,1,1,1,0,1,0,0,1,0,0,0,1,0,1,1,1,0,1,1,1,1,0,0,0,0,0,0,0,0,0,0,0,0,0,0],"id":3,"left_children":[1,3,5,7,9,11,13,15,17,19,21,-1,23,-1,-1,25,-1,-1,-1,27,-1,29,31,33,-1,35,37,39,41,-1,-1,-1,-1,-1,-1,-1,-1,-1,-1,-1,-1,-1,-1],"loss_changes":[2.2209853E-5,8.935313E-6,2.0064745E-6,3.9151682E-6,3.7628042E-6,1.3127956E-6,1.2609153E-6,3.1125437E-6,1.2188627E-6,1.5119313E-6,1.7624943E-6,9.200628E-7,1.0052986E-6,6.2576964E-7,7.2180364E-7,1.1527172E-6,9.260276E-7,8.8551224E-7,6.86468E-7,1.4897603E-6,1.13577926E-7,1.5795645E-6,1.6030019E-6,1.010797E-6,7.622008E-7,1.230429E-6,1.0362292E-6,1.9233544E-6,1.7009424E-6,9.4988445E-7,6.7086756E-7,6.2060656E-7,5.488358E-7,4.792091E-7,9.75695E-7,0E0,0E0,0E0,0E0,0E0,0E0,0E0,0E0],"parents":[2147483647,0,0,1,1,2,2,3,3,4,4,5,5,6,6,7,7,8,8,9,9,10,10,12,12,15,15,19,19,21,21,22,22,23,23,25,25,26,26,27,27,28,28],"right_children":[2,4,6,8,10,12,14,16,18,20,22,-1,24,-1,-1,26,-1,-1,-1,28,-1,30,32,34,-1,36,38,40,42,-1,-1,-1,-1,-1,-1,-1,-1,-1,-1,-1,-1,-1,-1],"split_conditions":[7.1875E1,5.7901783E0,7.875E1,6.008E1,5E-1,5.6233416E0,5.482605E0,1.2381046E1,5E-1,1.0158516E1,6.5574074E0,2.3313179E-7,6.629213E0,4.406825E-6,2.3522748E-6,5.5486317E0,4.1816352E-7,-7.508989E-7,1.6933145E-6,1.3741762E1,5.8024143E-6,6.372738E0,7.817439E0,7.2755E1,7.2527706E-7,5.6355E1,8.536394E0,6.483501E1,1.4464161E1,1.7634227E-6,-9.708968E-7,-1.8197578E-6,3.1955976E-6,5.8903754E-7,2.7701888E-6,-1.918687E-6,1.5407103E-6,2.5442407E-6,-2.7580966E-6,-9.542001E-7,3.3777596E-7,2.5399702E-6,-2.9560056E-6],"split_indices":[8,3,8,8,6,3,1,2,6,0,3,0,1,0,0,1,0,0,0,2,0,1,0,8,0,8,2,8,2,0,0,0,0,0,0,0,0,0,0,0,0,0,0],"split_type":[0,0,0,0,0,0,0,0,0,0,0,0,0,0,0,0,0,0,0,0,0,0,0,0,0,0,0,0,0,0,0,0,0,0,0,0,0,0,0,0,0,0,0],"sum_hessian":[1.903E3,1.49E3,4.13E2,6.83E2,8.07E2,2.55E2,1.58E2,3.71E2,3.12E2,5.48E2,2.59E2,6.3E1,1.92E2,4.3E1,1.15E2,3.28E2,4.3E1,2.91E2,2.1E1,5.45E2,3E0,2.21E2,3.8E1,1.38E2,5.4E1,5.2E1,2.76E2,5.09E2,3.6E1,1.98E2,2.3E1,3.1E1,7E0,2.7E1,1.11E2,3.9E1,1.3E1,3E0,2.73E2,3.34E2,1.75E2,3E1,6E0],"tree_param":{"num_deleted":"0","num_feature":"9","num_nodes":"43","size_leaf_vector":"0"}},{"base_weights":[-1.6824354E-13,-5.689652E-5,2.0490993E-4,-1.4098363E-4,1.4356541E-5,1.4904849E-4,2.9356164E-4,-2.1030089E-4,-5.8149733E-5,-3.2595843E-5,1.13443086E-4,2.3313156E-5,1.8997083E-4,4.4068135E-4,2.352269E-4,-2.433795E-4,4.1816515E-5,-7.508958E-5,1.6933143E-4,-3.7025784E-5,5.8024033E-4,1.4757627E-4,-8.376226E-5,2.3507453E-4,7.252743E-5,-1.04108185E-4,-2.6914847E-4,-5.1021136E-5,1.5688379E-4,1.763421E-4,-9.708948E-5,-1.8197509E-4,3.195594E-4,5.890343E-5,2.7701844E-4,-1.9186821E-4,1.5407107E-4,2.5442464E-4,-2.7580958E-4,-9.541981E-5,3.37776E-5,2.5399678E-4,-2.9560007E-4],"categories":[],"categories_nodes":[],"categories_segments":[],"categories_sizes":[],"default_left":[1,1,1,1,1,1,1,1,1,1,1,0,1,0,0,1,0,0,0,1,0,1,1,1,0,1,1,1,1,0,0,0,0,0,0,0,0,0,0,0,0,0,0],"id":4,"left_children":[1,3,5,7,9,11,13,15,17,19,21,-1,23,-1,-1,25,-1,-1,-1,27,-1,29,31,33,-1,35,37,39,41,-1,-1,-1,-1,-1,-1,-1,-1,-1,-1,-1,-1,-1,-1],"loss_changes":[2.2209751E-5,8.935294E-6,2.0064617E-6,3.9151755E-6,3.762796E-6,1.3127892E-6,1.2609071E-6,3.1125437E-6,1.2188594E-6,1.5119251E-6,1.7624848E-6,9.2006985E-7,1.0052972E-6,6.25776E-7,7.218073E-7,1.152719E-6,9.260296E-7,8.855118E-7,6.8647114E-7,1.4897569E-6,1.1358384E-7,1.5795604E-6,1.6029949E-6,1.010796E-6,7.622041E-7,1.2304258E-6,1.036231E-6,1.9233485E-6,1.7009379E-6,9.4988627E-7,6.708689E-7,6.2061144E-7,5.488328E-7,4.7921077E-7,9.757059E-7,0E0,0E0,0E0,0E0,0E0,0E0,0E0,0E0],"parents":[2147483647,0,0,1,1,2,2,3,3,4,4,5,5,6,6,7,7,8,8,9,9,10,10,12,12,15,15,19,19,21,21,22,22,23,23,25,25,26,26,27,27,28,28],"right_children":[2,4,6,8,10,12,14,16,18,20,22,-1,24,-1,-1,26,-1,-1,-1,28,-1,30,32,34,-1,36,38,40,42,-1,-1,-1,-1,-1,-1,-1,-1,-1,-1,-1,-1,-1,-1],"split_conditions":[7.1875E1,5.7901783E0,7.875E1,6.008E1,5E-1,5.6233416E0,5.482605E0,1.2381046E1,5E-1,1.0158516E1,6.5574074E0,2.3313156E-7,6.629213E0,4.4068133E-6,2.352269E-6,5.5486317E0,4.1816514E-7,-7.5089577E-7,1.6933142E-6,1.3741762E1,5.8024034E-6,6.372738E0,7.817439E0,7.2755E1,7.252743E-7,5.6355E1,8.536394E0,6.483501E1,1.4464161E1,1.763421E-6,-9.708948E-7,-1.8197509E-6,3.1955938E-6,5.890343E-7,2.7701842E-6,-1.918682E-6,1.5407106E-6,2.5442464E-6,-2.7580957E-6,-9.541981E-7,3.37776E-7,2.5399677E-6,-2.9560006E-6],"split_indices":[8,3,8,8,6,3,1,2,6,0,3,0,1,0,0,1,0,0,0,2,0,1,0,8,0,8,2,8,2,0,0,0,0,0,0,0,0,0,0,0,0,0,0],"split_type":[0,0,0,0,0,0,0,0,0,0,0,0,0,0,0,0,0,0,0,0,0,0,0,0,0,0,0,0,0,0,0,0,0,0,0,0,0,0,0,0,0,0,0],"sum_hessian":[1.903E3,1.49E3,4.13E2,6.83E2,8.07E2,2.55E2,1.58E2,3.71E2,3.12E2,5.48E2,2.59E2,6.3E1,1.92E2,4.3E1,1.15E2,3.28E2,4.3E1,2.91E2,2.1E1,5.45E2,3E0,2.21E2,3.8E1,1.38E2,5.4E1,5.2E1,2.76E2,5.09E2,3.6E1,1.98E2,2.3E1,3.1E1,7E0,2.7E1,1.11E2,3.9E1,1.3E1,3E0,2.73E2,3.34E2,1.75E2,3E1,6E0],"tree_param":{"num_deleted":"0","num_feature":"9","num_nodes":"43","size_leaf_vector":"0"}},{"base_weights":[-3.735783E-13,-5.6896388E-5,2.0490946E-4,-1.4098341E-4,1.4356599E-5,1.490482E-4,2.9356088E-4,-2.1030074E-4,-5.8149435E-5,-3.2595737E-5,1.1344305E-4,2.3313174E-5,1.8997044E-4,4.406802E-4,2.352263E-4,-2.4337937E-4,4.1816707E-5,-7.5089265E-5,1.6933144E-4,-3.702567E-5,5.8023917E-4,1.4757612E-4,-8.376175E-5,2.3507408E-4,7.25272E-5,-1.0410781E-4,-2.6914835E-4,-5.1021005E-5,1.5688366E-4,1.7634193E-4,-9.708926E-5,-1.8197439E-4,3.1955904E-4,5.890297E-5,2.77018E-4,-1.9186776E-4,1.5407117E-4,2.54425E-4,-2.758095E-4,-9.54196E-5,3.3777582E-5,2.5399655E-4,-2.9559963E-4],"categories":[],"categories_nodes":[],"categories_segments":[],"categories_sizes":[],"default_left":[1,1,1,1,1,1,1,1,1,1,1,0,1,0,0,1,0,0,0,1,0,1,1,1,0,1,1,1,1,0,0,0,0,0,0,0,0,0,0,0,0,0,0],"id":5,"left_children":[1,3,5,7,9,11,13,15,17,19,21,-1,23,-1,-1,25,-1,-1,-1,27,-1,29,31,33,-1,35,37,39,41,-1,-1,-1,-1,-1,-1,-1,-1,-1,-1,-1,-1,-1,-1],"loss_changes":[2.220965E-5,8.935278E-6,2.006449E-6,3.915182E-6,3.7627888E-6,1.3127828E-6,1.2609016E-6,3.1125455E-6,1.2188564E-6,1.5119188E-6,1.7624754E-6,9.2007593E-7,1.005294E-6,6.257833E-7,7.218109E-7,1.1527227E-6,9.260323E-7,8.855121E-7,6.864739E-7,1.489753E-6,1.1358952E-7,1.5795549E-6,1.6029883E-6,1.010796E-6,7.6220726E-7,1.2304233E-6,1.0362328E-6,1.9233414E-6,1.7009338E-6,9.4988764E-7,6.708702E-7,6.2061713E-7,5.4883014E-7,4.792124E-7,9.757159E-7,0E0,0E0,0E0,0E0,0E0,0E0,0E0,0E0],"parents":[2147483647,0,0,1,1,2,2,3,3,4,4,5,5,6,6,7,7,8,8,9,9,10,10,12,12,15,15,19,19,21,21,22,22,23,23,25,25,26,26,27,27,28,28],"right_children":[2,4,6,8,10,12,14,16,18,20,22,-1,24,-1,-1,26,-1,-1,-1,28,-1,30,32,34,-1,36,38,40,42,-1,-1,-1,-1,-1,-1,-1,-1,-1,-1,-1,-1,-1,-1],"split_conditions":[7.1875E1,5.7901783E0,7.875E1,6.008E1,5E-1,5.6233416E0,5.482605E0,1.2381046E1,5E-1,1.0158516E1,6.5574074E0,2.3313173E-7,6.629213E0,4.406802E-6,2.352263E-6,5.5486317E0,4.1816708E-7,-7.5089264E-7,1.6933144E-6,1.3741762E1,5.8023916E-6,6.372738E0,7.817439E0,7.2755E1,7.2527195E-7,5.6355E1,8.536394E0,6.483501E1,1.4464161E1,1.7634193E-6,-9.708925E-7,-1.8197438E-6,3.1955904E-6,5.890297E-7,2.77018E-6,-1.9186775E-6,1.5407117E-6,2.5442498E-6,-2.7580948E-6,-9.54196E-7,3.3777582E-7,2.5399654E-6,-2.9559963E-6],"split_indices":[8,3,8,8,6,3,1,2,6,0,3,0,1,0,0,1,0,0,0,2,0,1,0,8,0,8,2,8,2,0,0,0,0,0,0,0,0,0,0,0,0,0,0],"split_type":[0,0,0,0,0,0,0,0,0,0,0,0,0,0,0,0,0,0,0,0,0,0,0,0,0,0,0,0,0,0,0,0,0,0,0,0,0,0,0,0,0,0,0],"sum_hessian":[1.903E3,1.49E3,4.13E2,6.83E2,8.07E2,2.55E2,1.58E2,3.71E2,3.12E2,5.48E2,2.59E2,6.3E1,1.92E2,4.3E1,1.15E2,3.28E2,4.3E1,2.91E2,2.1E1,5.45E2,3E0,2.21E2,3.8E1,1.38E2,5.4E1,5.2E1,2.76E2,5.09E2,3.6E1,1.98E2,2.3E1,3.1E1,7E0,2.7E1,1.11E2,3.9E1,1.3E1,3E0,2.73E2,3.34E2,1.75E2,3E1,6E0],"tree_param":{"num_deleted":"0","num_feature":"9","num_nodes":"43","size_leaf_vector":"0"}},{"base_weights":[-1.4072188E-13,-5.6896264E-5,2.0490901E-4,-1.4098319E-4,1.4356653E-5,1.4904793E-4,2.935601E-4,-2.1030057E-4,-5.814918E-5,-3.2595635E-5,1.13443E-4,2.3313261E-5,1.8997007E-4,4.4067897E-4,2.352257E-4,-2.4337918E-4,4.1816853E-5,-7.508899E-5,1.6933141E-4,-3.702556E-5,5.8023783E-4,1.4757598E-4,-8.3761246E-5,2.3507368E-4,7.2526964E-5,-1.0410734E-4,-2.6914824E-4,-5.1020874E-5,1.5688354E-4,1.7634174E-4,-9.7089076E-5,-1.8197368E-4,3.1955863E-4,5.8902668E-5,2.7701753E-4,-1.9186718E-4,1.5407128E-4,2.5442545E-4,-2.7580938E-4,-9.5419404E-5,3.3777575E-5,2.539963E-4,-2.9559917E-4],"categories":[],"categories_nodes":[],"categories_segments":[],"categories_sizes":[],"default_left":[1,1,1,1,1,1,1,1,1,1,1,0,1,0,0,1,0,0,0,1,0,1,1,1,0,1,1,1,1,0,0,0,0,0,0,0,0,0,0,0,0,0,0],"id":6,"left_children":[1,3,5,7,9,11,13,15,17,19,21,-1,23,-1,-1,25,-1,-1,-1,27,-1,29,31,33,-1,35,37,39,41,-1,-1,-1,-1,-1,-1,-1,-1,-1,-1,-1,-1,-1,-1],"loss_changes":[2.2209551E-5,8.93526E-6,2.0064326E-6,3.9151864E-6,3.7627808E-6,1.3127756E-6,1.2608944E-6,3.1125455E-6,1.2188533E-6,1.5119119E-6,1.7624652E-6,9.2008213E-7,1.0052922E-6,6.2578965E-7,7.218141E-7,1.1527281E-6,9.2603483E-7,8.855118E-7,6.86477E-7,1.4897494E-6,1.1359589E-7,1.5795513E-6,1.6029812E-6,1.0107951E-6,7.622101E-7,1.2304201E-6,1.0362346E-6,1.9233353E-6,1.700929E-6,9.4988854E-7,6.7087143E-7,6.206226E-7,5.488272E-7,4.792147E-7,9.757259E-7,0E0,0E0,0E0,0E0,0E0,0E0,0E0,0E0],"parents":[2147483647,0,0,1,1,2,2,3,3,4,4,5,5,6,6,7,7,8,8,9,9,10,10,12,12,15,15,19,19,21,21,22,22,23,23,25,25,26,26,27,27,28,28],"right_children":[2,4,6,8,10,12,14,16,18,20,22,-1,24,-1,-1,26,-1,-1,-1,28,-1,30,32,34,-1,36,38,40,42,-1,-1,-1,-1,-1,-1,-1,-1,-1,-1,-1,-1,-1,-1],"split_conditions":[7.1875E1,5.7901783E0,7.875E1,6.008E1,5E-1,5.6233416E0,5.482605E0,1.2381046E1,5E-1,1.0158516E1,6.5574074E0,2.3313261E-7,6.629213E0,4.4067897E-6,2.3522568E-6,5.5486317E0,4.1816853E-7,-7.5088985E-7,1.6933141E-6,1.3741762E1,5.8023784E-6,6.372738E0,7.817439E0,7.2755E1,7.252696E-7,5.6355E1,8.536394E0,6.483501E1,1.4464161E1,1.7634173E-6,-9.708907E-7,-1.8197368E-6,3.1955863E-6,5.890267E-7,2.7701753E-6,-1.9186716E-6,1.5407128E-6,2.5442546E-6,-2.7580936E-6,-9.54194E-7,3.3777573E-7,2.539963E-6,-2.9559917E-6],"split_indices":[8,3,8,8,6,3,1,2,6,0,3,0,1,0,0,1,0,0,0,2,0,1,0,8,0,8,2,8,2,0,0,0,0,0,0,0,0,0,0,0,0,0,0],"split_type":[0,0,0,0,0,0,0,0,0,0,0,0,0,0,0,0,0,0,0,0,0,0,0,0,0,0,0,0,0,0,0,0,0,0,0,0,0,0,0,0,0,0,0],"sum_hessian":[1.903E3,1.49E3,4.13E2,6.83E2,8.07E2,2.55E2,1.58E2,3.71E2,3.12E2,5.48E2,2.59E2,6.3E1,1.92E2,4.3E1,1.15E2,3.28E2,4.3E1,2.91E2,2.1E1,5.45E2,3E0,2.21E2,3.8E1,1.38E2,5.4E1,5.2E1,2.76E2,5.09E2,3.6E1,1.98E2,2.3E1,3.1E1,7E0,2.7E1,1.11E2,3.9E1,1.3E1,3E0,2.73E2,3.34E2,1.75E2,3E1,6E0],"tree_param":{"num_deleted":"0","num_feature":"9","num_nodes":"43","size_leaf_vector":"0"}},{"base_weights":[-9.458651E-14,-5.689613E-5,2.0490852E-4,-1.4098297E-4,1.4356715E-5,1.4904763E-4,2.9355934E-4,-2.1030041E-4,-5.8148882E-5,-3.259553E-5,1.1344296E-4,2.3313187E-5,1.8996968E-4,4.4067777E-4,2.3522512E-4,-2.4337904E-4,4.1817046E-5,-7.508867E-5,1.6933137E-4,-3.7025442E-5,5.8023666E-4,1.4757586E-4,-8.3760744E-5,2.3507322E-4,7.252672E-5,-1.0410695E-4,-2.6914815E-4,-5.1020743E-5,1.5688341E-4,1.7634158E-4,-9.7088894E-5,-1.81973E-4,3.195583E-4,5.8902257E-5,2.770171E-4,-1.9186668E-4,1.5407139E-4,2.5442592E-4,-2.7580926E-4,-9.541919E-5,3.377757E-5,2.5399606E-4,-2.955988E-4],"categories":[],"categories_nodes":[],"categories_segments":[],"categories_sizes":[],"default_left":[1,1,1,1,1,1,1,1,1,1,1,0,1,0,0,1,0,0,0,1,0,1,1,1,0,1,1,1,1,0,0,0,0,0,0,0,0,0,0,0,0,0,0],"id":7,"left_children":[1,3,5,7,9,11,13,15,17,19,21,-1,23,-1,-1,25,-1,-1,-1,27,-1,29,31,33,-1,35,37,39,41,-1,-1,-1,-1,-1,-1,-1,-1,-1,-1,-1,-1,-1,-1],"loss_changes":[2.2209444E-5,8.935242E-6,2.0064217E-6,3.9151937E-6,3.7627738E-6,1.3127706E-6,1.2608862E-6,3.1125473E-6,1.2188497E-6,1.5119055E-6,1.7624561E-6,9.2008827E-7,1.0052895E-6,6.2579784E-7,7.218173E-7,1.1527318E-6,9.2603767E-7,8.855121E-7,6.8648023E-7,1.489746E-6,1.1360157E-7,1.5795472E-6,1.602975E-6,1.0107951E-6,7.6221306E-7,1.2304174E-6,1.0362346E-6,1.9233294E-6,1.7009255E-6,9.4988945E-7,6.7087245E-7,6.206278E-7,5.488244E-7,4.7921594E-7,9.757368E-7,0E0,0E0,0E0,0E0,0E0,0E0,0E0,0E0],"parents":[2147483647,0,0,1,1,2,2,3,3,4,4,5,5,6,6,7,7,8,8,9,9,10,10,12,12,15,15,19,19,21,21,22,22,23,23,25,25,26,26,27,27,28,28],"right_children":[2,4,6,8,10,12,14,16,18,20,22,-1,24,-1,-1,26,-1,-1,-1,28,-1,30,32,34,-1,36,38,40,42,-1,-1,-1,-1,-1,-1,-1,-1,-1,-1,-1,-1,-1,-1],"split_conditions":[7.1875E1,5.7901783E0,7.875E1,6.008E1,5E-1,5.6233416E0,5.482605E0,1.2381046E1,5E-1,1.0158516E1,6.5574074E0,2.3313186E-7,6.629213E0,4.406778E-6,2.3522512E-6,5.5486317E0,4.1817046E-7,-7.5088667E-7,1.6933136E-6,1.3741762E1,5.8023666E-6,6.372738E0,7.817439E0,7.2755E1,7.2526717E-7,5.6355E1,8.536394E0,6.483501E1,1.4464161E1,1.7634158E-6,-9.708889E-7,-1.81973E-6,3.195583E-6,5.8902253E-7,2.770171E-6,-1.9186668E-6,1.5407138E-6,2.5442591E-6,-2.7580925E-6,-9.541919E-7,3.377757E-7,2.5399604E-6,-2.9559878E-6],"split_indices":[8,3,8,8,6,3,1,2,6,0,3,0,1,0,0,1,0,0,0,2,0,1,0,8,0,8,2,8,2,0,0,0,0,0,0,0,0,0,0,0,0,0,0],"split_type":[0,0,0,0,0,0,0,0,0,0,0,0,0,0,0,0,0,0,0,0,0,0,0,0,0,0,0,0,0,0,0,0,0,0,0,0,0,0,0,0,0,0,0],"sum_hessian":[1.903E3,1.49E3,4.13E2,6.83E2,8.07E2,2.55E2,1.58E2,3.71E2,3.12E2,5.48E2,2.59E2,6.3E1,1.92E2,4.3E1,1.15E2,3.28E2,4.3E1,2.91E2,2.1E1,5.45E2,3E0,2.21E2,3.8E1,1.38E2,5.4E1,5.2E1,2.76E2,5.09E2,3.6E1,1.98E2,2.3E1,3.1E1,7E0,2.7E1,1.11E2,3.9E1,1.3E1,3E0,2.73E2,3.34E2,1.75E2,3E1,6E0],"tree_param":{"num_deleted":"0","num_feature":"9","num_nodes":"43","size_leaf_vector":"0"}},{"base_weights":[4.400864E-13,-5.6896E-5,2.0490805E-4,-1.4098277E-4,1.4356782E-5,1.4904735E-4,2.9355855E-4,-2.1030026E-4,-5.8148613E-5,-3.2595413E-5,1.1344293E-4,2.3313265E-5,1.899693E-4,4.406766E-4,2.3522448E-4,-2.4337889E-4,4.1817195E-5,-7.508838E-5,1.6933138E-4,-3.7025322E-5,5.802355E-4,1.4757573E-4,-8.376024E-5,2.3507279E-4,7.252647E-5,-1.0410651E-4,-2.6914803E-4,-5.1020605E-5,1.5688331E-4,1.763414E-4,-9.7088676E-5,-1.8197228E-4,3.1955793E-4,5.8901936E-5,2.7701663E-4,-1.9186613E-4,1.5407144E-4,2.5442638E-4,-2.7580917E-4,-9.541898E-5,3.3777567E-5,2.5399582E-4,-2.955982E-4],"categories":[],"categories_nodes":[],"categories_segments":[],"categories_sizes":[],"default_left":[1,1,1,1,1,1,1,1,1,1,1,0,1,0,0,1,0,0,0,1,0,1,1,1,0,1,1,1,1,0,0,0,0,0,0,0,0,0,0,0,0,0,0],"id":8,"left_children":[1,3,5,7,9,11,13,15,17,19,21,-1,23,-1,-1,25,-1,-1,-1,27,-1,29,31,33,-1,35,37,39,41,-1,-1,-1,-1,-1,-1,-1,-1,-1,-1,-1,-1,-1,-1],"loss_changes":[2.2209342E-5,8.935225E-6,2.0064072E-6,3.915202E-6,3.7627665E-6,1.3127642E-6,1.2608798E-6,3.1125455E-6,1.2188472E-6,1.5118993E-6,1.7624457E-6,9.2009464E-7,1.0052872E-6,6.258042E-7,7.2182047E-7,1.1527372E-6,9.260403E-7,8.855112E-7,6.8648313E-7,1.4897425E-6,1.1360726E-7,1.5795431E-6,1.6029679E-6,1.0107933E-6,7.622162E-7,1.2304138E-6,1.0362382E-6,1.9233225E-6,1.7009202E-6,9.498908E-7,6.70874E-7,6.206328E-7,5.488213E-7,4.792179E-7,9.757478E-7,0E0,0E0,0E0,0E0,0E0,0E0,0E0,0E0],"parents":[2147483647,0,0,1,1,2,2,3,3,4,4,5,5,6,6,7,7,8,8,9,9,10,10,12,12,15,15,19,19,21,21,22,22,23,23,25,25,26,26,27,27,28,28],"right_children":[2,4,6,8,10,12,14,16,18,20,22,-1,24,-1,-1,26,-1,-1,-1,28,-1,30,32,34,-1,36,38,40,42,-1,-1,-1,-1,-1,-1,-1,-1,-1,-1,-1,-1,-1,-1],"split_conditions":[7.1875E1,5.7901783E0,7.875E1,6.008E1,5E-1,5.6233416E0,5.482605E0,1.2381046E1,5E-1,1.0158516E1,6.5574074E0,2.3313264E-7,6.629213E0,4.406766E-6,2.3522448E-6,5.5486317E0,4.1817194E-7,-7.5088377E-7,1.6933138E-6,1.3741762E1,5.8023547E-6,6.372738E0,7.817439E0,7.2755E1,7.2526467E-7,5.6355E1,8.536394E0,6.483501E1,1.4464161E1,1.763414E-6,-9.708867E-7,-1.8197228E-6,3.1955792E-6,5.8901935E-7,2.7701662E-6,-1.9186612E-6,1.5407144E-6,2.5442637E-6,-2.7580916E-6,-9.541898E-7,3.3777567E-7,2.5399581E-6,-2.955982E-6],"split_indices":[8,3,8,8,6,3,1,2,6,0,3,0,1,0,0,1,0,0,0,2,0,1,0,8,0,8,2,8,2,0,0,0,0,0,0,0,0,0,0,0,0,0,0],"split_type":[0,0,0,0,0,0,0,0,0,0,0,0,0,0,0,0,0,0,0,0,0,0,0,0,0,0,0,0,0,0,0,0,0,0,0,0,0,0,0,0,0,0,0],"sum_hessian":[1.903E3,1.49E3,4.13E2,6.83E2,8.07E2,2.55E2,1.58E2,3.71E2,3.12E2,5.48E2,2.59E2,6.3E1,1.92E2,4.3E1,1.15E2,3.28E2,4.3E1,2.91E2,2.1E1,5.45E2,3E0,2.21E2,3.8E1,1.38E2,5.4E1,5.2E1,2.76E2,5.09E2,3.6E1,1.98E2,2.3E1,3.1E1,7E0,2.7E1,1.11E2,3.9E1,1.3E1,3E0,2.73E2,3.34E2,1.75E2,3E1,6E0],"tree_param":{"num_deleted":"0","num_feature":"9","num_nodes":"43","size_leaf_vector":"0"}},{"base_weights":[-2.011087E-13,-5.6895868E-5,2.0490758E-4,-1.4098255E-4,1.4356833E-5,1.4904707E-4,2.935578E-4,-2.1030009E-4,-5.814833E-5,-3.2595315E-5,1.1344288E-4,2.3313274E-5,1.8996892E-4,4.4067545E-4,2.3522388E-4,-2.4337873E-4,4.1817388E-5,-7.508807E-5,1.6933134E-4,-3.702521E-5,5.8023434E-4,1.4757559E-4,-8.375975E-5,2.3507235E-4,7.252627E-5,-1.0410612E-4,-2.6914792E-4,-5.1020477E-5,1.568832E-4,1.7634121E-4,-9.708849E-5,-1.8197158E-4,3.1955758E-4,5.8901445E-5,2.7701622E-4,-1.9186565E-4,1.5407155E-4,2.544268E-4,-2.7580906E-4,-9.541879E-5,3.3777564E-5,2.539956E-4,-2.955978E-4],"categories":[],"categories_nodes":[],"categories_segments":[],"categories_sizes":[],"default_left":[1,1,1,1,1,1,1,1,1,1,1,0,1,0,0,1,0,0,0,1,0,1,1,1,0,1,1,1,1,0,0,0,0,0,0,0,0,0,0,0,0,0,0],"id":9,"left_children":[1,3,5,7,9,11,13,15,17,19,21,-1,23,-1,-1,25,-1,-1,-1,27,-1,29,31,33,-1,35,37,39,41,-1,-1,-1,-1,-1,-1,-1,-1,-1,-1,-1,-1,-1,-1],"loss_changes":[2.2209242E-5,8.935205E-6,2.0063944E-6,3.9152083E-6,3.7627583E-6,1.3127578E-6,1.2608716E-6,3.1125473E-6,1.2188437E-6,1.5118928E-6,1.7624357E-6,9.20101E-7,1.005284E-6,6.258133E-7,7.2182365E-7,1.1527409E-6,9.260429E-7,8.855119E-7,6.864862E-7,1.4897389E-6,1.1361294E-7,1.5795385E-6,1.6029612E-6,1.0107942E-6,7.6221926E-7,1.2304113E-6,1.0362382E-6,1.923317E-6,1.7009162E-6,9.498931E-7,6.7087524E-7,6.2063793E-7,5.4881866E-7,4.792196E-7,9.757568E-7,0E0,0E0,0E0,0E0,0E0,0E0,0E0,0E0],"parents":[2147483647,0,0,1,1,2,2,3,3,4,4,5,5,6,6,7,7,8,8,9,9,10,10,12,12,15,15,19,19,21,21,22,22,23,23,25,25,26,26,27,27,28,28],"right_children":[2,4,6,8,10,12,14,16,18,20,22,-1,24,-1,-1,26,-1,-1,-1,28,-1,30,32,34,-1,36,38,40,42,-1,-1,-1,-1,-1,-1,-1,-1,-1,-1,-1,-1,-1,-1],"split_conditions":[7.1875E1,5.7901783E0,7.875E1,6.008E1,5E-1,5.6233416E0,5.482605E0,1.2381046E1,5E-1,1.0158516E1,6.5574074E0,2.3313274E-7,6.629213E0,4.406754E-6,2.3522387E-6,5.5486317E0,4.1817387E-7,-7.508807E-7,1.6933134E-6,1.3741762E1,5.8023434E-6,6.372738E0,7.817439E0,7.2755E1,7.2526274E-7,5.6355E1,8.536394E0,6.483501E1,1.4464161E1,1.7634121E-6,-9.708848E-7,-1.8197157E-6,3.1955758E-6,5.8901446E-7,2.7701622E-6,-1.9186564E-6,1.5407154E-6,2.5442678E-6,-2.7580904E-6,-9.54188E-7,3.3777562E-7,2.5399559E-6,-2.9559778E-6],"split_indices":[8,3,8,8,6,3,1,2,6,0,3,0,1,0,0,1,0,0,0,2,0,1,0,8,0,8,2,8,2,0,0,0,0,0,0,0,0,0,0,0,0,0,0],"split_type":[0,0,0,0,0,0,0,0,0,0,0,0,0,0,0,0,0,0,0,0,0,0,0,0,0,0,0,0,0,0,0,0,0,0,0,0,0,0,0,0,0,0,0],"sum_hessian":[1.903E3,1.49E3,4.13E2,6.83E2,8.07E2,2.55E2,1.58E2,3.71E2,3.12E2,5.48E2,2.59E2,6.3E1,1.92E2,4.3E1,1.15E2,3.28E2,4.3E1,2.91E2,2.1E1,5.45E2,3E0,2.21E2,3.8E1,1.38E2,5.4E1,5.2E1,2.76E2,5.09E2,3.6E1,1.98E2,2.3E1,3.1E1,7E0,2.7E1,1.11E2,3.9E1,1.3E1,3E0,2.73E2,3.34E2,1.75E2,3E1,6E0],"tree_param":{"num_deleted":"0","num_feature":"9","num_nodes":"43","size_leaf_vector":"0"}},{"base_weights":[4.036181E-13,-5.6895737E-5,2.049071E-4,-1.4098232E-4,1.4356889E-5,1.4904678E-4,2.9355704E-4,-2.1029994E-4,-5.8148024E-5,-3.259521E-5,1.1344283E-4,2.3313316E-5,1.8996852E-4,4.4067428E-4,2.3522327E-4,-2.4337857E-4,4.1817544E-5,-7.5087744E-5,1.6933137E-4,-3.7025096E-5,5.802332E-4,1.4757544E-4,-8.375924E-5,2.350719E-4,7.252597E-5,-1.0410572E-4,-2.6914783E-4,-5.102035E-5,1.5688312E-4,1.7634104E-4,-9.708829E-5,-1.8197087E-4,3.195572E-4,5.8901114E-5,2.7701576E-4,-1.9186517E-4,1.5407169E-4,2.5442726E-4,-2.7580897E-4,-9.541858E-5,3.3777542E-5,2.539954E-4,-2.9559733E-4],"categories":[],"categories_nodes":[],"categories_segments":[],"categories_sizes":[],"default_left":[1,1,1,1,1,1,1,1,1,1,1,0,1,0,0,1,0,0,0,1,0,1,1,1,0,1,1,1,1,0,0,0,0,0,0,0,0,0,0,0,0,0,0],"id":10,"left_children":[1,3,5,7,9,11,13,15,17,19,21,-1,23,-1,-1,25,-1,-1,-1,27,-1,29,31,33,-1,35,37,39,41,-1,-1,-1,-1,-1,-1,-1,-1,-1,-1,-1,-1,-1,-1],"loss_changes":[2.220914E-5,8.935186E-6,2.0063799E-6,3.9152164E-6,3.7627508E-6,1.3127501E-6,1.2608634E-6,3.1125455E-6,1.2188406E-6,1.5118867E-6,1.7624257E-6,9.201079E-7,1.0052836E-6,6.258206E-7,7.2182775E-7,1.1527463E-6,9.2604535E-7,8.855126E-7,6.864894E-7,1.489736E-6,1.1361897E-7,1.5795345E-6,1.6029544E-6,1.0107933E-6,7.6222267E-7,1.2304089E-6,1.0362401E-6,1.9233103E-6,1.7009122E-6,9.498931E-7,6.708766E-7,6.2064294E-7,5.4881565E-7,4.7922146E-7,9.757687E-7,0E0,0E0,0E0,0E0,0E0,0E0,0E0,0E0],"parents":[2147483647,0,0,1,1,2,2,3,3,4,4,5,5,6,6,7,7,8,8,9,9,10,10,12,12,15,15,19,19,21,21,22,22,23,23,25,25,26,26,27,27,28,28],"right_children":[2,4,6,8,10,12,14,16,18,20,22,-1,24,-1,-1,26,-1,-1,-1,28,-1,30,32,34,-1,36,38,40,42,-1,-1,-1,-1,-1,-1,-1,-1,-1,-1,-1,-1,-1,-1],"split_conditions":[7.1875E1,5.7901783E0,7.875E1,6.008E1,5E-1,5.6233416E0,5.482605E0,1.2381046E1,5E-1,1.0158516E1,6.5574074E0,2.3313315E-7,6.629213E0,4.406743E-6,2.3522327E-6,5.5486317E0,4.1817543E-7,-7.508774E-7,1.6933136E-6,1.3741762E1,5.8023315E-6,6.372738E0,7.817439E0,7.2755E1,7.2525967E-7,5.6355E1,8.536394E0,6.483501E1,1.4464161E1,1.7634104E-6,-9.708829E-7,-1.8197087E-6,3.195572E-6,5.890111E-7,2.7701576E-6,-1.9186516E-6,1.5407169E-6,2.5442725E-6,-2.7580895E-6,-9.541858E-7,3.3777542E-7,2.5399538E-6,-2.9559733E-6],"split_indices":[8,3,8,8,6,3,1,2,6,0,3,0,1,0,0,1,0,0,0,2,0,1,0,8,0,8,2,8,2,0,0,0,0,0,0,0,0,0,0,0,0,0,0],"split_type":[0,0,0,0,0,0,0,0,0,0,0,0,0,0,0,0,0,0,0,0,0,0,0,0,0,0,0,0,0,0,0,0,0,0,0,0,0,0,0,0,0,0,0],"sum_hessian":[1.903E3,1.49E3,4.13E2,6.83E2,8.07E2,2.55E2,1.58E2,3.71E2,3.12E2,5.48E2,2.59E2,6.3E1,1.92E2,4.3E1,1.15E2,3.28E2,4.3E1,2.91E2,2.1E1,5.45E2,3E0,2.21E2,3.8E1,1.38E2,5.4E1,5.2E1,2.76E2,5.09E2,3.6E1,1.98E2,2.3E1,3.1E1,7E0,2.7E1,1.11E2,3.9E1,1.3E1,3E0,2.73E2,3.34E2,1.75E2,3E1,6E0],"tree_param":{"num_deleted":"0","num_feature":"9","num_nodes":"43","size_leaf_vector":"0"}},{"base_weights":[-1.8966598E-13,-5.689561E-5,2.0490665E-4,-1.4098213E-4,1.43569505E-5,1.4904651E-4,2.9355628E-4,-2.1029978E-4,-5.8147773E-5,-3.25951E-5,1.13442795E-4,2.3313292E-5,1.8996817E-4,4.406731E-4,2.3522269E-4,-2.4337841E-4,4.18177E-5,-7.508747E-5,1.6933131E-4,-3.702498E-5,5.80232E-4,1.4757531E-4,-8.375875E-5,2.350715E-4,7.2525785E-5,-1.0410528E-4,-2.691477E-4,-5.102021E-5,1.5688296E-4,1.7634087E-4,-9.708811E-5,-1.8197019E-4,3.1955683E-4,5.8900772E-5,2.7701532E-4,-1.9186462E-4,1.5407178E-4,2.544277E-4,-2.7580885E-4,-9.541838E-5,3.377755E-5,2.539951E-4,-2.9559687E-4],"categories":[],"categories_nodes":[],"categories_segments":[],"categories_sizes":[],"default_left":[1,1,1,1,1,1,1,1,1,1,1,0,1,0,0,1,0,0,0,1,0,1,1,1,0,1,1,1,1,0,0,0,0,0,0,0,0,0,0,0,0,0,0],"id":11,"left_children":[1,3,5,7,9,11,13,15,17,19,21,-1,23,-1,-1,25,-1,-1,-1,27,-1,29,31,33,-1,35,37,39,41,-1,-1,-1,-1,-1,-1,-1,-1,-1,-1,-1,-1,-1,-1],"loss_changes":[2.220904E-5,8.935171E-6,2.0063671E-6,3.91522E-6,3.7627428E-6,1.3127456E-6,1.260858E-6,3.1125437E-6,1.2188375E-6,1.5118806E-6,1.7624166E-6,9.201139E-7,1.0052795E-6,6.2582603E-7,7.2183093E-7,1.1527536E-6,9.2604773E-7,8.855121E-7,6.864921E-7,1.4897319E-6,1.13624424E-7,1.5795299E-6,1.6029478E-6,1.0107933E-6,7.6222557E-7,1.2304056E-6,1.0362401E-6,1.9233041E-6,1.7009075E-6,9.498949E-7,6.7087785E-7,6.2064873E-7,5.4881286E-7,4.7922305E-7,9.757796E-7,0E0,0E0,0E0,0E0,0E0,0E0,0E0,0E0],"parents":[2147483647,0,0,1,1,2,2,3,3,4,4,5,5,6,6,7,7,8,8,9,9,10,10,12,12,15,15,19,19,21,21,22,22,23,23,25,25,26,26,27,27,28,28],"right_children":[2,4,6,8,10,12,14,16,18,20,22,-1,24,-1,-1,26,-1,-1,-1,28,-1,30,32,34,-1,36,38,40,42,-1,-1,-1,-1,-1,-1,-1,-1,-1,-1,-1,-1,-1,-1],"split_conditions":[7.1875E1,5.7901783E0,7.875E1,6.008E1,5E-1,5.6233416E0,5.482605E0,1.2381046E1,5E-1,1.0158516E1,6.5574074E0,2.3313292E-7,6.629213E0,4.4067306E-6,2.3522268E-6,5.5486317E0,4.18177E-7,-7.508747E-7,1.693313E-6,1.3741762E1,5.80232E-6,6.372738E0,7.817439E0,7.2755E1,7.2525785E-7,5.6355E1,8.536394E0,6.483501E1,1.4464161E1,1.7634086E-6,-9.70881E-7,-1.8197019E-6,3.1955683E-6,5.890077E-7,2.770153E-6,-1.9186461E-6,1.5407178E-6,2.5442769E-6,-2.7580884E-6,-9.541837E-7,3.3777548E-7,2.5399509E-6,-2.9559685E-6],"split_indices":[8,3,8,8,6,3,1,2,6,0,3,0,1,0,0,1,0,0,0,2,0,1,0,8,0,8,2,8,2,0,0,0,0,0,0,0,0,0,0,0,0,0,0],"split_type":[0,0,0,0,0,0,0,0,0,0,0,0,0,0,0,0,0,0,0,0,0,0,0,0,0,0,0,0,0,0,0,0,0,0,0,0,0,0,0,0,0,0,0],"sum_hessian":[1.903E3,1.49E3,4.13E2,6.83E2,8.07E2,2.55E2,1.58E2,3.71E2,3.12E2,5.48E2,2.59E2,6.3E1,1.92E2,4.3E1,1.15E2,3.28E2,4.3E1,2.91E2,2.1E1,5.45E2,3E0,2.21E2,3.8E1,1.38E2,5.4E1,5.2E1,2.76E2,5.09E2,3.6E1,1.98E2,2.3E1,3.1E1,7E0,2.7E1,1.11E2,3.9E1,1.3E1,3E0,2.73E2,3.34E2,1.75E2,3E1,6E0],"tree_param":{"num_deleted":"0","num_feature":"9","num_nodes":"43","size_leaf_vector":"0"}},{"base_weights":[-3.6325004E-13,-5.689548E-5,2.0490617E-4,-1.409819E-4,1.4357005E-5,1.4904622E-4,2.935555E-4,-2.1029962E-4,-5.814748E-5,-3.2595E-5,1.1344275E-4,2.3313338E-5,1.8996777E-4,4.406719E-4,2.3522209E-4,-2.4337825E-4,4.1817864E-5,-7.508716E-5,1.6933135E-4,-3.7024867E-5,5.802309E-4,1.4757516E-4,-8.375828E-5,2.3507106E-4,7.2525494E-5,-1.0410489E-4,-2.691476E-4,-5.1020084E-5,1.5688284E-4,1.7634069E-4,-9.7087934E-5,-1.8196952E-4,3.1955648E-4,5.8900416E-5,2.770149E-4,-1.9186412E-4,1.5407184E-4,2.5442816E-4,-2.7580874E-4,-9.541818E-5,3.377754E-5,2.5399486E-4,-2.955965E-4],"categories":[],"categories_nodes":[],"categories_segments":[],"categories_sizes":[],"default_left":[1,1,1,1,1,1,1,1,1,1,1,0,1,0,0,1,0,0,0,1,0,1,1,1,0,1,1,1,1,0,0,0,0,0,0,0,0,0,0,0,0,0,0],"id":12,"left_children":[1,3,5,7,9,11,13,15,17,19,21,-1,23,-1,-1,25,-1,-1,-1,27,-1,29,31,33,-1,35,37,39,41,-1,-1,-1,-1,-1,-1,-1,-1,-1,-1,-1,-1,-1,-1],"loss_changes":[2.2208937E-5,8.9351515E-6,2.0063544E-6,3.9152264E-6,3.7627353E-6,1.3127378E-6,1.2608489E-6,3.1125455E-6,1.2188347E-6,1.5118744E-6,1.762407E-6,9.2012044E-7,1.0052795E-6,6.258342E-7,7.2183457E-7,1.1527572E-6,9.2605E-7,8.85512E-7,6.864954E-7,1.4897282E-6,1.1363022E-7,1.5795258E-6,1.6029413E-6,1.0107924E-6,7.6222864E-7,1.2304026E-6,1.0362419E-6,1.9232984E-6,1.7009035E-6,9.4989673E-7,6.708793E-7,6.2065396E-7,5.4880985E-7,4.792249E-7,9.757887E-7,0E0,0E0,0E0,0E0,0E0,0E0,0E0,0E0],"parents":[2147483647,0,0,1,1,2,2,3,3,4,4,5,5,6,6,7,7,8,8,9,9,10,10,12,12,15,15,19,19,21,21,22,22,23,23,25,25,26,26,27,27,28,28],"right_children":[2,4,6,8,10,12,14,16,18,20,22,-1,24,-1,-1,26,-1,-1,-1,28,-1,30,32,34,-1,36,38,40,42,-1,-1,-1,-1,-1,-1,-1,-1,-1,-1,-1,-1,-1,-1],"split_conditions":[7.1875E1,5.7901783E0,7.875E1,6.008E1,5E-1,5.6233416E0,5.482605E0,1.2381046E1,5E-1,1.0158516E1,6.5574074E0,2.3313338E-7,6.629213E0,4.4067187E-6,2.352221E-6,5.5486317E0,4.1817864E-7,-7.508716E-7,1.6933135E-6,1.3741762E1,5.802309E-6,6.372738E0,7.817439E0,7.2755E1,7.2525495E-7,5.6355E1,8.536394E0,6.483501E1,1.4464161E1,1.7634069E-6,-9.708793E-7,-1.8196952E-6,3.1955647E-6,5.890041E-7,2.7701487E-6,-1.9186411E-6,1.5407184E-6,2.5442816E-6,-2.7580872E-6,-9.541818E-7,3.3777536E-7,2.5399486E-6,-2.9559649E-6],"split_indices":[8,3,8,8,6,3,1,2,6,0,3,0,1,0,0,1,0,0,0,2,0,1,0,8,0,8,2,8,2,0,0,0,0,0,0,0,0,0,0,0,0,0,0],"split_type":[0,0,0,0,0,0,0,0,0,0,0,0,0,0,0,0,0,0,0,0,0,0,0,0,0,0,0,0,0,0,0,0,0,0,0,0,0,0,0,0,0,0,0],"sum_hessian":[1.903E3,1.49E3,4.13E2,6.83E2,8.07E2,2.55E2,1.58E2,3.71E2,3.12E2,5.48E2,2.59E2,6.3E1,1.92E2,4.3E1,1.15E2,3.28E2,4.3E1,2.91E2,2.1E1,5.45E2,3E0,2.21E2,3.8E1,1.38E2,5.4E1,5.2E1,2.76E2,5.09E2,3.6E1,1.98E2,2.3E1,3.1E1,7E0,2.7E1,1.11E2,3.9E1,1.3E1,3E0,2.73E2,3.34E2,1.75E2,3E1,6E0],"tree_param":{"num_deleted":"0","num_feature":"9","num_nodes":"43","size_leaf_vector":"0"}},{"base_weights":[-2.2533399E-13,-5.6895347E-5,2.0490571E-4,-1.4098169E-4,1.4357066E-5,1.4904594E-4,2.9355474E-4,-2.1029946E-4,-5.8147194E-5,-3.259489E-5,1.1344271E-4,2.331335E-5,1.8996738E-4,4.406707E-4,2.352215E-4,-2.433781E-4,4.1818024E-5,-7.508686E-5,1.6933135E-4,-3.702475E-5,5.8022974E-4,1.4757503E-4,-8.375776E-5,2.350706E-4,7.2525305E-5,-1.041045E-4,-2.691475E-4,-5.1019953E-5,1.5688277E-4,1.7634052E-4,-9.708773E-5,-1.819688E-4,3.1955613E-4,5.889996E-5,2.7701442E-4,-1.9186364E-4,1.5407194E-4,2.5442854E-4,-2.7580865E-4,-9.541798E-5,3.3777535E-5,2.5399463E-4,-2.955959E-4],"categories":[],"categories_nodes":[],"categories_segments":[],"categories_sizes":[],"default_left":[1,1,1,1,1,1,1,1,1,1,1,0,1,0,0,1,0,0,0,1,0,1,1,1,0,1,1,1,1,0,0,0,0,0,0,0,0,0,0,0,0,0,0],"id":13,"left_children":[1,3,5,7,9,11,13,15,17,19,21,-1,23,-1,-1,25,-1,-1,-1,27,-1,29,31,33,-1,35,37,39,41,-1,-1,-1,-1,-1,-1,-1,-1,-1,-1,-1,-1,-1,-1],"loss_changes":[2.2208838E-5,8.935134E-6,2.006338E-6,3.915233E-6,3.7627274E-6,1.3127324E-6,1.2608434E-6,3.1125473E-6,1.2188317E-6,1.5118683E-6,1.7623972E-6,9.2012624E-7,1.0052745E-6,6.258406E-7,7.218382E-7,1.1527591E-6,9.2605256E-7,8.855119E-7,6.8649837E-7,1.4897253E-6,1.1363579E-7,1.5795213E-6,1.6029345E-6,1.0107924E-6,7.622316E-7,1.2303999E-6,1.0362455E-6,1.9232916E-6,1.7008989E-6,9.498972E-7,6.708806E-7,6.2065897E-7,5.4880707E-7,4.792266E-7,9.757996E-7,0E0,0E0,0E0,0E0,0E0,0E0,0E0,0E0],"parents":[2147483647,0,0,1,1,2,2,3,3,4,4,5,5,6,6,7,7,8,8,9,9,10,10,12,12,15,15,19,19,21,21,22,22,23,23,25,25,26,26,27,27,28,28],"right_children":[2,4,6,8,10,12,14,16,18,20,22,-1,24,-1,-1,26,-1,-1,-1,28,-1,30,32,34,-1,36,38,40,42,-1,-1,-1,-1,-1,-1,-1,-1,-1,-1,-1,-1,-1,-1],"split_conditions":[7.1875E1,5.7901783E0,7.875E1,6.008E1,5E-1,5.6233416E0,5.482605E0,1.2381046E1,5E-1,1.0158516E1,6.5574074E0,2.331335E-7,6.629213E0,4.406707E-6,2.3522148E-6,5.5486317E0,4.1818024E-7,-7.5086854E-7,1.6933135E-6,1.3741762E1,5.8022974E-6,6.372738E0,7.817439E0,7.2755E1,7.25253E-7,5.6355E1,8.536394E0,6.483501E1,1.4464161E1,1.7634051E-6,-9.708773E-7,-1.819688E-6,3.1955612E-6,5.8899957E-7,2.7701442E-6,-1.9186364E-6,1.5407194E-6,2.5442853E-6,-2.7580863E-6,-9.541798E-7,3.3777533E-7,2.5399463E-6,-2.955959E-6],"split_indices":[8,3,8,8,6,3,1,2,6,0,3,0,1,0,0,1,0,0,0,2,0,1,0,8,0,8,2,8,2,0,0,0,0,0,0,0,0,0,0,0,0,0,0],"split_type":[0,0,0,0,0,0,0,0,0,0,0,0,0,0,0,0,0,0,0,0,0,0,0,0,0,0,0,0,0,0,0,0,0,0,0,0,0,0,0,0,0,0,0],"sum_hessian":[1.903E3,1.49E3,4.13E2,6.83E2,8.07E2,2.55E2,1.58E2,3.71E2,3.12E2,5.48E2,2.59E2,6.3E1,1.92E2,4.3E1,1.15E2,3.28E2,4.3E1,2.91E2,2.1E1,5.45E2,3E0,2.21E2,3.8E1,1.38E2,5.4E1,5.2E1,2.76E2,5.09E2,3.6E1,1.98E2,2.3E1,3.1E1,7E0,2.7E1,1.11E2,3.9E1,1.3E1,3E0,2.73E2,3.34E2,1.75E2,3E1,6E0],"tree_param":{"num_deleted":"0","num_feature":"9","num_nodes":"43","size_leaf_vector":"0"}},{"base_weights":[1.3828985E-13,-5.6895216E-5,2.0490523E-4,-1.4098147E-4,1.4357125E-5,1.4904563E-4,2.9355398E-4,-2.102993E-4,-5.814691E-5,-3.2594784E-5,1.13442664E-4,2.3313354E-5,1.8996699E-4,4.4066957E-4,2.3522088E-4,-2.4337794E-4,4.18182E-5,-7.5086544E-5,1.693313E-4,-3.702463E-5,5.802284E-4,1.4757489E-4,-8.375723E-5,2.3507017E-4,7.2525014E-5,-1.0410405E-4,-2.691474E-4,-5.1019815E-5,1.5688263E-4,1.7634033E-4,-9.708755E-5,-1.8196806E-4,3.1955572E-4,5.889962E-5,2.7701395E-4,-1.9186309E-4,1.5407206E-4,2.5442903E-4,-2.7580856E-4,-9.541776E-5,3.377752E-5,2.5399437E-4,-2.9559547E-4],"categories":[],"categories_nodes":[],"categories_segments":[],"categories_sizes":[],"default_left":[1,1,1,1,1,1,1,1,1,1,1,0,1,0,0,1,0,0,0,1,0,1,1,1,0,1,1,1,1,0,0,0,0,0,0,0,0,0,0,0,0,0,0],"id":14,"left_children":[1,3,5,7,9,11,13,15,17,19,21,-1,23,-1,-1,25,-1,-1,-1,27,-1,29,31,33,-1,35,37,39,41,-1,-1,-1,-1,-1,-1,-1,-1,-1,-1,-1,-1,-1,-1],"loss_changes":[2.2208733E-5,8.935114E-6,2.0063253E-6,3.91524E-6,3.7627196E-6,1.312726E-6,1.260837E-6,3.1125473E-6,1.2188281E-6,1.5118612E-6,1.7623865E-6,9.20133E-7,1.0052736E-6,6.2584695E-7,7.2184184E-7,1.1527645E-6,9.260551E-7,8.855121E-7,6.8650144E-7,1.4897214E-6,1.1364216E-7,1.5795172E-6,1.6029272E-6,1.0107915E-6,7.6223466E-7,1.230397E-6,1.0362473E-6,1.9232853E-6,1.7008942E-6,9.498981E-7,6.7088183E-7,6.2066454E-7,5.4880394E-7,4.7922856E-7,9.758096E-7,0E0,0E0,0E0,0E0,0E0,0E0,0E0,0E0],"parents":[2147483647,0,0,1,1,2,2,3,3,4,4,5,5,6,6,7,7,8,8,9,9,10,10,12,12,15,15,19,19,21,21,22,22,23,23,25,25,26,26,27,27,28,28],"right_children":[2,4,6,8,10,12,14,16,18,20,22,-1,24,-1,-1,26,-1,-1,-1,28,-1,30,32,34,-1,36,38,40,42,-1,-1,-1,-1,-1,-1,-1,-1,-1,-1,-1,-1,-1,-1],"split_conditions":[7.1875E1,5.7901783E0,7.875E1,6.008E1,5E-1,5.6233416E0,5.482605E0,1.2381046E1,5E-1,1.0158516E1,6.5574074E0,2.3313353E-7,6.629213E0,4.4066956E-6,2.3522089E-6,5.5486317E0,4.1818197E-7,-7.508654E-7,1.6933129E-6,1.3741762E1,5.802284E-6,6.372738E0,7.817439E0,7.2755E1,7.252501E-7,5.6355E1,8.536394E0,6.483501E1,1.4464161E1,1.7634032E-6,-9.708755E-7,-1.8196806E-6,3.1955572E-6,5.8899616E-7,2.7701394E-6,-1.918631E-6,1.5407205E-6,2.5442903E-6,-2.7580857E-6,-9.541776E-7,3.377752E-7,2.5399436E-6,-2.9559546E-6],"split_indices":[8,3,8,8,6,3,1,2,6,0,3,0,1,0,0,1,0,0,0,2,0,1,0,8,0,8,2,8,2,0,0,0,0,0,0,0,0,0,0,0,0,0,0],"split_type":[0,0,0,0,0,0,0,0,0,0,0,0,0,0,0,0,0,0,0,0,0,0,0,0,0,0,0,0,0,0,0,0,0,0,0,0,0,0,0,0,0,0,0],"sum_hessian":[1.903E3,1.49E3,4.13E2,6.83E2,8.07E2,2.55E2,1.58E2,3.71E2,3.12E2,5.48E2,2.59E2,6.3E1,1.92E2,4.3E1,1.15E2,3.28E2,4.3E1,2.91E2,2.1E1,5.45E2,3E0,2.21E2,3.8E1,1.38E2,5.4E1,5.2E1,2.76E2,5.09E2,3.6E1,1.98E2,2.3E1,3.1E1,7E0,2.7E1,1.11E2,3.9E1,1.3E1,3E0,2.73E2,3.34E2,1.75E2,3E1,6E0],"tree_param":{"num_deleted":"0","num_feature":"9","num_nodes":"43","size_leaf_vector":"0"}},{"base_weights":[-1.6439546E-13,-5.6895085E-5,2.0490476E-4,-1.4098125E-4,1.435719E-5,1.4904537E-4,2.935532E-4,-2.1029914E-4,-5.8146652E-5,-3.2594675E-5,1.13442635E-4,2.3313372E-5,1.8996662E-4,4.406683E-4,2.3522029E-4,-2.4337777E-4,4.181837E-5,-7.508627E-5,1.6933131E-4,-3.7024514E-5,5.802273E-4,1.4757477E-4,-8.3756735E-5,2.3506973E-4,7.252483E-5,-1.0410365E-4,-2.6914728E-4,-5.101968E-5,1.5688251E-4,1.7634017E-4,-9.708736E-5,-1.8196736E-4,3.1955537E-4,5.889926E-5,2.7701352E-4,-1.918626E-4,1.5407217E-4,2.5442953E-4,-2.7580844E-4,-9.5417556E-5,3.3777524E-5,2.5399413E-4,-2.95595E-4],"categories":[],"categories_nodes":[],"categories_segments":[],"categories_sizes":[],"default_left":[1,1,1,1,1,1,1,1,1,1,1,0,1,0,0,1,0,0,0,1,0,1,1,1,0,1,1,1,1,0,0,0,0,0,0,0,0,0,0,0,0,0,0],"id":15,"left_children":[1,3,5,7,9,11,13,15,17,19,21,-1,23,-1,-1,25,-1,-1,-1,27,-1,29,31,33,-1,35,37,39,41,-1,-1,-1,-1,-1,-1,-1,-1,-1,-1,-1,-1,-1,-1],"loss_changes":[2.2208631E-5,8.935099E-6,2.0063108E-6,3.9152446E-6,3.7627128E-6,1.3127196E-6,1.2608298E-6,3.1125473E-6,1.2188253E-6,1.5118551E-6,1.7623772E-6,9.201391E-7,1.0052709E-6,6.2585514E-7,7.2184366E-7,1.15277E-6,9.260579E-7,8.8551167E-7,6.865041E-7,1.4897178E-6,1.1364796E-7,1.5795126E-6,1.6029205E-6,1.0107915E-6,7.622377E-7,1.2303943E-6,1.0362473E-6,1.923279E-6,1.70089E-6,9.498999E-7,6.7088297E-7,6.2066965E-7,5.4880115E-7,4.792301E-7,9.758205E-7,0E0,0E0,0E0,0E0,0E0,0E0,0E0,0E0],"parents":[2147483647,0,0,1,1,2,2,3,3,4,4,5,5,6,6,7,7,8,8,9,9,10,10,12,12,15,15,19,19,21,21,22,22,23,23,25,25,26,26,27,27,28,28],"right_children":[2,4,6,8,10,12,14,16,18,20,22,-1,24,-1,-1,26,-1,-1,-1,28,-1,30,32,34,-1,36,38,40,42,-1,-1,-1,-1,-1,-1,-1,-1,-1,-1,-1,-1,-1,-1],"split_conditions":[7.1875E1,5.7901783E0,7.875E1,6.008E1,5E-1,5.6233416E0,5.482605E0,1.2381046E1,5E-1,1.0158516E1,6.5574074E0,2.3313372E-7,6.629213E0,4.406683E-6,2.3522027E-6,5.5486317E0,4.181837E-7,-7.508627E-7,1.693313E-6,1.3741762E1,5.802273E-6,6.372738E0,7.817439E0,7.2755E1,7.252483E-7,5.6355E1,8.536394E0,6.483501E1,1.4464161E1,1.7634017E-6,-9.708735E-7,-1.8196736E-6,3.1955537E-6,5.889926E-7,2.770135E-6,-1.918626E-6,1.5407217E-6,2.5442953E-6,-2.7580843E-6,-9.541756E-7,3.3777522E-7,2.5399413E-6,-2.9559499E-6],"split_indices":[8,3,8,8,6,3,1,2,6,0,3,0,1,0,0,1,0,0,0,2,0,1,0,8,0,8,2,8,2,0,0,0,0,0,0,0,0,0,0,0,0,0,0],"split_type":[0,0,0,0,0,0,0,0,0,0,0,0,0,0,0,0,0,0,0,0,0,0,0,0,0,0,0,0,0,0,0,0,0,0,0,0,0,0,0,0,0,0,0],"sum_hessian":[1.903E3,1.49E3,4.13E2,6.83E2,8.07E2,2.55E2,1.58E2,3.71E2,3.12E2,5.48E2,2.59E2,6.3E1,1.92E2,4.3E1,1.15E2,3.28E2,4.3E1,2.91E2,2.1E1,5.45E2,3E0,2.21E2,3.8E1,1.38E2,5.4E1,5.2E1,2.76E2,5.09E2,3.6E1,1.98E2,2.3E1,3.1E1,7E0,2.7E1,1.11E2,3.9E1,1.3E1,3E0,2.73E2,3.34E2,1.75E2,3E1,6E0],"tree_param":{"num_deleted":"0","num_feature":"9","num_nodes":"43","size_leaf_vector":"0"}},{"base_weights":[2.4458674E-13,-5.6894954E-5,2.049043E-4,-1.4098104E-4,1.4357245E-5,1.4904508E-4,2.9355244E-4,-2.1029898E-4,-5.8146365E-5,-3.259457E-5,1.1344259E-4,2.331342E-5,1.8996623E-4,4.4066712E-4,2.3521968E-4,-2.4337761E-4,4.1818552E-5,-7.508596E-5,1.6933127E-4,-3.70244E-5,5.8022613E-4,1.4757462E-4,-8.375626E-5,2.3506931E-4,7.252453E-5,-1.041032E-4,-2.6914716E-4,-5.1019553E-5,1.5688238E-4,1.7633999E-4,-9.708719E-5,-1.819667E-4,3.1955502E-4,5.8898917E-5,2.7701308E-4,-1.9186203E-4,1.5407223E-4,2.5442996E-4,-2.7580833E-4,-9.541735E-5,3.377751E-5,2.5399387E-4,-2.9559457E-4],"categories":[],"categories_nodes":[],"categories_segments":[],"categories_sizes":[],"default_left":[1,1,1,1,1,1,1,1,1,1,1,0,1,0,0,1,0,0,0,1,0,1,1,1,0,1,1,1,1,0,0,0,0,0,0,0,0,0,0,0,0,0,0],"id":16,"left_children":[1,3,5,7,9,11,13,15,17,19,21,-1,23,-1,-1,25,-1,-1,-1,27,-1,29,31,33,-1,35,37,39,41,-1,-1,-1,-1,-1,-1,-1,-1,-1,-1,-1,-1,-1,-1],"loss_changes":[2.220853E-5,8.93508E-6,2.006298E-6,3.915252E-6,3.762705E-6,1.3127128E-6,1.2608225E-6,3.1125473E-6,1.2188219E-6,1.5118488E-6,1.7623677E-6,9.2014534E-7,1.0052681E-6,6.258615E-7,7.218482E-7,1.1527736E-6,9.260605E-7,8.855121E-7,6.865073E-7,1.4897139E-6,1.1365364E-7,1.5795094E-6,1.602914E-6,1.0107897E-6,7.6224103E-7,1.2303906E-6,1.0362492E-6,1.9232725E-6,1.7008856E-6,9.499013E-7,6.7088433E-7,6.206749E-7,5.487983E-7,4.7923197E-7,9.758323E-7,0E0,0E0,0E0,0E0,0E0,0E0,0E0,0E0],"parents":[2147483647,0,0,1,1,2,2,3,3,4,4,5,5,6,6,7,7,8,8,9,9,10,10,12,12,15,15,19,19,21,21,22,22,23,23,25,25,26,26,27,27,28,28],"right_children":[2,4,6,8,10,12,14,16,18,20,22,-1,24,-1,-1,26,-1,-1,-1,28,-1,30,32,34,-1,36,38,40,42,-1,-1,-1,-1,-1,-1,-1,-1,-1,-1,-1,-1,-1,-1],"split_conditions":[7.1875E1,5.7901783E0,7.875E1,6.008E1,5E-1,5.6233416E0,5.482605E0,1.2381046E1,5E-1,1.0158516E1,6.5574074E0,2.3313419E-7,6.629213E0,4.406671E-6,2.3521966E-6,5.5486317E0,4.1818552E-7,-7.508596E-7,1.6933126E-6,1.3741762E1,5.802261E-6,6.372738E0,7.817439E0,7.2755E1,7.2524534E-7,5.6355E1,8.536394E0,6.483501E1,1.4464161E1,1.7633998E-6,-9.708718E-7,-1.8196669E-6,3.19555E-6,5.8898917E-7,2.7701308E-6,-1.9186202E-6,1.5407222E-6,2.5442996E-6,-2.7580832E-6,-9.541735E-7,3.3777508E-7,2.5399386E-6,-2.9559455E-6],"split_indices":[8,3,8,8,6,3,1,2,6,0,3,0,1,0,0,1,0,0,0,2,0,1,0,8,0,8,2,8,2,0,0,0,0,0,0,0,0,0,0,0,0,0,0],"split_type":[0,0,0,0,0,0,0,0,0,0,0,0,0,0,0,0,0,0,0,0,0,0,0,0,0,0,0,0,0,0,0,0,0,0,0,0,0,0,0,0,0,0,0],"sum_hessian":[1.903E3,1.49E3,4.13E2,6.83E2,8.07E2,2.55E2,1.58E2,3.71E2,3.12E2,5.48E2,2.59E2,6.3E1,1.92E2,4.3E1,1.15E2,3.28E2,4.3E1,2.91E2,2.1E1,5.45E2,3E0,2.21E2,3.8E1,1.38E2,5.4E1,5.2E1,2.76E2,5.09E2,3.6E1,1.98E2,2.3E1,3.1E1,7E0,2.7E1,1.11E2,3.9E1,1.3E1,3E0,2.73E2,3.34E2,1.75E2,3E1,6E0],"tree_param":{"num_deleted":"0","num_feature":"9","num_nodes":"43","size_leaf_vector":"0"}},{"base_weights":[-5.032413E-13,-5.6894827E-5,2.0490383E-4,-1.4098083E-4,1.4357302E-5,1.490448E-4,2.9355168E-4,-2.1029884E-4,-5.814607E-5,-3.259446E-5,1.1344253E-4,2.3313452E-5,1.8996584E-4,4.40666E-4,2.352191E-4,-2.4337748E-4,4.1818697E-5,-7.508564E-5,1.6933127E-4,-3.7024285E-5,5.802249E-4,1.4757446E-4,-8.375574E-5,2.3506884E-4,7.252432E-5,-1.0410282E-4,-2.6914707E-4,-5.101942E-5,1.5688229E-4,1.763398E-4,-9.708698E-5,-1.8196598E-4,3.1955467E-4,5.8898437E-5,2.7701262E-4,-1.9186155E-4,1.540723E-4,2.5443034E-4,-2.7580824E-4,-9.541715E-5,3.377751E-5,2.5399367E-4,-2.9559416E-4],"categories":[],"categories_nodes":[],"categories_segments":[],"categories_sizes":[],"default_left":[1,1,1,1,1,1,1,1,1,1,1,0,1,0,0,1,0,0,0,1,0,1,1,1,0,1,1,1,1,0,0,0,0,0,0,0,0,0,0,0,0,0,0],"id":17,"left_children":[1,3,5,7,9,11,13,15,17,19,21,-1,23,-1,-1,25,-1,-1,-1,27,-1,29,31,33,-1,35,37,39,41,-1,-1,-1,-1,-1,-1,-1,-1,-1,-1,-1,-1,-1,-1],"loss_changes":[2.2208429E-5,8.935063E-6,2.006287E-6,3.91526E-6,3.7626965E-6,1.312706E-6,1.2608143E-6,3.1125473E-6,1.2188189E-6,1.5118424E-6,1.7623579E-6,9.201518E-7,1.0052654E-6,6.258688E-7,7.218514E-7,1.1527773E-6,9.260632E-7,8.8551167E-7,6.8651025E-7,1.4897107E-6,1.13659326E-7,1.5795049E-6,1.6029072E-6,1.0107915E-6,7.6224387E-7,1.2303879E-6,1.036251E-6,1.9232664E-6,1.7008817E-6,9.4990173E-7,6.708858E-7,6.2068034E-7,5.4879564E-7,4.7923373E-7,9.758405E-7,0E0,0E0,0E0,0E0,0E0,0E0,0E0,0E0],"parents":[2147483647,0,0,1,1,2,2,3,3,4,4,5,5,6,6,7,7,8,8,9,9,10,10,12,12,15,15,19,19,21,21,22,22,23,23,25,25,26,26,27,27,28,28],"right_children":[2,4,6,8,10,12,14,16,18,20,22,-1,24,-1,-1,26,-1,-1,-1,28,-1,30,32,34,-1,36,38,40,42,-1,-1,-1,-1,-1,-1,-1,-1,-1,-1,-1,-1,-1,-1],"split_conditions":[7.1875E1,5.7901783E0,7.875E1,6.008E1,5E-1,5.6233416E0,5.482605E0,1.2381046E1,5E-1,1.0158516E1,6.5574074E0,2.3313451E-7,6.629213E0,4.4066596E-6,2.352191E-6,5.5486317E0,4.1818697E-7,-7.508564E-7,1.6933126E-6,1.3741762E1,5.802249E-6,6.372738E0,7.817439E0,7.2755E1,7.252432E-7,5.6355E1,8.536394E0,6.483501E1,1.4464161E1,1.763398E-6,-9.708698E-7,-1.8196598E-6,3.1955467E-6,5.8898434E-7,2.770126E-6,-1.9186155E-6,1.540723E-6,2.5443035E-6,-2.7580822E-6,-9.541715E-7,3.3777508E-7,2.5399365E-6,-2.9559415E-6],"split_indices":[8,3,8,8,6,3,1,2,6,0,3,0,1,0,0,1,0,0,0,2,0,1,0,8,0,8,2,8,2,0,0,0,0,0,0,0,0,0,0,0,0,0,0],"split_type":[0,0,0,0,0,0,0,0,0,0,0,0,0,0,0,0,0,0,0,0,0,0,0,0,0,0,0,0,0,0,0,0,0,0,0,0,0,0,0,0,0,0,0],"sum_hessian":[1.903E3,1.49E3,4.13E2,6.83E2,8.07E2,2.55E2,1.58E2,3.71E2,3.12E2,5.48E2,2.59E2,6.3E1,1.92E2,4.3E1,1.15E2,3.28E2,4.3E1,2.91E2,2.1E1,5.45E2,3E0,2.21E2,3.8E1,1.38E2,5.4E1,5.2E1,2.76E2,5.09E2,3.6E1,1.98E2,2.3E1,3.1E1,7E0,2.7E1,1.11E2,3.9E1,1.3E1,3E0,2.73E2,3.34E2,1.75E2,3E1,6E0],"tree_param":{"num_deleted":"0","num_feature":"9","num_nodes":"43","size_leaf_vector":"0"}},{"base_weights":[1.7284129E-13,-5.6894696E-5,2.0490336E-4,-1.4098061E-4,1.43573625E-5,1.4904451E-4,2.9355093E-4,-2.1029866E-4,-5.8145804E-5,-3.259435E-5,1.1344249E-4,2.3313454E-5,1.8996546E-4,4.4066482E-4,2.352185E-4,-2.433773E-4,4.1818883E-5,-7.508536E-5,1.6933125E-4,-3.702416E-5,5.802237E-4,1.4757433E-4,-8.375528E-5,2.3506842E-4,7.2524046E-5,-1.041024E-4,-2.6914696E-4,-5.101928E-5,1.5688218E-4,1.7633963E-4,-9.708681E-5,-1.8196531E-4,3.195543E-4,5.889811E-5,2.7701218E-4,-1.9186104E-4,1.5407243E-4,2.544308E-4,-2.7580815E-4,-9.541695E-5,3.3777527E-5,2.539934E-4,-2.955936E-4],"categories":[],"categories_nodes":[],"categories_segments":[],"categories_sizes":[],"default_left":[1,1,1,1,1,1,1,1,1,1,1,0,1,0,0,1,0,0,0,1,0,1,1,1,0,1,1,1,1,0,0,0,0,0,0,0,0,0,0,0,0,0,0],"id":18,"left_children":[1,3,5,7,9,11,13,15,17,19,21,-1,23,-1,-1,25,-1,-1,-1,27,-1,29,31,33,-1,35,37,39,41,-1,-1,-1,-1,-1,-1,-1,-1,-1,-1,-1,-1,-1,-1],"loss_changes":[2.2208325E-5,8.935045E-6,2.0062744E-6,3.915263E-6,3.7626883E-6,1.3127001E-6,1.260807E-6,3.1125492E-6,1.2188158E-6,1.5118358E-6,1.7623483E-6,9.201583E-7,1.005265E-6,6.2587605E-7,7.218546E-7,1.1527845E-6,9.260656E-7,8.855119E-7,6.8651354E-7,1.4897071E-6,1.1366501E-7,1.5795008E-6,1.6029006E-6,1.0107888E-6,7.6224734E-7,1.2303851E-6,1.0362528E-6,1.9232612E-6,1.7008767E-6,9.499031E-7,6.7088706E-7,6.2068534E-7,5.487925E-7,4.792356E-7,9.758523E-7,0E0,0E0,0E0,0E0,0E0,0E0,0E0,0E0],"parents":[2147483647,0,0,1,1,2,2,3,3,4,4,5,5,6,6,7,7,8,8,9,9,10,10,12,12,15,15,19,19,21,21,22,22,23,23,25,25,26,26,27,27,28,28],"right_children":[2,4,6,8,10,12,14,16,18,20,22,-1,24,-1,-1,26,-1,-1,-1,28,-1,30,32,34,-1,36,38,40,42,-1,-1,-1,-1,-1,-1,-1,-1,-1,-1,-1,-1,-1,-1],"split_conditions":[7.1875E1,5.7901783E0,7.875E1,6.008E1,5E-1,5.6233416E0,5.482605E0,1.2381046E1,5E-1,1.0158516E1,6.5574074E0,2.3313454E-7,6.629213E0,4.4066483E-6,2.352185E-6,5.5486317E0,4.1818882E-7,-7.508536E-7,1.6933125E-6,1.3741762E1,5.8022365E-6,6.372738E0,7.817439E0,7.2755E1,7.2524045E-7,5.6355E1,8.536394E0,6.483501E1,1.4464161E1,1.7633962E-6,-9.708681E-7,-1.8196531E-6,3.1955428E-6,5.889811E-7,2.7701217E-6,-1.9186102E-6,1.5407243E-6,2.544308E-6,-2.7580816E-6,-9.541695E-7,3.3777528E-7,2.539934E-6,-2.955936E-6],"split_indices":[8,3,8,8,6,3,1,2,6,0,3,0,1,0,0,1,0,0,0,2,0,1,0,8,0,8,2,8,2,0,0,0,0,0,0,0,0,0,0,0,0,0,0],"split_type":[0,0,0,0,0,0,0,0,0,0,0,0,0,0,0,0,0,0,0,0,0,0,0,0,0,0,0,0,0,0,0,0,0,0,0,0,0,0,0,0,0,0,0],"sum_hessian":[1.903E3,1.49E3,4.13E2,6.83E2,8.07E2,2.55E2,1.58E2,3.71E2,3.12E2,5.48E2,2.59E2,6.3E1,1.92E2,4.3E1,1.15E2,3.28E2,4.3E1,2.91E2,2.1E1,5.45E2,3E0,2.21E2,3.8E1,1.38E2,5.4E1,5.2E1,2.76E2,5.09E2,3.6E1,1.98E2,2.3E1,3.1E1,7E0,2.7E1,1.11E2,3.9E1,1.3E1,3E0,2.73E2,3.34E2,1.75E2,3E1,6E0],"tree_param":{"num_deleted":"0","num_feature":"9","num_nodes":"43","size_leaf_vector":"0"}},{"base_weights":[-9.5888636E-14,-5.6894565E-5,2.049029E-4,-1.4098041E-4,1.4357425E-5,1.4904422E-4,2.9355017E-4,-2.102985E-4,-5.814554E-5,-3.2594246E-5,1.1344246E-4,2.331347E-5,1.8996508E-4,4.4066363E-4,2.352179E-4,-2.4337716E-4,4.181906E-5,-7.5085074E-5,1.6933122E-4,-3.702405E-5,5.8022264E-4,1.4757422E-4,-8.375475E-5,2.3506797E-4,7.2523864E-5,-1.0410199E-4,-2.6914684E-4,-5.101915E-5,1.5688204E-4,1.7633947E-4,-9.708661E-5,-1.8196458E-4,3.1955395E-4,5.889772E-5,2.770117E-4,-1.9186051E-4,1.5407249E-4,2.5443133E-4,-2.7580804E-4,-9.541675E-5,3.377752E-5,2.5399314E-4,-2.9559314E-4],"categories":[],"categories_nodes":[],"categories_segments":[],"categories_sizes":[],"default_left":[1,1,1,1,1,1,1,1,1,1,1,0,1,0,0,1,0,0,0,1,0,1,1,1,0,1,1,1,1,0,0,0,0,0,0,0,0,0,0,0,0,0,0],"id":19,"left_children":[1,3,5,7,9,11,13,15,17,19,21,-1,23,-1,-1,25,-1,-1,-1,27,-1,29,31,33,-1,35,37,39,41,-1,-1,-1,-1,-1,-1,-1,-1,-1,-1,-1,-1,-1,-1],"loss_changes":[2.2208227E-5,8.935028E-6,2.0062598E-6,3.915269E-6,3.7626814E-6,1.3126933E-6,1.2607998E-6,3.1125492E-6,1.2188127E-6,1.5118301E-6,1.7623386E-6,9.2016427E-7,1.0052613E-6,6.2588424E-7,7.2185776E-7,1.15279E-6,9.2606797E-7,8.85512E-7,6.8651656E-7,1.4897034E-6,1.1367081E-7,1.5794967E-6,1.6028939E-6,1.0107888E-6,7.6225E-7,1.2303819E-6,1.0362528E-6,1.9232548E-6,1.7008722E-6,9.499049E-7,6.708883E-7,6.206907E-7,5.487897E-7,4.7923726E-7,9.758633E-7,0E0,0E0,0E0,0E0,0E0,0E0,0E0,0E0],"parents":[2147483647,0,0,1,1,2,2,3,3,4,4,5,5,6,6,7,7,8,8,9,9,10,10,12,12,15,15,19,19,21,21,22,22,23,23,25,25,26,26,27,27,28,28],"right_children":[2,4,6,8,10,12,14,16,18,20,22,-1,24,-1,-1,26,-1,-1,-1,28,-1,30,32,34,-1,36,38,40,42,-1,-1,-1,-1,-1,-1,-1,-1,-1,-1,-1,-1,-1,-1],"split_conditions":[7.1875E1,5.7901783E0,7.875E1,6.008E1,5E-1,5.6233416E0,5.482605E0,1.2381046E1,5E-1,1.0158516E1,6.5574074E0,2.331347E-7,6.629213E0,4.406636E-6,2.3521789E-6,5.5486317E0,4.181906E-7,-7.5085075E-7,1.6933122E-6,1.3741762E1,5.802226E-6,6.372738E0,7.817439E0,7.2755E1,7.2523864E-7,5.6355E1,8.536394E0,6.483501E1,1.4464161E1,1.7633946E-6,-9.70866E-7,-1.8196458E-6,3.1955394E-6,5.889772E-7,2.7701171E-6,-1.918605E-6,1.5407248E-6,2.5443132E-6,-2.7580802E-6,-9.541675E-7,3.377752E-7,2.5399313E-6,-2.9559314E-6],"split_indices":[8,3,8,8,6,3,1,2,6,0,3,0,1,0,0,1,0,0,0,2,0,1,0,8,0,8,2,8,2,0,0,0,0,0,0,0,0,0,0,0,0,0,0],"split_type":[0,0,0,0,0,0,0,0,0,0,0,0,0,0,0,0,0,0,0,0,0,0,0,0,0,0,0,0,0,0,0,0,0,0,0,0,0,0,0,0,0,0,0],"sum_hessian":[1.903E3,1.49E3,4.13E2,6.83E2,8.07E2,2.55E2,1.58E2,3.71E2,3.12E2,5.48E2,2.59E2,6.3E1,1.92E2,4.3E1,1.15E2,3.28E2,4.3E1,2.91E2,2.1E1,5.45E2,3E0,2.21E2,3.8E1,1.38E2,5.4E1,5.2E1,2.76E2,5.09E2,3.6E1,1.98E2,2.3E1,3.1E1,7E0,2.7E1,1.11E2,3.9E1,1.3E1,3E0,2.73E2,3.34E2,1.75E2,3E1,6E0],"tree_param":{"num_deleted":"0","num_feature":"9","num_nodes":"43","size_leaf_vector":"0"}},{"base_weights":[5.2573527E-13,-5.6894434E-5,2.0490242E-4,-1.4098019E-4,1.4357483E-5,1.4904395E-4,2.9354938E-4,-2.1029836E-4,-5.8145244E-5,-3.2594136E-5,1.1344242E-4,2.3313509E-5,1.8996469E-4,4.4066244E-4,2.3521729E-4,-2.43377E-4,4.1819196E-5,-7.5084754E-5,1.6933125E-4,-3.7023932E-5,5.802215E-4,1.4757407E-4,-8.375426E-5,2.3506753E-4,7.252359E-5,-1.0410157E-4,-2.6914675E-4,-5.101902E-5,1.5688194E-4,1.7633928E-4,-9.70864E-5,-1.819639E-4,3.195536E-4,5.889737E-5,2.7701125E-4,-1.9185999E-4,1.540726E-4,2.544318E-4,-2.7580795E-4,-9.5416544E-5,3.3777513E-5,2.5399294E-4,-2.955927E-4],"categories":[],"categories_nodes":[],"categories_segments":[],"categories_sizes":[],"default_left":[1,1,1,1,1,1,1,1,1,1,1,0,1,0,0,1,0,0,0,1,0,1,1,1,0,1,1,1,1,0,0,0,0,0,0,0,0,0,0,0,0,0,0],"id":20,"left_children":[1,3,5,7,9,11,13,15,17,19,21,-1,23,-1,-1,25,-1,-1,-1,27,-1,29,31,33,-1,35,37,39,41,-1,-1,-1,-1,-1,-1,-1,-1,-1,-1,-1,-1,-1,-1],"loss_changes":[2.2208122E-5,8.935009E-6,2.006247E-6,3.9152774E-6,3.7626737E-6,1.3126864E-6,1.2607925E-6,3.1125473E-6,1.2188098E-6,1.5118237E-6,1.7623288E-6,9.2017075E-7,1.0052595E-6,6.258897E-7,7.218614E-7,1.1527918E-6,9.2607047E-7,8.855119E-7,6.865197E-7,1.4897001E-6,1.13676606E-7,1.5794922E-6,1.6028873E-6,1.0107888E-6,7.6225325E-7,1.230379E-6,1.0362564E-6,1.9232484E-6,1.7008682E-6,9.499058E-7,6.7088934E-7,6.206956E-7,5.487866E-7,4.7923874E-7,9.758733E-7,0E0,0E0,0E0,0E0,0E0,0E0,0E0,0E0],"parents":[2147483647,0,0,1,1,2,2,3,3,4,4,5,5,6,6,7,7,8,8,9,9,10,10,12,12,15,15,19,19,21,21,22,22,23,23,25,25,26,26,27,27,28,28],"right_children":[2,4,6,8,10,12,14,16,18,20,22,-1,24,-1,-1,26,-1,-1,-1,28,-1,30,32,34,-1,36,38,40,42,-1,-1,-1,-1,-1,-1,-1,-1,-1,-1,-1,-1,-1,-1],"split_conditions":[7.1875E1,5.7901783E0,7.875E1,6.008E1,5E-1,5.6233416E0,5.482605E0,1.2381046E1,5E-1,1.0158516E1,6.5574074E0,2.3313508E-7,6.629213E0,4.406624E-6,2.352173E-6,5.5486317E0,4.1819195E-7,-7.508475E-7,1.6933125E-6,1.3741762E1,5.8022147E-6,6.372738E0,7.817439E0,7.2755E1,7.2523585E-7,5.6355E1,8.536394E0,6.483501E1,1.4464161E1,1.7633928E-6,-9.70864E-7,-1.819639E-6,3.195536E-6,5.889737E-7,2.7701124E-6,-1.9185998E-6,1.5407259E-6,2.544318E-6,-2.7580795E-6,-9.541654E-7,3.377751E-7,2.5399293E-6,-2.955927E-6],"split_indices":[8,3,8,8,6,3,1,2,6,0,3,0,1,0,0,1,0,0,0,2,0,1,0,8,0,8,2,8,2,0,0,0,0,0,0,0,0,0,0,0,0,0,0],"split_type":[0,0,0,0,0,0,0,0,0,0,0,0,0,0,0,0,0,0,0,0,0,0,0,0,0,0,0,0,0,0,0,0,0,0,0,0,0,0,0,0,0,0,0],"sum_hessian":[1.903E3,1.49E3,4.13E2,6.83E2,8.07E2,2.55E2,1.58E2,3.71E2,3.12E2,5.48E2,2.59E2,6.3E1,1.92E2,4.3E1,1.15E2,3.28E2,4.3E1,2.91E2,2.1E1,5.45E2,3E0,2.21E2,3.8E1,1.38E2,5.4E1,5.2E1,2.76E2,5.09E2,3.6E1,1.98E2,2.3E1,3.1E1,7E0,2.7E1,1.11E2,3.9E1,1.3E1,3E0,2.73E2,3.34E2,1.75E2,3E1,6E0],"tree_param":{"num_deleted":"0","num_feature":"9","num_nodes":"43","size_leaf_vector":"0"}},{"base_weights":[-1.4138143E-13,-5.6894303E-5,2.0490194E-4,-1.4097997E-4,1.4357542E-5,1.4904366E-4,2.9354863E-4,-2.102982E-4,-5.8144953E-5,-3.259403E-5,1.1344237E-4,2.3313489E-5,1.8996431E-4,4.4066127E-4,2.3521668E-4,-2.4337684E-4,4.1819352E-5,-7.508444E-5,1.693312E-4,-3.7023816E-5,5.8022013E-4,1.4757393E-4,-8.375375E-5,2.350671E-4,7.252336E-5,-1.04101164E-4,-2.6914664E-4,-5.1018884E-5,1.5688183E-4,1.763391E-4,-9.7086195E-5,-1.819632E-4,3.1955322E-4,5.889693E-5,2.7701084E-4,-1.918595E-4,1.540727E-4,2.5443218E-4,-2.7580783E-4,-9.541633E-5,3.37775E-5,2.5399268E-4,-2.955923E-4],"categories":[],"categories_nodes":[],"categories_segments":[],"categories_sizes":[],"default_left":[1,1,1,1,1,1,1,1,1,1,1,0,1,0,0,1,0,0,0,1,0,1,1,1,0,1,1,1,1,0,0,0,0,0,0,0,0,0,0,0,0,0,0],"id":21,"left_children":[1,3,5,7,9,11,13,15,17,19,21,-1,23,-1,-1,25,-1,-1,-1,27,-1,29,31,33,-1,35,37,39,41,-1,-1,-1,-1,-1,-1,-1,-1,-1,-1,-1,-1,-1,-1],"loss_changes":[2.2208022E-5,8.934991E-6,2.0062307E-6,3.9152847E-6,3.762666E-6,1.3126805E-6,1.2607861E-6,3.1125492E-6,1.2188061E-6,1.5118164E-6,1.7623188E-6,9.201775E-7,1.0052572E-6,6.258979E-7,7.218646E-7,1.1527973E-6,9.260728E-7,8.85512E-7,6.8652264E-7,1.4896966E-6,1.13682745E-7,1.5794876E-6,1.6028806E-6,1.0107888E-6,7.6225643E-7,1.2303763E-6,1.0362546E-6,1.923242E-6,1.7008641E-6,9.499072E-7,6.7089087E-7,6.207009E-7,5.4878393E-7,4.7924084E-7,9.758833E-7,0E0,0E0,0E0,0E0,0E0,0E0,0E0,0E0],"parents":[2147483647,0,0,1,1,2,2,3,3,4,4,5,5,6,6,7,7,8,8,9,9,10,10,12,12,15,15,19,19,21,21,22,22,23,23,25,25,26,26,27,27,28,28],"right_children":[2,4,6,8,10,12,14,16,18,20,22,-1,24,-1,-1,26,-1,-1,-1,28,-1,30,32,34,-1,36,38,40,42,-1,-1,-1,-1,-1,-1,-1,-1,-1,-1,-1,-1,-1,-1],"split_conditions":[7.1875E1,5.7901783E0,7.875E1,6.008E1,5E-1,5.6233416E0,5.482605E0,1.2381046E1,5E-1,1.0158516E1,6.5574074E0,2.3313488E-7,6.629213E0,4.406613E-6,2.3521668E-6,5.5486317E0,4.181935E-7,-7.508444E-7,1.6933119E-6,1.3741762E1,5.802201E-6,6.372738E0,7.817439E0,7.2755E1,7.2523363E-7,5.6355E1,8.536394E0,6.483501E1,1.4464161E1,1.763391E-6,-9.70862E-7,-1.819632E-6,3.1955321E-6,5.8896927E-7,2.7701083E-6,-1.918595E-6,1.5407269E-6,2.5443217E-6,-2.7580784E-6,-9.541633E-7,3.3777502E-7,2.5399268E-6,-2.9559228E-6],"split_indices":[8,3,8,8,6,3,1,2,6,0,3,0,1,0,0,1,0,0,0,2,0,1,0,8,0,8,2,8,2,0,0,0,0,0,0,0,0,0,0,0,0,0,0],"split_type":[0,0,0,0,0,0,0,0,0,0,0,0,0,0,0,0,0,0,0,0,0,0,0,0,0,0,0,0,0,0,0,0,0,0,0,0,0,0,0,0,0,0,0],"sum_hessian":[1.903E3,1.49E3,4.13E2,6.83E2,8.07E2,2.55E2,1.58E2,3.71E2,3.12E2,5.48E2,2.59E2,6.3E1,1.92E2,4.3E1,1.15E2,3.28E2,4.3E1,2.91E2,2.1E1,5.45E2,3E0,2.21E2,3.8E1,1.38E2,5.4E1,5.2E1,2.76E2,5.09E2,3.6E1,1.98E2,2.3E1,3.1E1,7E0,2.7E1,1.11E2,3.9E1,1.3E1,3E0,2.73E2,3.34E2,1.75E2,3E1,6E0],"tree_param":{"num_deleted":"0","num_feature":"9","num_nodes":"43","size_leaf_vector":"0"}},{"base_weights":[-2.000075E-14,-5.6894176E-5,2.0490149E-4,-1.4097976E-4,1.4357599E-5,1.4904338E-4,2.9354787E-4,-2.1029804E-4,-5.8144695E-5,-3.259392E-5,1.1344232E-4,2.3313542E-5,1.8996393E-4,4.406601E-4,2.352161E-4,-2.4337668E-4,4.1819538E-5,-7.5084165E-5,1.6933122E-4,-3.70237E-5,5.8021897E-4,1.4757378E-4,-8.375326E-5,2.3506668E-4,7.252312E-5,-1.04100734E-4,-2.6914652E-4,-5.101875E-5,1.5688171E-4,1.7633892E-4,-9.708601E-5,-1.8196249E-4,3.1955284E-4,5.8896625E-5,2.7701037E-4,-1.9185897E-4,1.5407284E-4,2.544326E-4,-2.7580775E-4,-9.541613E-5,3.37775E-5,2.5399245E-4,-2.955918E-4],"categories":[],"categories_nodes":[],"categories_segments":[],"categories_sizes":[],"default_left":[1,1,1,1,1,1,1,1,1,1,1,0,1,0,0,1,0,0,0,1,0,1,1,1,0,1,1,1,1,0,0,0,0,0,0,0,0,0,0,0,0,0,0],"id":22,"left_children":[1,3,5,7,9,11,13,15,17,19,21,-1,23,-1,-1,25,-1,-1,-1,27,-1,29,31,33,-1,35,37,39,41,-1,-1,-1,-1,-1,-1,-1,-1,-1,-1,-1,-1,-1,-1],"loss_changes":[2.2207922E-5,8.934974E-6,2.0062198E-6,3.9152874E-6,3.7626573E-6,1.3126746E-6,1.2607788E-6,3.112551E-6,1.2188038E-6,1.5118102E-6,1.7623092E-6,9.2018377E-7,1.005255E-6,6.2590425E-7,7.2186776E-7,1.1528009E-6,9.260759E-7,8.855121E-7,6.8652554E-7,1.489693E-6,1.1368866E-7,1.5794831E-6,1.6028735E-6,1.010787E-6,7.6225933E-7,1.2303735E-6,1.0362583E-6,1.923236E-6,1.7008595E-6,9.499081E-7,6.7089206E-7,6.207067E-7,5.48781E-7,4.792428E-7,9.758942E-7,0E0,0E0,0E0,0E0,0E0,0E0,0E0,0E0],"parents":[2147483647,0,0,1,1,2,2,3,3,4,4,5,5,6,6,7,7,8,8,9,9,10,10,12,12,15,15,19,19,21,21,22,22,23,23,25,25,26,26,27,27,28,28],"right_children":[2,4,6,8,10,12,14,16,18,20,22,-1,24,-1,-1,26,-1,-1,-1,28,-1,30,32,34,-1,36,38,40,42,-1,-1,-1,-1,-1,-1,-1,-1,-1,-1,-1,-1,-1,-1],"split_conditions":[7.1875E1,5.7901783E0,7.875E1,6.008E1,5E-1,5.6233416E0,5.482605E0,1.2381046E1,5E-1,1.0158516E1,6.5574074E0,2.3313541E-7,6.629213E0,4.406601E-6,2.352161E-6,5.5486317E0,4.1819536E-7,-7.5084165E-7,1.6933122E-6,1.3741762E1,5.8021897E-6,6.372738E0,7.817439E0,7.2755E1,7.252312E-7,5.6355E1,8.536394E0,6.483501E1,1.4464161E1,1.7633892E-6,-9.708601E-7,-1.8196248E-6,3.1955283E-6,5.8896626E-7,2.7701037E-6,-1.9185898E-6,1.5407284E-6,2.544326E-6,-2.7580775E-6,-9.541612E-7,3.3777502E-7,2.5399245E-6,-2.955918E-6],"split_indices":[8,3,8,8,6,3,1,2,6,0,3,0,1,0,0,1,0,0,0,2,0,1,0,8,0,8,2,8,2,0,0,0,0,0,0,0,0,0,0,0,0,0,0],"split_type":[0,0,0,0,0,0,0,0,0,0,0,0,0,0,0,0,0,0,0,0,0,0,0,0,0,0,0,0,0,0,0,0,0,0,0,0,0,0,0,0,0,0,0],"sum_hessian":[1.903E3,1.49E3,4.13E2,6.83E2,8.07E2,2.55E2,1.58E2,3.71E2,3.12E2,5.48E2,2.59E2,6.3E1,1.92E2,4.3E1,1.15E2,3.28E2,4.3E1,2.91E2,2.1E1,5.45E2,3E0,2.21E2,3.8E1,1.38E2,5.4E1,5.2E1,2.76E2,5.09E2,3.6E1,1.98E2,2.3E1,3.1E1,7E0,2.7E1,1.11E2,3.9E1,1.3E1,3E0,2.73E2,3.34E2,1.75E2,3E1,6E0],"tree_param":{"num_deleted":"0","num_feature":"9","num_nodes":"43","size_leaf_vector":"0"}},{"base_weights":[2.5888962E-13,-5.689404E-5,2.04901E-4,-1.4097954E-4,1.435766E-5,1.4904307E-4,2.9354708E-4,-2.1029786E-4,-5.81444E-5,-3.2593816E-5,1.1344229E-4,2.3313518E-5,1.8996354E-4,4.4065889E-4,2.3521548E-4,-2.4337652E-4,4.1819723E-5,-7.5083844E-5,1.6933116E-4,-3.7023587E-5,5.8021786E-4,1.4757366E-4,-8.375278E-5,2.3506623E-4,7.252287E-5,-1.0410031E-4,-2.6914643E-4,-5.1018622E-5,1.5688162E-4,1.7633877E-4,-9.7085824E-5,-1.8196182E-4,3.195525E-4,5.889621E-5,2.770099E-4,-1.9185845E-4,1.5407293E-4,2.5443308E-4,-2.7580763E-4,-9.541592E-5,3.3777476E-5,2.5399224E-4,-2.955914E-4],"categories":[],"categories_nodes":[],"categories_segments":[],"categories_sizes":[],"default_left":[1,1,1,1,1,1,1,1,1,1,1,0,1,0,0,1,0,0,0,1,0,1,1,1,0,1,1,1,1,0,0,0,0,0,0,0,0,0,0,0,0,0,0],"id":23,"left_children":[1,3,5,7,9,11,13,15,17,19,21,-1,23,-1,-1,25,-1,-1,-1,27,-1,29,31,33,-1,35,37,39,41,-1,-1,-1,-1,-1,-1,-1,-1,-1,-1,-1,-1,-1,-1],"loss_changes":[2.2207816E-5,8.934955E-6,2.0062052E-6,3.9152947E-6,3.762651E-6,1.3126692E-6,1.2607725E-6,3.112551E-6,1.2188001E-6,1.5118044E-6,1.7622999E-6,9.2018985E-7,1.0052513E-6,6.259106E-7,7.218714E-7,1.1528064E-6,9.260782E-7,8.8551155E-7,6.865284E-7,1.4896898E-6,1.13694114E-7,1.579479E-6,1.6028672E-6,1.010787E-6,7.622624E-7,1.2303706E-6,1.0362601E-6,1.923229E-6,1.7008558E-6,9.499099E-7,6.708934E-7,6.207116E-7,5.4877825E-7,4.79244E-7,9.759051E-7,0E0,0E0,0E0,0E0,0E0,0E0,0E0,0E0],"parents":[2147483647,0,0,1,1,2,2,3,3,4,4,5,5,6,6,7,7,8,8,9,9,10,10,12,12,15,15,19,19,21,21,22,22,23,23,25,25,26,26,27,27,28,28],"right_children":[2,4,6,8,10,12,14,16,18,20,22,-1,24,-1,-1,26,-1,-1,-1,28,-1,30,32,34,-1,36,38,40,42,-1,-1,-1,-1,-1,-1,-1,-1,-1,-1,-1,-1,-1,-1],"split_conditions":[7.1875E1,5.7901783E0,7.875E1,6.008E1,5E-1,5.6233416E0,5.482605E0,1.2381046E1,5E-1,1.0158516E1,6.5574074E0,2.3313517E-7,6.629213E0,4.4065887E-6,2.3521548E-6,5.5486317E0,4.1819723E-7,-7.508384E-7,1.6933116E-6,1.3741762E1,5.8021783E-6,6.372738E0,7.817439E0,7.2755E1,7.2522863E-7,5.6355E1,8.536394E0,6.483501E1,1.4464161E1,1.7633877E-6,-9.708582E-7,-1.8196182E-6,3.1955249E-6,5.889621E-7,2.770099E-6,-1.9185843E-6,1.5407293E-6,2.5443308E-6,-2.7580763E-6,-9.541592E-7,3.3777476E-7,2.5399224E-6,-2.955914E-6],"split_indices":[8,3,8,8,6,3,1,2,6,0,3,0,1,0,0,1,0,0,0,2,0,1,0,8,0,8,2,8,2,0,0,0,0,0,0,0,0,0,0,0,0,0,0],"split_type":[0,0,0,0,0,0,0,0,0,0,0,0,0,0,0,0,0,0,0,0,0,0,0,0,0,0,0,0,0,0,0,0,0,0,0,0,0,0,0,0,0,0,0],"sum_hessian":[1.903E3,1.49E3,4.13E2,6.83E2,8.07E2,2.55E2,1.58E2,3.71E2,3.12E2,5.48E2,2.59E2,6.3E1,1.92E2,4.3E1,1.15E2,3.28E2,4.3E1,2.91E2,2.1E1,5.45E2,3E0,2.21E2,3.8E1,1.38E2,5.4E1,5.2E1,2.76E2,5.09E2,3.6E1,1.98E2,2.3E1,3.1E1,7E0,2.7E1,1.11E2,3.9E1,1.3E1,3E0,2.73E2,3.34E2,1.75E2,3E1,6E0],"tree_param":{"num_deleted":"0","num_feature":"9","num_nodes":"43","size_leaf_vector":"0"}},{"base_weights":[6.7304994E-14,-5.6893914E-5,2.0490054E-4,-1.4097933E-4,1.4357717E-5,1.4904281E-4,2.9354633E-4,-2.1029772E-4,-5.814412E-5,-3.259371E-5,1.1344224E-4,2.3313569E-5,1.8996316E-4,4.4065772E-4,2.3521486E-4,-2.4337637E-4,4.1819887E-5,-7.5083546E-5,1.6933121E-4,-3.702347E-5,5.802167E-4,1.4757352E-4,-8.375226E-5,2.350658E-4,7.252261E-5,-1.04099905E-4,-2.6914632E-4,-5.1018487E-5,1.5688148E-4,1.7633858E-4,-9.7085634E-5,-1.8196109E-4,3.195521E-4,5.8895894E-5,2.7700947E-4,-1.9185792E-4,1.5407297E-4,2.5443351E-4,-2.7580754E-4,-9.541572E-5,3.3777487E-5,2.5399195E-4,-2.9559084E-4],"categories":[],"categories_nodes":[],"categories_segments":[],"categories_sizes":[],"default_left":[1,1,1,1,1,1,1,1,1,1,1,0,1,0,0,1,0,0,0,1,0,1,1,1,0,1,1,1,1,0,0,0,0,0,0,0,0,0,0,0,0,0,0],"id":24,"left_children":[1,3,5,7,9,11,13,15,17,19,21,-1,23,-1,-1,25,-1,-1,-1,27,-1,29,31,33,-1,35,37,39,41,-1,-1,-1,-1,-1,-1,-1,-1,-1,-1,-1,-1,-1,-1],"loss_changes":[2.2207714E-5,8.934937E-6,2.0061925E-6,3.915303E-6,3.7626428E-6,1.3126619E-6,1.2607652E-6,3.112551E-6,1.2187977E-6,1.511798E-6,1.7622899E-6,9.2019616E-7,1.0052495E-6,6.259188E-7,7.218746E-7,1.15281E-6,9.26081E-7,8.855118E-7,6.8653173E-7,1.4896859E-6,1.1369991E-7,1.5794744E-6,1.60286E-6,1.010786E-6,7.622656E-7,1.2303672E-6,1.0362619E-6,1.9232234E-6,1.7008506E-6,9.499113E-7,6.708945E-7,6.2071695E-7,5.4877523E-7,4.79246E-7,9.759151E-7,0E0,0E0,0E0,0E0,0E0,0E0,0E0,0E0],"parents":[2147483647,0,0,1,1,2,2,3,3,4,4,5,5,6,6,7,7,8,8,9,9,10,10,12,12,15,15,19,19,21,21,22,22,23,23,25,25,26,26,27,27,28,28],"right_children":[2,4,6,8,10,12,14,16,18,20,22,-1,24,-1,-1,26,-1,-1,-1,28,-1,30,32,34,-1,36,38,40,42,-1,-1,-1,-1,-1,-1,-1,-1,-1,-1,-1,-1,-1,-1],"split_conditions":[7.1875E1,5.7901783E0,7.875E1,6.008E1,5E-1,5.6233416E0,5.482605E0,1.2381046E1,5E-1,1.0158516E1,6.5574074E0,2.3313568E-7,6.629213E0,4.4065773E-6,2.3521486E-6,5.5486317E0,4.1819885E-7,-7.5083545E-7,1.693312E-6,1.3741762E1,5.802167E-6,6.372738E0,7.817439E0,7.2755E1,7.2522613E-7,5.6355E1,8.536394E0,6.483501E1,1.4464161E1,1.7633857E-6,-9.708564E-7,-1.8196109E-6,3.195521E-6,5.889589E-7,2.7700946E-6,-1.918579E-6,1.5407297E-6,2.544335E-6,-2.7580754E-6,-9.541571E-7,3.3777488E-7,2.5399195E-6,-2.9559083E-6],"split_indices":[8,3,8,8,6,3,1,2,6,0,3,0,1,0,0,1,0,0,0,2,0,1,0,8,0,8,2,8,2,0,0,0,0,0,0,0,0,0,0,0,0,0,0],"split_type":[0,0,0,0,0,0,0,0,0,0,0,0,0,0,0,0,0,0,0,0,0,0,0,0,0,0,0,0,0,0,0,0,0,0,0,0,0,0,0,0,0,0,0],"sum_hessian":[1.903E3,1.49E3,4.13E2,6.83E2,8.07E2,2.55E2,1.58E2,3.71E2,3.12E2,5.48E2,2.59E2,6.3E1,1.92E2,4.3E1,1.15E2,3.28E2,4.3E1,2.91E2,2.1E1,5.45E2,3E0,2.21E2,3.8E1,1.38E2,5.4E1,5.2E1,2.76E2,5.09E2,3.6E1,1.98E2,2.3E1,3.1E1,7E0,2.7E1,1.11E2,3.9E1,1.3E1,3E0,2.73E2,3.34E2,1.75E2,3E1,6E0],"tree_param":{"num_deleted":"0","num_feature":"9","num_nodes":"43","size_leaf_vector":"0"}},{"base_weights":[1.0186623E-13,-5.6893783E-5,2.0490008E-4,-1.4097911E-4,1.4357774E-5,1.4904252E-4,2.9354557E-4,-2.1029756E-4,-5.814384E-5,-3.2593605E-5,1.134422E-4,2.3313596E-5,1.8996278E-4,4.4065653E-4,2.352143E-4,-2.4337621E-4,4.182004E-5,-7.508324E-5,1.6933116E-4,-3.7023354E-5,5.802155E-4,1.4757337E-4,-8.375177E-5,2.3506537E-4,7.252239E-5,-1.04099505E-4,-2.691462E-4,-5.101836E-5,1.5688138E-4,1.7633839E-4,-9.708543E-5,-1.8196041E-4,3.1955176E-4,5.8895428E-5,2.7700904E-4,-1.9185743E-4,1.5407309E-4,2.5443395E-4,-2.7580743E-4,-9.541552E-5,3.3777476E-5,2.5399175E-4,-2.9559043E-4],"categories":[],"categories_nodes":[],"categories_segments":[],"categories_sizes":[],"default_left":[1,1,1,1,1,1,1,1,1,1,1,0,1,0,0,1,0,0,0,1,0,1,1,1,0,1,1,1,1,0,0,0,0,0,0,0,0,0,0,0,0,0,0],"id":25,"left_children":[1,3,5,7,9,11,13,15,17,19,21,-1,23,-1,-1,25,-1,-1,-1,27,-1,29,31,33,-1,35,37,39,41,-1,-1,-1,-1,-1,-1,-1,-1,-1,-1,-1,-1,-1,-1],"loss_changes":[2.2207616E-5,8.93492E-6,2.006178E-6,3.9153074E-6,3.7626346E-6,1.3126555E-6,1.260757E-6,3.1125528E-6,1.2187941E-6,1.5117914E-6,1.7622801E-6,9.2020235E-7,1.0052477E-6,6.259261E-7,7.218782E-7,1.1528155E-6,9.260835E-7,8.855119E-7,6.865345E-7,1.4896825E-6,1.1370582E-7,1.5794703E-6,1.6028537E-6,1.010786E-6,7.6226854E-7,1.2303647E-6,1.0362619E-6,1.923217E-6,1.7008463E-6,9.4991174E-7,6.70896E-7,6.2072183E-7,5.487724E-7,4.792477E-7,9.759251E-7,0E0,0E0,0E0,0E0,0E0,0E0,0E0,0E0],"parents":[2147483647,0,0,1,1,2,2,3,3,4,4,5,5,6,6,7,7,8,8,9,9,10,10,12,12,15,15,19,19,21,21,22,22,23,23,25,25,26,26,27,27,28,28],"right_children":[2,4,6,8,10,12,14,16,18,20,22,-1,24,-1,-1,26,-1,-1,-1,28,-1,30,32,34,-1,36,38,40,42,-1,-1,-1,-1,-1,-1,-1,-1,-1,-1,-1,-1,-1,-1],"split_conditions":[7.1875E1,5.7901783E0,7.875E1,6.008E1,5E-1,5.6233416E0,5.482605E0,1.2381046E1,5E-1,1.0158516E1,6.5574074E0,2.3313595E-7,6.629213E0,4.406565E-6,2.352143E-6,5.5486317E0,4.182004E-7,-7.508324E-7,1.6933116E-6,1.3741762E1,5.8021546E-6,6.372738E0,7.817439E0,7.2755E1,7.2522386E-7,5.6355E1,8.536394E0,6.483501E1,1.4464161E1,1.7633839E-6,-9.708543E-7,-1.819604E-6,3.1955176E-6,5.8895426E-7,2.7700903E-6,-1.9185743E-6,1.5407309E-6,2.5443394E-6,-2.7580743E-6,-9.541552E-7,3.3777476E-7,2.5399174E-6,-2.9559044E-6],"split_indices":[8,3,8,8,6,3,1,2,6,0,3,0,1,0,0,1,0,0,0,2,0,1,0,8,0,8,2,8,2,0,0,0,0,0,0,0,0,0,0,0,0,0,0],"split_type":[0,0,0,0,0,0,0,0,0,0,0,0,0,0,0,0,0,0,0,0,0,0,0,0,0,0,0,0,0,0,0,0,0,0,0,0,0,0,0,0,0,0,0],"sum_hessian":[1.903E3,1.49E3,4.13E2,6.83E2,8.07E2,2.55E2,1.58E2,3.71E2,3.12E2,5.48E2,2.59E2,6.3E1,1.92E2,4.3E1,1.15E2,3.28E2,4.3E1,2.91E2,2.1E1,5.45E2,3E0,2.21E2,3.8E1,1.38E2,5.4E1,5.2E1,2.76E2,5.09E2,3.6E1,1.98E2,2.3E1,3.1E1,7E0,2.7E1,1.11E2,3.9E1,1.3E1,3E0,2.73E2,3.34E2,1.75E2,3E1,6E0],"tree_param":{"num_deleted":"0","num_feature":"9","num_nodes":"43","size_leaf_vector":"0"}},{"base_weights":[1.2767935E-13,-5.6893656E-5,2.0489961E-4,-1.409789E-4,1.4357835E-5,1.4904224E-4,2.935448E-4,-2.102974E-4,-5.814357E-5,-3.25935E-5,1.1344216E-4,2.331363E-5,1.899624E-4,4.4065536E-4,2.352137E-4,-2.4337605E-4,4.1820218E-5,-7.508296E-5,1.6933115E-4,-3.7023237E-5,5.8021426E-4,1.4757326E-4,-8.375128E-5,2.3506493E-4,7.252215E-5,-1.0409912E-4,-2.6914608E-4,-5.1018225E-5,1.5688129E-4,1.7633823E-4,-9.708524E-5,-1.8195971E-4,3.195514E-4,5.88951E-5,2.770086E-4,-1.9185696E-4,1.5407322E-4,2.5443436E-4,-2.758073E-4,-9.5415315E-5,3.377748E-5,2.5399151E-4,-2.9558994E-4],"categories":[],"categories_nodes":[],"categories_segments":[],"categories_sizes":[],"default_left":[1,1,1,1,1,1,1,1,1,1,1,0,1,0,0,1,0,0,0,1,0,1,1,1,0,1,1,1,1,0,0,0,0,0,0,0,0,0,0,0,0,0,0],"id":26,"left_children":[1,3,5,7,9,11,13,15,17,19,21,-1,23,-1,-1,25,-1,-1,-1,27,-1,29,31,33,-1,35,37,39,41,-1,-1,-1,-1,-1,-1,-1,-1,-1,-1,-1,-1,-1,-1],"loss_changes":[2.2207514E-5,8.934902E-6,2.0061652E-6,3.9153156E-6,3.7626278E-6,1.3126487E-6,1.2607488E-6,3.112551E-6,1.2187911E-6,1.5117851E-6,1.7622706E-6,9.2020883E-7,1.0052449E-6,6.2593335E-7,7.2188186E-7,1.1528191E-6,9.260861E-7,8.855118E-7,6.865376E-7,1.4896796E-6,1.13711394E-7,1.5794658E-6,1.6028466E-6,1.0107851E-6,7.6227155E-7,1.2303624E-6,1.0362637E-6,1.9232111E-6,1.700842E-6,9.49914E-7,6.7089735E-7,6.207273E-7,5.487693E-7,4.7924965E-7,9.759369E-7,0E0,0E0,0E0,0E0,0E0,0E0,0E0,0E0],"parents":[2147483647,0,0,1,1,2,2,3,3,4,4,5,5,6,6,7,7,8,8,9,9,10,10,12,12,15,15,19,19,21,21,22,22,23,23,25,25,26,26,27,27,28,28],"right_children":[2,4,6,8,10,12,14,16,18,20,22,-1,24,-1,-1,26,-1,-1,-1,28,-1,30,32,34,-1,36,38,40,42,-1,-1,-1,-1,-1,-1,-1,-1,-1,-1,-1,-1,-1,-1],"split_conditions":[7.1875E1,5.7901783E0,7.875E1,6.008E1,5E-1,5.6233416E0,5.482605E0,1.2381046E1,5E-1,1.0158516E1,6.5574074E0,2.331363E-7,6.629213E0,4.4065537E-6,2.3521368E-6,5.5486317E0,4.1820218E-7,-7.5082954E-7,1.6933114E-6,1.3741762E1,5.8021424E-6,6.372738E0,7.817439E0,7.2755E1,7.2522147E-7,5.6355E1,8.536394E0,6.483501E1,1.4464161E1,1.7633823E-6,-9.708524E-7,-1.8195971E-6,3.1955137E-6,5.8895097E-7,2.770086E-6,-1.9185695E-6,1.5407321E-6,2.5443435E-6,-2.758073E-6,-9.541532E-7,3.377748E-7,2.5399152E-6,-2.9558994E-6],"split_indices":[8,3,8,8,6,3,1,2,6,0,3,0,1,0,0,1,0,0,0,2,0,1,0,8,0,8,2,8,2,0,0,0,0,0,0,0,0,0,0,0,0,0,0],"split_type":[0,0,0,0,0,0,0,0,0,0,0,0,0,0,0,0,0,0,0,0,0,0,0,0,0,0,0,0,0,0,0,0,0,0,0,0,0,0,0,0,0,0,0],"sum_hessian":[1.903E3,1.49E3,4.13E2,6.83E2,8.07E2,2.55E2,1.58E2,3.71E2,3.12E2,5.48E2,2.59E2,6.3E1,1.92E2,4.3E1,1.15E2,3.28E2,4.3E1,2.91E2,2.1E1,5.45E2,3E0,2.21E2,3.8E1,1.38E2,5.4E1,5.2E1,2.76E2,5.09E2,3.6E1,1.98E2,2.3E1,3.1E1,7E0,2.7E1,1.11E2,3.9E1,1.3E1,3E0,2.73E2,3.34E2,1.75E2,3E1,6E0],"tree_param":{"num_deleted":"0","num_feature":"9","num_nodes":"43","size_leaf_vector":"0"}},{"base_weights":[1.2857619E-13,-5.6893525E-5,2.0489914E-4,-1.409787E-4,1.4357892E-5,1.4904197E-4,2.9354403E-4,-2.1029724E-4,-5.8143287E-5,-3.2593394E-5,1.1344211E-4,2.331365E-5,1.8996203E-4,4.4065417E-4,2.3521307E-4,-2.433759E-4,4.1820396E-5,-7.508265E-5,1.6933114E-4,-3.7023125E-5,5.8021327E-4,1.4757311E-4,-8.375077E-5,2.350645E-4,7.252192E-5,-1.0409867E-4,-2.69146E-4,-5.1018094E-5,1.5688114E-4,1.7633804E-4,-9.708505E-5,-1.8195901E-4,3.1955104E-4,5.8894686E-5,2.7700816E-4,-1.9185641E-4,1.5407334E-4,2.5443488E-4,-2.7580722E-4,-9.541511E-5,3.377747E-5,2.5399125E-4,-2.955895E-4],"categories":[],"categories_nodes":[],"categories_segments":[],"categories_sizes":[],"default_left":[1,1,1,1,1,1,1,1,1,1,1,0,1,0,0,1,0,0,0,1,0,1,1,1,0,1,1,1,1,0,0,0,0,0,0,0,0,0,0,0,0,0,0],"id":27,"left_children":[1,3,5,7,9,11,13,15,17,19,21,-1,23,-1,-1,25,-1,-1,-1,27,-1,29,31,33,-1,35,37,39,41,-1,-1,-1,-1,-1,-1,-1,-1,-1,-1,-1,-1,-1,-1],"loss_changes":[2.2207412E-5,8.934883E-6,2.0061507E-6,3.915321E-6,3.76262E-6,1.3126428E-6,1.2607425E-6,3.1125528E-6,1.2187879E-6,1.5117796E-6,1.7622601E-6,9.202148E-7,1.0052422E-6,6.2594063E-7,7.2188504E-7,1.1528246E-6,9.260883E-7,8.855119E-7,6.865406E-7,1.4896755E-6,1.1371742E-7,1.5794617E-6,1.60284E-6,1.010786E-6,7.6227496E-7,1.2303593E-6,1.0362655E-6,1.9232045E-6,1.7008375E-6,9.4991447E-7,6.7089854E-7,6.2073264E-7,5.4876665E-7,4.79251E-7,9.759469E-7,0E0,0E0,0E0,0E0,0E0,0E0,0E0,0E0],"parents":[2147483647,0,0,1,1,2,2,3,3,4,4,5,5,6,6,7,7,8,8,9,9,10,10,12,12,15,15,19,19,21,21,22,22,23,23,25,25,26,26,27,27,28,28],"right_children":[2,4,6,8,10,12,14,16,18,20,22,-1,24,-1,-1,26,-1,-1,-1,28,-1,30,32,34,-1,36,38,40,42,-1,-1,-1,-1,-1,-1,-1,-1,-1,-1,-1,-1,-1,-1],"split_conditions":[7.1875E1,5.7901783E0,7.875E1,6.008E1,5E-1,5.6233416E0,5.482605E0,1.2381046E1,5E-1,1.0158516E1,6.5574074E0,2.331365E-7,6.629213E0,4.4065414E-6,2.3521307E-6,5.5486317E0,4.1820397E-7,-7.508265E-7,1.6933113E-6,1.3741762E1,5.8021324E-6,6.372738E0,7.817439E0,7.2755E1,7.252192E-7,5.6355E1,8.536394E0,6.483501E1,1.4464161E1,1.7633804E-6,-9.708505E-7,-1.81959E-6,3.1955103E-6,5.889468E-7,2.7700817E-6,-1.918564E-6,1.5407334E-6,2.5443487E-6,-2.7580722E-6,-9.541511E-7,3.3777468E-7,2.5399124E-6,-2.955895E-6],"split_indices":[8,3,8,8,6,3,1,2,6,0,3,0,1,0,0,1,0,0,0,2,0,1,0,8,0,8,2,8,2,0,0,0,0,0,0,0,0,0,0,0,0,0,0],"split_type":[0,0,0,0,0,0,0,0,0,0,0,0,0,0,0,0,0,0,0,0,0,0,0,0,0,0,0,0,0,0,0,0,0,0,0,0,0,0,0,0,0,0,0],"sum_hessian":[1.903E3,1.49E3,4.13E2,6.83E2,8.07E2,2.55E2,1.58E2,3.71E2,3.12E2,5.48E2,2.59E2,6.3E1,1.92E2,4.3E1,1.15E2,3.28E2,4.3E1,2.91E2,2.1E1,5.45E2,3E0,2.21E2,3.8E1,1.38E2,5.4E1,5.2E1,2.76E2,5.09E2,3.6E1,1.98E2,2.3E1,3.1E1,7E0,2.7E1,1.11E2,3.9E1,1.3E1,3E0,2.73E2,3.34E2,1.75E2,3E1,6E0],"tree_param":{"num_deleted":"0","num_feature":"9","num_nodes":"43","size_leaf_vector":"0"}},{"base_weights":[-4.6743945E-15,-5.689339E-5,2.0489866E-4,-1.4097847E-4,1.43579555E-5,1.4904168E-4,2.9354324E-4,-2.1029709E-4,-5.8143E-5,-3.259328E-5,1.13442075E-4,2.3313643E-5,1.8996165E-4,4.40653E-4,2.3521246E-4,-2.4337575E-4,4.1820538E-5,-7.508234E-5,1.6933112E-4,-3.7023005E-5,5.8021204E-4,1.4757297E-4,-8.375024E-5,2.3506407E-4,7.2521674E-5,-1.0409827E-4,-2.6914588E-4,-5.101796E-5,1.5688104E-4,1.7633787E-4,-9.708487E-5,-1.8195827E-4,3.1955066E-4,5.889435E-5,2.770077E-4,-1.9185588E-4,1.540734E-4,2.5443535E-4,-2.7580714E-4,-9.54149E-5,3.377746E-5,2.5399102E-4,-2.955891E-4],"categories":[],"categories_nodes":[],"categories_segments":[],"categories_sizes":[],"default_left":[1,1,1,1,1,1,1,1,1,1,1,0,1,0,0,1,0,0,0,1,0,1,1,1,0,1,1,1,1,0,0,0,0,0,0,0,0,0,0,0,0,0,0],"id":28,"left_children":[1,3,5,7,9,11,13,15,17,19,21,-1,23,-1,-1,25,-1,-1,-1,27,-1,29,31,33,-1,35,37,39,41,-1,-1,-1,-1,-1,-1,-1,-1,-1,-1,-1,-1,-1,-1],"loss_changes":[2.2207309E-5,8.934867E-6,2.006138E-6,3.9153274E-6,3.7626119E-6,1.3126364E-6,1.260737E-6,3.112551E-6,1.2187847E-6,1.511773E-6,1.7622503E-6,9.202214E-7,1.0052404E-6,6.259479E-7,7.218878E-7,1.15283E-6,9.2609076E-7,8.85512E-7,6.8654396E-7,1.4896721E-6,1.1372299E-7,1.5794576E-6,1.6028329E-6,1.0107851E-6,7.6227775E-7,1.230356E-6,1.0362673E-6,1.9231984E-6,1.7008338E-6,9.499154E-7,6.708998E-7,6.207382E-7,5.4876347E-7,4.7925295E-7,9.759569E-7,0E0,0E0,0E0,0E0,0E0,0E0,0E0,0E0],"parents":[2147483647,0,0,1,1,2,2,3,3,4,4,5,5,6,6,7,7,8,8,9,9,10,10,12,12,15,15,19,19,21,21,22,22,23,23,25,25,26,26,27,27,28,28],"right_children":[2,4,6,8,10,12,14,16,18,20,22,-1,24,-1,-1,26,-1,-1,-1,28,-1,30,32,34,-1,36,38,40,42,-1,-1,-1,-1,-1,-1,-1,-1,-1,-1,-1,-1,-1,-1],"split_conditions":[7.1875E1,5.7901783E0,7.875E1,6.008E1,5E-1,5.6233416E0,5.482605E0,1.2381046E1,5E-1,1.0158516E1,6.5574074E0,2.3313643E-7,6.629213E0,4.40653E-6,2.3521245E-6,5.5486317E0,4.1820536E-7,-7.5082335E-7,1.6933112E-6,1.3741762E1,5.80212E-6,6.372738E0,7.817439E0,7.2755E1,7.2521675E-7,5.6355E1,8.536394E0,6.483501E1,1.4464161E1,1.7633787E-6,-9.708486E-7,-1.8195826E-6,3.1955065E-6,5.889435E-7,2.770077E-6,-1.9185588E-6,1.5407339E-6,2.5443535E-6,-2.7580713E-6,-9.54149E-7,3.3777462E-7,2.5399102E-6,-2.955891E-6],"split_indices":[8,3,8,8,6,3,1,2,6,0,3,0,1,0,0,1,0,0,0,2,0,1,0,8,0,8,2,8,2,0,0,0,0,0,0,0,0,0,0,0,0,0,0],"split_type":[0,0,0,0,0,0,0,0,0,0,0,0,0,0,0,0,0,0,0,0,0,0,0,0,0,0,0,0,0,0,0,0,0,0,0,0,0,0,0,0,0,0,0],"sum_hessian":[1.903E3,1.49E3,4.13E2,6.83E2,8.07E2,2.55E2,1.58E2,3.71E2,3.12E2,5.48E2,2.59E2,6.3E1,1.92E2,4.3E1,1.15E2,3.28E2,4.3E1,2.91E2,2.1E1,5.45E2,3E0,2.21E2,3.8E1,1.38E2,5.4E1,5.2E1,2.76E2,5.09E2,3.6E1,1.98E2,2.3E1,3.1E1,7E0,2.7E1,1.11E2,3.9E1,1.3E1,3E0,2.73E2,3.34E2,1.75E2,3E1,6E0],"tree_param":{"num_deleted":"0","num_feature":"9","num_nodes":"43","size_leaf_vector":"0"}},{"base_weights":[-3.7034453E-15,-5.6893263E-5,2.048982E-4,-1.4097827E-4,1.43580155E-5,1.490414E-4,2.9354251E-4,-2.1029693E-4,-5.8142734E-5,-3.259317E-5,1.1344202E-4,2.3313696E-5,1.8996125E-4,4.406518E-4,2.3521188E-4,-2.4337559E-4,4.1820695E-5,-7.5082055E-5,1.6933112E-4,-3.702288E-5,5.802107E-4,1.4757282E-4,-8.374974E-5,2.350636E-4,7.252146E-5,-1.0409783E-4,-2.691458E-4,-5.101782E-5,1.5688097E-4,1.7633768E-4,-9.708468E-5,-1.819576E-4,3.195504E-4,5.8893933E-5,2.7700726E-4,-1.9185535E-4,1.5407348E-4,2.544357E-4,-2.7580702E-4,-9.5414696E-5,3.377746E-5,2.5399085E-4,-2.9558854E-4],"categories":[],"categories_nodes":[],"categories_segments":[],"categories_sizes":[],"default_left":[1,1,1,1,1,1,1,1,1,1,1,0,1,0,0,1,0,0,0,1,0,1,1,1,0,1,1,1,1,0,0,0,0,0,0,0,0,0,0,0,0,0,0],"id":29,"left_children":[1,3,5,7,9,11,13,15,17,19,21,-1,23,-1,-1,25,-1,-1,-1,27,-1,29,31,33,-1,35,37,39,41,-1,-1,-1,-1,-1,-1,-1,-1,-1,-1,-1,-1,-1,-1],"loss_changes":[2.2207209E-5,8.93485E-6,2.0061252E-6,3.9153347E-6,3.7626037E-6,1.31263E-6,1.2607279E-6,3.1125492E-6,1.2187819E-6,1.511766E-6,1.7622401E-6,9.202277E-7,1.0052372E-6,6.2595427E-7,7.218923E-7,1.1528355E-6,9.2609326E-7,8.855118E-7,6.8654657E-7,1.4896691E-6,1.1372924E-7,1.579454E-6,1.6028272E-6,1.0107833E-6,7.62281E-7,1.2303528E-6,1.0362692E-6,1.923192E-6,1.7008292E-6,9.4991674E-7,6.7090133E-7,6.207431E-7,5.4876097E-7,4.7925494E-7,9.759679E-7,0E0,0E0,0E0,0E0,0E0,0E0,0E0,0E0],"parents":[2147483647,0,0,1,1,2,2,3,3,4,4,5,5,6,6,7,7,8,8,9,9,10,10,12,12,15,15,19,19,21,21,22,22,23,23,25,25,26,26,27,27,28,28],"right_children":[2,4,6,8,10,12,14,16,18,20,22,-1,24,-1,-1,26,-1,-1,-1,28,-1,30,32,34,-1,36,38,40,42,-1,-1,-1,-1,-1,-1,-1,-1,-1,-1,-1,-1,-1,-1],"split_conditions":[7.1875E1,5.7901783E0,7.875E1,6.008E1,5E-1,5.6233416E0,5.482605E0,1.2381046E1,5E-1,1.0158516E1,6.5574074E0,2.3313696E-7,6.629213E0,4.406518E-6,2.3521186E-6,5.5486317E0,4.1820692E-7,-7.508205E-7,1.6933112E-6,1.3741762E1,5.802107E-6,6.372738E0,7.817439E0,7.2755E1,7.252146E-7,5.6355E1,8.536394E0,6.483501E1,1.4464161E1,1.7633768E-6,-9.708468E-7,-1.8195759E-6,3.195504E-6,5.889393E-7,2.7700726E-6,-1.9185534E-6,1.5407347E-6,2.544357E-6,-2.7580702E-6,-9.541469E-7,3.3777462E-7,2.5399083E-6,-2.9558853E-6],"split_indices":[8,3,8,8,6,3,1,2,6,0,3,0,1,0,0,1,0,0,0,2,0,1,0,8,0,8,2,8,2,0,0,0,0,0,0,0,0,0,0,0,0,0,0],"split_type":[0,0,0,0,0,0,0,0,0,0,0,0,0,0,0,0,0,0,0,0,0,0,0,0,0,0,0,0,0,0,0,0,0,0,0,0,0,0,0,0,0,0,0],"sum_hessian":[1.903E3,1.49E3,4.13E2,6.83E2,8.07E2,2.55E2,1.58E2,3.71E2,3.12E2,5.48E2,2.59E2,6.3E1,1.92E2,4.3E1,1.15E2,3.28E2,4.3E1,2.91E2,2.1E1,5.45E2,3E0,2.21E2,3.8E1,1.38E2,5.4E1,5.2E1,2.76E2,5.09E2,3.6E1,1.98E2,2.3E1,3.1E1,7E0,2.7E1,1.11E2,3.9E1,1.3E1,3E0,2.73E2,3.34E2,1.75E2,3E1,6E0],"tree_param":{"num_deleted":"0","num_feature":"9","num_nodes":"43","size_leaf_vector":"0"}},{"base_weights":[-5.0084177E-14,-5.6893132E-5,2.0489773E-4,-1.4097804E-4,1.4358068E-5,1.490411E-4,2.9354173E-4,-2.1029677E-4,-5.8142425E-5,-3.2593078E-5,1.13441994E-4,2.331371E-5,1.8996085E-4,4.4065065E-4,2.3521128E-4,-2.4337543E-4,4.1820836E-5,-7.508172E-5,1.6933109E-4,-3.702278E-5,5.8020954E-4,1.475727E-4,-8.374928E-5,2.3506317E-4,7.252117E-5,-1.0409743E-4,-2.6914568E-4,-5.10177E-5,1.5688081E-4,1.7633753E-4,-9.708449E-5,-1.8195692E-4,3.1954993E-4,5.8893576E-5,2.770068E-4,-1.9185485E-4,1.540736E-4,2.5443613E-4,-2.7580693E-4,-9.54145E-5,3.3777436E-5,2.5399053E-4,-2.9558808E-4],"categories":[],"categories_nodes":[],"categories_segments":[],"categories_sizes":[],"default_left":[1,1,1,1,1,1,1,1,1,1,1,0,1,0,0,1,0,0,0,1,0,1,1,1,0,1,1,1,1,0,0,0,0,0,0,0,0,0,0,0,0,0,0],"id":30,"left_children":[1,3,5,7,9,11,13,15,17,19,21,-1,23,-1,-1,25,-1,-1,-1,27,-1,29,31,33,-1,35,37,39,41,-1,-1,-1,-1,-1,-1,-1,-1,-1,-1,-1,-1,-1,-1],"loss_changes":[2.2207107E-5,8.934829E-6,2.0061107E-6,3.915342E-6,3.7625973E-6,1.3126228E-6,1.2607225E-6,3.112551E-6,1.2187784E-6,1.5117595E-6,1.7622315E-6,9.202341E-7,1.0052358E-6,6.2596064E-7,7.2189505E-7,1.1528391E-6,9.2609565E-7,8.8551155E-7,6.8654975E-7,1.4896651E-6,1.1373504E-7,1.579449E-6,1.6028198E-6,1.0107842E-6,7.622838E-7,1.2303501E-6,1.036271E-6,1.9231854E-6,1.7008242E-6,9.49919E-7,6.709025E-7,6.207481E-7,5.487578E-7,4.7925676E-7,9.759779E-7,0E0,0E0,0E0,0E0,0E0,0E0,0E0,0E0],"parents":[2147483647,0,0,1,1,2,2,3,3,4,4,5,5,6,6,7,7,8,8,9,9,10,10,12,12,15,15,19,19,21,21,22,22,23,23,25,25,26,26,27,27,28,28],"right_children":[2,4,6,8,10,12,14,16,18,20,22,-1,24,-1,-1,26,-1,-1,-1,28,-1,30,32,34,-1,36,38,40,42,-1,-1,-1,-1,-1,-1,-1,-1,-1,-1,-1,-1,-1,-1],"split_conditions":[7.1875E1,5.7901783E0,7.875E1,6.008E1,5E-1,5.6233416E0,5.482605E0,1.2381046E1,5E-1,1.0158516E1,6.5574074E0,2.331371E-7,6.629213E0,4.4065064E-6,2.3521127E-6,5.5486317E0,4.1820834E-7,-7.508172E-7,1.6933109E-6,1.3741762E1,5.802095E-6,6.372738E0,7.817439E0,7.2755E1,7.252117E-7,5.6355E1,8.536394E0,6.483501E1,1.4464161E1,1.7633753E-6,-9.708449E-7,-1.8195691E-6,3.1954992E-6,5.8893573E-7,2.7700678E-6,-1.9185484E-6,1.540736E-6,2.5443612E-6,-2.7580693E-6,-9.54145E-7,3.3777437E-7,2.5399052E-6,-2.9558807E-6],"split_indices":[8,3,8,8,6,3,1,2,6,0,3,0,1,0,0,1,0,0,0,2,0,1,0,8,0,8,2,8,2,0,0,0,0,0,0,0,0,0,0,0,0,0,0],"split_type":[0,0,0,0,0,0,0,0,0,0,0,0,0,0,0,0,0,0,0,0,0,0,0,0,0,0,0,0,0,0,0,0,0,0,0,0,0,0,0,0,0,0,0],"sum_hessian":[1.903E3,1.49E3,4.13E2,6.83E2,8.07E2,2.55E2,1.58E2,3.71E2,3.12E2,5.48E2,2.59E2,6.3E1,1.92E2,4.3E1,1.15E2,3.28E2,4.3E1,2.91E2,2.1E1,5.45E2,3E0,2.21E2,3.8E1,1.38E2,5.4E1,5.2E1,2.76E2,5.09E2,3.6E1,1.98E2,2.3E1,3.1E1,7E0,2.7E1,1.11E2,3.9E1,1.3E1,3E0,2.73E2,3.34E2,1.75E2,3E1,6E0],"tree_param":{"num_deleted":"0","num_feature":"9","num_nodes":"43","size_leaf_vector":"0"}},{"base_weights":[2.6006408E-13,-5.6893E-5,2.0489725E-4,-1.4097783E-4,1.4358131E-5,1.4904083E-4,2.9354097E-4,-2.1029661E-4,-5.8142163E-5,-3.259296E-5,1.1344194E-4,2.3313673E-5,1.899605E-4,4.4064943E-4,2.3521068E-4,-2.4337527E-4,4.1821062E-5,-7.508144E-5,1.693311E-4,-3.7022655E-5,5.8020843E-4,1.4757256E-4,-8.374875E-5,2.3506275E-4,7.2521E-5,-1.0409704E-4,-2.6914556E-4,-5.101756E-5,1.568807E-4,1.7633734E-4,-9.708431E-5,-1.8195619E-4,3.1954958E-4,5.889323E-5,2.7700636E-4,-1.9185436E-4,1.5407364E-4,2.544367E-4,-2.7580681E-4,-9.541429E-5,3.3777447E-5,2.5399032E-4,-2.9558764E-4],"categories":[],"categories_nodes":[],"categories_segments":[],"categories_sizes":[],"default_left":[1,1,1,1,1,1,1,1,1,1,1,0,1,0,0,1,0,0,0,1,0,1,1,1,0,1,1,1,1,0,0,0,0,0,0,0,0,0,0,0,0,0,0],"id":31,"left_children":[1,3,5,7,9,11,13,15,17,19,21,-1,23,-1,-1,25,-1,-1,-1,27,-1,29,31,33,-1,35,37,39,41,-1,-1,-1,-1,-1,-1,-1,-1,-1,-1,-1,-1,-1,-1],"loss_changes":[2.2207005E-5,8.934812E-6,2.006098E-6,3.9153483E-6,3.7625887E-6,1.3126187E-6,1.2607134E-6,3.112551E-6,1.2187757E-6,1.5117536E-6,1.7622208E-6,9.202401E-7,1.0052318E-6,6.259688E-7,7.2189823E-7,1.1528427E-6,9.260986E-7,8.8551155E-7,6.8655294E-7,1.4896617E-6,1.13740725E-7,1.5794453E-6,1.602813E-6,1.0107833E-6,7.6228696E-7,1.230347E-6,1.036271E-6,1.9231795E-6,1.70082E-6,9.4991947E-7,6.7090366E-7,6.2075355E-7,5.487551E-7,4.7925823E-7,9.759888E-7,0E0,0E0,0E0,0E0,0E0,0E0,0E0,0E0],"parents":[2147483647,0,0,1,1,2,2,3,3,4,4,5,5,6,6,7,7,8,8,9,9,10,10,12,12,15,15,19,19,21,21,22,22,23,23,25,25,26,26,27,27,28,28],"right_children":[2,4,6,8,10,12,14,16,18,20,22,-1,24,-1,-1,26,-1,-1,-1,28,-1,30,32,34,-1,36,38,40,42,-1,-1,-1,-1,-1,-1,-1,-1,-1,-1,-1,-1,-1,-1],"split_conditions":[7.1875E1,5.7901783E0,7.875E1,6.008E1,5E-1,5.6233416E0,5.482605E0,1.2381046E1,5E-1,1.0158516E1,6.5574074E0,2.3313672E-7,6.629213E0,4.406494E-6,2.3521068E-6,5.5486317E0,4.1821062E-7,-7.508144E-7,1.693311E-6,1.3741762E1,5.802084E-6,6.372738E0,7.817439E0,7.2755E1,7.2521E-7,5.6355E1,8.536394E0,6.483501E1,1.4464161E1,1.7633733E-6,-9.708431E-7,-1.8195618E-6,3.1954958E-6,5.8893227E-7,2.7700635E-6,-1.9185436E-6,1.5407363E-6,2.544367E-6,-2.7580681E-6,-9.541428E-7,3.3777445E-7,2.539903E-6,-2.9558764E-6],"split_indices":[8,3,8,8,6,3,1,2,6,0,3,0,1,0,0,1,0,0,0,2,0,1,0,8,0,8,2,8,2,0,0,0,0,0,0,0,0,0,0,0,0,0,0],"split_type":[0,0,0,0,0,0,0,0,0,0,0,0,0,0,0,0,0,0,0,0,0,0,0,0,0,0,0,0,0,0,0,0,0,0,0,0,0,0,0,0,0,0,0],"sum_hessian":[1.903E3,1.49E3,4.13E2,6.83E2,8.07E2,2.55E2,1.58E2,3.71E2,3.12E2,5.48E2,2.59E2,6.3E1,1.92E2,4.3E1,1.15E2,3.28E2,4.3E1,2.91E2,2.1E1,5.45E2,3E0,2.21E2,3.8E1,1.38E2,5.4E1,5.2E1,2.76E2,5.09E2,3.6E1,1.98E2,2.3E1,3.1E1,7E0,2.7E1,1.11E2,3.9E1,1.3E1,3E0,2.73E2,3.34E2,1.75E2,3E1,6E0],"tree_param":{"num_deleted":"0","num_feature":"9","num_nodes":"43","size_leaf_vector":"0"}},{"base_weights":[1.8205797E-13,-5.689287E-5,2.0489679E-4,-1.4097762E-4,1.4358187E-5,1.4904054E-4,2.9354022E-4,-2.1029645E-4,-5.8141883E-5,-3.2592856E-5,1.134419E-4,2.3313742E-5,1.899601E-4,4.4064826E-4,2.3521007E-4,-2.433751E-4,4.1821222E-5,-7.508114E-5,1.6933105E-4,-3.7022543E-5,5.802072E-4,1.4757241E-4,-8.374827E-5,2.3506231E-4,7.252069E-5,-1.04096594E-4,-2.6914547E-4,-5.101743E-5,1.5688059E-4,1.7633715E-4,-9.708413E-5,-1.8195552E-4,3.1954923E-4,5.8892838E-5,2.7700592E-4,-1.918538E-4,1.5407377E-4,2.5443704E-4,-2.7580673E-4,-9.5414085E-5,3.3777436E-5,2.5399006E-4,-2.9558718E-4],"categories":[],"categories_nodes":[],"categories_segments":[],"categories_sizes":[],"default_left":[1,1,1,1,1,1,1,1,1,1,1,0,1,0,0,1,0,0,0,1,0,1,1,1,0,1,1,1,1,0,0,0,0,0,0,0,0,0,0,0,0,0,0],"id":32,"left_children":[1,3,5,7,9,11,13,15,17,19,21,-1,23,-1,-1,25,-1,-1,-1,27,-1,29,31,33,-1,35,37,39,41,-1,-1,-1,-1,-1,-1,-1,-1,-1,-1,-1,-1,-1,-1],"loss_changes":[2.2206903E-5,8.934793E-6,2.0060852E-6,3.915354E-6,3.762581E-6,1.312611E-6,1.2607079E-6,3.112551E-6,1.218772E-6,1.5117473E-6,1.7622119E-6,9.202468E-7,1.0052313E-6,6.259752E-7,7.2190187E-7,1.1528482E-6,9.261014E-7,8.855119E-7,6.865557E-7,1.4896582E-6,1.13746296E-7,1.5794403E-6,1.6028065E-6,1.0107815E-6,7.6229026E-7,1.2303441E-6,1.0362746E-6,1.923173E-6,1.7008157E-6,9.4992083E-7,6.7090514E-7,6.207589E-7,5.4875215E-7,4.7925994E-7,9.759997E-7,0E0,0E0,0E0,0E0,0E0,0E0,0E0,0E0],"parents":[2147483647,0,0,1,1,2,2,3,3,4,4,5,5,6,6,7,7,8,8,9,9,10,10,12,12,15,15,19,19,21,21,22,22,23,23,25,25,26,26,27,27,28,28],"right_children":[2,4,6,8,10,12,14,16,18,20,22,-1,24,-1,-1,26,-1,-1,-1,28,-1,30,32,34,-1,36,38,40,42,-1,-1,-1,-1,-1,-1,-1,-1,-1,-1,-1,-1,-1,-1],"split_conditions":[7.1875E1,5.7901783E0,7.875E1,6.008E1,5E-1,5.6233416E0,5.482605E0,1.2381046E1,5E-1,1.0158516E1,6.5574074E0,2.3313741E-7,6.629213E0,4.4064827E-6,2.3521006E-6,5.5486317E0,4.182122E-7,-7.5081135E-7,1.6933104E-6,1.3741762E1,5.802072E-6,6.372738E0,7.817439E0,7.2755E1,7.252069E-7,5.6355E1,8.536394E0,6.483501E1,1.4464161E1,1.7633715E-6,-9.708413E-7,-1.8195551E-6,3.1954924E-6,5.8892834E-7,2.7700592E-6,-1.918538E-6,1.5407377E-6,2.5443703E-6,-2.7580672E-6,-9.541408E-7,3.3777437E-7,2.5399006E-6,-2.9558717E-6],"split_indices":[8,3,8,8,6,3,1,2,6,0,3,0,1,0,0,1,0,0,0,2,0,1,0,8,0,8,2,8,2,0,0,0,0,0,0,0,0,0,0,0,0,0,0],"split_type":[0,0,0,0,0,0,0,0,0,0,0,0,0,0,0,0,0,0,0,0,0,0,0,0,0,0,0,0,0,0,0,0,0,0,0,0,0,0,0,0,0,0,0],"sum_hessian":[1.903E3,1.49E3,4.13E2,6.83E2,8.07E2,2.55E2,1.58E2,3.71E2,3.12E2,5.48E2,2.59E2,6.3E1,1.92E2,4.3E1,1.15E2,3.28E2,4.3E1,2.91E2,2.1E1,5.45E2,3E0,2.21E2,3.8E1,1.38E2,5.4E1,5.2E1,2.76E2,5.09E2,3.6E1,1.98E2,2.3E1,3.1E1,7E0,2.7E1,1.11E2,3.9E1,1.3E1,3E0,2.73E2,3.34E2,1.75E2,3E1,6E0],"tree_param":{"num_deleted":"0","num_feature":"9","num_nodes":"43","size_leaf_vector":"0"}},{"base_weights":[3.5463562E-13,-5.6892746E-5,2.0489634E-4,-1.409774E-4,1.4358241E-5,1.4904026E-4,2.9353946E-4,-2.1029629E-4,-5.81416E-5,-3.2592754E-5,1.1344185E-4,2.3313774E-5,1.8995973E-4,4.406471E-4,2.352095E-4,-2.4337496E-4,4.1821382E-5,-7.508083E-5,1.6933105E-4,-3.702243E-5,5.802061E-4,1.4757227E-4,-8.374775E-5,2.3506187E-4,7.252048E-5,-1.040962E-4,-2.6914536E-4,-5.10173E-5,1.5688047E-4,1.7633698E-4,-9.7083925E-5,-1.8195479E-4,3.195489E-4,5.889247E-5,2.7700546E-4,-1.9185331E-4,1.5407383E-4,2.544375E-4,-2.758066E-4,-9.541389E-5,3.3777425E-5,2.5398983E-4,-2.9558674E-4],"categories":[],"categories_nodes":[],"categories_segments":[],"categories_sizes":[],"default_left":[1,1,1,1,1,1,1,1,1,1,1,0,1,0,0,1,0,0,0,1,0,1,1,1,0,1,1,1,1,0,0,0,0,0,0,0,0,0,0,0,0,0,0],"id":33,"left_children":[1,3,5,7,9,11,13,15,17,19,21,-1,23,-1,-1,25,-1,-1,-1,27,-1,29,31,33,-1,35,37,39,41,-1,-1,-1,-1,-1,-1,-1,-1,-1,-1,-1,-1,-1,-1],"loss_changes":[2.2206805E-5,8.934776E-6,2.0060725E-6,3.91536E-6,3.7625734E-6,1.3126041E-6,1.2606988E-6,3.1125528E-6,1.218769E-6,1.5117412E-6,1.7622012E-6,9.2025283E-7,1.0052286E-6,6.2598247E-7,7.2190505E-7,1.1528537E-6,9.26104E-7,8.855118E-7,6.8655896E-7,1.4896543E-6,1.1375187E-7,1.5794362E-6,1.6027998E-6,1.0107824E-6,7.622933E-7,1.2303411E-6,1.0362746E-6,1.923167E-6,1.7008114E-6,9.499222E-7,6.709065E-7,6.207646E-7,5.487492E-7,4.7926164E-7,9.760097E-7,0E0,0E0,0E0,0E0,0E0,0E0,0E0,0E0],"parents":[2147483647,0,0,1,1,2,2,3,3,4,4,5,5,6,6,7,7,8,8,9,9,10,10,12,12,15,15,19,19,21,21,22,22,23,23,25,25,26,26,27,27,28,28],"right_children":[2,4,6,8,10,12,14,16,18,20,22,-1,24,-1,-1,26,-1,-1,-1,28,-1,30,32,34,-1,36,38,40,42,-1,-1,-1,-1,-1,-1,-1,-1,-1,-1,-1,-1,-1,-1],"split_conditions":[7.1875E1,5.7901783E0,7.875E1,6.008E1,5E-1,5.6233416E0,5.482605E0,1.2381046E1,5E-1,1.0158516E1,6.5574074E0,2.3313774E-7,6.629213E0,4.406471E-6,2.352095E-6,5.5486317E0,4.182138E-7,-7.508083E-7,1.6933104E-6,1.3741762E1,5.802061E-6,6.372738E0,7.817439E0,7.2755E1,7.252048E-7,5.6355E1,8.536394E0,6.483501E1,1.4464161E1,1.7633697E-6,-9.708392E-7,-1.8195478E-6,3.195489E-6,5.889247E-7,2.7700546E-6,-1.9185331E-6,1.5407383E-6,2.5443749E-6,-2.758066E-6,-9.541388E-7,3.3777425E-7,2.539898E-6,-2.9558673E-6],"split_indices":[8,3,8,8,6,3,1,2,6,0,3,0,1,0,0,1,0,0,0,2,0,1,0,8,0,8,2,8,2,0,0,0,0,0,0,0,0,0,0,0,0,0,0],"split_type":[0,0,0,0,0,0,0,0,0,0,0,0,0,0,0,0,0,0,0,0,0,0,0,0,0,0,0,0,0,0,0,0,0,0,0,0,0,0,0,0,0,0,0],"sum_hessian":[1.903E3,1.49E3,4.13E2,6.83E2,8.07E2,2.55E2,1.58E2,3.71E2,3.12E2,5.48E2,2.59E2,6.3E1,1.92E2,4.3E1,1.15E2,3.28E2,4.3E1,2.91E2,2.1E1,5.45E2,3E0,2.21E2,3.8E1,1.38E2,5.4E1,5.2E1,2.76E2,5.09E2,3.6E1,1.98E2,2.3E1,3.1E1,7E0,2.7E1,1.11E2,3.9E1,1.3E1,3E0,2.73E2,3.34E2,1.75E2,3E1,6E0],"tree_param":{"num_deleted":"0","num_feature":"9","num_nodes":"43","size_leaf_vector":"0"}},{"base_weights":[3.544609E-13,-5.689261E-5,2.0489586E-4,-1.4097718E-4,1.4358308E-5,1.4903997E-4,2.9353867E-4,-2.1029614E-4,-5.814131E-5,-3.259265E-5,1.13441834E-4,2.331377E-5,1.8995933E-4,4.4064596E-4,2.3520886E-4,-2.433748E-4,4.1821535E-5,-7.508053E-5,1.6933106E-4,-3.7022313E-5,5.802049E-4,1.4757217E-4,-8.374729E-5,2.3506144E-4,7.25202E-5,-1.04095816E-4,-2.6914524E-4,-5.101717E-5,1.5688036E-4,1.7633683E-4,-9.708373E-5,-1.8195412E-4,3.1954845E-4,5.889203E-5,2.7700502E-4,-1.9185284E-4,1.5407398E-4,2.5443794E-4,