{"learner":{"attributes":{"best_iteration":"499","best_ntree_limit":"500","scikit_learn":"{\"cum_hazard_baseline\": null, \"model_type\": \"breslow_objective\", \"n_estimators\": 500, \"max_depth\": null, \"max_leaves\": null, \"max_bin\": null, \"grow_policy\": null, \"learning_rate\": 0.01, \"verbosity\": null, \"booster\": null, \"tree_method\": null, \"gamma\": null, \"min_child_weight\": null, \"max_delta_step\": null, \"subsample\": null, \"sampling_method\": null, \"colsample_bytree\": null, \"colsample_bylevel\": null, \"colsample_bynode\": null, \"reg_alpha\": null, \"reg_lambda\": null, \"scale_pos_weight\": null, \"base_score\": null, \"missing\": NaN, \"num_parallel_tree\": null, \"random_state\": 7, \"n_jobs\": null, \"monotone_constraints\": null, \"interaction_constraints\": null, \"importance_type\": null, \"gpu_id\": null, \"validate_parameters\": null, \"predictor\": null, \"enable_categorical\": false, \"feature_types\": null, \"max_cat_to_onehot\": null, \"max_cat_threshold\": null, \"early_stopping_rounds\": null, \"callbacks\": null, \"kwargs\": {\"disable_default_eval_metric\": true}, \"evals_result_\": {\"validation_0\": {\"breslow_likelihood\": [6.279032, 6.275072, 6.271219, 6.267474, 6.263803, 6.260207, 6.256793, 6.253474, 6.250195, 6.24696, 6.243771, 6.240534, 6.237432, 6.234254, 6.231219, 6.228128, 6.225258, 6.222362, 6.218958, 6.215678, 6.212354, 6.209032, 6.205836, 6.202641, 6.199531, 6.196468, 6.193432, 6.190451, 6.187571, 6.184614, 6.181894, 6.178905, 6.176028, 6.173374, 6.17056, 6.167993, 6.165357, 6.162825, 6.160158, 6.157634, 6.155098, 6.152566, 6.150195, 6.147599, 6.14529, 6.142994, 6.140555, 6.138295, 6.135948, 6.133706, 6.131413, 6.128979, 6.126793, 6.124591, 6.122241, 6.119982, 6.117812, 6.115526, 6.113167, 6.111151, 6.108818, 6.106728, 6.104359, 6.102243, 6.100426, 6.09843, 6.096104, 6.094119, 6.092132, 6.090317, 6.088613, 6.086598, 6.084685, 6.083001, 6.081266, 6.079307, 6.077352, 6.075789, 6.073877, 6.071951, 6.070089, 6.06837, 6.066467, 6.064717, 6.06299, 6.06126, 6.059433, 6.057689, 6.056177, 6.054574, 6.052623, 6.051166, 6.049553, 6.047518, 6.045916, 6.044131, 6.042574, 6.040506, 6.038959, 6.037486, 6.035962, 6.033628, 6.03214, 6.03043, 6.028456, 6.026995, 6.025557, 6.023893, 6.02248, 6.020245, 6.018768, 6.016509, 6.01515, 6.012968, 6.011643, 6.010238, 6.008115, 6.006835, 6.00556, 6.004259, 6.002434, 6.000334, 5.998966, 5.997692, 5.996328, 5.994569, 5.993343, 5.992103, 5.990903, 5.989688, 5.988474, 5.987175, 5.985853, 5.984709, 5.983026, 5.981839, 5.980638, 5.979293, 5.978212, 5.976923, 5.975797, 5.97471, 5.97356, 5.972398, 5.971277, 5.970173, 5.969035, 5.967771, 5.966499, 5.965372, 5.964435, 5.963447, 5.962251, 5.96132, 5.960126, 5.958683, 5.957753, 5.956343, 5.95496, 5.953633, 5.952373, 5.951022, 5.949697, 5.948156, 5.946838, 5.945452, 5.94416, 5.942712, 5.94135, 5.94003, 5.938533, 5.937114, 5.935454, 5.933707, 5.932412, 5.931234, 5.92962, 5.92855, 5.926835, 5.925816, 5.924591, 5.923354, 5.921688, 5.920318, 5.919287, 5.918517, 5.916981, 5.915452, 5.914434, 5.913221, 5.912213, 5.911033, 5.910264, 5.908795, 5.907765, 5.906854, 5.905361, 5.903962, 5.903069, 5.902333, 5.900961, 5.899832, 5.899118, 5.898217, 5.896802, 5.895454, 5.894373, 5.893677, 5.892418, 5.890858, 5.889452, 5.888243, 5.887119, 5.886449, 5.885223, 5.884008, 5.882481, 5.881308, 5.880011, 5.878978, 5.877915, 5.87676, 5.875545, 5.874905, 5.873785, 5.872663, 5.871672, 5.870571, 5.869248, 5.868157, 5.867128, 5.866117, 5.865524, 5.864533, 5.863995, 5.863601, 5.862521, 5.862131, 5.860981, 5.860384, 5.859428, 5.859006, 5.858515, 5.857223, 5.856809, 5.856083, 5.855711, 5.85443, 5.854026, 5.852688, 5.852292, 5.851514, 5.850807, 5.85042, 5.849125, 5.848697, 5.84743, 5.847048, 5.846325, 5.845948, 5.844584, 5.843901, 5.843492, 5.842807, 5.842123, 5.841749, 5.841078, 5.83974, 5.839381, 5.838751, 5.838093, 5.837473, 5.837114, 5.836579, 5.836219, 5.834915, 5.834197, 5.833814, 5.833209, 5.832607, 5.832223, 5.831631, 5.831322, 5.830044, 5.829213, 5.828867, 5.828157, 5.827537, 5.827236, 5.825984, 5.825182, 5.824811, 5.824002, 5.823665, 5.82254, 5.822233, 5.821944, 5.821643, 5.821376, 5.821119, 5.820821, 5.81964, 5.819161, 5.818867, 5.818615, 5.818349, 5.81809, 5.817842, 5.817558, 5.816884, 5.816599, 5.81632, 5.815845, 5.815593, 5.81474, 5.814497, 5.813747, 5.812911, 5.812083, 5.811353, 5.811066, 5.81047, 5.809665, 5.809395, 5.808604, 5.807517, 5.807332, 5.807058, 5.806814, 5.805739, 5.805304, 5.804977, 5.804726, 5.804495, 5.804305, 5.80408, 5.803837, 5.803167, 5.802846, 5.802418, 5.802103, 5.801682, 5.801465, 5.800812, 5.800145, 5.799919, 5.798989, 5.79799, 5.797659, 5.797446, 5.797211, 5.796576, 5.796267, 5.796046, 5.79553, 5.795321, 5.795018, 5.794605, 5.793632, 5.793333, 5.793032, 5.792804, 5.792442, 5.792226, 5.792022, 5.791592, 5.790846, 5.790441, 5.790119, 5.789169, 5.788904, 5.78861, 5.788387, 5.788248, 5.787317, 5.787053, 5.786745, 5.786464, 5.786123, 5.785897, 5.78549, 5.785075, 5.784812, 5.784554, 5.784188, 5.783782, 5.783576, 5.783461, 5.783349, 5.783053, 5.782941, 5.782832, 5.782591, 5.782481, 5.782375, 5.782267, 5.782163, 5.782057, 5.78166, 5.781558, 5.781455, 5.78119, 5.780958, 5.780859, 5.780758, 5.780498, 5.780299, 5.780166, 5.779911, 5.779786, 5.779403, 5.779308, 5.779029, 5.778933, 5.77874, 5.778648, 5.778526, 5.778432, 5.778367, 5.777979, 5.777801, 5.777625, 5.77738, 5.77703, 5.776813, 5.776639, 5.776456, 5.77637, 5.776256, 5.776087, 5.775606, 5.775294, 5.774795, 5.774628, 5.774139, 5.773639, 5.773529, 5.773047, 5.772866, 5.772384, 5.771817, 5.771352, 5.771156, 5.770595, 5.77013, 5.769807, 5.769354, 5.76909, 5.768241, 5.767673, 5.766771, 5.766339, 5.765964, 5.765479, 5.765139, 5.764663, 5.764329, 5.764061, 5.763593, 5.76323, 5.762967, 5.762507, 5.76204, 5.761407, 5.760573, 5.76025, 5.759666, 5.759213, 5.758391, 5.757953, 5.757508, 5.757198, 5.757075, 5.756802, 5.756365, 5.756047, 5.755818, 5.755508, 5.755196, 5.754455, 5.754189, 5.753953, 5.753174, 5.752816, 5.752087, 5.751967, 5.751205, 5.750854, 5.750621, 5.75035, 5.750232, 5.750002, 5.749736, 5.749501, 5.749295, 5.748537, 5.748422, 5.748192, 5.747889, 5.747468]}}, \"_estimator_type\": \"regressor\"}"},"feature_names":[],"feature_types":[],"gradient_booster":{"model":{"gbtree_model_param":{"num_parallel_tree":"1","num_trees":"500","size_leaf_vector":"0"},"tree_info":[0,0,0,0,0,0,0,0,0,0,0,0,0,0,0,0,0,0,0,0,0,0,0,0,0,0,0,0,0,0,0,0,0,0,0,0,0,0,0,0,0,0,0,0,0,0,0,0,0,0,0,0,0,0,0,0,0,0,0,0,0,0,0,0,0,0,0,0,0,0,0,0,0,0,0,0,0,0,0,0,0,0,0,0,0,0,0,0,0,0,0,0,0,0,0,0,0,0,0,0,0,0,0,0,0,0,0,0,0,0,0,0,0,0,0,0,0,0,0,0,0,0,0,0,0,0,0,0,0,0,0,0,0,0,0,0,0,0,0,0,0,0,0,0,0,0,0,0,0,0,0,0,0,0,0,0,0,0,0,0,0,0,0,0,0,0,0,0,0,0,0,0,0,0,0,0,0,0,0,0,0,0,0,0,0,0,0,0,0,0,0,0,0,0,0,0,0,0,0,0,0,0,0,0,0,0,0,0,0,0,0,0,0,0,0,0,0,0,0,0,0,0,0,0,0,0,0,0,0,0,0,0,0,0,0,0,0,0,0,0,0,0,0,0,0,0,0,0,0,0,0,0,0,0,0,0,0,0,0,0,0,0,0,0,0,0,0,0,0,0,0,0,0,0,0,0,0,0,0,0,0,0,0,0,0,0,0,0,0,0,0,0,0,0,0,0,0,0,0,0,0,0,0,0,0,0,0,0,0,0,0,0,0,0,0,0,0,0,0,0,0,0,0,0,0,0,0,0,0,0,0,0,0,0,0,0,0,0,0,0,0,0,0,0,0,0,0,0,0,0,0,0,0,0,0,0,0,0,0,0,0,0,0,0,0,0,0,0,0,0,0,0,0,0,0,0,0,0,0,0,0,0,0,0,0,0,0,0,0,0,0,0,0,0,0,0,0,0,0,0,0,0,0,0,0,0,0,0,0,0,0,0,0,0,0,0,0,0,0,0,0,0,0,0,0,0,0,0,0,0,0,0,0,0,0,0,0,0,0,0,0,0,0,0,0,0,0,0,0,0,0,0,0,0,0,0,0,0,0,0,0,0,0,0,0,0,0,0,0,0,0,0,0,0,0,0,0,0,0,0,0,0,0,0,0,0,0,0,0,0,0,0,0,0,0,0,0,0,0,0],"trees":[{"base_weights":[3.2768083E-10,-2.298155E-1,3.27189E-1,-3.277895E-1,1.1543568E-1,-4.358255E-2,4.8829442E-1,-5.3650075E-1,-2.139033E-1,7.334105E-1,-2.563509E-3,-3.1436515E-1,3.2995078E-1,1.6444901E0,4.5220822E-1,-6.958412E-1,-3.7944534E-1,5.0108094E-2,-3.2568824E-1,1.6341698E-1,1.2588328E0,-2.4660952E-1,2.803818E-1,1.1097003E0,-3.6584088E-1,2.600423E0,2.049016E-1,5.1674867E-1,2.7585554E0,3.4251782E-1,6.8016875E-1,-4.6245074E-1,-8.2965755E-1,9.072253E-1,-4.4487008E-1,1.978007E0,-7.940091E-2,8.6534387E-1,-3.462071E-1,-5.2599814E-2,9.875886E-1,1.5166348E0,-1.323997E-1,6.465926E-1,-4.3609154E-1,-2.4083932E-1,4.631807E-1,-4.1376048E-1,6.8875355E-1,3.17417E-1,-7.991369E-1,4.935276E-2,8.1359076E-1,-7.214463E-1,3.9008597E-1,1.6663531E0,5.029216E-1,-5.678745E-1,2.662214E-1,-6.499183E-2,-8.72743E-1,1.3469709E0,-5.4076258E-2,8.456154E-2,-5.512549E-1,2.7329436E-1,2.5864944E0,-4.289311E-1,1.457646E-1,1.375858E0,-5.3368494E-2,-4.1679847E-1,9.176683E-5,3.3078328E-1,-5.221736E-1,3.7609345E-1,2.3405979E0,-8.1661545E-2,1.3547709E0,-6.17014E-1,-2.626702E-1,9.938977E-1,-4.4816095E-1,7.3106915E-1,-6.453918E-2,-5.099883E-1,8.9751005E-2,9.1087796E-2,7.7263695E-1,-1.442351E-1,-8.2933635E-1,6.3998955E-1,2.3444603E-1,1.8427255E0,4.6477437E-1,8.182761E-1,3.31388E-2],"categories":[],"categories_nodes":[],"categories_segments":[],"categories_sizes":[],"default_left":[1,1,1,1,1,1,1,1,1,1,1,1,1,1,1,1,1,1,1,1,1,1,1,0,1,0,1,1,0,1,1,1,1,1,1,1,1,1,1,1,0,1,0,1,1,1,1,1,0,1,0,0,0,1,1,1,1,0,0,0,0,0,0,0,0,0,0,0,0,0,0,0,0,0,0,0,0,0,0,0,0,0,0,0,0,0,0,0,0,0,0,0,0,0,0,0,0],"id":0,"left_children":[1,3,5,7,9,11,13,15,17,19,21,23,25,27,29,31,33,35,37,39,41,43,45,-1,47,-1,49,51,-1,53,55,57,59,61,63,65,67,69,71,73,-1,75,-1,77,79,81,83,85,-1,87,-1,-1,-1,89,91,93,95,-1,-1,-1,-1,-1,-1,-1,-1,-1,-1,-1,-1,-1,-1,-1,-1,-1,-1,-1,-1,-1,-1,-1,-1,-1,-1,-1,-1,-1,-1,-1,-1,-1,-1,-1,-1,-1,-1,-1,-1],"loss_changes":[6.2024696E1,1.6427595E1,2.035065E1,8.862717E0,7.86602E0,1.0623511E1,9.1584015E0,3.056137E0,7.2769413E0,4.9737377E0,6.3908916E0,4.863489E0,1.2015808E1,7.1227455E0,5.5563583E0,1.6356888E0,6.2132664E0,1.8645308E1,4.526758E0,1.7334044E0,3.374916E0,8.691185E0,4.19563E0,0E0,3.2887564E0,0E0,5.108656E0,5.996851E-1,0E0,8.294441E0,1.2131977E1,2.1348004E0,1.2557201E0,1.6236112E0,3.7834692E0,4.168129E0,5.5990605E0,1.5814035E0,4.174282E0,1.690822E0,0E0,6.2117424E0,0E0,4.8030214E0,1.1427836E0,3.462932E0,4.5818906E0,2.8307781E0,0E0,3.984975E0,0E0,0E0,0E0,3.2418752E-1,5.769758E0,1.4475975E0,9.502945E0,0E0,0E0,0E0,0E0,0E0,0E0,0E0,0E0,0E0,0E0,0E0,0E0,0E0,0E0,0E0,0E0,0E0,0E0,0E0,0E0,0E0,0E0,0E0,0E0,0E0,0E0,0E0,0E0,0E0,0E0,0E0,0E0,0E0,0E0,0E0,0E0,0E0,0E0,0E0,0E0],"parents":[2147483647,0,0,1,1,2,2,3,3,4,4,5,5,6,6,7,7,8,8,9,9,10,10,11,11,12,12,13,13,14,14,15,15,16,16,17,17,18,18,19,19,20,20,21,21,22,22,24,24,26,26,27,27,29,29,30,30,31,31,32,32,33,33,34,34,35,35,36,36,37,37,38,38,39,39,41,41,43,43,44,44,45,45,46,46,47,47,49,49,53,53,54,54,55,55,56,56],"right_children":[2,4,6,8,10,12,14,16,18,20,22,24,26,28,30,32,34,36,38,40,42,44,46,-1,48,-1,50,52,-1,54,56,58,60,62,64,66,68,70,72,74,-1,76,-1,78,80,82,84,86,-1,88,-1,-1,-1,90,92,94,96,-1,-1,-1,-1,-1,-1,-1,-1,-1,-1,-1,-1,-1,-1,-1,-1,-1,-1,-1,-1,-1,-1,-1,-1,-1,-1,-1,-1,-1,-1,-1,-1,-1,-1,-1,-1,-1,-1,-1,-1],"split_conditions":[6.451E1,1.1311823E1,1.0024899E1,5.665962E0,5.722827E0,7.2729996E1,1.0091951E1,5.2345E1,5E-1,5.537062E0,1.3531071E1,6.519E1,7.3305E1,5E-1,7.559E1,5E-1,5.342E1,5.756066E0,8.686777E0,6.265113E0,1.433726E1,1.1625038E1,5.2183733E0,1.1097003E-2,5E-1,2.600423E-2,7.887898E0,5.9681826E0,2.7585553E-2,1.0141977E1,1.0386215E1,1.0785661E1,5E-1,1.0824871E1,5.5498285E0,5.667E1,5E-1,6.435687E0,7.2276077E0,5.453787E0,9.875885E-3,5.8067455E0,-1.3239969E-3,5.4658284E0,1.2297553E1,1.38771305E1,5.599701E0,6.205782E0,6.887535E-3,5.988454E0,-7.991369E-3,4.935276E-4,8.135907E-3,5.9758177E0,6.9595E1,5E-1,5.927377E0,-5.678745E-3,2.662214E-3,-6.499183E-4,-8.72743E-3,1.3469709E-2,-5.4076256E-4,8.456154E-4,-5.512549E-3,2.7329435E-3,2.5864944E-2,-4.289311E-3,1.457646E-3,1.3758579E-2,-5.336849E-4,-4.1679847E-3,9.176683E-7,3.3078326E-3,-5.2217357E-3,3.7609343E-3,2.3405978E-2,-8.166154E-4,1.3547708E-2,-6.1701396E-3,-2.6267017E-3,9.938977E-3,-4.4816094E-3,7.3106913E-3,-6.4539176E-4,-5.099883E-3,8.9751004E-4,9.1087795E-4,7.7263694E-3,-1.442351E-3,-8.293363E-3,6.3998955E-3,2.3444602E-3,1.8427255E-2,4.6477434E-3,8.182761E-3,3.31388E-4],"split_indices":[8,2,2,3,0,8,2,8,5,0,2,8,8,4,8,5,8,3,2,3,2,2,1,0,6,0,0,0,0,2,2,2,7,2,1,8,7,3,0,0,0,3,0,1,2,2,1,3,0,0,0,0,0,1,8,6,0,0,0,0,0,0,0,0,0,0,0,0,0,0,0,0,0,0,0,0,0,0,0,0,0,0,0,0,0,0,0,0,0,0,0,0,0,0,0,0,0],"split_type":[0,0,0,0,0,0,0,0,0,0,0,0,0,0,0,0,0,0,0,0,0,0,0,0,0,0,0,0,0,0,0,0,0,0,0,0,0,0,0,0,0,0,0,0,0,0,0,0,0,0,0,0,0,0,0,0,0,0,0,0,0,0,0,0,0,0,0,0,0,0,0,0,0,0,0,0,0,0,0,0,0,0,0,0,0,0,0,0,0,0,0,0,0,0,0,0,0],"sum_hessian":[8.2287225E2,4.835367E2,3.3933554E2,3.7669135E2,1.0684536E2,1.0300563E2,2.3632991E2,1.3167282E2,2.4501852E2,1.62944E1,9.055096E1,5.9807934E1,4.3197697E1,5.803866E0,2.3052605E2,6.3658066E1,6.8014755E1,7.304771E1,1.7197081E2,8.444538E0,7.849861E0,4.868639E1,4.1864567E1,1.3692828E0,5.8438652E1,1.2216388E0,4.1976055E1,3.6116848E0,2.1921809E0,1.5732614E2,7.3199905E1,2.482187E1,3.8836193E1,2.6684859E0,6.534627E1,3.6997223E0,6.9347984E1,2.2151942E0,1.6975562E2,7.4326158E0,1.0119227E0,6.546606E0,1.303255E0,8.09847E0,4.0587917E1,1.07877E1,3.1076868E1,5.6479923E1,1.9587259E0,3.8361065E1,3.6149902E0,1.8558288E0,1.755856E0,6.126531E0,1.5119962E2,9.871979E0,6.3327927E1,2.1877344E1,2.9445262E0,2.205321E0,3.663087E1,1.5556582E0,1.1128278E0,1.0968065E1,5.437821E1,1.354408E0,2.3453143E0,2.6815947E1,4.2532036E1,1.1040804E0,1.1111139E0,1.4084206E2,2.8913559E1,4.2545547E0,3.1780608E0,3.3566828E0,3.1899235E0,4.428804E0,3.669666E0,1.8612486E1,2.1975431E1,1.0054705E0,9.782229E0,2.035742E1,1.0719449E1,4.7406956E1,9.0729685E0,2.6423672E1,1.1937396E1,1.3328202E0,4.7937107E0,5.6833233E1,9.436638E1,8.143113E0,1.7288655E0,3.744807E1,2.587986E1],"tree_param":{"num_deleted":"0","num_feature":"9","num_nodes":"97","size_leaf_vector":"0"}},{"base_weights":[-1.6254044E-9,-2.2808641E-1,3.229849E-1,-3.2568532E-1,1.1447732E-1,-4.3123573E-2,4.8123807E-1,-5.3410536E-1,-2.1230496E-1,7.245119E-1,-2.5988817E-3,-3.122956E-1,3.2598484E-1,1.6158841E0,4.45613E-1,-6.9382447E-1,-3.771046E-1,4.9738638E-2,-3.2363307E-1,1.6271266E-1,1.2377182E0,-2.4490239E-1,2.7695873E-1,1.096756E0,-3.637231E-1,2.5505278E0,2.0207612E-1,5.1182985E-1,2.689896E0,3.3770886E-1,6.692128E-1,-4.601664E-1,-8.282683E-1,8.9704585E-1,-4.4252306E-1,1.9387282E0,-7.89188E-2,8.5748184E-1,-3.441358E-1,-5.216939E-2,9.7820246E-1,1.488469E0,-1.3167484E-1,6.3820195E-1,-4.3391463E-1,-2.3906907E-1,4.5672557E-1,-4.1159517E-1,6.81122E-1,-2.767177E-1,4.4239643E-1,4.8862405E-2,8.0464053E-1,-7.198946E-1,3.8455442E-1,1.6289402E0,4.9519467E-1,-5.656508E-1,2.6382753E-1,-6.443905E-2,-8.7163264E-1,1.3282729E0,-5.3697754E-2,8.3800085E-2,-5.4890627E-1,-2.354722E-3,2.4571135E0,-4.2674986E-1,1.4396502E-1,1.3597828E0,-5.304197E-2,-4.1454983E-1,-8.056783E-5,3.27236E-1,-5.201141E-1,3.722652E-1,2.2831912E0,-8.141156E-2,1.3307805E0,-6.1491364E-1,-2.6091874E-1,9.841927E-1,-4.462404E-1,7.195041E-1,-6.441689E-2,-4.7638008E-1,3.0448657E-1,1.1900745E-1,-6.398071E-1,1.8123578E-1,9.374646E-1,-1.43813E-1,-8.281889E-1,6.296047E-1,2.3135446E-1,1.7978266E0,4.6049505E-1,8.038673E-1,3.2157302E-2],"categories":[],"categories_nodes":[],"categories_segments":[],"categories_sizes":[],"default_left":[1,1,1,1,1,1,1,1,1,1,1,1,1,1,1,1,1,1,1,1,1,1,1,0,1,0,1,1,0,1,1,1,1,1,1,1,1,1,1,1,0,1,0,1,1,1,1,1,0,1,1,0,0,1,1,1,1,0,0,0,0,0,0,0,0,0,0,0,0,0,0,0,0,0,0,0,0,0,0,0,0,0,0,0,0,0,0,0,0,0,0,0,0,0,0,0,0,0,0],"id":1,"left_children":[1,3,5,7,9,11,13,15,17,19,21,23,25,27,29,31,33,35,37,39,41,43,45,-1,47,-1,49,51,-1,53,55,57,59,61,63,65,67,69,71,73,-1,75,-1,77,79,81,83,85,-1,87,89,-1,-1,91,93,95,97,-1,-1,-1,-1,-1,-1,-1,-1,-1,-1,-1,-1,-1,-1,-1,-1,-1,-1,-1,-1,-1,-1,-1,-1,-1,-1,-1,-1,-1,-1,-1,-1,-1,-1,-1,-1,-1,-1,-1,-1,-1,-1],"loss_changes":[6.076707E1,1.6201233E1,1.9801395E1,8.784077E0,7.7109756E0,1.04302435E1,8.918747E0,3.0484047E0,7.178627E0,4.810601E0,6.269624E0,4.7922025E0,1.1703495E1,6.77919E0,5.3854637E0,1.63698E0,6.128091E0,1.8155302E1,4.471081E0,1.7070342E0,3.2634745E0,8.552134E0,4.0961494E0,0E0,3.24363E0,0E0,5.0789456E0,5.8788204E-1,0E0,8.148998E0,1.166647E1,2.1130123E0,1.2531586E0,1.5834134E0,3.7453432E0,4.797949E0,5.512371E0,1.5488353E0,4.1237297E0,1.6666498E0,0E0,5.9201336E0,0E0,4.666107E0,1.136869E0,3.419619E0,4.4585376E0,2.8019333E0,0E0,2.2329535E0,3.5880394E0,0E0,0E0,3.2306838E-1,5.5908775E0,1.348032E0,9.215561E0,0E0,0E0,0E0,0E0,0E0,0E0,0E0,0E0,0E0,0E0,0E0,0E0,0E0,0E0,0E0,0E0,0E0,0E0,0E0,0E0,0E0,0E0,0E0,0E0,0E0,0E0,0E0,0E0,0E0,0E0,0E0,0E0,0E0,0E0,0E0,0E0,0E0,0E0,0E0,0E0,0E0,0E0],"parents":[2147483647,0,0,1,1,2,2,3,3,4,4,5,5,6,6,7,7,8,8,9,9,10,10,11,11,12,12,13,13,14,14,15,15,16,16,17,17,18,18,19,19,20,20,21,21,22,22,24,24,26,26,27,27,29,29,30,30,31,31,32,32,33,33,34,34,35,35,36,36,37,37,38,38,39,39,41,41,43,43,44,44,45,45,46,46,47,47,49,49,50,50,53,53,54,54,55,55,56,56],"right_children":[2,4,6,8,10,12,14,16,18,20,22,24,26,28,30,32,34,36,38,40,42,44,46,-1,48,-1,50,52,-1,54,56,58,60,62,64,66,68,70,72,74,-1,76,-1,78,80,82,84,86,-1,88,90,-1,-1,92,94,96,98,-1,-1,-1,-1,-1,-1,-1,-1,-1,-1,-1,-1,-1,-1,-1,-1,-1,-1,-1,-1,-1,-1,-1,-1,-1,-1,-1,-1,-1,-1,-1,-1,-1,-1,-1,-1,-1,-1,-1,-1,-1,-1],"split_conditions":[6.451E1,1.1311823E1,1.0024899E1,5.665962E0,5.722827E0,7.2729996E1,1.0091951E1,5.2345E1,5E-1,5.537062E0,1.3531071E1,6.519E1,7.3305E1,5E-1,7.559E1,5E-1,5.342E1,5.756066E0,8.686777E0,6.265113E0,1.433726E1,1.1625038E1,5.2183733E0,1.0967559E-2,5E-1,2.5505278E-2,7.614E1,5.9681826E0,2.689896E-2,1.0141977E1,1.0386215E1,1.0785661E1,5E-1,1.0824871E1,5.5498285E0,5.5654297E0,5E-1,6.435687E0,7.2276077E0,5.453787E0,9.782025E-3,5.8067455E0,-1.3167483E-3,5.4658284E0,1.2297553E1,1.38771305E1,5.599701E0,6.24576E0,6.8112197E-3,7.5465E1,5.9807377E0,4.8862403E-4,8.046405E-3,5.9758177E0,6.9595E1,5E-1,5.927377E0,-5.6565083E-3,2.6382753E-3,-6.443905E-4,-8.716326E-3,1.3282729E-2,-5.3697755E-4,8.3800085E-4,-5.4890625E-3,-2.354722E-5,2.4571134E-2,-4.2674984E-3,1.4396502E-3,1.3597827E-2,-5.304197E-4,-4.1454984E-3,-8.0567827E-7,3.27236E-3,-5.2011413E-3,3.7226519E-3,2.2831911E-2,-8.141156E-4,1.3307805E-2,-6.1491365E-3,-2.6091873E-3,9.841927E-3,-4.4624037E-3,7.195041E-3,-6.4416893E-4,-4.7638007E-3,3.0448656E-3,1.1900745E-3,-6.398071E-3,1.8123577E-3,9.374646E-3,-1.4381299E-3,-8.281888E-3,6.296047E-3,2.3135445E-3,1.7978266E-2,4.6049505E-3,8.038673E-3,3.2157302E-4],"split_indices":[8,2,2,3,0,8,2,8,5,0,2,8,8,4,8,5,8,3,2,3,2,2,1,0,6,0,8,0,0,2,2,2,7,2,1,0,7,3,0,0,0,3,0,1,2,2,1,3,0,8,0,0,0,1,8,6,0,0,0,0,0,0,0,0,0,0,0,0,0,0,0,0,0,0,0,0,0,0,0,0,0,0,0,0,0,0,0,0,0,0,0,0,0,0,0,0,0,0,0],"split_type":[0,0,0,0,0,0,0,0,0,0,0,0,0,0,0,0,0,0,0,0,0,0,0,0,0,0,0,0,0,0,0,0,0,0,0,0,0,0,0,0,0,0,0,0,0,0,0,0,0,0,0,0,0,0,0,0,0,0,0,0,0,0,0,0,0,0,0,0,0,0,0,0,0,0,0,0,0,0,0,0,0,0,0,0,0,0,0,0,0,0,0,0,0,0,0,0,0,0,0],"sum_hessian":[8.228722E2,4.824606E2,3.404116E2,3.7552115E2,1.0693944E2,1.0295631E2,2.3745528E2,1.3100044E2,2.4452072E2,1.638351E1,9.055593E1,5.9627163E1,4.3329144E1,5.8782125E0,2.3157706E2,6.3243095E1,6.775734E1,7.307361E1,1.7144711E2,8.450226E0,7.933285E0,4.8576633E1,4.1979298E1,1.3838938E0,5.824327E1,1.2528423E0,4.20763E1,3.6266634E0,2.2515492E0,1.5789221E2,7.3684845E1,2.4713959E1,3.852914E1,2.6881435E0,6.50692E1,3.762498E0,6.931111E1,2.2287893E0,1.6921832E2,7.4287677E0,1.0214578E0,6.631948E0,1.3013371E0,8.144999E0,4.0431633E1,1.0760622E1,3.1218678E1,5.6271145E1,1.9721265E0,1.4010839E1,2.806546E1,1.8571572E0,1.7695061E0,6.0876503E0,1.5180457E2,1.0026567E1,6.3658276E1,2.1761988E1,2.95197E0,2.2034304E0,3.6325706E1,1.5761595E0,1.1119841E0,1.097642E1,5.4092773E1,1.0028405E0,2.7596574E0,2.6711164E1,4.259995E1,1.1184025E0,1.1103868E0,1.402998E2,2.8918516E1,4.268556E0,3.1602118E0,3.3688085E0,3.2631397E0,4.4273143E0,3.7176843E0,1.8510403E1,2.192123E1,1.0152663E0,9.745356E0,2.050081E1,1.0717867E1,5.1909557E1,4.361588E0,7.025787E0,6.9850526E0,1.9267475E1,8.797986E0,1.3316735E0,4.7559767E0,5.720034E1,9.4604225E1,8.289726E0,1.7368412E0,3.775425E1,2.5904028E1],"tree_param":{"num_deleted":"0","num_feature":"9","num_nodes":"99","size_leaf_vector":"0"}},{"base_weights":[1.2325833E-9,-2.2637531E-1,3.188679E-1,-3.2359782E-1,1.1352518E-1,-4.2615123E-2,4.7431356E-1,-5.3171086E-1,-2.1073055E-1,7.157801E-1,-2.6379675E-3,-3.1022274E-1,3.222144E-1,1.5879805E0,4.391412E-1,-6.918054E-1,-3.747676E-1,4.9314104E-2,-3.2158726E-1,1.6203243E-1,1.2171378E0,-2.4321075E-1,2.735878E-1,1.0840367E0,-3.6160097E-1,2.5018418E0,1.9942923E-1,5.06995E-1,2.6237903E0,3.3298576E-1,6.584914E-1,-4.5789066E-1,-8.26874E-1,8.8703215E-1,-4.401772E-1,1.8985213E0,-7.8445E-2,8.4972966E-1,-3.420732E-1,-5.172257E-2,9.6895E-1,1.4611031E0,-1.3093786E-1,6.299581E-1,-4.317472E-1,-2.373332E-1,4.504073E-1,-4.0942457E-1,6.7361575E-1,3.098784E-1,-7.9759467E-1,4.8389185E-2,7.9585254E-1,-7.1833974E-1,3.7912518E-1,1.5929213E0,4.8760736E-1,-5.6343246E-1,2.6147756E-1,-6.3871086E-2,-8.705181E-1,1.3099436E0,-5.330494E-2,8.30666E-2,-5.46556E-1,-2.4837547E-3,2.3976495E0,-4.2458436E-1,1.4219297E-1,1.3439777E0,-5.270266E-2,-4.123079E-1,-2.4934363E-4,3.2375678E-1,-5.180433E-1,3.685155E-1,2.2279997E0,-8.117378E-2,1.3074771E0,-5.977057E-1,-2.4523263E-1,9.746196E-1,-4.4434303E-1,7.082474E-1,-6.430852E-2,-5.056436E-1,8.949155E-2,8.838731E-2,7.512008E-1,-1.4339542E-1,-8.270367E-1,6.1946017E-1,2.2831082E-1,2.1535902E0,1.0192512E0,-2.3920402E-2,7.586255E-1],"categories":[],"categories_nodes":[],"categories_segments":[],"categories_sizes":[],"default_left":[1,1,1,1,1,1,1,1,1,1,1,1,1,1,1,1,1,1,1,1,1,1,1,0,1,0,1,1,0,1,1,1,1,1,1,1,1,1,1,1,0,1,0,1,1,1,1,1,0,1,0,0,0,1,1,1,1,0,0,0,0,0,0,0,0,0,0,0,0,0,0,0,0,0,0,0,0,0,0,0,0,0,0,0,0,0,0,0,0,0,0,0,0,0,0,0,0],"id":2,"left_children":[1,3,5,7,9,11,13,15,17,19,21,23,25,27,29,31,33,35,37,39,41,43,45,-1,47,-1,49,51,-1,53,55,57,59,61,63,65,67,69,71,73,-1,75,-1,77,79,81,83,85,-1,87,-1,-1,-1,89,91,93,95,-1,-1,-1,-1,-1,-1,-1,-1,-1,-1,-1,-1,-1,-1,-1,-1,-1,-1,-1,-1,-1,-1,-1,-1,-1,-1,-1,-1,-1,-1,-1,-1,-1,-1,-1,-1,-1,-1,-1,-1],"loss_changes":[5.954241E1,1.5978106E1,1.9264057E1,8.705002E0,7.5598574E0,1.0244073E1,8.686672E0,3.040619E0,7.079565E0,4.6534176E0,6.150997E0,4.7220783E0,1.1398502E1,6.4542255E0,5.2205696E0,1.6381435E0,6.044198E0,1.7656069E1,4.4161873E0,1.681065E0,3.1565695E0,8.415656E0,3.9999404E0,0E0,3.1991553E0,0E0,5.0012064E0,5.763546E-1,0E0,8.006966E0,1.1225639E1,2.0915165E0,1.2506218E0,1.5442965E0,3.707656E0,4.587471E0,5.427365E0,1.5169826E0,4.0737076E0,1.6428463E0,0E0,5.6448135E0,0E0,4.5344915E0,1.1311007E0,3.3770068E0,4.34001E0,2.7845783E0,0E0,3.8030975E0,0E0,0E0,0E0,3.2193828E-1,5.418808E0,1.4007473E0,9.027355E0,0E0,0E0,0E0,0E0,0E0,0E0,0E0,0E0,0E0,0E0,0E0,0E0,0E0,0E0,0E0,0E0,0E0,0E0,0E0,0E0,0E0,0E0,0E0,0E0,0E0,0E0,0E0,0E0,0E0,0E0,0E0,0E0,0E0,0E0,0E0,0E0,0E0,0E0,0E0,0E0],"parents":[2147483647,0,0,1,1,2,2,3,3,4,4,5,5,6,6,7,7,8,8,9,9,10,10,11,11,12,12,13,13,14,14,15,15,16,16,17,17,18,18,19,19,20,20,21,21,22,22,24,24,26,26,27,27,29,29,30,30,31,31,32,32,33,33,34,34,35,35,36,36,37,37,38,38,39,39,41,41,43,43,44,44,45,45,46,46,47,47,49,49,53,53,54,54,55,55,56,56],"right_children":[2,4,6,8,10,12,14,16,18,20,22,24,26,28,30,32,34,36,38,40,42,44,46,-1,48,-1,50,52,-1,54,56,58,60,62,64,66,68,70,72,74,-1,76,-1,78,80,82,84,86,-1,88,-1,-1,-1,90,92,94,96,-1,-1,-1,-1,-1,-1,-1,-1,-1,-1,-1,-1,-1,-1,-1,-1,-1,-1,-1,-1,-1,-1,-1,-1,-1,-1,-1,-1,-1,-1,-1,-1,-1,-1,-1,-1,-1,-1,-1,-1],"split_conditions":[6.451E1,1.1311823E1,1.0024899E1,5.665962E0,5.722827E0,7.2729996E1,1.0091951E1,5.2345E1,5E-1,5.537062E0,1.3531071E1,6.519E1,7.3305E1,5E-1,7.559E1,5E-1,5.342E1,5.756066E0,8.686777E0,6.265113E0,1.433726E1,1.1625038E1,5.2183733E0,1.0840367E-2,5E-1,2.5018416E-2,7.887898E0,5.9681826E0,2.6237901E-2,1.0141977E1,1.0386215E1,1.0785661E1,5E-1,1.0824871E1,5.5498285E0,5.5654297E0,5E-1,6.435687E0,7.2276077E0,5.453787E0,9.6895E-3,5.8067455E0,-1.3093785E-3,5.4658284E0,1.2334403E1,1.38771305E1,5.599701E0,6.205782E0,6.7361575E-3,5.988454E0,-7.975946E-3,4.8389184E-4,7.958525E-3,5.9758177E0,6.9595E1,5.7429123E0,1.0603736E1,-5.6343246E-3,2.6147754E-3,-6.3871086E-4,-8.705181E-3,1.3099436E-2,-5.330494E-4,8.3066593E-4,-5.4655597E-3,-2.4837545E-5,2.3976495E-2,-4.2458433E-3,1.4219297E-3,1.3439776E-2,-5.270266E-4,-4.1230787E-3,-2.4934363E-6,3.2375678E-3,-5.1804325E-3,3.6851547E-3,2.2279996E-2,-8.1173773E-4,1.3074771E-2,-5.977057E-3,-2.4523262E-3,9.746196E-3,-4.4434303E-3,7.082474E-3,-6.4308516E-4,-5.056436E-3,8.949155E-4,8.838731E-4,7.512008E-3,-1.4339542E-3,-8.270367E-3,6.1946013E-3,2.2831082E-3,2.1535901E-2,1.0192512E-2,-2.3920402E-4,7.5862547E-3],"split_indices":[8,2,2,3,0,8,2,8,5,0,2,8,8,4,8,5,8,3,2,3,2,2,1,0,6,0,0,0,0,2,2,2,7,2,1,0,7,3,0,0,0,3,0,1,2,2,1,3,0,0,0,0,0,1,8,3,2,0,0,0,0,0,0,0,0,0,0,0,0,0,0,0,0,0,0,0,0,0,0,0,0,0,0,0,0,0,0,0,0,0,0,0,0,0,0,0,0],"split_type":[0,0,0,0,0,0,0,0,0,0,0,0,0,0,0,0,0,0,0,0,0,0,0,0,0,0,0,0,0,0,0,0,0,0,0,0,0,0,0,0,0,0,0,0,0,0,0,0,0,0,0,0,0,0,0,0,0,0,0,0,0,0,0,0,0,0,0,0,0,0,0,0,0,0,0,0,0,0,0,0,0,0,0,0,0,0,0,0,0,0,0,0,0,0,0,0,0],"sum_hessian":[8.22872E2,4.8139975E2,3.4147223E2,3.7436676E2,1.07033E2,1.0290243E2,2.3856981E2,1.303348E2,2.4403197E2,1.6471848E1,9.056114E1,5.9446934E1,4.3455494E1,5.9523144E0,2.326175E2,6.28326E1,6.750219E1,7.310333E1,1.7092863E2,8.455723E0,8.016125E0,4.846828E1,4.2092865E1,1.398427E0,5.8048508E1,1.2841457E0,4.217135E1,3.6414812E0,2.310833E0,1.5845201E2,7.416548E1,2.4607265E1,3.8225334E1,2.7076871E0,6.47945E1,3.8285196E0,6.927481E1,2.2423072E0,1.6868633E2,7.4247775E0,1.0309459E0,6.7167344E0,1.2993906E0,8.191177E0,4.0277103E1,1.0734173E1,3.135869E1,5.6063084E1,1.9854256E0,3.858603E1,3.5853198E0,1.8584404E0,1.7830408E0,6.049107E0,1.5240291E2,1.01796055E1,6.3985878E1,2.164796E1,2.9593043E0,2.2014902E0,3.6023846E1,1.5965779E0,1.1111094E0,1.0984477E1,5.3810028E1,1.0030972E0,2.8254223E0,2.6607817E1,4.2666996E1,1.1326753E0,1.109632E0,1.3976297E2,2.8923353E1,4.2823606E0,3.1424167E0,3.380751E0,3.3359833E0,4.4258957E0,3.7652817E0,2.0146433E1,2.0130672E1,1.0250231E0,9.70915E0,2.0642237E1,1.0716454E1,4.6987724E1,9.0753565E0,2.6490993E1,1.2095034E1,1.3305398E0,4.7185674E0,5.756343E1,9.483947E1,3.7553282E0,6.4242773E0,2.2475912E1,4.1509968E1],"tree_param":{"num_deleted":"0","num_feature":"9","num_nodes":"97","size_leaf_vector":"0"}},{"base_weights":[5.616784E-10,-2.2467376E-1,3.1482014E-1,-3.2151568E-1,1.1257074E-1,-4.215837E-2,4.675576E-1,-5.293135E-1,-2.0916288E-1,7.070891E-1,-2.6756993E-3,-3.081597E-1,3.1836534E-1,1.560585E0,4.328326E-1,-6.8976724E-1,-3.724507E-1,4.8887294E-2,-3.1954393E-1,4.7325048E-1,2.0636487E0,-2.4151453E-1,2.7024543E-1,1.071429E0,-3.5948485E-1,2.4541512E0,1.967049E-1,5.0216395E-1,2.5598655E0,3.283261E-1,6.482072E-1,-4.556015E-1,-8.254612E-1,8.770723E-1,-4.3784583E-1,1.8593706E0,-7.7972196E-2,8.419742E-1,-3.400116E-1,-5.1316395E-2,9.186663E-1,6.218018E-1,-4.2956525E-1,-2.3559397E-1,4.4416335E-1,-4.0725675E-1,6.661739E-1,-2.7655604E-1,4.327213E-1,4.7900848E-2,7.871233E-1,-7.167866E-1,3.7377483E-1,1.560224E0,4.8017105E-1,-5.6119454E-1,2.591194E-1,-6.3332364E-2,-8.6938566E-1,1.2918607E0,-5.2937217E-2,8.230382E-2,-5.442119E-1,-2.6227883E-3,2.340171E0,-4.224079E-1,1.4043152E-1,1.3283073E0,-5.2385617E-2,-4.1006193E-1,-4.292704E-4,3.2028654E-1,-5.159932E-1,1.1859499E0,3.3920948E-4,-8.0943264E-2,1.2846698E0,-6.107506E-1,-2.5734887E-1,9.650949E-1,-4.424336E-1,6.9717366E-1,-6.420201E-2,-5.033731E-1,8.8409334E-2,1.1527534E-1,-6.3839424E-1,1.7775872E-1,9.1085625E-1,-1.4298502E-1,-8.2588315E-1,-2.9837123E-1,4.241949E-1,2.1021779E0,1.0019996E0,7.819512E-1,2.5259713E-2],"categories":[],"categories_nodes":[],"categories_segments":[],"categories_sizes":[],"default_left":[1,1,1,1,1,1,1,1,1,1,1,1,1,1,1,1,1,1,1,1,0,1,1,0,1,0,1,1,0,1,1,1,1,1,1,1,1,1,1,1,1,1,1,1,1,1,0,1,1,0,0,1,1,1,1,0,0,0,0,0,0,0,0,0,0,0,0,0,0,0,0,0,0,0,0,0,0,0,0,0,0,0,0,0,0,0,0,0,0,0,0,0,0,0,0,0,0],"id":3,"left_children":[1,3,5,7,9,11,13,15,17,19,21,23,25,27,29,31,33,35,37,39,-1,41,43,-1,45,-1,47,49,-1,51,53,55,57,59,61,63,65,67,69,71,73,75,77,79,81,83,-1,85,87,-1,-1,89,91,93,95,-1,-1,-1,-1,-1,-1,-1,-1,-1,-1,-1,-1,-1,-1,-1,-1,-1,-1,-1,-1,-1,-1,-1,-1,-1,-1,-1,-1,-1,-1,-1,-1,-1,-1,-1,-1,-1,-1,-1,-1,-1,-1],"loss_changes":[5.8344677E1,1.5756844E1,1.8749798E1,8.626179E0,7.410343E0,1.0057667E1,8.45911E0,3.0321121E0,6.9813013E0,4.5939016E0,6.0339513E0,4.652675E0,1.1102167E1,6.1463165E0,5.0684586E0,1.6392365E0,5.961007E0,1.7171715E1,4.361431E0,3.850097E0,0E0,8.280628E0,3.9056766E0,0E0,3.1551175E0,0E0,4.952705E0,5.650487E-1,0E0,7.8681583E0,1.0841471E1,2.069972E0,1.2479534E0,1.506233E0,3.6699772E0,4.388006E0,5.3431067E0,1.485779E0,4.023754E0,1.6193899E0,2.173118E0,4.4069824E0,1.1259899E0,3.334627E0,4.22474E0,2.7532816E0,0E0,2.201435E0,3.4051814E0,0E0,0E0,3.2079935E-1,5.34548E0,1.3189583E0,8.946091E0,0E0,0E0,0E0,0E0,0E0,0E0,0E0,0E0,0E0,0E0,0E0,0E0,0E0,0E0,0E0,0E0,0E0,0E0,0E0,0E0,0E0,0E0,0E0,0E0,0E0,0E0,0E0,0E0,0E0,0E0,0E0,0E0,0E0,0E0,0E0,0E0,0E0,0E0,0E0,0E0,0E0,0E0],"parents":[2147483647,0,0,1,1,2,2,3,3,4,4,5,5,6,6,7,7,8,8,9,9,10,10,11,11,12,12,13,13,14,14,15,15,16,16,17,17,18,18,19,19,21,21,22,22,24,24,26,26,27,27,29,29,30,30,31,31,32,32,33,33,34,34,35,35,36,36,37,37,38,38,39,39,40,40,41,41,42,42,43,43,44,44,45,45,47,47,48,48,51,51,52,52,53,53,54,54],"right_children":[2,4,6,8,10,12,14,16,18,20,22,24,26,28,30,32,34,36,38,40,-1,42,44,-1,46,-1,48,50,-1,52,54,56,58,60,62,64,66,68,70,72,74,76,78,80,82,84,-1,86,88,-1,-1,90,92,94,96,-1,-1,-1,-1,-1,-1,-1,-1,-1,-1,-1,-1,-1,-1,-1,-1,-1,-1,-1,-1,-1,-1,-1,-1,-1,-1,-1,-1,-1,-1,-1,-1,-1,-1,-1,-1,-1,-1,-1,-1,-1,-1],"split_conditions":[6.451E1,1.1311823E1,1.0024899E1,5.665962E0,5.722827E0,7.2729996E1,1.0091951E1,5.2345E1,5E-1,6.2999935E0,1.3531071E1,6.519E1,7.3305E1,5E-1,7.559E1,5E-1,5.342E1,5.756066E0,8.686777E0,5.537062E0,2.0636486E-2,1.1625038E1,5.2183733E0,1.071429E-2,5E-1,2.454151E-2,7.614E1,5.9681826E0,2.5598655E-2,1.0141977E1,1.0386215E1,1.0785661E1,5E-1,1.0824871E1,5.5498285E0,5.5654297E0,5E-1,6.435687E0,7.2276077E0,5.453787E0,6.1484404E0,5.4658284E0,1.2297553E1,1.38771305E1,5.599701E0,6.205782E0,6.6617387E-3,7.5465E1,5.9807377E0,4.7900848E-4,7.871233E-3,5.9758177E0,5.155754E0,5.7429123E0,5.927377E0,-5.6119454E-3,2.591194E-3,-6.333236E-4,-8.693856E-3,1.2918606E-2,-5.2937213E-4,8.230382E-4,-5.442119E-3,-2.6227883E-5,2.3401711E-2,-4.2240787E-3,1.4043152E-3,1.3283072E-2,-5.2385614E-4,-4.1006193E-3,-4.292704E-6,3.2028654E-3,-5.1599317E-3,1.1859499E-2,3.3920946E-6,-8.0943265E-4,1.2846697E-2,-6.107506E-3,-2.5734885E-3,9.650949E-3,-4.424336E-3,6.9717364E-3,-6.420201E-4,-5.0337305E-3,8.8409334E-4,1.1527534E-3,-6.3839424E-3,1.7775872E-3,9.108562E-3,-1.4298501E-3,-8.258832E-3,-2.9837121E-3,4.241949E-3,2.1021778E-2,1.0019996E-2,7.819512E-3,2.5259712E-4],"split_indices":[8,2,2,3,0,8,2,8,5,3,2,8,8,4,8,5,8,3,2,0,0,2,1,0,6,0,8,0,0,2,2,2,7,2,1,0,7,3,0,0,3,1,2,2,1,3,0,8,0,0,0,1,1,3,0,0,0,0,0,0,0,0,0,0,0,0,0,0,0,0,0,0,0,0,0,0,0,0,0,0,0,0,0,0,0,0,0,0,0,0,0,0,0,0,0,0,0],"split_type":[0,0,0,0,0,0,0,0,0,0,0,0,0,0,0,0,0,0,0,0,0,0,0,0,0,0,0,0,0,0,0,0,0,0,0,0,0,0,0,0,0,0,0,0,0,0,0,0,0,0,0,0,0,0,0,0,0,0,0,0,0,0,0,0,0,0,0,0,0,0,0,0,0,0,0,0,0,0,0,0,0,0,0,0,0,0,0,0,0,0,0,0,0,0,0,0,0],"sum_hessian":[8.2287164E2,4.803515E2,3.425201E2,3.732244E2,1.0712712E2,1.0285382E2,2.396663E2,1.2967596E2,2.4354843E2,1.6560665E1,9.056646E1,5.9269146E1,4.358467E1,6.026635E0,2.3363966E2,6.242483E1,6.725113E1,7.313339E1,1.7041504E2,1.527626E1,1.2844037E0,4.8360382E1,4.2206078E1,1.4130085E0,5.7856136E1,1.3156638E0,4.226901E1,3.6563823E0,2.370253E0,1.590083E2,7.463137E1,2.4501097E1,3.7923733E1,2.727332E0,6.4523796E1,3.894589E0,6.923881E1,2.2559445E0,1.6815909E2,7.4211507E0,7.85511E0,8.237326E0,4.0123055E1,1.0707816E1,3.149826E1,5.585741E1,1.9987284E0,1.4008116E1,2.8260893E1,1.8597658E0,1.7966164E0,6.011022E0,1.5299728E2,1.0322253E1,6.430911E1,2.1534405E1,2.9666917E0,2.199652E0,3.5724083E1,1.6170412E0,1.110291E0,1.0992869E1,5.353093E1,1.003374E0,2.8912148E0,2.650491E1,4.2733894E1,1.1470174E0,1.1089271E0,1.3923055E2,2.8928543E1,4.2962017E0,3.1249487E0,5.8585315E0,1.9965785E0,4.424521E0,3.8128047E0,1.8311491E1,2.1811565E1,1.0348246E0,9.672992E0,2.0783192E1,1.0715069E1,4.6772114E1,9.085293E0,7.0524726E0,6.955643E0,1.932678E1,8.934113E0,1.329427E0,4.6815953E0,1.03328705E1,1.4266441E2,3.8340883E0,6.4881654E0,3.822946E1,2.6079655E1],"tree_param":{"num_deleted":"0","num_feature":"9","num_nodes":"97","size_leaf_vector":"0"}},{"base_weights":[-7.5102446E-10,-2.2298022E-1,3.1082967E-1,-3.1943896E-1,1.11620635E-1,-4.1685957E-2,4.6090457E-1,-5.269139E-1,-2.0760213E-1,6.9848394E-1,-2.710607E-3,-3.0612788E-1,3.1468698E-1,1.533883E0,4.2661858E-1,-6.8773305E-1,-3.70121E-1,4.8467595E-2,-3.1750685E-1,4.675658E-1,2.029269E0,-2.3983929E-1,2.669799E-1,1.0590465E0,-3.573975E-1,2.407602E0,1.94136E-1,4.9743864E-1,2.4982605E0,3.2371393E-1,6.3814795E-1,-4.533264E-1,-8.2405E-1,8.672937E-1,-4.355005E-1,1.8214375E0,-7.749695E-2,-5.201222E-1,-1.9000886E-1,-5.087971E-2,9.042796E-1,6.13819E-1,-4.2740142E-1,-2.3387149E-1,4.3807817E-1,-4.0511617E-1,6.588781E-1,3.0256462E-1,-7.959976E-1,4.745098E-2,7.7856076E-1,-7.1521926E-1,3.684825E-1,1.5286164E0,4.7288552E-1,-5.589689E-1,2.5682175E-1,-6.277146E-2,-8.68256E-1,1.2741487E0,-5.254685E-2,8.158978E-2,-5.418535E-1,-2.7366783E-3,2.2848175E0,-4.2024478E-1,1.3871399E-1,-5.5564874E-1,5.889253E-1,3.331003E-1,-2.7270782E-1,3.169092E-1,-5.1392967E-1,1.1645814E0,6.1256817E-4,-8.919013E-3,1.3551639E0,-6.086509E-1,-2.5561386E-1,9.5571864E-1,-4.4053462E-1,6.864078E-1,-6.407644E-2,-4.6994027E-1,3.0011198E-1,8.576197E-2,7.306254E-1,-1.425523E-1,-8.2471853E-1,6.0349834E-1,2.2054203E-1,1.6881567E0,4.2991877E-1,-2.9489867E-2,7.3759264E-1],"categories":[],"categories_nodes":[],"categories_segments":[],"categories_sizes":[],"default_left":[1,1,1,1,1,1,1,1,1,1,1,1,1,1,1,1,1,1,1,1,0,1,1,0,1,0,1,1,0,1,1,1,1,1,1,1,1,1,1,1,1,1,1,1,1,1,0,1,0,0,0,1,1,1,1,0,0,0,0,0,0,0,0,0,0,0,0,0,0,0,0,0,0,0,0,0,0,0,0,0,0,0,0,0,0,0,0,0,0,0,0,0,0,0,0],"id":4,"left_children":[1,3,5,7,9,11,13,15,17,19,21,23,25,27,29,31,33,35,37,39,-1,41,43,-1,45,-1,47,49,-1,51,53,55,57,59,61,63,65,67,69,71,73,75,77,79,81,83,-1,85,-1,-1,-1,87,89,91,93,-1,-1,-1,-1,-1,-1,-1,-1,-1,-1,-1,-1,-1,-1,-1,-1,-1,-1,-1,-1,-1,-1,-1,-1,-1,-1,-1,-1,-1,-1,-1,-1,-1,-1,-1,-1,-1,-1,-1,-1],"loss_changes":[5.717089E1,1.553776E1,1.8247772E1,8.547539E0,7.263159E0,9.878805E0,8.239403E0,3.0239983E0,6.8842497E0,4.4749107E0,5.920138E0,4.5846367E0,1.0812896E1,5.8545055E0,4.9230423E0,1.6402016E0,5.879055E0,1.6704033E1,4.316164E0,3.7453992E0,0E0,8.1486025E0,3.814516E0,0E0,3.111999E0,0E0,4.896141E0,5.539514E-1,0E0,7.7315693E0,1.0475147E1,2.0488224E0,1.2453651E0,1.4691696E0,3.6327772E0,4.1991673E0,5.2607045E0,2.9053059E0,4.6969113E0,1.596367E0,2.0979543E0,4.2976847E0,1.1201124E0,3.2929332E0,4.1136174E0,2.7310677E0,0E0,3.631597E0,0E0,0E0,0E0,3.196876E-1,5.2417355E0,1.2836552E0,8.749376E0,0E0,0E0,0E0,0E0,0E0,0E0,0E0,0E0,0E0,0E0,0E0,0E0,0E0,0E0,0E0,0E0,0E0,0E0,0E0,0E0,0E0,0E0,0E0,0E0,0E0,0E0,0E0,0E0,0E0,0E0,0E0,0E0,0E0,0E0,0E0,0E0,0E0,0E0,0E0,0E0],"parents":[2147483647,0,0,1,1,2,2,3,3,4,4,5,5,6,6,7,7,8,8,9,9,10,10,11,11,12,12,13,13,14,14,15,15,16,16,17,17,18,18,19,19,21,21,22,22,24,24,26,26,27,27,29,29,30,30,31,31,32,32,33,33,34,34,35,35,36,36,37,37,38,38,39,39,40,40,41,41,42,42,43,43,44,44,45,45,47,47,51,51,52,52,53,53,54,54],"right_children":[2,4,6,8,10,12,14,16,18,20,22,24,26,28,30,32,34,36,38,40,-1,42,44,-1,46,-1,48,50,-1,52,54,56,58,60,62,64,66,68,70,72,74,76,78,80,82,84,-1,86,-1,-1,-1,88,90,92,94,-1,-1,-1,-1,-1,-1,-1,-1,-1,-1,-1,-1,-1,-1,-1,-1,-1,-1,-1,-1,-1,-1,-1,-1,-1,-1,-1,-1,-1,-1,-1,-1,-1,-1,-1,-1,-1,-1,-1,-1],"split_conditions":[6.451E1,1.1311823E1,1.0024899E1,5.665962E0,5.722827E0,7.2729996E1,1.0091951E1,5.2345E1,5E-1,6.2999935E0,1.3531071E1,6.519E1,7.3305E1,5E-1,7.559E1,5E-1,5.342E1,5.756066E0,5.887897E0,5.537062E0,2.029269E-2,1.1625038E1,5.2183733E0,1.0590465E-2,5E-1,2.407602E-2,7.887898E0,5.9681826E0,2.4982605E-2,1.0141977E1,1.0386215E1,1.0785661E1,5E-1,1.0824871E1,5.5498285E0,5.5654297E0,5E-1,7.881011E0,5.709876E0,5.453787E0,6.1484404E0,5.4846525E0,1.2297553E1,1.38771305E1,5.599701E0,6.24576E0,6.588781E-3,5.988454E0,-7.959976E-3,4.7450978E-4,7.7856076E-3,5.9758177E0,6.9595E1,5E-1,1.0603736E1,-5.5896887E-3,2.5682175E-3,-6.277146E-4,-8.682559E-3,1.2741487E-2,-5.254685E-4,8.158978E-4,-5.418535E-3,-2.7366783E-5,2.2848174E-2,-4.202448E-3,1.3871398E-3,-5.5564875E-3,5.8892528E-3,3.3310028E-3,-2.727078E-3,3.169092E-3,-5.1392964E-3,1.16458135E-2,6.1256815E-6,-8.919012E-5,1.3551639E-2,-6.086509E-3,-2.5561387E-3,9.557186E-3,-4.4053462E-3,6.864078E-3,-6.4076437E-4,-4.6994025E-3,3.0011197E-3,8.576197E-4,7.3062535E-3,-1.425523E-3,-8.2471855E-3,6.0349833E-3,2.2054203E-3,1.6881566E-2,4.2991876E-3,-2.9489867E-4,7.3759262E-3],"split_indices":[8,2,2,3,0,8,2,8,5,3,2,8,8,4,8,5,8,3,3,0,0,2,1,0,6,0,0,0,0,2,2,2,7,2,1,0,7,0,0,0,3,1,2,2,1,3,0,0,0,0,0,1,8,6,2,0,0,0,0,0,0,0,0,0,0,0,0,0,0,0,0,0,0,0,0,0,0,0,0,0,0,0,0,0,0,0,0,0,0,0,0,0,0,0,0],"split_type":[0,0,0,0,0,0,0,0,0,0,0,0,0,0,0,0,0,0,0,0,0,0,0,0,0,0,0,0,0,0,0,0,0,0,0,0,0,0,0,0,0,0,0,0,0,0,0,0,0,0,0,0,0,0,0,0,0,0,0,0,0,0,0,0,0,0,0,0,0,0,0,0,0,0,0,0,0,0,0,0,0,0,0,0,0,0,0,0,0,0,0,0,0,0,0],"sum_hessian":[8.228712E2,4.7931042E2,3.435608E2,3.720897E2,1.0722073E2,1.02803856E2,2.4075694E2,1.2902206E2,2.4306763E2,1.6649483E1,9.057125E1,5.909453E1,4.370933E1,6.1006193E0,2.3465633E2,6.2021572E1,6.700049E1,7.3162796E1,1.6990483E2,1.5339171E1,1.310311E0,4.825401E1,4.2317238E1,1.4275031E0,5.7667023E1,1.3472773E0,4.2362057E1,3.6710498E0,2.4295695E0,1.5956271E2,7.50936E1,2.4396162E1,3.7625412E1,2.7468226E0,6.425366E1,3.96035E0,6.9202446E1,6.443211E1,1.0547272E2,7.417257E0,7.921915E0,8.282943E0,3.9971066E1,1.0681802E1,3.1635437E1,5.5655136E1,2.0118854E0,3.880678E1,3.555275E0,1.8609877E0,1.8100622E0,5.9729977E0,1.5358972E2,1.046365E1,6.462995E1,2.1422245E1,2.9739158E0,2.1977403E0,3.542767E1,1.6373996E0,1.109423E0,1.1000733E1,5.325293E1,1.0036005E0,2.9567497E0,2.6403185E1,4.279926E1,6.291569E1,1.51642E0,1.3984763E1,9.148795E1,4.309742E0,3.1075149E0,5.926154E0,1.9957609E0,5.0385084E0,3.244434E0,1.8212448E1,2.175862E1,1.0445664E0,9.637235E0,2.0921995E1,1.0713443E1,5.127556E1,4.379581E0,2.6556759E1,1.2250021E1,1.3282548E0,4.644743E0,5.8143917E1,9.54458E1,8.668414E0,1.795235E0,2.2609335E1,4.2020615E1],"tree_param":{"num_deleted":"0","num_feature":"9","num_nodes":"95","size_leaf_vector":"0"}},{"base_weights":[-2.6642666E-10,-2.2129461E-1,3.0690223E-1,-3.1737205E-1,1.10702686E-1,-4.1202284E-2,4.5436627E-1,-5.2450466E-1,-2.0606188E-1,6.899906E-1,-2.7157327E-3,-3.0403972E-1,3.1096134E-1,1.5077579E0,4.205124E-1,-6.8567455E-1,-3.6780363E-1,4.8062745E-2,-3.154941E-1,4.6195522E-1,1.995559E0,-2.3812734E-1,2.637575E-1,1.0468322E0,-3.5525426E-1,2.3621173E0,1.9151649E-1,4.9275607E-1,2.4387844E0,3.1924203E-1,6.281243E-1,-4.510288E-1,-8.226173E-1,8.5762364E-1,-4.3316346E-1,1.7845838E0,-7.700944E-2,8.3952826E-1,-3.3601326E-1,-5.045576E-2,8.902031E-1,6.062323E-1,-4.2521915E-1,-2.3215178E-1,4.3209085E-1,-4.0291944E-1,6.516633E-1,-2.7634925E-1,4.233675E-1,4.6998147E-2,7.701113E-1,-7.1365416E-1,3.6335114E-1,1.495955E0,4.6576735E-1,-5.5671644E-1,2.5453618E-1,-6.221659E-2,-8.671062E-1,1.2567288E0,-5.216048E-2,8.0875754E-2,-5.39498E-1,-2.8551624E-3,2.231401E0,-4.180663E-1,1.3702726E-1,1.3193765E0,-5.061005E-2,-4.0602386E-1,1.7711767E-3,3.1356186E-1,-5.118688E-1,1.1437699E0,8.8273967E-4,-8.099944E-2,1.2430996E0,-5.914135E-1,-2.3994014E-1,9.4643086E-1,-4.3863088E-1,6.7587E-1,-6.396241E-2,-4.9900702E-1,8.816336E-2,1.1168383E-1,-6.3696706E-1,1.7440891E-1,8.8536745E-1,-1.4213353E-1,-8.235524E-1,-2.9945904E-1,4.1278931E-1,2.0190425E0,9.6051484E-1,7.609581E-1,1.8659186E-2],"categories":[],"categories_nodes":[],"categories_segments":[],"categories_sizes":[],"default_left":[1,1,1,1,1,1,1,1,1,1,1,1,1,1,1,1,1,1,1,1,0,1,1,0,1,0,1,1,0,1,1,1,1,1,1,1,1,1,1,1,1,1,1,1,1,1,0,1,1,0,0,1,1,1,1,0,0,0,0,0,0,0,0,0,0,0,0,0,0,0,0,0,0,0,0,0,0,0,0,0,0,0,0,0,0,0,0,0,0,0,0,0,0,0,0,0,0],"id":5,"left_children":[1,3,5,7,9,11,13,15,17,19,21,23,25,27,29,31,33,35,37,39,-1,41,43,-1,45,-1,47,49,-1,51,53,55,57,59,61,63,65,67,69,71,73,75,77,79,81,83,-1,85,87,-1,-1,89,91,93,95,-1,-1,-1,-1,-1,-1,-1,-1,-1,-1,-1,-1,-1,-1,-1,-1,-1,-1,-1,-1,-1,-1,-1,-1,-1,-1,-1,-1,-1,-1,-1,-1,-1,-1,-1,-1,-1,-1,-1,-1,-1,-1],"loss_changes":[5.602175E1,1.5322977E1,1.7758842E1,8.468029E0,7.1181536E0,9.698052E0,8.025887E0,3.0151863E0,6.7894354E0,4.3590317E0,5.8072987E0,4.517179E0,1.0532382E1,5.5781536E0,4.7752953E0,1.6411457E0,5.7980814E0,1.6251083E1,4.3207073E0,3.6440961E0,0E0,8.021522E0,3.725555E0,0E0,3.0690522E0,0E0,4.8309774E0,5.431118E-1,0E0,7.5992203E0,1.0090254E1,2.027668E0,1.2426891E0,1.4330926E0,3.595811E0,4.0203934E0,5.1792674E0,1.459337E0,3.9770832E0,1.5736511E0,2.0258608E0,4.182761E0,1.1150184E0,3.2516444E0,4.0062084E0,2.7076817E0,0E0,2.170736E0,3.2331567E0,0E0,0E0,3.185544E-1,5.2081985E0,1.3134155E0,8.689419E0,0E0,0E0,0E0,0E0,0E0,0E0,0E0,0E0,0E0,0E0,0E0,0E0,0E0,0E0,0E0,0E0,0E0,0E0,0E0,0E0,0E0,0E0,0E0,0E0,0E0,0E0,0E0,0E0,0E0,0E0,0E0,0E0,0E0,0E0,0E0,0E0,0E0,0E0,0E0,0E0,0E0,0E0],"parents":[2147483647,0,0,1,1,2,2,3,3,4,4,5,5,6,6,7,7,8,8,9,9,10,10,11,11,12,12,13,13,14,14,15,15,16,16,17,17,18,18,19,19,21,21,22,22,24,24,26,26,27,27,29,29,30,30,31,31,32,32,33,33,34,34,35,35,36,36,37,37,38,38,39,39,40,40,41,41,42,42,43,43,44,44,45,45,47,47,48,48,51,51,52,52,53,53,54,54],"right_children":[2,4,6,8,10,12,14,16,18,20,22,24,26,28,30,32,34,36,38,40,-1,42,44,-1,46,-1,48,50,-1,52,54,56,58,60,62,64,66,68,70,72,74,76,78,80,82,84,-1,86,88,-1,-1,90,92,94,96,-1,-1,-1,-1,-1,-1,-1,-1,-1,-1,-1,-1,-1,-1,-1,-1,-1,-1,-1,-1,-1,-1,-1,-1,-1,-1,-1,-1,-1,-1,-1,-1,-1,-1,-1,-1,-1,-1,-1,-1,-1,-1],"split_conditions":[6.451E1,1.1311823E1,1.0024899E1,5.665962E0,5.722827E0,7.2729996E1,1.0091951E1,5.2345E1,5E-1,6.2999935E0,1.3531071E1,6.519E1,7.3305E1,5E-1,7.559E1,5E-1,5.342E1,5.756066E0,8.686777E0,5.537062E0,1.9955589E-2,1.1625038E1,5.2183733E0,1.0468322E-2,5E-1,2.3621172E-2,7.614E1,5.9681826E0,2.4387844E-2,1.0141977E1,1.0386215E1,1.0785661E1,5E-1,1.0824871E1,5.5498285E0,5.5654297E0,5E-1,6.435687E0,7.2276077E0,5.453787E0,6.1484404E0,5.4658284E0,1.2334403E1,1.38771305E1,5.599701E0,6.205782E0,6.516633E-3,7.5465E1,5.9807377E0,4.6998146E-4,7.701113E-3,5.9758177E0,5.155754E0,5.7429123E0,5.927377E0,-5.567164E-3,2.5453619E-3,-6.221659E-4,-8.671062E-3,1.2567287E-2,-5.216048E-4,8.087575E-4,-5.3949794E-3,-2.8551623E-5,2.2314008E-2,-4.180663E-3,1.3702726E-3,1.3193765E-2,-5.061005E-4,-4.0602386E-3,1.7711767E-5,3.1356185E-3,-5.1186876E-3,1.1437698E-2,8.827396E-6,-8.099944E-4,1.2430996E-2,-5.914135E-3,-2.3994013E-3,9.464309E-3,-4.3863086E-3,6.7586997E-3,-6.396241E-4,-4.99007E-3,8.816336E-4,1.1168383E-3,-6.3696704E-3,1.7440891E-3,8.853674E-3,-1.4213353E-3,-8.235524E-3,-2.9945904E-3,4.127893E-3,2.0190425E-2,9.605148E-3,7.6095806E-3,1.8659185E-4],"split_indices":[8,2,2,3,0,8,2,8,5,3,2,8,8,4,8,5,8,3,2,0,0,2,1,0,6,0,8,0,0,2,2,2,7,2,1,0,7,3,0,0,3,1,2,2,1,3,0,8,0,0,0,1,1,3,0,0,0,0,0,0,0,0,0,0,0,0,0,0,0,0,0,0,0,0,0,0,0,0,0,0,0,0,0,0,0,0,0,0,0,0,0,0,0,0,0,0,0],"split_type":[0,0,0,0,0,0,0,0,0,0,0,0,0,0,0,0,0,0,0,0,0,0,0,0,0,0,0,0,0,0,0,0,0,0,0,0,0,0,0,0,0,0,0,0,0,0,0,0,0,0,0,0,0,0,0,0,0,0,0,0,0,0,0,0,0,0,0,0,0,0,0,0,0,0,0,0,0,0,0,0,0,0,0,0,0,0,0,0,0,0,0,0,0,0,0,0,0],"sum_hessian":[8.228706E2,4.7828085E2,3.4458975E2,3.7096924E2,1.0731159E2,1.027524E2,2.4183734E2,1.2837302E2,2.4259624E2,1.673803E1,9.057356E1,5.891662E1,4.383579E1,6.1745267E0,2.3566283E2,6.162002E1,6.675299E1,7.319134E1,1.6940489E2,1.5401739E1,1.33629E0,4.8146057E1,4.2427505E1,1.4419721E0,5.7474648E1,1.3790126E0,4.2456776E1,3.685676E0,2.4888508E0,1.6010391E2,7.55589E1,2.429135E1,3.7328674E1,2.7662978E0,6.398669E1,4.025954E0,6.916538E1,2.2602699E0,1.6714462E2,7.413479E0,7.9882607E0,8.326707E0,3.981935E1,1.0655965E1,3.1771542E1,5.544964E1,2.02501E0,1.400445E1,2.8452326E1,1.8622189E0,1.8234574E0,5.935434E0,1.5416849E2,1.0613517E1,6.494539E1,2.1310223E1,2.9811277E0,2.1958513E0,3.513282E1,1.6577332E0,1.1085647E0,1.1008608E1,5.2978085E1,1.0038363E0,3.0221176E0,2.6301695E1,4.286369E1,1.1552776E0,1.1049924E0,1.3828177E2,2.8862865E1,4.3232303E0,3.0902486E0,5.9933076E0,1.9949532E0,4.424802E0,3.9019053E0,1.9835234E1,1.9984118E1,1.0543085E0,9.601656E0,2.105958E1,1.0711962E1,4.6362076E1,9.087561E0,7.0783167E0,6.926133E0,1.9384228E1,9.068098E0,1.3271215E0,4.608312E0,1.0350027E1,1.4381845E2,3.967115E0,6.646402E0,3.8695683E1,2.62497E1],"tree_param":{"num_deleted":"0","num_feature":"9","num_nodes":"97","size_leaf_vector":"0"}},{"base_weights":[-2.3908472E-10,-2.1961781E-1,3.030316E-1,-3.1530815E-1,1.0977002E-1,-4.074314E-2,4.4795457E-1,-5.22102E-1,-2.0451635E-1,6.816364E-1,-2.7448656E-3,-3.020222E-1,3.073746E-1,1.4822357E0,4.1452575E-1,-6.8362594E-1,-3.6548474E-1,4.764646E-2,-3.1346738E-1,3.7229502E-1,1.5775517E0,-2.3646498E-1,2.605909E-1,1.034798E0,-3.5317674E-1,2.3176987E0,1.8902324E-1,4.8813802E-1,2.381384E0,1.964079E0,3.9952075E-1,-4.4875666E-1,-8.21189E-1,8.480864E-1,-4.3082228E-1,1.7488176E0,-7.653603E-2,-5.1615095E-1,-1.8641444E-1,-3.9873738E-2,7.94611E-1,6.0180604E-1,2.261036E0,5.9850144E-1,-4.2305696E-1,-2.3045018E-1,4.2622858E-1,-4.007849E-1,6.445657E-1,2.9549387E-1,-7.9438525E-1,4.656013E-2,7.617866E-1,2.9204735E-1,6.184867E-1,-5.544858E-1,2.5229168E-1,-6.165851E-2,-8.659611E-1,1.239625E0,-5.1770706E-2,8.01821E-2,-5.3713506E-1,-2.9638116E-3,2.179876E0,-4.1590866E-1,1.353597E-1,-5.518285E-1,5.8434546E-1,3.3456278E-1,-2.6912042E-1,2.7341267E-1,-4.785966E-1,1.2817548E-1,1.3602021E0,-1.015992E-2,1.3108613E0,-2.545321E-2,-4.9343595E-1,9.3725145E-1,-4.3673676E-1,7.731872E-2,7.7641714E-1,-4.655949E-1,2.9652837E-1,8.323738E-2,7.1087843E-1,-7.0155203E-1,3.3283508E-1,1.4663137E0,4.5876706E-1],"categories":[],"categories_nodes":[],"categories_segments":[],"categories_sizes":[],"default_left":[1,1,1,1,1,1,1,1,1,1,1,1,1,1,1,1,1,1,1,1,1,1,1,0,1,0,1,1,0,0,1,1,1,1,1,1,1,1,1,1,1,0,0,1,1,1,1,1,0,1,0,0,0,1,1,0,0,0,0,0,0,0,0,0,0,0,0,0,0,0,0,0,0,0,0,0,0,0,0,0,0,0,0,0,0,0,0,0,0,0,0],"id":6,"left_children":[1,3,5,7,9,11,13,15,17,19,21,23,25,27,29,31,33,35,37,39,41,43,45,-1,47,-1,49,51,-1,-1,53,55,57,59,61,63,65,67,69,71,73,-1,-1,75,77,79,81,83,-1,85,-1,-1,-1,87,89,-1,-1,-1,-1,-1,-1,-1,-1,-1,-1,-1,-1,-1,-1,-1,-1,-1,-1,-1,-1,-1,-1,-1,-1,-1,-1,-1,-1,-1,-1,-1,-1,-1,-1,-1,-1],"loss_changes":[5.4896034E1,1.5108959E1,1.7286715E1,8.389904E0,6.976944E0,9.525317E0,7.8186226E0,3.0067177E0,6.694375E0,4.3530455E0,5.6979423E0,4.451112E0,1.0258686E1,5.3163214E0,4.741123E0,1.6419067E0,5.71813E0,1.58133545E1,4.2790565E0,2.5660188E0,1.48454E0,7.893744E0,3.6392527E0,0E0,3.0270925E0,0E0,4.7943764E0,5.324887E-1,0E0,0E0,5.388111E0,2.0068774E0,1.2400436E0,1.3979888E0,3.559143E0,3.8510056E0,5.0994034E0,2.8706722E0,4.6574483E0,1.2744828E0,2.5542865E0,0E0,0E0,4.0767717E0,1.1254935E0,3.2108984E0,3.9605522E0,2.6801968E0,0E0,3.4695385E0,0E0,0E0,0E0,6.7429924E0,9.755934E0,0E0,0E0,0E0,0E0,0E0,0E0,0E0,0E0,0E0,0E0,0E0,0E0,0E0,0E0,0E0,0E0,0E0,0E0,0E0,0E0,0E0,0E0,0E0,0E0,0E0,0E0,0E0,0E0,0E0,0E0,0E0,0E0,0E0,0E0,0E0,0E0],"parents":[2147483647,0,0,1,1,2,2,3,3,4,4,5,5,6,6,7,7,8,8,9,9,10,10,11,11,12,12,13,13,14,14,15,15,16,16,17,17,18,18,19,19,20,20,21,21,22,22,24,24,26,26,27,27,30,30,31,31,32,32,33,33,34,34,35,35,36,36,37,37,38,38,39,39,40,40,43,43,44,44,45,45,46,46,47,47,49,49,53,53,54,54],"right_children":[2,4,6,8,10,12,14,16,18,20,22,24,26,28,30,32,34,36,38,40,42,44,46,-1,48,-1,50,52,-1,-1,54,56,58,60,62,64,66,68,70,72,74,-1,-1,76,78,80,82,84,-1,86,-1,-1,-1,88,90,-1,-1,-1,-1,-1,-1,-1,-1,-1,-1,-1,-1,-1,-1,-1,-1,-1,-1,-1,-1,-1,-1,-1,-1,-1,-1,-1,-1,-1,-1,-1,-1,-1,-1,-1,-1],"split_conditions":[6.451E1,1.1311823E1,1.0024899E1,5.665962E0,5.722827E0,7.2729996E1,1.0091951E1,5.2345E1,5E-1,5.9295E1,1.3531071E1,6.519E1,7.3305E1,5E-1,5.368212E0,5E-1,5.342E1,5.756066E0,5.887897E0,5.5524807E0,5.6713552E0,1.1625038E1,5.2183733E0,1.034798E-2,5E-1,2.3176987E-2,7.887898E0,5.9681826E0,2.3813838E-2,1.964079E-2,7.559E1,1.0785661E1,5E-1,1.0824871E1,5.5498285E0,5.5654297E0,5E-1,7.881011E0,5.709876E0,5.459697E0,5.8067455E0,6.0180603E-3,2.2610359E-2,5.4846525E0,1.1939814E1,1.38771305E1,5E-1,6.24576E0,6.445657E-3,5.988454E0,-7.943853E-3,4.656013E-4,7.6178657E-3,1.0141977E1,1.0386215E1,-5.544858E-3,2.5229168E-3,-6.165851E-4,-8.6596105E-3,1.239625E-2,-5.17707E-4,8.0182095E-4,-5.3713503E-3,-2.9638115E-5,2.179876E-2,-4.1590864E-3,1.353597E-3,-5.518285E-3,5.8434545E-3,3.3456278E-3,-2.6912042E-3,2.7341268E-3,-4.7859657E-3,1.2817548E-3,1.360202E-2,-1.01599195E-4,1.3108613E-2,-2.545321E-4,-4.9343593E-3,9.372515E-3,-4.3673674E-3,7.731872E-4,7.7641713E-3,-4.655949E-3,2.9652836E-3,8.323738E-4,7.1087843E-3,-7.0155202E-3,3.3283506E-3,1.4663137E-2,4.5876703E-3],"split_indices":[8,2,2,3,0,8,2,8,5,8,2,8,8,4,3,5,8,3,3,0,1,2,1,0,6,0,0,0,0,0,8,2,7,2,1,0,7,0,0,0,3,0,0,1,2,2,6,3,0,0,0,0,0,2,2,0,0,0,0,0,0,0,0,0,0,0,0,0,0,0,0,0,0,0,0,0,0,0,0,0,0,0,0,0,0,0,0,0,0,0,0],"split_type":[0,0,0,0,0,0,0,0,0,0,0,0,0,0,0,0,0,0,0,0,0,0,0,0,0,0,0,0,0,0,0,0,0,0,0,0,0,0,0,0,0,0,0,0,0,0,0,0,0,0,0,0,0,0,0,0,0,0,0,0,0,0,0,0,0,0,0,0,0,0,0,0,0,0,0,0,0,0,0,0,0,0,0,0,0,0,0,0,0,0,0],"sum_hessian":[8.2286993E2,4.7725876E2,3.4561118E2,3.6985504E2,1.0740372E2,1.0270395E2,2.4290724E2,1.2773119E2,2.4212384E2,1.6825994E1,9.057772E1,5.8745243E1,4.395871E1,6.248229E0,2.3665901E2,6.1224083E1,6.650711E1,7.3220535E1,1.689033E2,1.3559666E1,3.2663295E0,4.804133E1,4.2536392E1,1.4563973E0,5.7288845E1,1.4108428E0,4.2547867E1,3.7001908E0,2.5480382E0,1.0239259E0,2.3563509E2,2.4188261E1,3.703582E1,2.7857046E0,6.372141E1,4.091302E0,6.9129234E1,6.3901222E1,1.0500208E2,7.320572E0,6.239094E0,2.1201248E0,1.1462048E0,8.371737E0,3.966959E1,1.063049E1,3.1905903E1,5.5250813E1,2.0380337E0,3.9022537E1,3.52533E0,1.8634105E0,1.8367802E0,1.5962251E2,7.601257E1,2.1200026E1,2.9882357E0,2.193954E0,3.4841866E1,1.678005E0,1.1076995E0,1.1016267E1,5.2705143E1,1.0040524E0,3.0872495E0,2.6201714E1,4.2927517E1,6.237754E1,1.523684E0,1.3968326E1,9.103376E1,4.4906526E0,2.8299193E0,3.4273148E0,2.8117793E0,5.046012E0,3.325724E0,6.1706076E0,3.3498985E1,1.0640284E0,9.566462E0,1.6593643E1,1.5312261E1,5.08564E1,4.3944125E0,2.6620281E1,1.2402255E1,5.6554E0,1.5396712E2,1.0752956E1,6.525961E1],"tree_param":{"num_deleted":"0","num_feature":"9","num_nodes":"91","size_leaf_vector":"0"}},{"base_weights":[4.6997434E-10,-2.1794575E-1,2.9921344E-1,-3.1327608E-1,1.0901264E-1,-4.030531E-2,4.4165936E-1,-5.1970613E-1,-2.0301622E-1,6.7445993E-1,-2.7172223E-3,-2.999688E-1,3.0368927E-1,1.457108E0,4.0865174E-1,-6.815651E-1,-3.6319768E-1,4.7209516E-2,-3.114856E-1,3.685766E-1,1.5554836E0,-2.347479E-1,2.5749943E-1,1.0228226E0,-3.5106134E-1,2.2741315E0,1.8643399E-1,4.834849E-1,2.3257263E0,1.9358131E0,3.9379802E-1,-4.4648218E-1,-8.197464E-1,8.385571E-1,-4.2850584E-1,1.7138913E0,-7.6079756E-2,8.3696264E-1,-3.3205357E-1,-3.9634757E-2,7.8435266E-1,5.959118E-1,2.2230117E0,5.9109294E-1,-4.2085844E-1,-2.2874694E-1,4.2050692E-1,-3.986106E-1,6.374988E-1,2.916436E-1,-7.9313165E-1,4.608781E-2,7.534739E-1,2.8802946E-1,6.086627E-1,-5.522442E-1,2.5001636E-1,-6.1150167E-2,-8.648014E-1,1.2227045E0,-5.1423717E-2,7.943428E-2,-5.3478587E-1,-3.0955002E-3,2.1299074E0,-4.1374838E-1,1.3367969E-1,1.3104132E0,-4.888677E-2,-4.0201432E-1,3.9026162E-3,2.7049384E-1,-4.765842E-1,1.2713379E-1,1.3371973E0,-8.1037514E-2,1.2033193E0,-6.033832E-1,-2.4864319E-1,9.2808354E-1,-4.3482977E-1,6.580195E-1,-6.633673E-2,-4.9465388E-1,8.788679E-2,8.213774E-2,6.9933313E-1,-6.998656E-1,3.282245E-1,1.4343776E0,4.5183566E-1],"categories":[],"categories_nodes":[],"categories_segments":[],"categories_sizes":[],"default_left":[1,1,1,1,1,1,1,1,1,1,1,1,1,1,1,1,1,1,1,1,1,1,1,0,1,0,1,1,0,0,1,1,1,1,1,1,1,1,1,1,1,0,0,1,1,1,1,1,0,1,0,0,0,1,1,0,0,0,0,0,0,0,0,0,0,0,0,0,0,0,0,0,0,0,0,0,0,0,0,0,0,0,0,0,0,0,0,0,0,0,0],"id":7,"left_children":[1,3,5,7,9,11,13,15,17,19,21,23,25,27,29,31,33,35,37,39,41,43,45,-1,47,-1,49,51,-1,-1,53,55,57,59,61,63,65,67,69,71,73,-1,-1,75,77,79,81,83,-1,85,-1,-1,-1,87,89,-1,-1,-1,-1,-1,-1,-1,-1,-1,-1,-1,-1,-1,-1,-1,-1,-1,-1,-1,-1,-1,-1,-1,-1,-1,-1,-1,-1,-1,-1,-1,-1,-1,-1,-1,-1],"loss_changes":[5.379161E1,1.4909443E1,1.682994E1,8.310741E0,6.855219E0,9.350072E0,7.6152077E0,2.9974823E0,6.6011763E0,4.251176E0,5.589661E0,4.385252E0,9.992712E0,5.0680504E0,4.651085E0,1.6425495E0,5.638687E0,1.5387861E1,4.279772E0,2.5089176E0,1.4316206E0,7.769664E0,3.5554285E0,0E0,2.9851851E0,0E0,4.7290697E0,5.220686E-1,0E0,0E0,5.2243805E0,1.9859929E0,1.237215E0,1.3638446E0,3.5223417E0,3.6900473E0,5.0200534E0,1.4333465E0,3.9302769E0,1.2561542E0,2.475348E0,0E0,0E0,3.971868E0,1.1235905E0,3.1702554E0,3.8638916E0,2.6624098E0,0E0,3.3711054E0,0E0,0E0,0E0,6.6275682E0,9.385107E0,0E0,0E0,0E0,0E0,0E0,0E0,0E0,0E0,0E0,0E0,0E0,0E0,0E0,0E0,0E0,0E0,0E0,0E0,0E0,0E0,0E0,0E0,0E0,0E0,0E0,0E0,0E0,0E0,0E0,0E0,0E0,0E0,0E0,0E0,0E0,0E0],"parents":[2147483647,0,0,1,1,2,2,3,3,4,4,5,5,6,6,7,7,8,8,9,9,10,10,11,11,12,12,13,13,14,14,15,15,16,16,17,17,18,18,19,19,20,20,21,21,22,22,24,24,26,26,27,27,30,30,31,31,32,32,33,33,34,34,35,35,36,36,37,37,38,38,39,39,40,40,43,43,44,44,45,45,46,46,47,47,49,49,53,53,54,54],"right_children":[2,4,6,8,10,12,14,16,18,20,22,24,26,28,30,32,34,36,38,40,42,44,46,-1,48,-1,50,52,-1,-1,54,56,58,60,62,64,66,68,70,72,74,-1,-1,76,78,80,82,84,-1,86,-1,-1,-1,88,90,-1,-1,-1,-1,-1,-1,-1,-1,-1,-1,-1,-1,-1,-1,-1,-1,-1,-1,-1,-1,-1,-1,-1,-1,-1,-1,-1,-1,-1,-1,-1,-1,-1,-1,-1,-1],"split_conditions":[6.451E1,1.1311823E1,1.0024899E1,5.665962E0,5.722827E0,7.2729996E1,1.0091951E1,5.2345E1,5E-1,5.9295E1,1.3531071E1,6.519E1,7.3305E1,5E-1,5.368212E0,5E-1,5.342E1,5.756066E0,8.686777E0,5.5524807E0,5.6713552E0,1.1625038E1,5.2183733E0,1.0228226E-2,5E-1,2.2741314E-2,7.887898E0,5.9681826E0,2.3257263E-2,1.935813E-2,7.559E1,1.0785661E1,5E-1,1.0824871E1,5.5498285E0,5.5654297E0,5E-1,6.435687E0,7.2276077E0,5.459697E0,5.8067455E0,5.959118E-3,2.2230117E-2,5.4658284E0,1.2297553E1,1.38771305E1,5.599701E0,6.205782E0,6.374988E-3,5.988454E0,-7.931316E-3,4.6087807E-4,7.5347386E-3,1.0141977E1,1.0386215E1,-5.5224416E-3,2.5001636E-3,-6.1150163E-4,-8.648014E-3,1.2227045E-2,-5.1423715E-4,7.9434284E-4,-5.3478586E-3,-3.0955E-5,2.1299073E-2,-4.137484E-3,1.3367969E-3,1.3104132E-2,-4.888677E-4,-4.020143E-3,3.9026163E-5,2.7049384E-3,-4.7658416E-3,1.2713379E-3,1.3371972E-2,-8.1037515E-4,1.2033192E-2,-6.0338317E-3,-2.4864317E-3,9.280835E-3,-4.3482976E-3,6.5801945E-3,-6.633673E-4,-4.9465387E-3,8.7886787E-4,8.213774E-4,6.993331E-3,-6.998656E-3,3.282245E-3,1.4343775E-2,4.5183566E-3],"split_indices":[8,2,2,3,0,8,2,8,5,8,2,8,8,4,3,5,8,3,2,0,1,2,1,0,6,0,0,0,0,0,8,2,7,2,1,0,7,3,0,0,3,0,0,1,2,2,1,3,0,0,0,0,0,2,2,0,0,0,0,0,0,0,0,0,0,0,0,0,0,0,0,0,0,0,0,0,0,0,0,0,0,0,0,0,0,0,0,0,0,0,0],"split_type":[0,0,0,0,0,0,0,0,0,0,0,0,0,0,0,0,0,0,0,0,0,0,0,0,0,0,0,0,0,0,0,0,0,0,0,0,0,0,0,0,0,0,0,0,0,0,0,0,0,0,0,0,0,0,0,0,0,0,0,0,0,0,0,0,0,0,0,0,0,0,0,0,0,0,0,0,0,0,0,0,0,0,0,0,0,0,0,0,0,0,0],"sum_hessian":[8.2286914E2,4.7624557E2,3.4662357E2,3.6876703E2,1.0747853E2,1.0265742E2,2.4396614E2,1.2709833E2,2.4166872E2,1.690227E1,9.057626E1,5.8572266E1,4.4085155E1,6.322284E0,2.3764386E2,6.0831932E1,6.6266396E1,7.325138E1,1.6841734E2,1.3599128E1,3.3031425E0,4.793306E1,4.2643204E1,1.4709221E0,5.7101345E1,1.4429008E0,4.2642254E1,3.7149067E0,2.6073778E0,1.0434E0,2.3660046E2,2.4086145E1,3.674579E1,2.8052955E0,6.3461098E1,4.156775E0,6.9094604E1,2.2648194E0,1.6615251E2,7.318477E0,6.28065E0,2.1316333E0,1.171509E0,8.415291E0,3.951777E1,1.0605132E1,3.203807E1,5.5050232E1,2.0511124E0,3.914065E1,3.5016031E0,1.864697E0,1.8502097E0,1.6012057E2,7.647988E1,2.109068E1,2.9954674E0,2.1922274E0,3.455356E1,1.6983657E0,1.1069298E0,1.1024539E1,5.2436558E1,1.0043148E0,3.1524603E0,2.610253E1,4.2992073E1,1.163632E0,1.1011873E0,1.37353E2,2.8799526E1,4.503225E0,2.8152528E0,3.431392E0,2.8492582E0,4.4249783E0,3.990312E0,1.7969202E1,2.1548565E1,1.0738282E0,9.531303E0,2.1296644E1,1.0741426E1,4.5960117E1,9.090115E0,2.6648062E1,1.2492589E1,5.6185565E0,1.5450201E2,1.0906978E1,6.557291E1],"tree_param":{"num_deleted":"0","num_feature":"9","num_nodes":"91","size_leaf_vector":"0"}},{"base_weights":[8.7947194E-10,-2.1627977E-1,2.9544732E-1,-3.1123492E-1,1.0818617E-1,-3.9891787E-2,4.3548065E-1,-5.1730675E-1,-2.0149769E-1,6.673443E-1,-2.763592E-3,-2.9794613E-1,3.0005163E-1,1.4325154E0,4.02888E-1,-6.7949694E-1,-3.6091146E-1,4.677905E-2,-3.0947882E-1,4.451279E-1,1.9328386E0,-2.3310894E-1,2.5438994E-1,1.0110017E0,-3.489731E-1,2.4968488E0,1.9380893E-1,4.788837E-1,2.2718909E0,1.9079378E0,3.8818377E-1,-4.4420907E-1,-8.182953E-1,8.291297E-1,-4.2618683E-1,1.679906E0,-7.5618975E-2,-5.1219696E-1,-1.8288974E-1,-5.0965525E-2,8.517956E-1,5.8353746E-1,-4.186997E-1,-2.2703655E-1,4.1478163E-1,-3.9646056E-1,6.305202E-1,2.9742032E-1,-7.9188126E-1,4.5624018E-2,7.452705E-1,2.8408462E-1,5.990513E-1,-5.499997E-1,2.4776079E-1,-6.064849E-2,-8.6363405E-1,1.2060524E0,-5.1080775E-2,7.869454E-2,-5.3242964E-1,-3.2218664E-3,2.0815692E0,-4.1158566E-1,1.3202815E-1,-5.480189E-1,5.796215E-1,3.3580133E-1,-2.6558197E-1,3.033347E-1,-5.073673E-1,1.1529338E0,8.747738E-2,-1.1364627E-2,1.2682936E0,-2.0200463E-2,-4.8948252E-1,9.190051E-1,-4.3291038E-1,7.291497E-2,7.5553393E-1,-4.9238348E-1,8.683553E-2,7.02912E-1,8.013734E-2,-6.9817173E-1,3.2369918E-1,1.4034898E0,4.450437E-1],"categories":[],"categories_nodes":[],"categories_segments":[],"categories_sizes":[],"default_left":[1,1,1,1,1,1,1,1,1,1,1,1,1,1,1,1,1,1,1,1,0,1,1,0,1,0,1,1,0,0,1,1,1,1,1,1,1,1,1,1,1,1,1,1,1,1,0,1,0,0,0,1,1,0,0,0,0,0,0,0,0,0,0,0,0,0,0,0,0,0,0,0,0,0,0,0,0,0,0,0,0,0,0,0,0,0,0,0,0],"id":8,"left_children":[1,3,5,7,9,11,13,15,17,19,21,23,25,27,29,31,33,35,37,39,-1,41,43,-1,45,-1,47,49,-1,-1,51,53,55,57,59,61,63,65,67,69,71,73,75,77,79,81,-1,83,-1,-1,-1,85,87,-1,-1,-1,-1,-1,-1,-1,-1,-1,-1,-1,-1,-1,-1,-1,-1,-1,-1,-1,-1,-1,-1,-1,-1,-1,-1,-1,-1,-1,-1,-1,-1,-1,-1,-1,-1],"loss_changes":[5.2708485E1,1.4706499E1,1.6388464E1,8.232994E0,6.7367916E0,9.178776E0,7.417343E0,2.9881516E0,6.507905E0,4.195451E0,5.484098E0,4.320425E0,1.0067963E1,4.832387E0,4.562256E0,1.6430874E0,5.5600843E0,1.4975332E1,4.241316E0,3.3908346E0,0E0,7.6452665E0,3.4725003E0,0E0,2.9439259E0,0E0,4.7505455E0,5.118569E-1,0E0,0E0,5.0663757E0,1.96526E0,1.2343426E0,1.3305907E0,3.4857283E0,3.5371237E0,4.941879E0,2.8356915E0,4.6161957E0,1.5151054E0,2.0107784E0,3.8681214E0,1.1288528E0,3.1299806E0,3.809111E0,2.6320686E0,0E0,3.5323381E0,0E0,0E0,0E0,6.5146084E0,9.031656E0,0E0,0E0,0E0,0E0,0E0,0E0,0E0,0E0,0E0,0E0,0E0,0E0,0E0,0E0,0E0,0E0,0E0,0E0,0E0,0E0,0E0,0E0,0E0,0E0,0E0,0E0,0E0,0E0,0E0,0E0,0E0,0E0,0E0,0E0,0E0,0E0],"parents":[2147483647,0,0,1,1,2,2,3,3,4,4,5,5,6,6,7,7,8,8,9,9,10,10,11,11,12,12,13,13,14,14,15,15,16,16,17,17,18,18,19,19,21,21,22,22,24,24,26,26,27,27,30,30,31,31,32,32,33,33,34,34,35,35,36,36,37,37,38,38,39,39,40,40,41,41,42,42,43,43,44,44,45,45,47,47,51,51,52,52],"right_children":[2,4,6,8,10,12,14,16,18,20,22,24,26,28,30,32,34,36,38,40,-1,42,44,-1,46,-1,48,50,-1,-1,52,54,56,58,60,62,64,66,68,70,72,74,76,78,80,82,-1,84,-1,-1,-1,86,88,-1,-1,-1,-1,-1,-1,-1,-1,-1,-1,-1,-1,-1,-1,-1,-1,-1,-1,-1,-1,-1,-1,-1,-1,-1,-1,-1,-1,-1,-1,-1,-1,-1,-1,-1,-1],"split_conditions":[6.451E1,1.1311823E1,1.0024899E1,5.665962E0,5.722827E0,7.2729996E1,1.0091951E1,5.2345E1,5E-1,6.2999935E0,1.3531071E1,6.519E1,7.319E1,5E-1,5.368212E0,5E-1,5.342E1,5.756066E0,5.887897E0,5.537062E0,1.9328386E-2,1.1625038E1,5.2183733E0,1.0110017E-2,5E-1,2.4968488E-2,7.887898E0,5.9681826E0,2.2718908E-2,1.9079378E-2,7.559E1,1.0785661E1,5E-1,1.0824871E1,5.5498285E0,5.5654297E0,5E-1,7.881011E0,5.709876E0,5.453787E0,6.1328335E0,5.4846525E0,1.1939814E1,1.38771305E1,5E-1,6.205782E0,6.305202E-3,5.749384E0,-7.918812E-3,4.5624017E-4,7.452705E-3,1.0141977E1,1.0386215E1,-5.499997E-3,2.477608E-3,-6.064849E-4,-8.6363405E-3,1.2060524E-2,-5.1080773E-4,7.8694534E-4,-5.324296E-3,-3.2218664E-5,2.0815691E-2,-4.1158567E-3,1.3202814E-3,-5.4801884E-3,5.796215E-3,3.3580132E-3,-2.6558195E-3,3.033347E-3,-5.073673E-3,1.1529339E-2,8.747738E-4,-1.1364627E-4,1.2682936E-2,-2.0200462E-4,-4.894825E-3,9.190051E-3,-4.3291035E-3,7.2914973E-4,7.555339E-3,-4.9238345E-3,8.6835533E-4,7.0291194E-3,8.013734E-4,-6.9817174E-3,3.2369916E-3,1.4034898E-2,4.450437E-3],"split_indices":[8,2,2,3,0,8,2,8,5,3,2,8,8,4,3,5,8,3,3,0,0,2,1,0,6,0,0,0,0,0,8,2,7,2,1,0,7,0,0,0,3,1,2,2,6,3,0,3,0,0,0,2,2,0,0,0,0,0,0,0,0,0,0,0,0,0,0,0,0,0,0,0,0,0,0,0,0,0,0,0,0,0,0,0,0,0,0,0,0],"split_type":[0,0,0,0,0,0,0,0,0,0,0,0,0,0,0,0,0,0,0,0,0,0,0,0,0,0,0,0,0,0,0,0,0,0,0,0,0,0,0,0,0,0,0,0,0,0,0,0,0,0,0,0,0,0,0,0,0,0,0,0,0,0,0,0,0,0,0,0,0,0,0,0,0,0,0,0,0,0,0,0,0,0,0,0,0,0,0,0,0],"sum_hessian":[8.2286816E2,4.7524036E2,3.476278E2,3.676795E2,1.0756085E2,1.0261347E2,2.4501434E2,1.2647061E2,2.412089E2,1.6978544E1,9.058231E1,5.8402847E1,4.4210625E1,6.396242E0,2.386181E2,6.0443134E1,6.602747E1,7.3281784E1,1.6792711E2,1.5592328E1,1.386216E0,4.7831097E1,4.2751213E1,1.4854287E0,5.691742E1,1.001481E0,4.3209145E1,3.729549E0,2.666693E0,1.0629754E0,2.3755513E2,2.398488E1,3.6458256E1,2.8248773E0,6.32026E1,4.2221203E0,6.905966E1,6.338195E1,1.0454516E2,7.417907E0,8.17442E0,8.460136E0,3.937096E1,1.0579781E1,3.2171432E1,5.4853283E1,2.0641387E0,3.9731052E1,3.478091E0,1.8659613E0,1.8635876E0,1.6061258E2,7.694254E1,2.0982218E1,3.0026624E0,2.1905255E0,3.426773E1,1.7187077E0,1.1061696E0,1.1032733E1,5.2169865E1,1.0045667E0,3.2175536E0,2.6003942E1,4.305572E1,6.1850727E1,1.5312207E0,1.3954432E1,9.059073E1,4.3648753E0,3.053032E0,5.49928E0,2.6751406E0,5.0533195E0,3.4068167E0,6.1322837E0,3.3238674E1,1.0836245E0,9.496156E0,1.6665457E1,1.5505977E1,4.5753487E1,9.099797E0,1.3082186E1,2.6648869E1,5.581958E0,1.5503062E2,1.105983E1,6.588271E1],"tree_param":{"num_deleted":"0","num_feature":"9","num_nodes":"89","size_leaf_vector":"0"}},{"base_weights":[5.990739E-10,-2.1463238E-1,2.9175928E-1,-3.0920684E-1,1.0734313E-1,-3.945553E-2,4.2942962E-1,-5.1490223E-1,-2.0000204E-1,6.593879E-1,-2.7229441E-3,-2.9593417E-1,2.965511E-1,1.4085394E0,3.9724413E-1,-6.774202E-1,-3.5862386E-1,4.636003E-2,-3.0749878E-1,3.5818285E-1,1.5256034E0,-2.314019E-1,2.5140738E-1,9.993842E-1,-3.468938E-1,2.4544933E0,1.9118159E-1,4.743668E-1,2.2199624E0,1.8805541E0,3.8268718E-1,-4.4193304E-1,-8.168352E-1,8.19869E-1,-4.2386457E-1,1.6469718E0,-7.515297E-2,8.342655E-1,-3.281131E-1,-4.107817E-2,7.6037174E-1,5.884643E-1,2.170123E0,5.763791E-1,-4.1650152E-1,-2.2534974E-1,4.0928727E-1,-2.0992564E-1,-7.3418236E-1,2.9357126E-1,-7.906389E-1,4.5189507E-2,7.3720413E-1,2.8022256E-1,5.8965814E-1,-5.477502E-1,2.4555388E-1,-9.0734565E-1,-3.5435766E-1,1.189741E0,-5.07228E-2,7.798685E-2,-5.300681E-1,-3.3288484E-3,2.0349717E0,-4.0942818E-1,1.3041475E-1,1.3013812E0,-4.7210474E-2,-3.9801508E-1,5.9858253E-3,2.611509E-1,-4.7266775E-1,1.1617063E-1,1.3038692E0,-8.1040666E-2,1.1652052E0,-5.84875E-1,-2.2946435E-1,9.157494E-1,-4.3134716E-1,6.407494E-1,-6.858699E-2,-3.061041E-1,9.7828585E-1,-7.8341967E-1,-1.1819855E-1,7.805155E-2,6.969614E-1,-6.9646853E-1,3.192689E-1,1.3737018E0,4.3838915E-1],"categories":[],"categories_nodes":[],"categories_segments":[],"categories_sizes":[],"default_left":[1,1,1,1,1,1,1,1,1,1,1,1,1,1,1,1,1,1,1,1,1,1,1,0,1,0,1,1,0,0,1,1,1,1,1,1,1,1,1,1,1,0,0,1,1,1,1,1,1,1,0,0,0,1,1,0,0,0,0,0,0,0,0,0,0,0,0,0,0,0,0,0,0,0,0,0,0,0,0,0,0,0,0,0,0,0,0,0,0,0,0,0,0],"id":9,"left_children":[1,3,5,7,9,11,13,15,17,19,21,23,25,27,29,31,33,35,37,39,41,43,45,-1,47,-1,49,51,-1,-1,53,55,57,59,61,63,65,67,69,71,73,-1,-1,75,77,79,81,83,85,87,-1,-1,-1,89,91,-1,-1,-1,-1,-1,-1,-1,-1,-1,-1,-1,-1,-1,-1,-1,-1,-1,-1,-1,-1,-1,-1,-1,-1,-1,-1,-1,-1,-1,-1,-1,-1,-1,-1,-1,-1,-1,-1],"loss_changes":[5.1653996E1,1.4504873E1,1.5958948E1,8.154514E0,6.603167E0,9.013067E0,7.225773E0,2.9787445E0,6.416768E0,4.16676E0,5.3802557E0,4.2567315E0,9.838507E0,4.6090965E0,4.4750443E0,1.6435585E0,5.4827166E0,1.4576973E1,4.2384167E0,2.3934348E0,1.3528032E0,7.525323E0,3.3932343E0,0E0,2.908517E0,0E0,4.6861634E0,5.018287E-1,0E0,0E0,4.91383E0,1.9447808E0,1.2345104E0,1.2982435E0,3.449545E0,3.3921556E0,4.8651996E0,1.4077072E0,3.883318E0,1.2101117E0,2.4323125E0,0E0,0E0,3.7731004E0,1.1324449E0,3.1111345E0,3.727295E0,5.3337045E0,3.5274506E-1,3.4971728E0,0E0,0E0,0E0,6.404129E0,8.696146E0,0E0,0E0,0E0,0E0,0E0,0E0,0E0,0E0,0E0,0E0,0E0,0E0,0E0,0E0,0E0,0E0,0E0,0E0,0E0,0E0,0E0,0E0,0E0,0E0,0E0,0E0,0E0,0E0,0E0,0E0,0E0,0E0,0E0,0E0,0E0,0E0,0E0,0E0],"parents":[2147483647,0,0,1,1,2,2,3,3,4,4,5,5,6,6,7,7,8,8,9,9,10,10,11,11,12,12,13,13,14,14,15,15,16,16,17,17,18,18,19,19,20,20,21,21,22,22,24,24,26,26,27,27,30,30,31,31,32,32,33,33,34,34,35,35,36,36,37,37,38,38,39,39,40,40,43,43,44,44,45,45,46,46,47,47,48,48,49,49,53,53,54,54],"right_children":[2,4,6,8,10,12,14,16,18,20,22,24,26,28,30,32,34,36,38,40,42,44,46,-1,48,-1,50,52,-1,-1,54,56,58,60,62,64,66,68,70,72,74,-1,-1,76,78,80,82,84,86,88,-1,-1,-1,90,92,-1,-1,-1,-1,-1,-1,-1,-1,-1,-1,-1,-1,-1,-1,-1,-1,-1,-1,-1,-1,-1,-1,-1,-1,-1,-1,-1,-1,-1,-1,-1,-1,-1,-1,-1,-1,-1,-1],"split_conditions":[6.451E1,1.1311823E1,1.0024899E1,5.665962E0,5.722827E0,7.2729996E1,1.0091951E1,5.2345E1,5E-1,5.9295E1,1.3531071E1,6.519E1,7.319E1,5E-1,5.368212E0,5E-1,5.342E1,5.756066E0,8.686777E0,5.5524807E0,5.6713552E0,1.1625038E1,5.2183733E0,9.993842E-3,9.905441E0,2.4544932E-2,7.887898E0,5.9681826E0,2.2199623E-2,1.8805541E-2,7.559E1,1.0785661E1,6.4556303E0,1.0824871E1,5.5498285E0,5.5654297E0,5E-1,6.435687E0,7.2276077E0,5.459697E0,5.8067455E0,5.884643E-3,2.170123E-2,5.4658284E0,1.2334403E1,4.293E1,5.599701E0,6.24576E0,7.6100674E0,5.988454E0,-7.906389E-3,4.5189506E-4,7.3720412E-3,1.0141977E1,1.0386215E1,-5.4775015E-3,2.4555388E-3,-9.073457E-3,-3.5435765E-3,1.189741E-2,-5.07228E-4,7.798685E-4,-5.300681E-3,-3.3288485E-5,2.0349717E-2,-4.0942817E-3,1.3041475E-3,1.3013812E-2,-4.7210473E-4,-3.980151E-3,5.9858252E-5,2.6115088E-3,-4.726677E-3,1.1617063E-3,1.3038692E-2,-8.1040664E-4,1.1652052E-2,-5.8487495E-3,-2.2946435E-3,9.157494E-3,-4.3134717E-3,6.4074937E-3,-6.858699E-4,-3.0610408E-3,9.782858E-3,-7.834196E-3,-1.1819855E-3,7.805155E-4,6.969614E-3,-6.9646854E-3,3.192689E-3,1.3737018E-2,4.3838914E-3],"split_indices":[8,2,2,3,0,8,2,8,5,8,2,8,8,4,3,5,8,3,2,0,1,2,1,0,2,0,0,0,0,0,8,2,0,2,1,0,7,3,0,0,3,0,0,1,2,8,1,3,0,0,0,0,0,2,2,0,0,0,0,0,0,0,0,0,0,0,0,0,0,0,0,0,0,0,0,0,0,0,0,0,0,0,0,0,0,0,0,0,0,0,0,0,0],"split_type":[0,0,0,0,0,0,0,0,0,0,0,0,0,0,0,0,0,0,0,0,0,0,0,0,0,0,0,0,0,0,0,0,0,0,0,0,0,0,0,0,0,0,0,0,0,0,0,0,0,0,0,0,0,0,0,0,0,0,0,0,0,0,0,0,0,0,0,0,0,0,0,0,0,0,0,0,0,0,0,0,0,0,0,0,0,0,0,0,0,0,0,0,0],"sum_hessian":[8.228671E2,4.7425003E2,3.4861713E2,3.6660583E2,1.0764417E2,1.02567665E2,2.4604945E2,1.2584757E2,2.4075827E2,1.706459E1,9.057958E1,5.8235184E1,4.433248E1,6.4697957E0,2.3957967E2,6.0057495E1,6.579008E1,7.331135E1,1.6744693E2,1.3710578E1,3.3540113E0,4.7724327E1,4.285526E1,1.4998524E0,5.673533E1,1.0260049E0,4.3306477E1,3.7440119E0,2.725784E0,1.0825739E0,2.3849709E2,2.3884274E1,3.617322E1,2.8443096E0,6.2945763E1,4.287043E0,6.902431E1,2.2696157E0,1.651773E2,7.3309045E0,6.3796735E0,2.1462975E0,1.2077141E0,8.503011E0,3.9221313E1,1.0554873E1,3.2300385E1,4.305173E1,1.3683599E1,3.985153E1,3.4549458E0,1.8671467E0,1.8768651E0,1.6109708E2,7.740001E1,2.0874546E1,3.009727E0,2.9448084E1,6.7251377E0,1.7389328E0,1.1053767E0,1.1040581E1,5.190518E1,1.0047798E0,3.2822635E0,2.5906256E1,4.311805E1,1.1721163E0,1.0974994E0,1.364394E2,2.87379E1,4.5438757E0,2.7870288E0,3.4747913E0,2.9048824E0,4.4249535E0,4.0780573E0,1.9521101E1,1.9700214E1,1.0871712E0,9.467702E0,2.1530895E1,1.076949E1,4.0514698E1,2.5370345E0,1.2419089E1,1.2645103E0,2.6752129E1,1.3099401E1,5.5455585E0,1.5555153E2,1.1211E1,6.6189E1],"tree_param":{"num_deleted":"0","num_feature":"9","num_nodes":"93","size_leaf_vector":"0"}},{"base_weights":[7.97059E-10,-2.129841E-1,2.88106E-1,-3.071814E-1,1.0653926E-1,-3.9067376E-2,4.2348006E-1,-5.125112E-1,-1.9849388E-1,6.524908E-1,-2.7588867E-3,-2.939797E-1,2.93091E-1,1.3850762E0,3.9169553E-1,-6.7535406E-1,-3.5634574E-1,-3.0962455E-1,3.921477E-2,3.546387E-1,1.5043726E0,-2.2977263E-1,2.4839675E-1,9.879204E-1,-3.4486708E-1,2.412888E0,1.8858919E-1,4.6988806E-1,2.1697457E0,1.8535862E0,3.772841E-1,-4.3966123E-1,-8.1538165E-1,8.1069916E-1,-4.2154777E-1,6.7282397E-1,-3.2945898E-1,3.7555853E-1,-1.2162592E-1,-4.082089E-2,7.507138E-1,5.8274925E-1,2.1338525E0,5.690716E-1,-4.143431E-1,-2.2366376E-1,4.0377784E-1,-3.9241546E-1,6.2604225E-1,2.8977472E-1,-7.893842E-1,4.474416E-2,7.29251E-1,2.764175E-1,5.804639E-1,-5.454999E-1,2.433637E-1,-9.064788E-1,-3.5241452E-1,1.1736811E0,-5.0373778E-2,7.727912E-2,-5.277067E-1,1.7028686E0,-5.780524E-1,-3.5768306E-1,6.7454106E-1,-1.3186274E-1,1.4893473E0,-2.0333748E-1,6.172815E-1,2.5840524E-1,-4.7065938E-1,1.1525788E-1,1.2822208E0,-1.2507503E-2,1.2277526E0,-1.5088181E-2,-4.8551548E-1,9.113152E-1,-4.2970783E-1,6.869999E-2,7.355181E-1,-4.8822433E-1,8.607171E-2,6.8732816E-1,7.5793505E-2,-6.9476485E-1,3.1490752E-1,1.3448755E0,4.31864E-1],"categories":[],"categories_nodes":[],"categories_segments":[],"categories_sizes":[],"default_left":[1,1,1,1,1,1,1,1,1,1,1,1,1,1,1,1,1,1,1,1,1,1,1,0,1,0,1,1,0,0,1,1,1,1,1,1,1,1,1,1,1,0,0,1,1,1,1,1,0,1,0,0,0,1,1,0,0,0,0,0,0,0,0,0,0,0,0,0,0,0,0,0,0,0,0,0,0,0,0,0,0,0,0,0,0,0,0,0,0,0,0],"id":10,"left_children":[1,3,5,7,9,11,13,15,17,19,21,23,25,27,29,31,33,35,37,39,41,43,45,-1,47,-1,49,51,-1,-1,53,55,57,59,61,63,65,67,69,71,73,-1,-1,75,77,79,81,83,-1,85,-1,-1,-1,87,89,-1,-1,-1,-1,-1,-1,-1,-1,-1,-1,-1,-1,-1,-1,-1,-1,-1,-1,-1,-1,-1,-1,-1,-1,-1,-1,-1,-1,-1,-1,-1,-1,-1,-1,-1,-1],"loss_changes":[5.0615425E1,1.4307224E1,1.5544992E1,8.078247E0,6.4895487E0,8.851885E0,7.039631E0,2.9695358E0,6.386629E0,4.0692043E0,5.27884E0,4.1942134E0,9.613839E0,4.3973923E0,4.3892593E0,1.6441269E0,5.406188E0,3.4280272E0,4.252361E0,2.3408003E0,1.3038454E0,7.4050217E0,3.3148062E0,0E0,2.9028978E0,0E0,4.6226587E0,4.920671E-1,0E0,0E0,4.766941E0,1.9244509E0,1.2365589E0,1.2667522E0,3.4135618E0,5.603362E0,4.8307076E0,1.4551724E1,3.3472652E0,1.1928422E0,2.3584223E0,0E0,0E0,3.6726465E0,1.1314859E0,3.0879772E0,3.6655917E0,2.5857143E0,0E0,3.4332275E0,0E0,0E0,0E0,6.2960606E0,8.376221E0,0E0,0E0,0E0,0E0,0E0,0E0,0E0,0E0,0E0,0E0,0E0,0E0,0E0,0E0,0E0,0E0,0E0,0E0,0E0,0E0,0E0,0E0,0E0,0E0,0E0,0E0,0E0,0E0,0E0,0E0,0E0,0E0,0E0,0E0,0E0,0E0],"parents":[2147483647,0,0,1,1,2,2,3,3,4,4,5,5,6,6,7,7,8,8,9,9,10,10,11,11,12,12,13,13,14,14,15,15,16,16,17,17,18,18,19,19,20,20,21,21,22,22,24,24,26,26,27,27,30,30,31,31,32,32,33,33,34,34,35,35,36,36,37,37,38,38,39,39,40,40,43,43,44,44,45,45,46,46,47,47,49,49,53,53,54,54],"right_children":[2,4,6,8,10,12,14,16,18,20,22,24,26,28,30,32,34,36,38,40,42,44,46,-1,48,-1,50,52,-1,-1,54,56,58,60,62,64,66,68,70,72,74,-1,-1,76,78,80,82,84,-1,86,-1,-1,-1,88,90,-1,-1,-1,-1,-1,-1,-1,-1,-1,-1,-1,-1,-1,-1,-1,-1,-1,-1,-1,-1,-1,-1,-1,-1,-1,-1,-1,-1,-1,-1,-1,-1,-1,-1,-1,-1],"split_conditions":[6.451E1,1.1311823E1,1.0024899E1,5.665962E0,5.722827E0,7.2729996E1,1.0091951E1,5.2345E1,5.7905E1,5.9295E1,1.3531071E1,6.519E1,7.319E1,5E-1,5.368212E0,5E-1,5.342E1,8.686777E0,1.0058504E1,5.5524807E0,5.6713552E0,1.1625038E1,5.2183733E0,9.8792035E-3,5E-1,2.412888E-2,7.887898E0,5.9681826E0,2.1697456E-2,1.8535862E-2,7.559E1,1.0785661E1,6.4556303E0,1.0824871E1,5.5498285E0,6.65862E0,6.797659E0,9.467725E0,5E-1,5.459697E0,5.8067455E0,5.8274926E-3,2.1338524E-2,5.4846525E0,1.1939814E1,1.38771305E1,5E-1,6.205782E0,6.2604225E-3,5.749384E0,-7.893842E-3,4.474416E-4,7.29251E-3,1.0141977E1,1.0386215E1,-5.454999E-3,2.433637E-3,-9.064788E-3,-3.524145E-3,1.1736811E-2,-5.0373777E-4,7.727912E-4,-5.2770665E-3,1.7028686E-2,-5.780524E-3,-3.5768305E-3,6.7454106E-3,-1.3186274E-3,1.4893473E-2,-2.0333747E-3,6.172815E-3,2.5840523E-3,-4.7065937E-3,1.1525787E-3,1.2822208E-2,-1.2507502E-4,1.2277526E-2,-1.5088181E-4,-4.8551545E-3,9.113152E-3,-4.297078E-3,6.8699993E-4,7.355181E-3,-4.882243E-3,8.6071703E-4,6.8732817E-3,7.5793505E-4,-6.9476482E-3,3.1490752E-3,1.3448754E-2,4.3186396E-3],"split_indices":[8,2,2,3,0,8,2,8,8,8,2,8,8,4,3,5,8,2,2,0,1,2,1,0,6,0,0,0,0,0,8,2,0,2,1,3,3,2,6,0,3,0,0,1,2,2,6,3,0,3,0,0,0,2,2,0,0,0,0,0,0,0,0,0,0,0,0,0,0,0,0,0,0,0,0,0,0,0,0,0,0,0,0,0,0,0,0,0,0,0,0],"split_type":[0,0,0,0,0,0,0,0,0,0,0,0,0,0,0,0,0,0,0,0,0,0,0,0,0,0,0,0,0,0,0,0,0,0,0,0,0,0,0,0,0,0,0,0,0,0,0,0,0,0,0,0,0,0,0,0,0,0,0,0,0,0,0,0,0,0,0,0,0,0,0,0,0,0,0,0,0,0,0,0,0,0,0,0,0,0,0,0,0,0,0],"sum_hessian":[8.2286597E2,4.7326367E2,3.4960226E2,3.6553925E2,1.0772442E2,1.0252653E2,2.4707574E2,1.2523427E2,2.4030498E2,1.7139858E1,9.0584564E1,5.8073456E1,4.4453075E1,6.543206E0,2.4053253E2,5.967894E1,6.555533E1,1.6354422E2,7.676076E1,1.3748967E1,3.390891E0,4.7623726E1,4.296084E1,1.5142502E0,5.6559204E1,1.0506862E0,4.3402386E1,3.7584398E0,2.7847664E0,1.102242E0,2.394303E2,2.3784676E1,3.5894264E1,2.8637462E0,6.269158E1,2.5849154E0,1.609593E2,2.4400473E1,5.2360283E1,7.328646E0,6.420321E0,2.1576428E0,1.2332484E0,8.54719E0,3.9076534E1,1.0530093E1,3.2430744E1,5.4486656E1,2.0725496E0,3.9970554E1,3.4318345E0,1.8683628E0,1.8900771E0,1.615773E2,7.7853E1,2.0767914E1,3.0167627E0,2.9192196E1,6.7020693E0,1.7591418E0,1.1046044E0,1.1048439E1,5.1643143E1,1.2194275E0,1.365488E0,1.5718434E2,3.7749655E0,1.7369062E1,7.0314097E0,4.779925E1,4.5610332E0,4.55593E0,2.7727163E0,3.47844E0,2.941881E0,5.0602646E0,3.4869246E0,6.095374E0,3.2981163E1,1.0919962E0,9.438097E0,1.6734735E1,1.5696011E1,4.537978E1,9.106874E0,1.32120075E1,2.6758545E1,5.509547E0,1.5606775E2,1.1360943E1,6.649206E1],"tree_param":{"num_deleted":"0","num_feature":"9","num_nodes":"91","size_leaf_vector":"0"}},{"base_weights":[9.1444835E-10,-2.1133812E-1,2.8449297E-1,-3.0516496E-1,1.0579468E-1,-3.8673904E-2,4.1760787E-1,-5.1013124E-1,-1.9698775E-1,6.456777E-1,-2.7363808E-3,-2.9200578E-1,2.8963727E-1,1.3621536E0,3.862174E-1,-6.732916E-1,-3.5408494E-1,4.7830272E-2,-3.041794E-1,4.2906713E-1,1.8723516E0,-2.280973E-1,2.4547914E-1,9.766334E-1,-3.4282058E-1,2.3720574E0,1.8600136E-1,4.654576E-1,2.121246E0,3.542612E-1,9.967274E-1,-4.3740875E-1,-8.1392574E-1,8.0165225E-1,-4.192445E-1,1.6108835E0,-7.2802424E-2,-5.0726503E-1,-1.778729E-1,-9.3160026E-2,7.861359E-1,5.621119E-1,-4.1216055E-1,-2.2202198E-1,3.984586E-1,-2.056998E-1,-7.318694E-1,2.860086E-1,-7.8814906E-1,4.4290774E-2,7.214249E-1,3.8125113E-1,-2.0744236E-1,5.071741E-1,2.0939505E0,-5.432637E-1,2.411957E-1,-5.417467E-2,-8.6018175E-1,1.1579014E0,-5.002141E-2,7.657897E-2,-5.2535415E-1,-1.798038E-3,1.9819515E0,-4.0583834E-1,1.3081416E-1,-6.685093E-1,-2.1563989E-1,3.387377E-1,-2.606468E-1,2.935449E-1,-6.979522E-1,9.5827204E-1,-1.6570894E-1,-8.105352E-2,1.1288584E0,-5.9702903E-1,-2.383561E-1,9.0788984E-1,-4.2816404E-1,6.24156E-1,-7.0773706E-2,-3.0174336E-1,9.6462005E-1,-7.8120637E-1,-1.2113918E-1,7.408132E-2,6.805771E-1,4.437078E-1,1.1676237E-1,-4.718957E-1,7.11785E-1,1.915959E0,-1.6773039E-1,4.4606265E-1,2.7071617E0],"categories":[],"categories_nodes":[],"categories_segments":[],"categories_sizes":[],"default_left":[1,1,1,1,1,1,1,1,1,1,1,1,1,1,1,1,1,1,1,1,0,1,1,0,1,0,1,1,0,1,1,1,1,1,1,1,1,1,1,1,1,1,1,1,1,1,1,1,0,0,0,1,1,1,1,0,0,0,0,0,0,0,0,0,0,0,0,0,0,0,0,0,0,0,0,0,0,0,0,0,0,0,0,0,0,0,0,0,0,0,0,0,0,0,0,0,0],"id":11,"left_children":[1,3,5,7,9,11,13,15,17,19,21,23,25,27,29,31,33,35,37,39,-1,41,43,-1,45,-1,47,49,-1,51,53,55,57,59,61,63,65,67,69,71,73,75,77,79,81,83,85,87,-1,-1,-1,89,91,93,95,-1,-1,-1,-1,-1,-1,-1,-1,-1,-1,-1,-1,-1,-1,-1,-1,-1,-1,-1,-1,-1,-1,-1,-1,-1,-1,-1,-1,-1,-1,-1,-1,-1,-1,-1,-1,-1,-1,-1,-1,-1,-1],"loss_changes":[4.959434E1,1.4115078E1,1.5140629E1,8.003273E0,6.3767123E0,8.691619E0,6.8595695E0,2.9601974E0,6.335164E0,4.036508E0,5.1790066E0,4.1325274E0,9.394396E0,4.1968966E0,4.377598E0,1.6445103E0,5.3307676E0,1.41095085E1,4.2100925E0,3.2019217E0,0E0,7.28885E0,3.2398086E0,0E0,2.9106002E0,0E0,4.560607E0,4.8257864E-1,0E0,3.59585E0,5.1203527E0,1.9043655E0,1.240303E0,1.2360885E0,3.3779573E0,3.2111034E0,4.789563E0,2.8533077E0,4.574106E0,2.0074818E0,1.8088799E0,3.5870342E0,1.140697E0,3.0687418E0,3.5980673E0,5.2164164E0,3.441701E-1,3.3855035E0,0E0,0E0,0E0,3.610279E0,3.0786653E0,9.143074E0,2.0576859E0,0E0,0E0,0E0,0E0,0E0,0E0,0E0,0E0,0E0,0E0,0E0,0E0,0E0,0E0,0E0,0E0,0E0,0E0,0E0,0E0,0E0,0E0,0E0,0E0,0E0,0E0,0E0,0E0,0E0,0E0,0E0,0E0,0E0,0E0,0E0,0E0,0E0,0E0,0E0,0E0,0E0,0E0],"parents":[2147483647,0,0,1,1,2,2,3,3,4,4,5,5,6,6,7,7,8,8,9,9,10,10,11,11,12,12,13,13,14,14,15,15,16,16,17,17,18,18,19,19,21,21,22,22,24,24,26,26,27,27,29,29,30,30,31,31,32,32,33,33,34,34,35,35,36,36,37,37,38,38,39,39,40,40,41,41,42,42,43,43,44,44,45,45,46,46,47,47,51,51,52,52,53,53,54,54],"right_children":[2,4,6,8,10,12,14,16,18,20,22,24,26,28,30,32,34,36,38,40,-1,42,44,-1,46,-1,48,50,-1,52,54,56,58,60,62,64,66,68,70,72,74,76,78,80,82,84,86,88,-1,-1,-1,90,92,94,96,-1,-1,-1,-1,-1,-1,-1,-1,-1,-1,-1,-1,-1,-1,-1,-1,-1,-1,-1,-1,-1,-1,-1,-1,-1,-1,-1,-1,-1,-1,-1,-1,-1,-1,-1,-1,-1,-1,-1,-1,-1,-1],"split_conditions":[6.451E1,1.1311823E1,1.0024899E1,5.665962E0,5.722827E0,7.2729996E1,1.0091951E1,5.2345E1,5E-1,6.2999935E0,1.3531071E1,6.519E1,7.319E1,5E-1,8.2027645E0,5E-1,5.342E1,5.756066E0,5.887897E0,5.5146723E0,1.8723516E-2,1.1625038E1,5.2183733E0,9.766334E-3,9.905441E0,2.3720574E-2,7.887898E0,5.9681826E0,2.121246E-2,7.8322897E0,5.789899E0,1.0785661E1,5E-1,1.0824871E1,5.5498285E0,5.5654297E0,5E-1,6.053663E0,5.709876E0,5.453787E0,1.433726E1,5.4658284E0,1.2297553E1,4.293E1,5.599701E0,6.24576E0,7.6100674E0,5.988454E0,-7.8814905E-3,4.4290774E-4,7.2142486E-3,1.1557906E1,1.0616415E1,8.573992E0,8.49859E0,-5.4326365E-3,2.411957E-3,-5.417467E-4,-8.601817E-3,1.1579013E-2,-5.002141E-4,7.6578965E-4,-5.2535413E-3,-1.798038E-5,1.9819515E-2,-4.0583834E-3,1.3081416E-3,-6.685093E-3,-2.156399E-3,3.387377E-3,-2.6064678E-3,2.935449E-3,-6.979522E-3,9.58272E-3,-1.6570895E-3,-8.1053516E-4,1.1288584E-2,-5.9702904E-3,-2.3835609E-3,9.0788985E-3,-4.28164E-3,6.24156E-3,-7.0773705E-4,-3.0174335E-3,9.646201E-3,-7.8120637E-3,-1.2113918E-3,7.4081315E-4,6.805771E-3,4.437078E-3,1.1676237E-3,-4.718957E-3,7.1178502E-3,1.9159589E-2,-1.6773039E-3,4.4606263E-3,2.7071616E-2],"split_indices":[8,2,2,3,0,8,2,8,5,3,2,8,8,4,1,5,8,3,3,0,0,2,1,0,2,0,0,0,0,1,3,2,7,2,1,0,7,0,0,0,2,1,2,8,1,3,0,0,0,0,0,2,2,1,1,0,0,0,0,0,0,0,0,0,0,0,0,0,0,0,0,0,0,0,0,0,0,0,0,0,0,0,0,0,0,0,0,0,0,0,0,0,0,0,0,0,0],"split_type":[0,0,0,0,0,0,0,0,0,0,0,0,0,0,0,0,0,0,0,0,0,0,0,0,0,0,0,0,0,0,0,0,0,0,0,0,0,0,0,0,0,0,0,0,0,0,0,0,0,0,0,0,0,0,0,0,0,0,0,0,0,0,0,0,0,0,0,0,0,0,0,0,0,0,0,0,0,0,0,0,0,0,0,0,0,0,0,0,0,0,0,0,0,0,0,0,0],"sum_hessian":[8.2286475E2,4.722826E2,3.5058215E2,3.6448413E2,1.0779847E2,1.0248525E2,2.4809691E2,1.24629524E2,2.398546E2,1.7214827E1,9.058364E1,5.7910706E1,4.4574547E1,6.61633E0,2.4148058E2,5.9305576E1,6.532395E1,7.320757E1,1.6664702E2,1.57784E1,1.4364264E0,4.7520065E1,4.3063576E1,1.5285887E0,5.638212E1,1.0754994E0,4.349905E1,3.7727985E0,2.8435316E0,2.3097102E2,1.0509556E1,2.3686665E1,3.561891E1,2.8831153E0,6.2440834E1,4.3600626E0,6.884751E1,6.27448E1,1.03902214E2,6.7075067E0,9.070894E0,8.589639E0,3.8930428E1,1.050605E1,3.2557526E1,4.281917E1,1.3562947E1,4.0089794E1,3.409255E0,1.8696017E0,1.9031968E0,2.2068819E2,1.0282841E1,8.278245E0,2.2313104E0,2.0662914E1,3.023751E0,2.1687403E0,3.345017E1,1.7792904E0,1.103825E0,1.1056222E1,5.1384613E1,1.0017142E0,3.3583486E0,2.5745289E1,4.3102222E1,3.957229E1,2.3172514E1,1.3921661E1,8.998055E1,4.405353E0,2.3021536E0,7.675981E0,1.394913E0,4.4249835E0,4.164655E0,1.7684795E1,2.1245632E1,1.0957574E0,9.410293E0,2.1760645E1,1.0796882E1,4.025756E1,2.56161E0,1.2290909E1,1.2720385E0,2.685397E1,1.3235824E1,1.7798177E2,4.2706417E1,8.363404E0,1.9194362E0,2.0857093E0,6.192536E0,1.07361E0,1.1577004E0],"tree_param":{"num_deleted":"0","num_feature":"9","num_nodes":"97","size_leaf_vector":"0"}},{"base_weights":[-2.8133657E-10,-2.0975229E-1,2.8104505E-1,-3.0317417E-1,1.0484163E-1,-3.8307466E-2,4.120243E-1,-5.077233E-1,-1.9554575E-1,6.375556E-1,-2.7723056E-3,-2.9007733E-1,2.8625616E-1,1.3397957E0,3.8102144E-1,-6.7119676E-1,-3.5180944E-1,-3.0607232E-1,3.978448E-2,3.448142E-1,1.4718806E0,-2.2649795E-1,2.4257128E-1,9.655268E-1,-3.4081593E-1,2.3320272E0,1.8347742E-1,4.6110624E-1,2.0744047E0,1.8228879E0,3.6680084E-1,-4.3514E-1,-8.124429E-1,7.927679E-1,-4.169255E-1,6.722373E-1,-3.2594764E-1,3.7198138E-1,-1.1982968E-1,-4.3285698E-2,7.305908E-1,5.742682E-1,2.077752E0,5.5505824E-1,-4.1002423E-1,-5.633372E-1,3.2665953E-1,-2.041586E-1,-7.3016673E-1,2.8233436E-1,-7.8691584E-1,4.388071E-2,7.1370107E-1,2.679188E-1,5.654954E-1,-5.4101104E-1,2.390871E-1,-9.0478945E-1,-3.468893E-1,1.142451E0,-4.9657438E-2,7.591513E-2,-5.229845E-1,1.6864083E0,-5.7582843E-1,-3.5419366E-1,6.7077273E-1,-1.2939246E-1,1.4532409E0,-2.0114653E-1,6.100819E-1,2.4946351E-1,-4.6806884E-1,1.0619769E-1,1.2538469E0,-8.078432E-2,1.1104404E0,-9.882423E-3,-4.8159876E-1,1.4970678E-1,1.0538192E0,-2.9990274E-1,9.51743E-1,-7.796859E-1,-1.2073249E-1,6.722832E-1,7.1542494E-2,-6.939593E-1,3.0570886E-1,1.3079416E0,4.2015234E-1],"categories":[],"categories_nodes":[],"categories_segments":[],"categories_sizes":[],"default_left":[1,1,1,1,1,1,1,1,1,1,1,1,1,1,1,1,1,1,1,1,1,1,1,0,1,0,1,1,0,0,1,1,1,1,1,1,1,1,1,1,1,0,0,1,1,0,1,1,1,1,0,0,0,1,1,0,0,0,0,0,0,0,0,0,0,0,0,0,0,0,0,0,0,0,0,0,0,0,0,0,0,0,0,0,0,0,0,0,0,0,0],"id":12,"left_children":[1,3,5,7,9,11,13,15,17,19,21,23,25,27,29,31,33,35,37,39,41,43,45,-1,47,-1,49,51,-1,-1,53,55,57,59,61,63,65,67,69,71,73,-1,-1,75,77,-1,79,81,83,85,-1,-1,-1,87,89,-1,-1,-1,-1,-1,-1,-1,-1,-1,-1,-1,-1,-1,-1,-1,-1,-1,-1,-1,-1,-1,-1,-1,-1,-1,-1,-1,-1,-1,-1,-1,-1,-1,-1,-1,-1],"loss_changes":[4.8625572E1,1.3913876E1,1.4761274E1,7.924141E0,6.244341E0,8.53618E0,6.682579E0,2.950428E0,6.265683E0,3.9633164E0,5.0821905E0,4.072059E0,9.179732E0,4.006695E0,4.321827E0,1.6446838E0,5.2564335E0,3.4022608E0,4.165456E0,2.25593E0,1.2261076E0,7.1730185E0,3.177069E0,0E0,2.89493E0,0E0,4.4999967E0,4.731779E-1,0E0,0E0,4.6082916E0,1.8845172E0,1.2485485E0,1.2062862E0,3.3426743E0,5.5102916E0,4.7736607E0,1.3993885E1,3.2834203E0,1.1551285E0,2.3193355E0,0E0,0E0,3.4914813E0,1.134788E0,0E0,5.0697703E0,5.125594E0,3.4270382E-1,3.3389754E0,0E0,0E0,0E0,6.161125E0,8.040173E0,0E0,0E0,0E0,0E0,0E0,0E0,0E0,0E0,0E0,0E0,0E0,0E0,0E0,0E0,0E0,0E0,0E0,0E0,0E0,0E0,0E0,0E0,0E0,0E0,0E0,0E0,0E0,0E0,0E0,0E0,0E0,0E0,0E0,0E0,0E0,0E0],"parents":[2147483647,0,0,1,1,2,2,3,3,4,4,5,5,6,6,7,7,8,8,9,9,10,10,11,11,12,12,13,13,14,14,15,15,16,16,17,17,18,18,19,19,20,20,21,21,22,22,24,24,26,26,27,27,30,30,31,31,32,32,33,33,34,34,35,35,36,36,37,37,38,38,39,39,40,40,43,43,44,44,46,46,47,47,48,48,49,49,53,53,54,54],"right_children":[2,4,6,8,10,12,14,16,18,20,22,24,26,28,30,32,34,36,38,40,42,44,46,-1,48,-1,50,52,-1,-1,54,56,58,60,62,64,66,68,70,72,74,-1,-1,76,78,-1,80,82,84,86,-1,-1,-1,88,90,-1,-1,-1,-1,-1,-1,-1,-1,-1,-1,-1,-1,-1,-1,-1,-1,-1,-1,-1,-1,-1,-1,-1,-1,-1,-1,-1,-1,-1,-1,-1,-1,-1,-1,-1,-1],"split_conditions":[6.451E1,1.1311823E1,1.0024899E1,5.665962E0,5.722827E0,7.2729996E1,1.0091951E1,5.2345E1,5.7905E1,5.9295E1,1.3531071E1,6.519E1,7.319E1,5E-1,5.368212E0,5E-1,5.342E1,8.686777E0,1.0058504E1,5.5524807E0,5.6713552E0,1.1625038E1,5.035687E0,9.655268E-3,9.905441E0,2.332027E-2,7.887898E0,5.9681826E0,2.0744046E-2,1.822888E-2,7.559E1,1.0785661E1,6.4556303E0,1.0824871E1,5.5498285E0,6.65862E0,6.797659E0,9.467725E0,5E-1,5.459697E0,5.8067455E0,5.742682E-3,2.077752E-2,5.4658284E0,1.1939814E1,-5.633372E-3,6.1471853E0,6.24576E0,7.6100674E0,5.749384E0,-7.869158E-3,4.3880707E-4,7.1370103E-3,1.0141977E1,1.0386215E1,-5.41011E-3,2.390871E-3,-9.047895E-3,-3.4688928E-3,1.142451E-2,-4.965744E-4,7.5915124E-4,-5.2298447E-3,1.6864082E-2,-5.758284E-3,-3.5419364E-3,6.707727E-3,-1.2939245E-3,1.4532409E-2,-2.0114651E-3,6.100819E-3,2.494635E-3,-4.6806885E-3,1.0619769E-3,1.2538468E-2,-8.078432E-4,1.1104403E-2,-9.882423E-5,-4.8159873E-3,1.4970677E-3,1.0538192E-2,-2.9990273E-3,9.517429E-3,-7.796859E-3,-1.2073249E-3,6.7228316E-3,7.1542495E-4,-6.939593E-3,3.0570885E-3,1.3079415E-2,4.2015235E-3],"split_indices":[8,2,2,3,0,8,2,8,8,8,2,8,8,4,3,5,8,2,2,0,1,2,1,0,2,0,0,0,0,0,8,2,0,2,1,3,3,2,6,0,3,0,0,1,2,0,3,3,0,3,0,0,0,2,2,0,0,0,0,0,0,0,0,0,0,0,0,0,0,0,0,0,0,0,0,0,0,0,0,0,0,0,0,0,0,0,0,0,0,0,0],"split_type":[0,0,0,0,0,0,0,0,0,0,0,0,0,0,0,0,0,0,0,0,0,0,0,0,0,0,0,0,0,0,0,0,0,0,0,0,0,0,0,0,0,0,0,0,0,0,0,0,0,0,0,0,0,0,0,0,0,0,0,0,0,0,0,0,0,0,0,0,0,0,0,0,0,0,0,0,0,0,0,0,0,0,0,0,0,0,0,0,0,0,0],"sum_hessian":[8.228634E2,4.7134116E2,3.5152225E2,3.6344788E2,1.0789328E2,1.0244622E2,2.4907603E2,1.2402312E2,2.3942477E2,1.7305008E1,9.058827E1,5.7752678E1,4.469354E1,6.6890306E0,2.4238701E2,5.893044E1,6.5092674E1,1.6270648E2,7.6718285E1,1.385645E1,3.4485574E0,4.742178E1,4.3166492E1,1.5428584E0,5.620982E1,1.1004156E0,4.3593124E1,3.7869856E0,2.9020452E0,1.1250879E0,2.4126192E2,2.3588696E1,3.5341743E1,2.902326E0,6.219035E1,2.5861762E0,1.601203E2,2.4466625E1,5.2251656E1,7.3499904E0,6.506459E0,2.174631E0,1.2739263E0,8.633056E0,3.8788723E1,3.5399516E0,3.962654E1,4.273479E1,1.3475028E1,4.020624E1,3.3868814E0,1.8707232E0,1.9162624E0,1.6266078E2,7.8601135E1,2.0558125E1,3.030571E0,2.8704494E1,6.6372504E0,1.7993056E0,1.1030207E0,1.1063609E1,5.112674E1,1.2330166E0,1.3531597E0,1.563346E2,3.7857184E0,1.7317112E1,7.1495137E0,4.7665802E1,4.5858536E0,4.595572E0,2.7544184E0,3.5150096E0,2.9914494E0,4.4233828E0,4.209673E0,6.058179E0,3.2730545E1,3.2840706E1,6.7858367E0,4.0149708E1,2.5850816E0,1.2204038E1,1.2709907E0,1.3339628E1,2.6866613E1,5.4926157E0,1.5716817E2,1.1558517E1,6.704262E1],"tree_param":{"num_deleted":"0","num_feature":"9","num_nodes":"91","size_leaf_vector":"0"}},{"base_weights":[-8.595546E-10,-2.0812479E-1,2.775395E-1,-3.011608E-1,1.0404609E-1,-3.7952844E-2,4.063751E-1,-5.053355E-1,-1.9404203E-1,5.6319577E-1,-1.8624594E-2,-2.881633E-1,2.8290856E-1,1.3179106E0,3.7575325E-1,-6.6911626E-1,-3.495529E-1,4.9283408E-2,-3.0093542E-1,3.1126627E-1,1.9052949E0,4.9787897E-1,-1.0527864E-1,9.545764E-1,-3.3882332E-1,2.292712E0,1.8098423E-1,4.567954E-1,2.029049E0,3.4419206E-1,9.78351E-1,-4.3288425E-1,-8.109674E-1,7.839655E-1,-4.1462082E-1,1.5759984E0,-7.046664E-2,-5.039539E-1,-1.7508423E-1,5.5169374E-1,-2.6173976E-1,9.778248E-1,-2.863215E-1,-5.101875E-1,3.486613E-2,-2.0263427E-1,-7.2845906E-1,2.78704E-1,-7.856687E-1,4.3447886E-2,7.0611143E-1,3.7060544E-1,-2.0854244E-1,4.9811783E-1,2.0460405E0,-5.3876454E-1,2.3697765E-1,-9.0390617E-1,-3.449639E-1,1.1272207E0,-4.9298633E-2,7.5247645E-2,-5.2062345E-1,2.3213506E-1,1.9994168E0,-4.0225914E-1,1.3122353E-1,-6.656849E-1,-2.1284834E-1,3.364775E-1,-2.5754693E-1,-2.7506458E-2,1.1055524E0,5.041882E-2,-4.9597454E-1,1.899897E0,3.3614317E-1,3.4525E-1,-5.438317E-1,-6.716069E-1,-2.183715E-1,-1.8833573E-1,5.050701E-1,-2.980762E-1,9.3911266E-1,-7.781584E-1,-1.20347485E-1,7.027658E-2,6.64731E-1,-1.4910229E-1,4.004614E-1,-4.7174725E-1,7.010548E-1,1.8725996E0,-1.6882813E-1,4.3568587E-1,2.6465757E0],"categories":[],"categories_nodes":[],"categories_segments":[],"categories_sizes":[],"default_left":[1,1,1,1,1,1,1,1,1,1,1,1,1,1,1,1,1,1,1,1,0,1,1,0,1,0,1,1,0,1,1,1,1,1,1,1,1,1,1,1,1,1,1,1,1,1,1,1,0,0,0,1,1,1,1,0,0,0,0,0,0,0,0,0,0,0,0,0,0,0,0,0,0,0,0,0,0,0,0,0,0,0,0,0,0,0,0,0,0,0,0,0,0,0,0,0,0],"id":13,"left_children":[1,3,5,7,9,11,13,15,17,19,21,23,25,27,29,31,33,35,37,39,-1,41,43,-1,45,-1,47,49,-1,51,53,55,57,59,61,63,65,67,69,71,73,75,77,79,81,83,85,87,-1,-1,-1,89,91,93,95,-1,-1,-1,-1,-1,-1,-1,-1,-1,-1,-1,-1,-1,-1,-1,-1,-1,-1,-1,-1,-1,-1,-1,-1,-1,-1,-1,-1,-1,-1,-1,-1,-1,-1,-1,-1,-1,-1,-1,-1,-1,-1],"loss_changes":[4.7646378E1,1.3721649E1,1.4383337E1,7.849987E0,6.1482725E0,8.383517E0,6.5129967E0,2.9407845E0,6.2566385E0,7.1861744E0,3.9447052E0,4.0125184E0,8.969652E0,3.8260937E0,4.3097725E0,1.6448898E0,5.1829596E0,1.365928E1,4.175395E0,2.9777994E0,0E0,5.0480742E0,4.2905335E0,0E0,2.879148E0,0E0,4.4401565E0,4.6409678E-1,0E0,3.4891586E0,4.9369926E0,1.8647814E0,1.2504063E0,1.1772201E0,3.3076591E0,2.627099E0,4.7152276E0,2.8397636E0,4.496944E0,4.781237E0,5.1907825E-1,4.1452417E0,1.0957947E0,7.6831245E-1,6.0638576E0,5.0366764E0,3.4119415E-1,3.278035E0,0E0,0E0,0E0,3.5260334E0,3.0356221E0,8.872894E0,2.020959E0,0E0,0E0,0E0,0E0,0E0,0E0,0E0,0E0,0E0,0E0,0E0,0E0,0E0,0E0,0E0,0E0,0E0,0E0,0E0,0E0,0E0,0E0,0E0,0E0,0E0,0E0,0E0,0E0,0E0,0E0,0E0,0E0,0E0,0E0,0E0,0E0,0E0,0E0,0E0,0E0,0E0,0E0],"parents":[2147483647,0,0,1,1,2,2,3,3,4,4,5,5,6,6,7,7,8,8,9,9,10,10,11,11,12,12,13,13,14,14,15,15,16,16,17,17,18,18,19,19,21,21,22,22,24,24,26,26,27,27,29,29,30,30,31,31,32,32,33,33,34,34,35,35,36,36,37,37,38,38,39,39,40,40,41,41,42,42,43,43,44,44,45,45,46,46,47,47,51,51,52,52,53,53,54,54],"right_children":[2,4,6,8,10,12,14,16,18,20,22,24,26,28,30,32,34,36,38,40,-1,42,44,-1,46,-1,48,50,-1,52,54,56,58,60,62,64,66,68,70,72,74,76,78,80,82,84,86,88,-1,-1,-1,90,92,94,96,-1,-1,-1,-1,-1,-1,-1,-1,-1,-1,-1,-1,-1,-1,-1,-1,-1,-1,-1,-1,-1,-1,-1,-1,-1,-1,-1,-1,-1,-1,-1,-1,-1,-1,-1,-1,-1,-1,-1,-1,-1,-1],"split_conditions":[6.451E1,1.1311823E1,1.0024899E1,5.665962E0,5.7872853E0,7.2729996E1,1.0091951E1,5.2345E1,5E-1,6.228476E0,4.137E1,6.519E1,7.319E1,5E-1,8.2027645E0,5E-1,5.342E1,5.756066E0,5.887897E0,6.041892E0,1.9052949E-2,5.662899E0,5.253414E0,9.545764E-3,9.905441E0,2.2927118E-2,7.887898E0,5.9681826E0,2.0290488E-2,7.8322897E0,5.789899E0,1.0785661E1,6.4556303E0,1.0824871E1,5.5498285E0,5.667E1,5E-1,6.053663E0,5.709876E0,5.537062E0,5.7288184E0,1.3959349E1,5.9687996E0,5E-1,1.394331E1,6.24576E0,7.6100674E0,5.988454E0,-7.856687E-3,4.3447886E-4,7.061114E-3,5.159279E0,1.0616415E1,8.573992E0,8.49859E0,-5.387645E-3,2.3697764E-3,-9.039061E-3,-3.449639E-3,1.1272207E-2,-4.929863E-4,7.5247645E-4,-5.2062343E-3,2.3213506E-3,1.9994168E-2,-4.0225913E-3,1.3122353E-3,-6.656849E-3,-2.1284833E-3,3.3647749E-3,-2.5754692E-3,-2.7506458E-4,1.1055524E-2,5.041882E-4,-4.9597453E-3,1.899897E-2,3.3614316E-3,3.4525E-3,-5.438317E-3,-6.716069E-3,-2.1837149E-3,-1.8833573E-3,5.0507006E-3,-2.9807622E-3,9.391126E-3,-7.7815843E-3,-1.2034748E-3,7.0276577E-4,6.64731E-3,-1.4910229E-3,4.004614E-3,-4.7174725E-3,7.010548E-3,1.8725995E-2,-1.6882813E-3,4.356859E-3,2.6465757E-2],"split_indices":[8,2,2,3,0,8,2,8,5,3,8,8,8,4,1,5,8,3,3,3,0,1,1,0,2,0,0,0,0,1,3,2,0,2,1,8,7,0,0,0,0,2,0,4,2,3,0,0,0,0,0,1,2,1,1,0,0,0,0,0,0,0,0,0,0,0,0,0,0,0,0,0,0,0,0,0,0,0,0,0,0,0,0,0,0,0,0,0,0,0,0,0,0,0,0,0,0],"split_type":[0,0,0,0,0,0,0,0,0,0,0,0,0,0,0,0,0,0,0,0,0,0,0,0,0,0,0,0,0,0,0,0,0,0,0,0,0,0,0,0,0,0,0,0,0,0,0,0,0,0,0,0,0,0,0,0,0,0,0,0,0,0,0,0,0,0,0,0,0,0,0,0,0,0,0,0,0,0,0,0,0,0,0,0,0,0,0,0,0,0,0,0,0,0,0,0,0],"sum_hessian":[8.2286206E2,4.703787E2,3.5248337E2,3.624063E2,1.07972374E2,1.02409256E2,2.500741E2,1.2342791E2,2.389784E2,2.2007685E1,8.596468E1,5.7596733E1,4.481252E1,6.761549E0,2.4331256E2,5.8563004E1,6.486491E1,7.31052E1,1.658732E2,1.9566689E1,2.4409974E0,1.166853E1,7.429616E1,1.5570858E0,5.603965E1,1.1254755E0,4.3687046E1,3.8011236E0,2.9604254E0,2.3269621E2,1.061634E1,2.3492092E1,3.507091E1,2.9215474E0,6.1943363E1,4.432589E0,6.8672615E1,6.2326313E1,1.0354688E2,1.380954E1,5.7571483E0,7.0852895E0,4.583241E0,1.8424196E1,5.587196E1,4.26517E1,1.338795E1,4.032249E1,3.3645535E0,1.8719077E0,1.9292158E0,2.2239804E2,1.029818E1,8.334242E0,2.282098E0,2.0454676E1,3.037417E0,2.8456007E1,6.6149054E0,1.8193191E0,1.1022283E0,1.1071045E1,5.0872314E1,1.4329312E0,2.9996579E0,2.5586628E1,4.3085987E1,3.9239227E1,2.3087086E1,1.3946803E1,8.960008E1,7.2148814E0,6.5946584E0,2.8044636E0,2.9526844E0,2.102815E0,4.982475E0,1.2287866E0,3.3544543E0,1.1024481E1,7.399715E0,3.8293716E1,1.7578245E1,4.0043293E1,2.608406E0,1.211795E1,1.2699994E0,2.6952234E1,1.3370257E1,1.1865151E1,2.1053288E2,8.360358E0,1.937821E0,2.1322503E0,6.201991E0,1.0885669E0,1.1935312E0],"tree_param":{"num_deleted":"0","num_feature":"9","num_nodes":"97","size_leaf_vector":"0"}},{"base_weights":[-1.4536009E-9,-2.065472E-1,2.7417314E-1,-2.9918146E-1,1.0316024E-1,-3.7597947E-2,4.0095523E-1,-5.0294226E-1,-1.9259854E-1,5.5641705E-1,-1.848167E-2,-2.8625023E-1,2.796086E-1,1.2964774E0,3.7070963E-1,-6.670251E-1,-3.4729716E-1,4.8876584E-2,-2.9900923E-1,3.0777913E-1,1.8675023E0,4.930526E-1,-1.0464201E-1,9.4374806E-1,-3.3682942E-1,2.2541215E0,1.7853235E-1,4.5251486E-1,1.9851171E0,1.7929939E0,3.5667396E-1,-4.3062007E-1,-8.0948204E-1,7.7526915E-1,-4.1231394E-1,1.5473994E0,-7.003529E-2,-5.0159746E-1,-1.738076E-1,5.446135E-1,-2.6030546E-1,9.6471983E-1,-2.8464726E-1,-5.0827485E-1,3.4456253E-2,-2.0111124E-1,-7.2674096E-1,2.7513385E-1,-7.8441143E-1,4.3035503E-2,6.985664E-1,2.5983706E-1,5.507276E-1,-5.365072E-1,2.3490556E-1,-9.0301573E-1,-3.430331E-1,1.112253E0,-4.8948433E-2,7.458524E-2,-5.1825553E-1,-1.5375479E-3,1.8929478E0,-4.001165E-1,1.296297E-1,-6.635657E-1,-2.11224E-1,3.3252388E-1,-2.5585535E-1,-2.7135272E-2,1.0860547E0,5.0254487E-2,-4.9421668E-1,1.8640417E0,3.3278295E-1,3.4274295E-1,-5.420099E-1,-6.6973096E-1,-2.1756634E-1,-1.8696062E-1,4.9790904E-1,-2.9624748E-1,9.2666346E-1,-7.7662116E-1,-1.1994039E-1,6.577196E-1,6.744513E-2,-6.930599E-1,2.96947E-1,1.2731261E0,4.0843305E-1],"categories":[],"categories_nodes":[],"categories_segments":[],"categories_sizes":[],"default_left":[1,1,1,1,1,1,1,1,1,1,1,1,1,1,1,1,1,1,1,1,0,1,1,0,1,0,1,1,0,0,1,1,1,1,1,1,1,1,1,1,1,1,1,1,1,1,1,1,0,0,0,1,1,0,0,0,0,0,0,0,0,0,0,0,0,0,0,0,0,0,0,0,0,0,0,0,0,0,0,0,0,0,0,0,0,0,0,0,0,0,0],"id":14,"left_children":[1,3,5,7,9,11,13,15,17,19,21,23,25,27,29,31,33,35,37,39,-1,41,43,-1,45,-1,47,49,-1,-1,51,53,55,57,59,61,63,65,67,69,71,73,75,77,79,81,83,85,-1,-1,-1,87,89,-1,-1,-1,-1,-1,-1,-1,-1,-1,-1,-1,-1,-1,-1,-1,-1,-1,-1,-1,-1,-1,-1,-1,-1,-1,-1,-1,-1,-1,-1,-1,-1,-1,-1,-1,-1,-1,-1],"loss_changes":[4.67116E1,1.3527826E1,1.4023882E1,7.773323E0,6.023244E0,8.233384E0,6.346031E0,2.9309845E0,6.1700706E0,6.9580064E0,3.8838735E0,3.9536767E0,8.76409E0,3.654663E0,4.255455E0,1.645071E0,5.1103444E0,1.3318421E1,4.133955E0,2.9162118E0,0E0,4.936633E0,4.241926E0,0E0,2.8633165E0,0E0,4.3812633E0,4.5508742E-1,0E0,0E0,4.4431267E0,1.845223E0,1.252245E0,1.1489711E0,3.2728014E0,2.943221E0,4.64155E0,2.8244553E0,4.4215755E0,4.63501E0,5.147531E-1,4.00528E0,1.0851896E0,7.623911E-1,5.931362E0,4.9491377E0,3.3971643E-1,3.2481658E0,0E0,0E0,0E0,6.0300837E0,7.7397823E0,0E0,0E0,0E0,0E0,0E0,0E0,0E0,0E0,0E0,0E0,0E0,0E0,0E0,0E0,0E0,0E0,0E0,0E0,0E0,0E0,0E0,0E0,0E0,0E0,0E0,0E0,0E0,0E0,0E0,0E0,0E0,0E0,0E0,0E0,0E0,0E0,0E0,0E0],"parents":[2147483647,0,0,1,1,2,2,3,3,4,4,5,5,6,6,7,7,8,8,9,9,10,10,11,11,12,12,13,13,14,14,15,15,16,16,17,17,18,18,19,19,21,21,22,22,24,24,26,26,27,27,30,30,31,31,32,32,33,33,34,34,35,35,36,36,37,37,38,38,39,39,40,40,41,41,42,42,43,43,44,44,45,45,46,46,47,47,51,51,52,52],"right_children":[2,4,6,8,10,12,14,16,18,20,22,24,26,28,30,32,34,36,38,40,-1,42,44,-1,46,-1,48,50,-1,-1,52,54,56,58,60,62,64,66,68,70,72,74,76,78,80,82,84,86,-1,-1,-1,88,90,-1,-1,-1,-1,-1,-1,-1,-1,-1,-1,-1,-1,-1,-1,-1,-1,-1,-1,-1,-1,-1,-1,-1,-1,-1,-1,-1,-1,-1,-1,-1,-1,-1,-1,-1,-1,-1,-1],"split_conditions":[6.451E1,1.1311823E1,1.0024899E1,5.665962E0,5.7872853E0,7.2729996E1,1.0091951E1,5.2345E1,5E-1,6.228476E0,4.137E1,6.519E1,7.319E1,5E-1,5.368212E0,5E-1,5.342E1,5.756066E0,5.887897E0,6.041892E0,1.8675024E-2,5.662899E0,5.253414E0,9.43748E-3,9.905441E0,2.2541216E-2,7.887898E0,5.9681826E0,1.985117E-2,1.792994E-2,7.559E1,1.0785661E1,6.4556303E0,1.0824871E1,5.5498285E0,5.5654297E0,5E-1,6.053663E0,5.709876E0,5.537062E0,5.7288184E0,1.3959349E1,5.9687996E0,5E-1,1.394331E1,6.24576E0,7.6100674E0,5.749384E0,-7.844114E-3,4.3035502E-4,6.9856634E-3,1.0141977E1,1.0386215E1,-5.365072E-3,2.3490556E-3,-9.030157E-3,-3.430331E-3,1.1122529E-2,-4.8948434E-4,7.4585236E-4,-5.1825554E-3,-1.5375479E-5,1.8929478E-2,-4.001165E-3,1.296297E-3,-6.6356566E-3,-2.11224E-3,3.3252388E-3,-2.5585534E-3,-2.713527E-4,1.08605465E-2,5.0254486E-4,-4.9421666E-3,1.8640416E-2,3.3278295E-3,3.4274294E-3,-5.4200985E-3,-6.6973097E-3,-2.1756634E-3,-1.8696062E-3,4.9790903E-3,-2.9624747E-3,9.2666345E-3,-7.7662114E-3,-1.1994039E-3,6.577196E-3,6.744513E-4,-6.930599E-3,2.9694699E-3,1.2731261E-2,4.0843305E-3],"split_indices":[8,2,2,3,0,8,2,8,5,3,8,8,8,4,3,5,8,3,3,3,0,1,1,0,2,0,0,0,0,0,8,2,0,2,1,0,7,0,0,0,0,2,0,4,2,3,0,3,0,0,0,2,2,0,0,0,0,0,0,0,0,0,0,0,0,0,0,0,0,0,0,0,0,0,0,0,0,0,0,0,0,0,0,0,0,0,0,0,0,0,0],"split_type":[0,0,0,0,0,0,0,0,0,0,0,0,0,0,0,0,0,0,0,0,0,0,0,0,0,0,0,0,0,0,0,0,0,0,0,0,0,0,0,0,0,0,0,0,0,0,0,0,0,0,0,0,0,0,0,0,0,0,0,0,0,0,0,0,0,0,0,0,0,0,0,0,0,0,0,0,0,0,0,0,0,0,0,0,0,0,0,0,0,0,0],"sum_hessian":[8.2286053E2,4.694494E2,3.5341113E2,3.613906E2,1.08058815E2,1.023716E2,2.5103954E2,1.22837036E2,2.3855356E2,2.210773E1,8.595109E1,5.7441708E1,4.4929893E1,6.833906E0,2.4420563E2,5.8198246E1,6.463879E1,7.313372E1,1.6541985E2,1.962142E1,2.4863102E0,1.1709462E1,7.424162E1,1.5713117E0,5.58704E1,1.1506617E0,4.377923E1,3.815245E0,3.0186615E0,1.1478171E0,2.4305782E2,2.3395912E1,3.4802334E1,2.940724E0,6.1698063E1,4.493523E0,6.86402E1,6.2034977E1,1.03384865E2,1.3877295E1,5.7441254E0,7.1391563E0,4.570306E0,1.8347399E1,5.5894226E1,4.2569008E1,1.3301392E1,4.043692E1,3.342311E0,1.8730373E0,1.9422076E0,1.6370468E2,7.9353134E1,2.0351748E1,3.0441642E0,2.8209705E1,6.5926304E0,1.8392683E0,1.1014555E0,1.1078436E1,5.061963E1,1.0011902E0,3.492333E0,2.549257E1,4.3147625E1,3.899733E1,2.3037647E1,1.3991008E1,8.939386E1,7.211747E0,6.665547E0,2.8050559E0,2.9390695E0,2.1416314E0,4.997525E0,1.2329385E0,3.3373675E0,1.0957785E1,7.3896155E0,3.822746E1,1.7666765E1,3.9937313E1,2.6316943E0,1.2032439E1,1.2689526E0,1.3465364E1,2.6971554E1,5.473823E0,1.5823085E2,1.1750627E1,6.760251E1],"tree_param":{"num_deleted":"0","num_feature":"9","num_nodes":"91","size_leaf_vector":"0"}},{"base_weights":[-1.4271798E-10,-2.0496075E-1,2.7081877E-1,-2.9719537E-1,1.02314085E-1,-3.721667E-2,3.9555383E-1,-5.005352E-1,-1.9115002E-1,5.498026E-1,-1.8313782E-2,-2.843261E-1,2.7639627E-1,1.2756191E0,3.6567602E-1,-6.6491854E-1,-3.4503013E-1,-3.009188E-1,4.1141454E-2,3.3995703E-1,2.0900357E0,4.8832917E-1,-1.03985496E-1,9.331384E-1,-3.3482438E-1,2.2163498E0,1.7616001E-1,4.4834033E-1,1.9427035E0,3.3450112E-1,9.6047235E-1,-4.283446E-1,-8.07983E-1,7.667472E-1,-4.0999496E-1,6.765446E-1,-3.208985E-1,3.6917034E-1,-1.1728299E-1,6.313601E-2,7.572876E-1,9.519311E-1,-2.8296372E-1,-5.063556E-1,3.408176E-2,-3.827972E-1,6.2880313E-1,2.716672E-1,-7.831497E-1,4.2653438E-2,6.9119483E-1,3.603578E-1,-2.095277E-1,4.8932403E-1,1.9995921E0,-5.3423727E-1,2.3288223E-1,-9.021162E-1,-3.4109044E-1,1.097602E0,-4.857303E-2,7.396971E-2,-5.158753E-1,1.6776812E0,-5.728211E-1,-3.492458E-1,6.7154247E-1,-1.2538639E-1,1.4129816E0,-1.982465E-1,6.036746E-1,-2.3711456E-1,5.159581E-1,1.5201712E0,-3.3524986E-2,1.8292394E0,3.2952902E-1,3.402932E-1,-5.401811E-1,-6.6784847E-1,-2.167436E-1,-1.8557003E-1,4.909277E-1,-2.5627282E-1,-7.7363855E-1,6.6638164E-2,6.4945215E-1,4.2078125E-1,1.0370606E-1,-4.7152123E-1,6.9060016E-1,1.8306512E0,-1.6982882E-1,4.2558253E-1,2.587641E0],"categories":[],"categories_nodes":[],"categories_segments":[],"categories_sizes":[],"default_left":[1,1,1,1,1,1,1,1,1,1,1,1,1,1,1,1,1,1,1,1,0,1,1,0,1,0,1,1,0,1,1,1,1,1,1,1,1,1,1,1,1,1,1,1,1,1,0,1,0,0,0,1,1,1,1,0,0,0,0,0,0,0,0,0,0,0,0,0,0,0,0,0,0,0,0,0,0,0,0,0,0,0,0,0,0,0,0,0,0,0,0,0,0,0,0],"id":15,"left_children":[1,3,5,7,9,11,13,15,17,19,21,23,25,27,29,31,33,35,37,39,-1,41,43,-1,45,-1,47,49,-1,51,53,55,57,59,61,63,65,67,69,71,73,75,77,79,81,83,-1,85,-1,-1,-1,87,89,91,93,-1,-1,-1,-1,-1,-1,-1,-1,-1,-1,-1,-1,-1,-1,-1,-1,-1,-1,-1,-1,-1,-1,-1,-1,-1,-1,-1,-1,-1,-1,-1,-1,-1,-1,-1,-1,-1,-1,-1,-1],"loss_changes":[4.578562E1,1.3337206E1,1.3667908E1,7.6967793E0,5.9014797E0,8.086467E0,6.18626E0,2.921112E0,6.109767E0,6.7899756E0,3.8242025E0,3.8958879E0,8.563237E0,3.4918451E0,4.242134E0,1.6452045E0,5.0389132E0,3.3908606E0,4.0768957E0,2.4496114E0,0E0,4.8283362E0,4.1941233E0,0E0,2.8618817E0,0E0,4.3237305E0,4.4629467E-1,0E0,3.3865566E0,4.760476E0,1.8258767E0,1.2540722E0,1.1214523E0,3.2384157E0,5.4350457E0,4.7339706E0,1.3350636E1,3.2190943E0,2.037723E0,5.1971216E0,3.8705888E0,1.0747339E0,7.565551E-1,5.8023086E0,2.5034351E0,0E0,3.1749897E0,0E0,0E0,0E0,3.4466782E0,2.993306E0,8.612319E0,1.9836426E0,0E0,0E0,0E0,0E0,0E0,0E0,0E0,0E0,0E0,0E0,0E0,0E0,0E0,0E0,0E0,0E0,0E0,0E0,0E0,0E0,0E0,0E0,0E0,0E0,0E0,0E0,0E0,0E0,0E0,0E0,0E0,0E0,0E0,0E0,0E0,0E0,0E0,0E0,0E0,0E0],"parents":[2147483647,0,0,1,1,2,2,3,3,4,4,5,5,6,6,7,7,8,8,9,9,10,10,11,11,12,12,13,13,14,14,15,15,16,16,17,17,18,18,19,19,21,21,22,22,24,24,26,26,27,27,29,29,30,30,31,31,32,32,33,33,34,34,35,35,36,36,37,37,38,38,39,39,40,40,41,41,42,42,43,43,44,44,45,45,47,47,51,51,52,52,53,53,54,54],"right_children":[2,4,6,8,10,12,14,16,18,20,22,24,26,28,30,32,34,36,38,40,-1,42,44,-1,46,-1,48,50,-1,52,54,56,58,60,62,64,66,68,70,72,74,76,78,80,82,84,-1,86,-1,-1,-1,88,90,92,94,-1,-1,-1,-1,-1,-1,-1,-1,-1,-1,-1,-1,-1,-1,-1,-1,-1,-1,-1,-1,-1,-1,-1,-1,-1,-1,-1,-1,-1,-1,-1,-1,-1,-1,-1,-1,-1,-1,-1,-1],"split_conditions":[6.451E1,1.1311823E1,1.0024899E1,5.665962E0,5.7872853E0,7.2729996E1,1.0091951E1,5.2345E1,5.7905E1,6.2999935E0,4.137E1,6.519E1,7.319E1,5E-1,8.2027645E0,5E-1,5.342E1,8.686777E0,1.0058504E1,5.829E1,2.0900356E-2,5.662899E0,5.253414E0,9.331384E-3,5E-1,2.2163497E-2,7.887898E0,5.9681826E0,1.9427035E-2,7.8322897E0,5.789899E0,1.0785661E1,6.4556303E0,1.0824871E1,5.5498285E0,6.65862E0,6.797659E0,9.467725E0,5E-1,1.3448553E1,1.2588788E1,1.3959349E1,5.9687996E0,5E-1,1.394331E1,9.905441E0,6.288031E-3,5.988454E0,-7.831497E-3,4.2653436E-4,6.9119483E-3,1.1557906E1,1.0616415E1,8.573992E0,8.49859E0,-5.3423727E-3,2.3288222E-3,-9.021162E-3,-3.4109044E-3,1.097602E-2,-4.8573027E-4,7.396971E-4,-5.1587527E-3,1.6776811E-2,-5.728211E-3,-3.4924578E-3,6.7154244E-3,-1.2538638E-3,1.4129816E-2,-1.982465E-3,6.036746E-3,-2.3711456E-3,5.1595806E-3,1.5201711E-2,-3.3524985E-4,1.8292394E-2,3.29529E-3,3.4029318E-3,-5.401811E-3,-6.6784844E-3,-2.167436E-3,-1.8557003E-3,4.909277E-3,-2.5627282E-3,-7.7363853E-3,6.663816E-4,6.494521E-3,4.2078122E-3,